#Parameter# /_2 {370,198} 910783 ZERO_GRAD
0.086275496 0.057773113 0.072956517 -0.019136632 0.05705189 0.023685621 0.116732 0.044068571 -0.038901694 -0.090734012 -0.089614883 0.12055036 -0.09538161 -0.0083517274 -0.066706449 0.082930148 0.021295559 -0.061650459 0.00015909641 -0.085277922 -0.052181933 0.064442575 -0.080924943 0.071006209 0.030034138 -0.092428327 0.077256776 0.072420299 0.12278605 -0.072969891 0.019665508 0.0034708749 -0.09885662 -0.030856075 0.044386804 -0.051744457 -0.0095441546 0.017780127 -0.046668123 0.031973258 0.00962051 -0.008680921 0.041626219 0.092361093 0.062734164 -0.087841198 0.034219444 0.088695526 0.003308147 -0.10638789 -0.0042148335 0.0046949768 0.0033222062 0.11023904 0.032358628 0.077157788 0.037313856 0.058269717 0.0068062744 0.037604637 -0.03393776 -0.019786498 0.092477232 0.02037552 0.024699179 0.024517914 0.0033003273 -0.065850839 -0.051221967 -0.032821041 -0.072550334 -0.018020095 0.10993688 0.09582743 -0.071668312 -0.048250157 0.063744731 0.083570011 0.12369473 -0.018634394 0.011559589 -0.037893061 0.049915098 0.062456485 0.022885904 0.015513877 -0.00806648 0.049896464 -0.068073928 0.085271299 -0.07515841 -0.036031026 0.082779408 0.055588134 0.034237977 -0.067432292 -0.0267512 0.014381645 -0.057075005 0.052852813 -0.10771544 0.069026038 -0.071367748 -0.01287185 -0.07895083 0.051242411 -0.012164935 0.012142578 -0.088932283 -0.026520882 0.11475129 0.074590802 -0.042454299 -0.11667036 -0.049935073 0.072431847 -0.036400087 -0.0039142556 -0.0057598306 0.079966404 0.047577575 0.024365691 0.0049192309 -0.092378192 0.01969628 0.087374948 0.058804967 -0.058522195 0.046240196 0.0048119165 -0.0068858168 0.081559859 -0.036617119 -0.072840013 -0.028715173 0.057820532 0.057157584 0.031825349 -0.093791783 0.076362342 -0.066046216 0.047959913 -0.10484976 0.051576026 -0.013096681 -0.069734596 -0.1133387 0.015715014 0.085930608 0.005476268 -0.058755718 4.6708228e-05 0.016952025 -0.0032750233 -0.0062962594 0.093272284 -0.069020465 0.0086212186 -0.11600085 0.018969158 -0.060567856 0.00025031724 0.054319851 -0.03639755 -0.078573227 0.062043801 0.010373362 -0.040126756 -0.036337331 -0.081981882 0.030945437 0.029968385 0.047952201 0.1021282 0.053139765 0.042684678 0.09056057 -0.11348286 0.080569543 0.033696637 -0.098465391 0.082634091 -0.079155423 -0.041534789 -0.090340994 0.063517399 0.020005777 -0.028974131 0.053004485 0.052002896 -0.066114873 -0.083037846 -0.020678125 0.055396196 0.056626268 -0.060866099 -0.075098887 0.070761912 0.036780201 0.033664759 -0.077902943 0.013873156 0.085607976 -0.022546837 0.054257061 -0.052200332 -0.095969662 -0.025055438 0.034775492 -0.050443161 -0.072209068 0.02324919 -0.0052714087 0.10826603 0.045104321 0.05303935 0.10594463 -0.088103779 -0.046058465 0.02744432 0.076933935 -0.10607087 -0.0030966979 -0.11534767 0.090826251 -0.024988085 0.058875185 0.069324262 -0.039274797 0.031610176 -0.11294075 0.0092769209 0.059988331 -0.01663563 0.097821988 0.04288467 -0.06163704 0.042331208 -0.011392909 -0.094845541 0.033758149 -0.089747719 0.066408992 0.024240091 -0.057469677 -0.078386672 0.06458319 -0.096480511 0.067244448 0.0076479181 -0.1153786 0.00091570232 0.07033965 0.026875062 0.076575145 -0.05628027 0.099167965 0.059606571 0.0051289629 0.016704254 -0.075858369 -0.091840848 0.048369557 -0.042017143 0.092118554 -0.087519974 0.068639785 -0.11814234 0.01615693 -0.062617287 0.087164946 0.027848423 0.034552515 0.017220385 0.00039097058 -0.0052960371 -0.083166607 -0.11970576 -0.0013416186 0.0063036401 -0.090175644 0.051147383 0.024610579 0.026586479 -0.0034093079 0.01399871 -0.0036089774 -0.070465371 -0.060413934 0.037252564 0.046592537 -0.015648739 0.096286975 0.046463098 0.096352391 -0.044254839 -0.03150773 -0.092550583 -0.095123947 0.072205566 -0.07063213 -0.027205737 -0.04160016 0.084550917 -0.044101994 -0.062415663 -0.03374641 0.10229789 0.11361987 0.089796327 -0.074749596 0.020524729 0.093502909 0.023439201 -0.073089123 0.042075105 -0.054335747 -0.1061033 -0.052264206 0.075716242 -0.00081388117 0.11770378 -0.094593607 -0.063037835 0.114827 0.057985421 -0.060014736 0.0024119148 0.1198407 0.024698928 -0.047088981 -0.079101227 0.047563981 -0.02755025 0.11343323 0.040017512 0.012711735 -0.088469729 0.030597778 0.01214601 0.0045778952 0.016045257 0.099681668 -0.057947431 0.030326612 0.05228347 -0.091347158 -0.10794331 -0.058310375 -0.0518036 -0.0050613596 0.058680486 -0.043958671 -0.0065835738 0.010927574 -0.054007053 0.053851079 -0.024726398 -0.051300786 -0.11638114 -0.061803386 0.042336386 -0.073860906 0.093530327 -0.032811366 0.088480435 0.038583957 -0.079009421 0.055285092 0.07655628 -0.046411831 0.082701094 0.044961523 0.020993274 0.0097290631 -0.033573847 0.073508404 0.014756083 0.015101843 0.039553382 0.013268056 0.029235503 -0.050009429 0.024653997 0.029436959 0.091568097 -0.090056896 -0.019272337 0.081354186 0.043398183 -0.031370346 -0.063131198 -0.064982586 -0.07349173 -0.023440326 -0.056398936 -0.010504657 -0.058633495 0.064985007 0.039193172 0.035853297 -0.096225627 -0.043791842 0.035560027 -0.041683536 -0.051189099 -0.071850836 0.014378874 0.075915165 -0.098812662 -0.0908897 -0.10103514 -0.022786627 0.0068051824 -0.06384439 0.063027658 0.09666568 -0.018962577 -0.09966556 0.10109817 0.0019553872 -0.04439646 -0.001089752 0.044752948 0.036066286 -0.02599817 0.083915278 -0.025715204 -0.040964808 -0.050796807 0.094221041 -0.088052228 0.094931968 0.10765962 -0.038495317 0.036683571 0.015623957 -0.053859644 0.025396587 0.047905661 -0.026466962 0.029131692 -0.041083202 0.017847301 -0.074155375 0.041654542 0.088191047 0.050492365 -0.060104012 -0.083186477 0.091090694 -0.039283045 -0.040879108 0.048859514 -0.080529742 -0.041994959 0.0039345273 0.086835861 0.060117655 -0.030007914 0.087246276 -0.019609779 -0.026782071 0.074315324 -0.052596543 0.086244352 0.042361822 0.031940188 0.067136832 0.098495811 0.022365689 0.061616216 -0.081384048 0.07085 -0.085120253 -0.0026920545 0.070732035 -0.07015799 -0.056631796 0.077703051 0.028323572 0.077335931 -0.030800838 -0.047811698 -0.044091225 0.096451953 -0.075559013 -0.079630502 -0.010176027 -0.039720759 -0.054142367 -0.023395987 -0.080086172 -0.0034323595 -0.029186515 0.062548093 0.013081933 0.063347794 -0.028727256 -0.01430751 -0.0092476681 0.011635063 -0.042361237 0.096145414 0.044356987 0.026287805 -0.017821765 -0.0025904011 0.10005602 -0.051497281 0.089478321 -0.084481545 0.042943977 -0.022259809 -0.00023845094 -0.01929755 0.0016016263 -0.085159346 0.088378653 -0.023499485 -0.040070698 -0.095117368 0.024903378 0.1000505 -0.021846939 -0.093398944 0.10281281 0.085182831 0.009476616 0.082302019 -0.077907652 0.0052829534 -0.059344467 0.10922337 -0.075420313 0.068459615 -0.028915871 -0.041949313 0.030763498 -0.04673402 0.01637104 0.065974668 -0.041560732 -0.028982591 -0.024367228 -0.076831676 -0.094244726 0.041696474 -0.0011402123 0.053046878 -0.091429636 0.098070182 -0.050866369 0.058667902 -0.076319903 0.093642227 0.071560152 0.035014149 -0.094054826 -0.089047119 -0.010294932 -0.099039741 -0.0022886216 0.08725325 -0.039702266 -0.0037106925 -0.097021528 0.053483378 0.073271766 0.052745789 0.077502012 0.022029452 -0.033932287 -0.054042358 0.035148818 0.0601696 -0.051041637 0.068608992 0.0088281073 -0.063366987 0.021080894 -0.050125122 -0.038393583 -0.018270526 -0.037790313 -0.07857962 -0.056918453 0.022680301 0.026219675 0.062359594 0.061629165 -0.014149115 0.091807827 0.06818527 0.088216327 0.006314401 -0.10630359 -0.019435436 0.018884692 -0.0023407023 -0.044142656 -0.015248504 0.093997248 -0.0011815213 0.02697086 0.056133028 0.041506816 0.080922589 -0.030706657 -0.088536076 -0.0222337 -0.070705995 -0.071387514 0.094228759 0.0127469 -0.10229746 -0.039171014 0.074317046 0.056997985 0.085165001 0.032525994 -0.033396896 0.045967951 -0.081499964 -0.098063983 0.018005798 -0.051881414 0.027468005 0.048618611 0.092203766 0.044221196 -0.071672305 -0.054239355 -0.097186491 -0.084035486 0.062573746 -0.07335379 -0.062569559 0.060857233 0.066278093 0.014567396 0.053094033 0.095320217 -0.066546433 0.052114539 -0.011357784 0.052249935 -0.061409999 0.07800176 0.030770019 0.048796088 0.0013131616 0.023372101 0.038735516 0.088029295 -0.031672552 -0.066390648 -0.036304299 -0.076634757 -0.017549178 0.024222802 -0.0033486472 0.094490759 0.032863136 -0.011725812 0.027485117 -0.064974234 -0.082034275 -0.0049334639 0.10151812 0.007607264 -0.058731221 0.095750794 -0.018953331 0.069263108 -0.0095244497 0.059457 0.090031132 -0.039014705 0.035042353 0.10010986 0.081779741 0.075920969 0.054319631 0.087049045 -0.081440315 -0.0065749981 0.042318083 0.012258596 -0.09497565 0.019384149 0.035130709 -0.042848423 -0.047331136 -0.046915852 0.014686967 0.05575496 0.060342483 -0.070955567 -0.0095216231 0.0257401 0.026190706 0.0099512627 -0.062465113 0.073462971 0.066449381 -0.017110351 -0.0037576444 -0.073695101 0.0032217563 -0.07966309 0.10050267 0.06441094 0.0094596725 0.025040267 -0.057746641 0.063462012 -0.066624112 0.063671745 -0.015661314 0.029230557 0.034638569 -0.091876097 0.034378279 -0.049342699 -0.024111837 -0.061048862 0.099050537 0.049780473 -0.088133864 -0.050008275 -0.068130337 0.087312266 0.073638 -0.058669381 -0.075218067 -0.045065399 -0.090353519 0.040354311 0.010205023 0.047745418 -0.010094658 -0.082430758 0.025109854 0.043400843 -0.0210835 0.022810431 -0.092391595 0.097571172 -0.028658831 -0.027904335 -0.097366571 0.055327222 0.069594756 0.011350795 0.00030618507 0.023992082 0.072671287 0.034017421 -0.051306646 -0.062916189 -0.046527132 -0.066911481 0.036933038 -0.081870124 -0.031534526 -0.0049815872 0.1036097 -0.061698679 -0.0065267477 0.018750943 0.025413183 0.010968864 -0.0026773126 -0.026587356 -0.032006502 0.0087141553 0.066571929 -0.036718391 0.077658132 0.073077977 0.094231106 -0.060170893 0.089769185 -0.09323813 0.092060871 0.04035775 -0.064601764 -0.067913368 -0.0012464763 -0.038602848 0.023098271 0.039844424 0.08475361 -0.022521446 0.082163423 0.10325561 -0.019887688 -0.029318569 0.087880835 0.086806811 -0.016267046 0.042024404 0.12405932 0.052801557 0.013157363 -0.013308451 -0.016794842 0.065189317 0.047552653 -0.0033461077 0.02439251 -0.022390896 0.06829261 -0.068580739 0.0077324272 0.0053103496 0.075484619 0.0041251727 0.034832254 0.058042672 0.059680708 0.032545708 0.050874934 -0.025081463 0.063572474 0.11424614 0.062995419 -0.06331683 -0.11380553 0.057206608 -0.082127213 -0.03107651 0.03575534 -0.078902788 -0.010528172 -0.067256674 0.012479963 0.01514745 -0.038064875 0.08722131 0.088027716 0.015389458 0.0079552941 -0.084858172 0.050782241 0.096119076 -0.0064160097 -0.10269736 0.069580197 -0.009253121 -0.081531398 0.036362268 0.05360679 -0.059883296 0.059195295 -0.017348032 -0.032496542 -0.053138591 -0.084058568 -0.008241782 0.092717364 0.026126478 -0.054474991 -0.029208826 -0.049226042 0.0070058815 -0.072255135 0.069052048 -0.045842502 0.016601456 0.096477054 0.092509165 0.097661518 0.047325276 -0.078160994 0.021249961 0.040269602 -0.055119026 0.074024096 0.070440568 -0.04306988 -0.076862954 -0.024946529 0.013149177 0.099916518 -0.0075734458 0.0064716758 -0.053048987 0.046395518 -0.065823846 0.105309 0.017904559 0.011561041 0.10793155 -0.065209314 0.033868153 -0.051102437 -0.016229307 0.083066933 0.027923111 -0.04662231 0.092436761 0.013220903 0.06773486 0.02908103 0.024581941 0.073573999 0.076052755 -0.089925133 0.074221857 -0.089889817 -0.081494391 -0.10793911 -0.00084941695 -0.069842912 -0.014076736 -0.057145376 0.082970977 -0.0061001903 -0.034671161 0.05221818 0.1123642 0.002794737 -0.055148877 -0.071308628 0.0085416092 0.038007174 0.077930987 -0.078650229 -0.017855585 -0.11821574 -0.037725415 -0.043795139 0.0021117788 -0.076718964 -0.078851074 0.11354261 0.014246807 0.0053734211 -0.052779205 0.0067089694 -0.033204906 -0.058572408 0.0049007959 0.019646659 0.079686031 0.085108183 0.002391631 0.0063810623 -0.0080588367 -0.070060819 -0.058323834 -0.080513977 -0.0662027 0.03688113 -0.089899629 0.062167875 -0.038565516 0.031510707 -0.02049521 -0.075504594 -0.091629945 -0.022910159 -0.048539121 -0.0099032326 -0.037073366 0.085223995 0.010352264 -0.0097015724 0.11202355 0.026532875 -0.066862956 0.046431422 -0.078092366 0.062218599 -0.073236488 -0.01424947 0.070997506 -0.069801338 0.025970606 0.072019085 0.069064483 -0.014133906 0.082104236 -0.087101631 -0.054614253 -0.052401047 0.062854834 -0.11650167 0.054829437 -0.1058029 0.061602566 -0.083872691 0.072088309 -0.03910432 -0.073034897 0.05259496 -0.045392107 -0.063592441 0.060653761 -0.032227989 -0.074238345 -0.063313574 -0.074043691 -0.032542963 -0.036636151 -0.041225228 -0.10718775 0.0038362911 -0.099575624 -0.0096983472 0.011967317 -0.059352089 -0.036615022 0.084543653 -0.03113253 -0.015472536 0.052530553 -0.038580105 0.089367643 0.019358255 0.058294855 -0.027210645 0.097462863 -0.0043113204 0.041964237 -0.089078777 -0.057033978 0.046938196 -0.015093832 0.09859293 -0.07742317 -0.0080135288 -0.062463205 -0.08099141 0.09526024 -0.058119062 -0.048854623 0.049519051 0.010396591 -0.046474185 -0.020719003 0.10149678 0.010287436 -0.031871613 -0.019016497 -0.11557146 -0.051773269 -0.099974252 -0.046711318 0.068177387 0.00033820234 0.054634701 0.018700127 0.021472145 -0.073666118 -0.041642439 0.0021648919 0.079578683 0.03169461 -0.052790634 0.094346926 0.1122475 -0.028114781 -0.11218629 -0.026397282 -0.012586287 -0.02824503 -0.00013146046 0.013189894 -0.014546753 -0.067800641 0.024242127 -0.091008879 -0.023454754 0.053622819 -0.0056747939 -0.036804117 0.064121008 0.074269339 0.079067878 0.073031746 -0.042061374 0.10760362 0.018319381 0.097828478 0.061583769 -0.10775557 -0.092817865 0.036498386 -0.099583283 0.081404023 -0.05119703 -0.034241088 0.069415562 -0.065083183 0.068676762 0.027401399 -0.072216295 0.11620409 -0.064760387 0.1040842 -0.072534077 -0.0088333786 -0.048887748 0.11179291 -0.050642181 0.088551551 0.00064765778 -0.010508244 0.092133656 -0.068374604 0.070243195 -0.053068377 0.099858269 -0.076322444 -0.070575297 0.0023340541 0.045128554 -0.06047089 0.050019328 0.028995821 0.031944972 -0.0968391 -0.080196589 -0.018725945 -0.078337722 -0.11157479 0.09126725 -0.068237856 0.034671351 0.046089407 -0.023113934 -0.024755977 -0.018600408 0.014347374 0.06755814 0.080494918 -0.0068336274 -0.020604584 -0.07620123 -0.10505603 -0.090070352 0.025022099 -0.038379263 -0.0092556383 -0.088798717 0.082363948 -0.079467535 0.026667738 0.067224741 -0.080572993 0.049728274 0.01140091 0.052822329 0.083621062 0.051855367 -0.087729864 0.094968826 0.087271623 -0.056663252 -0.0054834001 0.0040568495 -0.020541526 -0.028862461 0.077392131 -0.084135003 -0.023586225 0.089476034 -0.037846062 0.066178083 0.083864048 0.035781134 -0.059917279 -0.043479901 -0.068008669 0.0751101 0.097169608 -0.11375043 0.061879724 0.001365088 -0.088996999 -0.11393053 0.012620882 -0.053783551 0.046352748 0.046438966 0.051533278 0.086583756 0.056037646 -0.093803309 -0.021231398 0.070439428 0.041106898 0.017383775 0.023418102 -0.05297482 0.055798352 -0.034796588 -0.0083408598 -0.038340572 0.0020077496 -0.087392315 0.029297026 -0.080626011 -0.014759118 -0.082633391 -0.053608909 0.032036394 -0.0056135631 -0.0052745938 -0.041980758 -0.039764583 -0.058355782 0.019477457 0.063979015 0.10105509 0.10796132 -0.080220282 0.077049486 0.008847327 0.038915787 0.11458171 0.053925954 0.056986172 0.032743879 -0.033892825 -0.0067737889 -0.05173808 0.02473901 0.069266461 0.050067078 -0.024925109 -0.0015155391 0.0054545933 -0.0558028 -0.092029169 -0.042955715 0.042839248 0.040865649 0.021527948 -0.10663725 0.1028537 -0.01719789 -0.10422762 -0.064346977 -0.0083073732 0.080195203 -0.011607287 0.062334914 0.014695823 -0.040278368 0.069647066 0.056063883 -0.0048850914 -0.032008871 -0.11734813 0.11776723 0.048350066 0.040021975 -0.09920653 -0.079503208 -0.038102478 0.0034429929 -0.066644035 0.042082358 -0.058135353 -0.046370026 0.0063584908 -0.041289721 -0.11056702 0.0039149686 -0.047693983 0.0019989677 -0.065319426 0.072485566 0.0076265866 -0.016469454 0.095269665 -0.033886228 -0.015462589 -0.00930438 -0.0025476501 0.094165094 0.024257623 -0.030586444 -0.075512141 0.084337533 0.035996679 -0.045985866 0.088586248 -0.050000891 -0.025361521 0.019656766 0.055727143 -0.034468088 0.030490953 -0.062510401 -0.018440112 0.048096426 -0.065335885 -0.1108178 0.09700574 0.074805357 0.017002841 -0.057388566 -0.06008999 -0.0084797218 -0.0085182264 -0.099246465 -0.058541495 0.065296553 -0.063751645 0.054276947 -0.052160144 0.024074471 0.08805009 0.079799481 0.051392358 -0.036772389 0.054878507 -0.092539385 0.037444182 -0.0091958968 -0.082997926 -0.047636248 0.027397308 0.085532524 0.087351829 -0.050294891 0.090538293 -0.022843145 -0.0015034393 0.071670733 -0.059583768 0.01837866 0.027431361 -0.054806527 0.015766563 -0.072555088 0.034120698 -0.074623384 -0.021552706 -0.018231805 -0.064073063 -0.018584711 -0.078467779 -0.071892709 -0.068818614 -0.10862616 -0.11079273 0.029497514 -0.022369498 -0.09133663 -0.067258462 -0.04810603 0.0056692343 -0.0048256638 -0.056971312 0.033732697 -0.029971577 0.087383606 0.093418546 0.04680194 0.10195142 0.034518577 -0.03835988 -0.088777117 0.021018812 -0.060995784 0.040640496 -0.10009281 0.011738957 0.045547184 0.069015391 -0.089879595 0.019921262 -0.019805815 -0.042186935 0.078419372 -0.024692295 0.027761344 0.10265014 0.038960047 -0.10877758 0.0035690726 -0.041218933 -0.082948372 -0.036197066 0.0046747783 0.084816761 -0.015591196 -0.089908823 -0.091210186 -0.050495811 0.012059509 -0.02497308 -0.069687083 -0.085158452 0.024084782 0.069687605 0.023776092 0.037961222 -0.068795115 -0.094809629 0.035755515 0.014701561 0.040187165 0.060945269 -0.099470228 0.052433658 -0.06454777 -0.018897006 -0.087440364 -0.002796256 -0.029325271 0.073204607 -0.032143243 -0.074610591 0.044784952 -0.001528726 0.0072978204 0.0027176414 -0.067340016 -0.0044741891 0.024476754 0.080515161 -0.03533484 -0.080787189 -0.053208414 0.055303209 -0.027859304 0.037771381 -0.10586634 -0.073576599 -0.048991773 0.060190227 -0.0024258774 0.021952765 0.10838708 0.0032788368 -0.084209941 0.10572074 -0.028925033 -0.064079776 -0.021252897 -0.051659122 0.086631291 0.073678881 0.028214794 0.026089517 -0.10214136 0.06610202 -0.027430218 -0.013595887 0.010793431 0.018565187 0.095800385 0.039723713 0.043336723 0.042134538 0.026410127 -0.030295754 -0.044896953 -0.045608021 0.060495894 0.052290533 0.016059602 -0.053208482 -0.02900416 0.050583906 -0.03659863 0.071986459 0.040073253 0.019221693 0.021515636 -0.0039609564 0.10302109 0.096839316 0.012864848 0.0084301932 0.012389611 0.045301974 -0.065380365 -0.013780876 -0.10153586 0.0011476169 0.08897993 -0.047523391 0.071820244 0.032199912 -0.084428802 -0.041496601 -0.097782776 -0.037356578 0.062031034 0.085042223 -0.08634083 -0.033075038 -0.071296372 0.099162512 0.049203645 0.048268143 0.036603823 0.061290137 -0.036114354 -0.02699985 0.081991844 0.10537616 0.050087776 -0.002798446 -0.059053943 -0.0027423091 -0.034277722 0.010770818 0.041648995 0.083905794 -0.010271773 -0.048513185 -0.053877823 -0.075844854 -0.08571931 0.08556927 0.040778749 0.046664074 -0.077710584 -0.069373131 0.10051433 0.043523975 -0.044577915 -0.05837908 -0.01489184 -0.025817564 0.033538859 0.098806188 -0.0090071261 -0.020637974 0.007096604 -0.043115426 -0.0727171 0.0021884793 0.014539171 0.029576104 0.0016021717 0.086843684 0.091992021 -0.069285788 -0.016750963 0.07054878 0.077809066 -0.0023898031 -0.0014198076 0.035432801 -0.055209611 -0.017769029 -0.046264831 0.094903603 0.017217116 0.10287965 -0.020547859 -0.040636785 0.048486378 0.076579012 -0.057665408 0.0089350119 0.018177392 0.011725498 0.05361069 0.071960673 -0.0028301405 0.085306071 -0.047915269 0.029088464 -0.046001509 0.0072918707 -0.056307558 -0.0074443151 -0.012977426 0.015391632 0.023907838 0.012833357 -0.0077672224 0.082295567 -0.045729034 0.02408232 -0.059867576 0.091489621 0.080614455 -0.10655565 -0.080908544 -0.036982499 0.034838345 -0.032546435 0.01360721 -0.037810352 -0.010804145 0.092236072 0.080187313 0.024216345 -0.10818115 -0.034640942 -0.069829524 0.051409472 0.044636145 -0.084290333 0.039125394 -0.018453516 -0.011799844 -0.082033157 -0.021857284 4.704282e-05 -0.027859459 0.028052552 0.032961 -0.020377839 0.0060918853 -0.034605164 0.040543202 -0.094286926 0.091167316 0.072105907 0.10892181 0.077574179 -0.063911296 -0.0092824791 -0.046156999 0.091213539 0.0028544278 0.041129466 0.06364961 -0.050993718 -0.03254813 0.049332533 0.020179132 0.014772599 -0.047936883 0.010133557 0.077245779 0.06049522 -0.017597353 0.070688866 -0.035057366 -0.07912156 0.0088797277 -0.020415809 -0.0059140339 0.0075983317 0.087257333 -0.027350487 0.070405774 -0.070900217 0.030033538 -0.085672028 -0.0012094869 0.036108844 -0.031742688 -0.040794387 0.086280428 0.029876128 -0.0028219095 -0.020813977 -0.061039243 0.013370208 -0.0090426812 -0.039496828 -0.03116606 -0.10220066 0.066573679 -0.072423503 -0.0048277578 -0.068482213 0.01604064 -0.047853909 -0.0053500575 -0.019652462 0.0047128364 -0.0084576197 0.11579661 0.063016303 0.042139266 -0.015511554 -0.093668178 -0.070265815 -0.071205691 -0.010691554 -0.032913353 0.072531812 -0.026660323 0.025388775 -0.027015828 0.071063131 -0.094350524 0.048625082 0.07164523 -0.076416366 0.025239598 0.056867164 0.078739144 0.058131762 -0.02054875 0.029204229 -0.073356956 -0.021335429 0.0051043676 0.016165406 -0.026601894 -0.033394542 -0.037387732 0.053118926 -0.089485519 0.050210755 0.068052515 0.078968287 0.069411136 -0.051652249 -0.087465577 0.014426139 -0.079435088 0.028432528 0.032833487 0.056841858 -0.037842073 0.085657254 0.050176159 -0.0015551234 0.084635742 0.012795107 -0.032905217 0.011870516 0.03931741 -0.055555142 0.086665556 0.03301008 0.012489033 0.10897928 0.064960487 -0.088345818 -0.078954302 -0.083500557 0.10995047 -0.013900062 -0.070828721 0.10470317 0.036255706 -0.091432884 -0.043737695 0.047097102 -0.090691037 -0.11148051 -0.066009663 -0.096495099 0.090492114 0.008978555 0.0034373282 0.025644815 -0.042864755 -0.012349471 -0.025710626 0.091473892 0.10725656 0.020259688 0.038946528 -0.031628422 -0.083514109 -0.092605859 -0.0095556555 0.030970121 0.086832657 0.051437609 0.10751422 -0.065776728 0.00023867417 -0.061792377 -0.054316018 0.015583745 -0.030589372 0.0094744749 0.024151271 -0.020517241 -0.078085259 0.062858358 -0.050810933 0.0075024962 -0.011164918 0.074784376 -0.061616559 0.0028958961 0.022481995 -0.039287601 0.097407565 0.036963861 -0.072535969 0.088529155 0.036789794 0.097018965 -0.013232929 -0.052552283 -0.092023998 0.0047181104 -0.030368386 -0.095640942 -0.056793664 0.097684942 0.080631629 -0.049459774 -0.0011271442 0.095036015 -0.040547386 -0.00053777569 0.02610575 0.036379166 0.021179419 0.10381988 -0.061031047 -0.051419202 -0.094589554 -0.037723832 0.070501834 0.031188007 0.079530515 -0.018240543 -0.011001702 0.048684902 -0.060252264 0.040766232 -0.056257114 -0.082370535 0.006093713 0.032721747 -0.068568893 0.072001636 0.049194079 0.04390711 0.049895536 0.086877905 0.0063881255 -0.083576195 0.050088964 -0.03887308 0.040394146 0.067631528 -0.088325426 0.08789935 0.10438701 -0.064117365 -0.092642456 -0.048357639 0.10646871 0.089182012 0.052908335 0.09560819 0.094245963 -0.071140766 -0.056951523 0.031203391 -0.034398209 0.044170365 -0.10729452 0.068315662 0.047311444 0.046783261 0.071791098 -0.068474643 0.058154717 -0.062873162 0.041198887 -0.077835374 0.077205934 -0.088801563 0.093330443 -0.06273815 -0.035978273 0.090569831 0.087930039 -0.094441861 0.062943704 -0.077874675 -0.085952632 0.032050785 0.029637137 -0.038504563 -0.044570152 0.041479949 0.050617676 0.043902941 -0.036478568 0.048628867 0.07063859 0.032764133 0.055356678 0.10211214 0.0968915 0.10339908 -0.042058963 0.08520858 -0.081136532 -0.090238489 -0.030906172 0.038473662 -0.0070520556 0.10601791 -0.067139663 -0.054147724 0.048207328 -0.094175383 -0.0034180533 0.037165325 -0.036881052 -0.057051502 -0.10178906 0.047018606 -0.035697229 -0.092599139 0.10190266 -0.0098443199 -0.023440354 -0.0086863767 0.00054654817 0.016505193 0.062886298 0.061218452 0.0082124928 0.071116067 -0.061473008 -0.065427497 -0.043660928 0.018410007 0.027505986 -0.049482428 -0.070872001 -0.0049176007 -0.043447968 -0.029708173 0.046838909 0.10147815 -0.0037054534 -0.047418617 0.0045469673 0.083769269 -0.029284496 -0.088355154 0.087467209 0.091495909 -0.072398208 -0.080229208 -0.019621713 0.049701344 0.010454437 0.093063809 -0.0031321929 -0.058554545 -0.026981467 -0.05219771 -0.014733661 0.062465936 -0.046642348 0.0092987064 0.065086164 0.085013293 -0.01803777 0.029036025 -0.027328273 -0.022230443 0.06489227 -0.038328517 -0.074973166 0.0094025098 0.082157806 -0.070651643 0.10459339 -0.015524856 -0.089799397 -0.04288752 -0.0036007743 -0.018481396 0.0087202759 -0.0455807 0.05255869 -0.024223376 0.019207094 0.049673278 0.046762794 -0.018046837 0.080334753 -0.085585363 0.090026818 0.047692288 -0.084588185 -0.025007157 0.057605326 -0.076842986 0.061795086 0.036149435 0.075345911 0.045940425 0.038890485 0.10054784 0.090409018 0.028987676 -0.047993015 -0.010540362 0.0049919342 -0.0077613327 0.053832989 0.031638436 -0.058178708 -0.041687172 0.053961113 0.011988074 0.018327687 -0.043381348 0.031565502 0.099315926 0.030779971 0.047575396 0.056976832 -0.0047571287 0.06523712 -0.033569001 0.015542395 -0.036068171 -0.091671467 0.07795608 0.038363587 0.095275946 0.10159495 -0.025451461 -0.027112398 -0.050232463 0.0081642307 -0.089310884 -0.065347701 0.077914469 0.026758818 0.087866515 0.062220741 0.013768746 0.068398267 -0.056759223 0.033024933 0.06964799 -0.024070082 -0.0026316198 0.034634598 0.10479588 0.022063393 0.046856407 -0.059071034 -0.0197834 0.086358018 0.014176071 0.095170639 -0.00056264363 -0.017498653 0.090064049 -0.062753282 0.043426991 0.046807848 0.050449058 0.08156269 -0.052145194 -0.021600204 0.085943282 -0.041752648 0.013546418 0.08373642 -0.033298481 -0.08750432 0.085113466 -0.098866723 0.058893677 -0.090710074 0.057345096 -0.0014975647 -0.0072756112 -0.040574413 0.0073333667 -0.031465661 3.077534e-05 -0.042556196 -0.092217468 0.037016083 0.022213774 0.029387338 0.077263422 0.039551299 -0.0039857584 -0.040333148 0.079034723 -0.020553771 0.015590792 0.054981396 0.030995838 -0.088329069 0.049641617 0.065633923 -0.039817087 -0.05962944 -0.015795121 0.02968836 -0.03749153 -0.084724985 0.084787786 0.029076695 0.0072828205 0.0050063985 0.019448157 0.081232414 -0.019717846 0.026929488 0.049267169 -0.015356941 -0.050793786 0.030944807 -0.049772121 -0.10589767 0.097509518 -0.046860747 0.0068456028 -0.089560613 -0.086431764 -0.014167411 0.041266687 -0.079914942 0.093532696 -0.042933911 0.051697597 -0.061315712 0.042944901 -0.10167751 0.084357597 0.10211638 -0.015019122 0.0096433954 -0.047741305 0.10166304 0.063472472 -0.01345132 0.079144031 0.065612309 -0.015102654 -0.015943818 -0.030049505 0.051899198 -0.060357373 -0.012532773 -0.052737113 -0.089201503 -0.055340771 0.060259346 -0.018031808 0.0026096215 0.083131075 -0.062017906 0.015424285 0.033316996 -0.075175032 -0.0037634596 0.093272164 -0.047718417 -0.089971446 0.015368891 -0.051864237 -0.015641298 0.042141497 -0.076213233 -0.07547193 0.00041703094 0.0576557 0.09186817 0.022526652 0.087270282 0.08189448 -0.034172259 0.09061417 0.10596211 0.088920757 -0.081298225 -0.004879551 -0.062768385 -0.060783371 -0.070475668 -0.054020863 0.082255274 0.083170481 -0.07678245 0.024456896 -0.051102951 0.044506326 0.070728496 0.077243917 -0.086655125 -0.090272106 -0.087068506 -0.075767532 0.096077994 0.078440763 0.017118646 -0.073931433 0.039352495 -0.052386533 -0.038561389 0.0092022615 0.059595626 0.027017191 0.047082774 -0.088350557 0.08564841 -0.061768588 -0.061581191 0.089959979 0.05328035 0.03156957 -0.024788998 0.056713905 0.02494587 -0.081718683 -0.016300416 0.071311593 0.00081012642 0.048071545 0.084398024 -0.1044392 -0.043027993 0.066844694 -0.042722229 0.044664927 -0.029779993 0.018931555 -0.08362928 -0.046392418 0.060838826 0.098898843 -0.017981555 -0.013254888 -0.020857111 0.035261337 -0.10537796 0.035977963 -0.093317218 0.072328769 -0.075902276 0.044464454 0.048833806 0.06650161 0.084699519 0.052640524 0.066817291 0.035042103 -0.032675415 -0.00051775877 0.060041431 -0.0040239748 -0.057101261 0.06734959 0.088036336 0.060635526 -0.083297499 0.0017271003 -0.080062725 -0.099370852 0.037359536 0.00090972288 -0.049650598 0.099402688 -0.072845951 -0.10303278 0.023724064 0.021855706 0.035036474 0.049891625 -0.018411757 0.0073207482 0.098476596 -0.02016082 -0.060979672 -0.086979605 -0.05341661 -0.022187814 -0.072722256 0.068872929 0.06192724 0.072332747 0.0040571797 0.0041370611 -0.038164534 0.077075109 -0.01003511 0.0031121569 -0.031385981 0.099502444 0.023236943 -0.025547244 0.044653304 -0.039510388 -0.032655418 0.062821709 0.091691762 0.092315666 0.091662005 0.0090912934 -0.065766275 0.011957636 0.060687833 0.031866372 0.010773767 0.0084259761 -0.071354173 0.049584612 -0.053294346 0.00079879502 0.078154348 0.045502488 -0.057732765 -0.065892465 -0.028023962 -0.0064443983 0.062323026 0.054489631 -0.022077261 0.10357757 0.071600802 0.054043107 -0.078807078 -0.10162619 -0.03891797 0.067779966 0.06808874 -0.095686972 0.0082673933 -0.02716741 0.0014184128 -0.081010796 0.09677352 0.014828733 0.10206339 -0.077903286 0.097360112 -0.038410619 -0.046043374 0.033521637 -0.0060530137 0.054449089 -0.073396489 -0.062530078 0.058701329 0.028990908 0.031430352 -0.038442262 -0.052192792 0.096813247 0.049182173 0.017740492 0.019124979 0.041400582 -0.0076620122 -0.092384525 0.091804981 -0.10318726 0.073527247 -0.074090287 0.054871392 -0.049280111 -0.060712114 0.066024438 -0.092303112 0.092392147 0.017553996 -0.047386017 0.003956785 0.053118147 -0.046582382 0.056792155 -0.030652646 0.0097981067 -0.049025171 -0.0069908039 -0.091575958 -0.026216472 -0.072424151 -0.094312601 -0.022086591 0.034994788 -0.028113343 0.018456245 -0.096703708 0.081843399 -0.039374229 0.095316172 -0.036101755 0.050123613 -0.037261158 0.072351769 -0.0079597617 -0.062317625 0.013743611 -0.10247572 -0.011653508 -0.040258247 0.089340024 0.038008913 0.099036396 0.045272335 0.075552784 -0.016261144 -0.014312419 0.085335642 0.044100493 0.031812344 -0.0032114722 -0.077096947 0.010174824 -0.072440512 -0.023140855 0.090027563 -0.018503245 0.022546809 0.094890535 0.024878008 0.076186746 0.09095791 0.04106747 -0.033625469 0.020908892 0.027276019 0.092729084 -0.0066168206 -0.054604247 -0.010014074 0.03528998 -0.014182691 0.096041031 -0.082164869 -0.053188622 0.071203694 0.059406284 0.0068902611 0.046681151 -0.052270986 0.070354588 0.018959291 -0.021570345 -0.094274357 0.01408611 0.067339212 -0.070282824 -0.10227292 0.0391609 0.027917638 0.0033959611 0.095385373 0.004964387 -0.05585137 0.092689298 -0.041571941 -0.088394061 -0.1081989 0.048707213 -0.053002544 0.058711395 -0.021437028 0.059884459 0.0086596319 0.033028506 -0.005791124 -0.0098278243 -0.011838011 0.029961558 0.093755253 0.092134289 -0.020573327 0.10286609 -0.063581705 -0.088988684 0.046511114 -0.026902344 -0.033136278 -0.014482884 -0.038817719 0.10508402 -0.085381545 0.020249268 0.073701449 0.02275716 0.04190309 -0.013039191 -0.031988073 0.024183944 0.093921706 -0.025827205 0.038711149 -0.02700901 0.022312995 0.042262003 0.079017662 -0.081512816 -0.017316971 0.0095969895 0.02404188 0.0068800948 0.036968626 0.068616211 0.032185514 -0.039692428 -0.096530341 -0.10155103 -0.05023206 -0.043847587 -0.076479375 -0.085101083 -0.0012835518 0.069430918 0.10373572 0.0057628611 -0.045998275 -0.0033775307 -0.022352843 -0.093809009 0.012837555 0.005461975 0.048598025 0.0059654224 -0.026645655 -0.10156716 -0.077022567 -0.06171447 -0.052939616 -0.062180772 -0.024126356 -0.0073132711 0.039142445 -0.0739315 0.11056023 -0.066655517 -0.087714843 -0.00011433441 0.09334226 0.050239008 0.079642728 -0.01489141 -0.10134955 0.03926016 -0.064665414 -0.09610337 0.043122459 0.085524946 0.052235119 -0.085326955 0.020043952 0.099192224 -0.071989059 0.043971386 0.085944906 0.058877438 0.069689564 0.099250048 -0.050296124 -0.059524417 0.0070419069 -0.016710237 0.065569296 0.073778197 0.0070182383 -0.0534405 0.012838264 0.00053399545 -0.022438437 0.073142596 -0.094569616 -0.096897304 -0.045511 -0.053310994 0.028671874 -0.043038104 -0.067625217 0.078783736 -0.0056047961 -0.034063615 -0.094141737 -0.035801817 -0.043172736 -0.020081338 0.073950492 -0.014857365 0.0011722866 0.015069333 0.020160649 -0.046122428 -0.10126279 0.015569803 0.00066112482 0.07740441 0.10431577 0.019111782 -0.0643593 -0.067512229 0.091461979 -0.042661339 0.051694103 -0.038380601 -0.037431747 0.037668794 -0.074388452 -0.075481378 0.02207678 -0.03597337 -0.019116292 -0.097155705 -0.037565432 -0.060102906 0.029431211 -0.067154333 -0.073957391 -0.0032183942 -0.028219707 -0.013398468 -0.064677544 -0.10523179 -0.025820281 -0.031382103 -0.014422869 0.086484805 -0.017815704 -0.0085816225 0.012925656 -0.025424048 0.083776221 -0.089693546 -0.0011487497 0.065601692 -0.00042377837 0.035057425 -0.074537799 0.055932503 -0.045120101 0.062194187 -0.086649187 -0.042478997 -0.015918767 0.10768311 0.043083403 -0.048036285 0.0015552808 0.020097766 -0.056575883 -0.0079821125 0.071468443 -0.097760402 -0.12052913 0.0013837713 0.060961269 -0.022919428 0.080566294 0.085941456 -0.11709171 0.02184929 0.043447521 -0.032360896 0.054282356 0.10190076 0.011365946 0.0053300285 -0.079094335 0.039930642 -0.030184209 -0.029802382 -0.096506305 -0.06172812 0.091169618 0.046778932 -0.034582131 0.10553863 -0.085256696 0.099084765 -0.0040112981 -0.022083424 -0.0033698701 0.07607124 -0.053072196 -0.081746362 -0.046961509 -0.11145762 -0.0055681183 0.075823806 0.040504493 0.074671291 0.10852157 -0.070561089 0.09229169 -0.012278848 -0.0065346886 0.10242679 0.0049386071 -0.026102332 -0.013087869 0.0087063406 0.034986448 -0.076421149 -0.021132473 -0.097167149 0.073645204 -0.089208215 0.014268492 0.072476417 0.098794602 0.055250205 0.054770831 -0.032963347 -0.028472895 -0.033707794 0.093255639 -0.032513089 -0.018589094 -0.031365797 0.015792357 -0.058953296 -0.096972756 0.033693161 0.069630168 0.042709008 0.083478592 -0.10405573 0.047384851 -0.036699932 0.02068636 -0.044734988 -0.089273736 0.051373038 0.10139342 -0.063551173 0.10959068 0.017241893 0.07399565 0.0015925802 0.0057710852 0.018264277 -0.058937248 -0.00078396837 0.060307004 0.071843505 -0.063238546 0.010811991 -0.0063750227 0.080662519 0.015568199 0.04567958 0.033848494 0.080574535 0.047394957 0.025483219 -0.11492169 -0.058146052 -0.051913742 0.10840243 -0.03172173 -0.11078577 0.074040018 -0.0054500652 -0.011422429 0.082307093 0.057814252 0.072450966 -0.048806734 0.048829366 0.078059778 0.077839404 0.099592708 -0.040203076 0.080043346 0.065567322 0.066832207 0.070870794 -0.0062487135 0.050300263 -0.088869467 0.049579062 0.081225574 0.0023210847 -0.028130429 -0.077196851 -0.0063370243 0.0036458592 -0.027330333 0.046958469 0.0023752383 0.055014014 -0.045350522 -0.046259534 0.063024282 0.040013608 -0.011294289 0.066590287 -0.054552346 0.055552498 0.020389136 0.10586134 -0.017518474 0.037884377 0.12019951 0.079990737 0.021546584 -0.0756419 -0.063700847 -0.042617772 0.0064386092 -0.054113362 -0.099803992 0.020164665 -0.031673197 0.062903173 0.11221492 -0.011120672 0.072947368 0.022998793 0.11926333 -0.0278868 0.12531601 -0.08874201 0.0616077 -0.010529478 0.015010908 -0.082392722 -0.10055558 0.019396018 -0.0031858743 -0.117242 -0.070898011 -0.11201578 0.10284189 -0.0023327335 0.051848907 -0.071349844 -0.080601431 -0.015178399 -0.08028014 0.064457513 0.061887275 -0.090189919 -0.070664808 -0.0083798682 -0.015598808 -0.05621158 -0.015556464 0.10846998 0.035414729 0.007791175 0.07411781 0.082558848 0.04963889 0.049192246 -0.065911122 -0.018292369 -0.070079461 0.062862158 0.067601435 0.029328596 0.03743064 -0.061698854 -0.042348709 0.0051750937 -0.058690783 -0.0023714239 -0.10022165 -0.12570457 0.0042356844 0.010300231 0.019360919 -0.033330485 0.0085811298 0.061330181 0.031293038 0.0054264311 0.026540659 0.020047627 0.036494058 0.076293156 0.012067473 0.10059904 0.00085515971 -0.067989834 -0.084129483 0.017218526 0.048843097 0.037885457 -0.026289444 -0.032102711 0.073928066 0.054348372 0.0092276325 -0.033096928 -0.071415275 -0.088208877 0.033245713 -0.040303946 0.039267987 -0.05163113 -0.050236639 -0.0090690199 -0.068309478 0.02656777 -0.03060233 -0.054365508 -0.019756544 -0.038657527 -0.010819947 0.10967235 -0.017342987 -0.0055928468 -0.10241781 0.10136172 0.0053208424 -0.050542183 0.11148144 -0.054510046 -0.083935 0.10804726 0.1033925 0.046803985 -0.072069488 -0.069977768 0.073875211 -0.061285716 -0.043099429 -0.031737369 -0.07192035 -0.001312262 0.053321481 0.021417564 -0.064333327 -0.0026459629 0.071641095 -0.062861584 -0.09439458 -0.052963149 0.10650407 0.0075422563 -0.037636194 0.051293492 0.10388339 -0.043268483 -0.025083264 -0.072793394 -0.066663899 -0.065830223 0.077720016 0.095391527 0.11341951 0.01628444 -0.0039252439 -0.061415918 -0.02272911 0.028190894 -0.07923837 0.083955348 -0.050848424 0.040269047 -0.01494664 -0.059675399 -0.073241256 -0.018079396 -0.067506477 0.020288451 -0.037026286 0.048453804 -0.093028821 -0.018269882 -0.041935328 0.05396688 0.078998454 -0.055436935 -0.015032115 0.024683995 -0.0665126 0.078263983 0.061479315 0.012105965 0.016940506 -0.051316075 -0.09117882 -0.028216241 0.092949249 -0.049709905 0.025553167 -0.0070498222 0.049620248 -0.10281184 -0.10230288 0.094810553 -0.028582944 -0.086876899 0.058103438 -0.017106256 -0.089989066 0.05221067 0.019826451 -0.065023668 0.040119618 -0.024561485 -0.050391797 0.021049622 -0.002541766 0.1033239 -0.070644684 0.025419155 -0.011918862 0.057292454 0.073388122 -0.060758468 0.095181428 -0.058010638 0.036033381 -0.027284177 0.072569117 -0.015575603 0.072181225 -0.023332817 0.074729443 0.026424529 -0.041834403 0.0037609362 -0.03765833 -0.025685873 -0.071973592 -0.049658962 0.076943785 -0.073414065 -0.028821466 -0.1002956 0.056556251 0.039314002 -0.061945237 0.098738715 0.027735783 -0.034351487 -0.060221486 -0.046099823 0.043622341 -0.069689743 -0.034905724 -0.10783532 0.11596441 0.048641484 0.089605205 0.008505824 0.0074551813 0.024137639 -0.017485797 -0.033197455 -0.0026475179 0.041305102 -0.00095638086 0.077048093 -0.065201059 -0.10714521 0.045804147 0.093553178 0.076829009 0.021749202 -0.091714144 -0.0066844951 -0.011105758 0.021156926 0.052910361 0.10468992 0.08867126 0.053944081 -0.045888025 -0.040726032 0.081650682 0.05347202 0.065887697 0.071082585 0.066026382 -0.03162995 -0.070185944 0.062480908 -0.00087419793 0.074283801 0.013478029 0.069181003 0.01702317 -0.038713213 0.052897923 0.018138688 -0.069641396 -0.075785957 0.08774174 0.05271263 0.072203681 -0.097522356 -0.026010191 -0.025532935 0.052729405 0.04571813 -0.097778998 0.095502153 0.021839386 -0.080712117 0.01488267 0.050518166 -0.0874651 0.0090012271 0.072063901 -0.065461673 -0.012463625 -0.039422683 0.071638018 -0.07035692 0.007366559 -0.0089703547 -0.089275941 -0.02902898 0.075928196 0.078850418 -0.043408994 -0.076173998 0.098578483 0.072850779 -0.048355587 -0.062734336 0.0045566093 -0.10040055 -0.045589849 0.088443674 0.031369328 0.024152124 0.022979025 -0.05614911 -0.049266089 -0.069402762 -0.088412777 -0.014672742 0.007605603 -0.03965047 0.033837859 -0.053256456 -0.080905512 0.087244771 -0.018997323 -0.10543885 0.0092173461 0.069408655 0.021955932 -0.0068024015 -0.03624519 -0.061294425 0.065932542 0.049655173 0.084086001 -0.034399517 -0.060828209 -0.0080440855 0.055636935 -0.056012817 0.085725151 0.052684668 -0.082729667 0.097170174 -0.09615615 -0.059179492 -0.089424394 -0.065954842 -0.0056110332 0.051476903 -0.041629311 0.067049958 -0.065397225 0.07754159 -0.098591991 -0.097266674 0.038007628 -0.0203819 0.087933809 0.0033265357 0.059961241 0.065198392 -0.052933678 0.05520197 -0.021015335 -0.092371501 -0.094690509 -0.060493931 -0.036194094 0.086466342 -0.00083737547 -0.10698397 0.029965864 0.021453394 -0.026880706 0.083614483 -0.037756439 0.080308937 -0.05847393 0.070904724 -0.00499509 0.047668889 0.073089659 -0.037870094 0.023107518 -0.04412809 -0.077380642 0.0625192 -0.07702449 0.0070407861 0.0089138942 -0.040248081 -0.085877709 -0.08187037 0.045540303 0.060230456 0.019259846 -0.073591881 0.039787713 0.046171505 -0.079877913 -0.02513458 -0.042145941 0.059157033 0.075931571 0.050652657 0.044393376 0.087839313 0.0089052897 0.02447422 0.020224929 0.035734657 -0.0018810506 -0.032754302 0.082418285 -0.017204529 0.047323782 -0.068141736 -0.07768698 0.025821541 0.096116535 0.019070126 -0.0080896486 0.007780157 -0.0070625097 0.04948001 0.057483327 0.044373859 -0.047027133 -0.057876881 -0.084240444 0.078119308 0.0029663278 -0.061357133 0.048603322 -0.029135484 0.0025619022 -0.065495349 -0.033890091 0.013721801 0.0045219236 -0.048082765 0.005002168 -0.03841931 -0.096491307 -0.08307308 -0.061249081 0.068933845 -0.047354963 -0.07143043 -0.01639621 0.019807991 0.078439705 0.037571181 -0.047593512 -0.058500111 -0.0005130978 0.08649087 -0.10313224 0.089801542 0.043947782 -0.057337698 0.044290863 0.097503059 -0.057858277 -0.069900215 0.067972541 -0.018923659 -0.029897222 -0.034502313 0.10389074 -0.10124693 0.079555668 0.066577882 -0.073742159 -0.053679321 -0.0093078939 0.083840705 0.063725375 0.087420061 0.0011897277 -0.041790053 0.060670488 0.031201048 -0.063184723 -0.097684249 0.022362489 0.069690004 -0.06611342 -0.014673 -0.076602191 -0.060118679 0.078299798 0.061207015 -0.081028625 -0.015921287 0.098023787 -0.01455016 0.020520408 0.078869581 0.049143307 -0.0054994752 -0.090808667 0.0097718146 -0.041438632 -0.037437346 0.041304417 0.055594068 0.07225012 0.04504104 0.063706376 -0.0055999118 -0.051393859 -0.0041835885 0.08440277 -0.10100499 0.034551058 -0.045157243 0.085455455 0.10111079 0.021785712 0.083945036 0.076594673 -0.087264359 -0.0048053586 0.088202588 -0.071849585 0.0007807893 -0.071646236 -0.0080382219 -0.10328222 0.068856798 0.065129764 0.04171614 -0.013443259 -0.03773405 0.10889703 -0.098964043 -0.049020242 0.042836852 0.0031677166 0.089356266 -0.10473972 -0.050784443 -0.095519781 0.079990596 0.053109959 0.095899023 0.099291079 -0.049822018 0.069990873 0.025466163 -0.068352163 0.068370968 0.066251814 0.049227532 -0.073212229 -0.061804466 -0.053266786 -0.011419132 0.093308888 0.032600738 -0.055981588 0.019160021 -0.027689677 0.017811596 0.07356441 -0.073270939 -0.049603686 0.073674358 0.026404925 0.065657116 0.0026374985 -0.028341265 0.081277631 0.06786713 -0.041473448 -0.057767645 -0.07408081 0.0074748262 -0.0011483388 0.011606918 -0.017920591 0.067237318 -0.031536888 -0.090947837 -0.085194819 0.0052306075 0.064117849 -0.0096348133 -0.078067273 0.014195599 0.088863723 0.016340468 0.022717867 -0.049674474 0.057519428 0.020506039 -0.043633427 0.069126211 0.040238015 -0.093048483 0.065790445 0.052714601 -0.093035802 -0.0091896951 0.020497477 0.088647738 -0.053616691 -0.085300736 -0.045526378 0.011645258 0.0068782438 0.025758414 0.065130964 -0.063583963 0.031399902 -0.074255198 0.030518455 0.067146815 0.061234772 -0.081997365 0.083288066 -0.053826097 0.098951072 -0.059790712 0.023458995 -0.049960576 -0.034709726 0.069839008 -0.0023824251 0.027905658 0.0090547791 -0.087040633 -0.015691226 0.026863223 -0.015074215 -0.072236508 0.02648088 0.067973226 -0.090728603 0.050893083 0.043557506 -0.10073111 -0.050450616 -0.065676168 -0.085774899 -0.077683255 0.054461367 0.071446702 0.10843663 -0.0052424083 0.092352316 -0.011706442 0.0058346773 0.026433012 -0.0093084257 0.061798885 -0.096397094 -0.056076653 0.05593311 0.042135332 0.080296136 0.019589961 0.082549959 -0.050385419 0.036342014 -0.038003109 -0.085681096 0.077484682 0.059507277 -0.045906238 -0.038805015 0.020292632 0.0093957437 -0.0042549828 0.034444615 0.022246551 0.047790058 0.089550734 -0.051656362 0.016549801 -0.0016715855 -0.084635608 0.05062646 0.062972523 -0.041441262 -0.044845615 -0.076985292 -0.065094568 0.020762539 -0.041128751 0.088064104 0.082393505 0.083824173 -0.046717558 -0.0021835798 0.013644589 0.05573047 0.016264191 0.047476225 0.034457166 -0.089684844 0.068496004 -0.047628444 0.067497045 0.029508667 0.051039718 0.059221447 -0.066197112 0.058513783 0.077782921 0.041687429 0.087650098 0.08890707 -0.07418137 0.068844654 -0.04261544 0.073897399 0.096731849 -0.012968035 0.019527141 -0.033597585 0.096291244 -0.051308207 0.07858263 -0.038985122 -0.082191497 -0.083095282 0.031503428 -0.028644517 -0.095453039 -0.023814922 0.08753676 0.036919422 -0.010385699 -0.028972415 0.025834264 0.072380304 0.028406946 -0.073002487 0.080093861 -0.043272354 0.018357325 -0.028927432 -0.090301 0.032583546 0.046611458 0.092855014 0.016789367 -0.064086929 -0.035032351 -0.078342997 -0.043789536 -0.08472392 0.086062349 0.057295345 0.055501141 0.062749438 0.071521334 -0.070188001 -0.027022118 -0.078434251 0.031862136 -0.00043880419 0.025659656 0.017727964 0.055379797 -0.052385546 -0.0048655262 -0.055871125 -0.038907673 -0.099182114 0.085476458 -0.00069647416 0.016732739 0.0065969615 -0.051867284 -0.077899151 -0.0096713817 -0.039141107 -0.031343374 0.084111772 -0.015625522 0.10395693 0.033667941 0.085137315 0.0084793847 0.037517816 -0.02690552 -0.0013605505 -0.021406796 0.00091184955 0.0063056517 -0.035114311 0.0089876093 -0.036157232 0.014444 -0.047916602 0.071292922 0.029837489 0.10558683 0.049331173 0.028671512 0.03516541 0.014168702 0.074548438 0.042954121 -0.094415247 0.0080268485 0.091599315 0.036539137 0.04695224 -0.0037994953 -0.0016535897 -0.0063380925 0.018199906 -0.010340136 0.0083028153 -0.0025770052 0.097361878 -0.085991271 -0.010985504 -0.0056111109 0.074511185 0.11449922 -0.060833283 0.091210797 0.066517524 -0.072307728 -0.035376322 0.058173127 -0.052894887 0.047632534 0.00087364455 -0.036836628 0.093989983 0.086814091 -0.020922603 0.10692534 0.035390221 -0.05177341 -0.012324736 0.044696592 0.086632438 0.069953918 -0.079679698 -0.083876014 -0.077013157 0.0070224297 0.043231372 0.095676586 -0.04305464 0.059744 0.068453297 -0.001426724 -0.055137612 -0.095938548 -0.055689793 -0.044354193 -0.0097813457 -0.017859381 0.099013098 0.092439502 0.073926494 -0.093411654 -0.017653638 -0.072761171 -0.04666654 0.021265596 -0.059099987 -0.016446929 0.072025478 0.078630269 -0.10334974 -0.080781698 -0.034090284 -0.022065194 0.091975085 -0.057902422 -0.055795114 0.099302597 -0.045246717 -0.063271046 0.03417496 -0.10292189 -0.0088852048 -0.099280015 -0.10179717 -0.0495966 0.068616733 -0.051462803 0.061316103 0.076714583 0.022550216 0.01194006 0.053288963 -0.058200054 -0.0096155163 0.059726804 0.042399835 -0.028952567 0.015873058 -0.094313428 -0.011738785 0.002944899 0.1144796 0.074181847 0.10310028 0.041773029 -0.072022967 -0.015937762 0.030041171 -0.028045025 0.074478686 -0.019894386 -0.0015863125 0.059436094 0.024340048 0.074491739 0.1043285 0.09388978 -0.11295058 0.01310719 -0.10751264 -0.080373183 -0.0879265 0.014204483 -0.04906052 0.0102004 -0.078193702 -0.098429665 -0.055719193 -0.059840616 -0.032636486 -0.10387159 -0.099928007 0.096491262 0.082138434 -0.023738138 0.057854127 0.06786567 -0.080082476 -0.067544751 0.083765566 0.037354838 0.035905149 -0.088045381 0.067168623 -0.031783011 -0.055348679 -0.081288874 0.021149464 -0.062084839 -0.077422135 -0.11254846 0.015649572 0.055968475 -0.034709044 0.052782785 0.057284631 -0.049883723 0.055943612 -0.058029246 -0.10481064 -0.029509747 0.066041224 -0.019787395 -0.056522381 0.060390357 -0.0072855889 0.016328936 -0.049290918 0.071408704 -0.060619593 -0.0037555993 0.0062395306 0.11409243 0.083016813 0.062642455 -0.049664613 0.082608581 0.026337279 0.031022867 -0.041140884 -0.11303825 0.00072289683 0.0088337818 -0.056696024 -0.042101383 -0.065703757 -0.082063653 0.088240415 0.012088663 0.03702765 -0.045929525 0.088464431 0.011495521 0.0082670059 -0.084871531 -0.03224723 0.04190186 0.059021376 0.066710733 -0.038334988 0.012644269 0.017610375 -0.0046117175 0.043892566 0.099241756 -0.03348517 0.038155045 0.098408721 -0.043706015 0.015916914 0.072882235 0.057409786 -0.087720633 0.010736136 0.059771314 -0.041967731 -0.069925666 0.063388221 -0.0010286252 0.030704768 0.0025026386 -0.011755784 0.061164308 0.059192728 -0.048934184 -0.070382372 0.061091714 -0.044859502 -0.034080803 -0.092792325 0.044965666 -0.042869363 -0.017466675 0.057561915 0.068447895 0.11544344 -0.038167652 0.011246482 -0.10615445 0.0014078772 0.086246714 0.082206175 0.082221061 0.028157182 0.023799792 0.08879783 0.10960747 -0.088902675 -0.036076546 0.084393702 -0.0061066039 0.090063483 0.090341233 -0.095939562 -0.025561681 -0.015220423 -0.045913298 -0.081936061 0.098303348 -0.012138618 -0.11104218 0.0015806865 0.031915165 -0.083082929 0.035876028 -0.059302881 0.096724175 0.087525919 -0.081346668 0.0050898446 -0.050688941 -0.0059977612 0.049749523 -0.017148038 -0.11128748 -0.040869057 0.079009473 0.021140492 -0.031257458 -0.076675102 0.0046673138 -0.093406245 -0.039034855 0.11416747 0.084653646 0.019443417 0.083567455 0.052080784 -0.099215262 0.040225558 -0.046586566 -0.054576393 -0.025797211 0.077442847 -0.085110955 0.04557766 0.072338417 -0.070848614 0.06830553 0.034278203 -0.063315466 -0.082092561 -0.023729246 0.054801762 0.014633465 -0.10426639 -0.097799808 -0.095038764 -0.047976434 -0.093364999 -0.098469824 -0.082850963 -0.059724402 -0.0036011608 -0.034846269 -0.10081987 0.048546139 -0.064899452 -0.00089022232 -0.052927155 -0.032399613 -0.013785124 -0.075671785 0.018208977 0.083458334 0.026802892 0.068564206 0.04817871 -0.0016082961 0.093057483 0.033496186 -0.05312261 -0.021362234 0.043366235 0.080906346 -0.011889341 -0.086004138 0.075366624 -0.09672866 -0.045622215 0.016811807 -0.061997093 -0.027053958 -0.02768085 0.028007548 -0.06470158 0.018889705 -0.078443907 0.020096952 0.053376738 0.082916074 -0.00021472016 -0.035025582 0.078732468 -0.066673361 -0.0045521567 0.051855259 -0.093124047 0.05089632 0.091448791 0.0095496923 -0.10095139 -0.02911569 0.090908349 -0.033038158 -0.073710717 0.028828606 0.09902852 -0.099234089 0.042618148 -0.022822943 -0.045801401 0.10675314 0.016140655 0.0096502155 0.036682542 -0.00056041963 0.067812212 0.027378753 0.044873498 0.090159275 -0.067495868 -0.03465502 0.034633175 0.050159488 0.099608697 0.00018215693 0.041816022 0.0061747283 0.068785563 0.066657193 0.013502729 -0.082705915 -0.022312345 -0.0175419 0.037524577 0.0029844642 -0.030682575 0.054415178 0.012580969 0.024699453 -0.045330409 0.016311845 -0.0085601294 -0.038492534 -0.070610076 0.080188543 0.080780864 -0.066966884 0.042271189 0.033373319 -0.013218782 0.088358179 0.05246374 -0.016380377 -0.0013896727 -0.07415054 0.00018764328 -0.097492456 -0.066750675 -0.025357276 -0.010814662 -0.046884011 -0.077941097 -0.0644105 -0.014375585 -0.061490871 0.037674062 -0.00080492022 -0.082154617 0.03877788 -0.0019417236 -0.097878061 -0.053264033 -0.01916039 -0.016158059 0.081709869 -0.0038766593 -0.0048214048 -0.07544335 0.0032935741 0.022407709 -0.046602275 0.084426925 -0.10295808 0.029018568 -0.05914402 -0.023455182 -0.087659471 0.09899722 -0.0072914949 -0.075831376 0.10121796 -0.028766107 0.031924196 0.071754947 -0.012834955 0.014357855 -0.087860316 0.011402162 0.061859548 0.040073812 0.0050762994 -0.092600144 -0.073391743 0.044604942 0.03857635 0.076850705 0.06145481 -0.012235886 -0.069054037 0.031482637 -0.016608883 0.10790724 0.078017183 -0.097495608 -0.015749115 0.078650124 0.074057177 -0.088456698 -0.05665363 0.029425712 -0.05023998 0.027803523 0.044373043 -0.099727601 -0.022074895 -0.037680421 -0.0095464168 -0.094095506 0.037501223 0.074109182 0.018053293 -0.06016501 -0.032627039 0.032552358 -0.093337022 0.079865187 0.083947927 -0.082740486 -0.049718715 -0.030456994 0.035015337 -0.05502994 0.05357879 -0.017031878 0.04347834 0.062658086 -0.072564498 0.076466285 -0.049317848 -0.0017602883 0.0029009636 -0.078649275 -0.064171165 0.0096061295 0.025514226 -0.012579251 -0.045923226 0.036689084 0.04373711 -0.057384424 -0.018811261 0.061149221 -0.017123939 -0.055299118 0.090653598 -0.050682768 0.0082361763 -0.035799123 -0.025597392 0.10440961 -0.015594456 -0.061681375 -0.049302991 -0.028485155 0.013565355 -0.0048328126 0.038541157 -0.081072427 0.073650524 0.022862032 0.073520787 0.050453067 0.093473047 0.058763415 -0.081360042 0.028285405 -0.044832379 -0.043834407 -0.020127349 -0.056081384 0.053738933 -0.022202564 -0.076559186 0.08236894 -0.0042934199 0.060344625 -0.046509292 -0.085747384 -0.069728151 -0.031246124 0.055316024 -0.0064651957 -0.10666983 -0.094409592 0.028046645 0.079511963 -0.073255017 0.088468298 0.030862853 -0.076191068 0.026289869 -0.081630796 0.01234251 -0.075829506 -0.094440788 0.074286267 -0.069266461 0.014732018 0.090136394 -0.085789293 -0.048199594 -0.031980298 0.046202179 0.10374665 0.031221008 -0.057475697 0.090849772 -0.027203834 -0.026207913 0.038333494 0.074324086 -0.054986805 -0.097554721 0.040176589 -0.090719968 0.012617229 -0.029616244 0.084412389 -0.091132633 -0.037325975 0.073785551 0.088813581 0.095789894 0.070234828 0.044282582 0.018634653 -0.099578902 0.092827082 0.070154004 0.025178699 0.053163674 -0.044417132 -0.10094086 -0.051826362 -0.014594942 0.047208633 -0.077086277 0.044999927 0.073770978 -0.015690992 0.031039832 -0.10231552 -0.061717343 0.059147161 -0.072068945 0.039889965 -0.037211604 0.021454619 -0.077959694 0.010887313 0.035767619 -0.0048618997 -0.091391653 -0.045276519 -0.083091296 -0.027127504 0.071458533 -0.0064211632 0.0051987241 -0.092658371 -0.085215725 0.047227263 0.070263945 0.0039399765 0.007941586 -0.041706517 0.088029198 0.048764788 -0.01487622 0.082097724 0.032209281 0.052544728 -0.074156873 0.078508899 -0.019637844 0.073898211 0.089619465 0.011985671 0.016960671 -0.090058148 -0.077113725 -0.005467765 0.024310406 -0.029291181 -0.01958707 -0.027037129 0.09830489 -0.071571901 -0.098772511 -0.057784773 -0.065592103 0.079045951 0.026385356 -0.093229033 0.067539364 0.0020401059 -0.017595598 -0.0065878229 -0.092137463 0.072815813 0.041883383 0.01259301 0.070969038 0.027534548 -0.090866774 -0.099893838 -0.091560863 0.0053825281 0.065248072 0.09730152 -0.079126008 0.016095605 -0.0037655104 0.0019347743 -0.049127825 -0.052294388 -0.0059256051 0.0068045151 -0.067737274 -0.088784434 -0.084392756 -0.06395743 0.014157412 0.0011230874 0.03773604 0.0024352502 -0.097622313 0.067468874 -0.10311966 0.096499026 -0.020045616 -0.052999604 0.018553751 -0.059097182 -0.014341535 -0.007084684 -0.038302626 -0.098981 -0.10757869 -0.067198321 -0.062696651 0.058402583 0.072443374 0.026767464 -0.054925833 0.037811719 -0.049433492 -0.019718438 -0.095868841 0.040374313 0.091076262 -0.089792937 0.012138826 -0.081262812 0.075615607 0.0048104981 -0.011970486 -0.061122574 0.027067956 0.050001703 0.026271954 -0.011693075 -0.081605397 0.016919583 -0.045149844 0.011610927 -0.035067886 0.09944085 -0.054262958 0.012021477 0.042434074 -0.040879779 0.0047441553 -0.057426523 -0.039016586 0.046864208 0.078368254 0.022864912 0.081539951 0.014834758 -0.0098112896 -0.086576574 0.077481188 0.078882843 -0.030783297 0.036249556 0.0091995439 -0.006126286 0.092007123 0.091178447 -0.069164999 -0.059398949 0.020802572 -0.024173204 -0.010729643 0.05996744 0.10260443 0.086575456 0.072109416 -0.059118316 0.024662387 -0.046904452 -0.038083639 0.082552969 -0.067992471 -0.081259452 -0.006312971 -0.083425201 -0.10003245 0.1063178 -0.0065299254 -0.10320953 0.09015087 0.021870421 -0.0060934569 -0.068008684 0.030686317 -0.061747011 -0.0095061976 -0.017352138 -0.10499845 0.024582291 -0.092793889 0.063939407 0.039999459 0.00068290753 0.066413075 -0.0064702895 -0.067940265 0.045907587 0.081057645 0.080210298 -0.078709602 -0.091786534 -0.05151812 -0.050916232 -0.042806484 0.010266493 -0.081105925 -0.097174063 -0.033579115 0.072450787 -0.0039017049 0.026122497 -0.033226117 -0.0023392509 -0.094182365 -0.003005133 -0.061267696 0.049206913 0.078934461 -0.082005985 -0.030639516 0.03200572 -0.0050665773 0.0045766435 -0.093232356 0.049122382 0.042353787 -0.0070359986 -0.022185378 -0.019991588 -0.041822743 -0.045350824 -0.027620854 0.073920086 -0.06160669 0.076511197 0.041163605 -0.083982937 0.0012477982 0.011526379 -0.018243425 -0.008611449 -0.097506024 -0.059906341 0.04308594 -0.066086434 -0.090320587 -0.09568698 -0.023300564 0.065125428 0.077848375 -0.073988244 0.060547311 -0.042842664 0.053236313 -0.0976106 0.027144082 -0.082698733 -0.065183118 0.076627403 -0.029911406 0.013711766 0.032246545 0.096004218 0.027157499 0.092214391 -0.00411451 0.033744145 -0.011901188 0.054993264 -0.026237231 -0.089076415 -0.051687282 -0.087716021 0.04970406 -0.099549159 0.025336457 -0.045361433 0.037255995 -0.07190875 0.0062377444 0.05968697 0.001207427 0.01597953 -0.073077962 -0.019570377 0.047200378 -0.072749816 0.014256276 -0.044965979 -0.028491866 0.087926924 0.094741382 -0.057658777 0.02388726 0.084946789 -0.0206105 0.016672635 -0.076153912 0.016157029 0.070792869 0.028563881 0.075516418 -0.085056759 -0.052499224 0.071559161 0.1049794 0.0034122453 0.064564623 -0.048430435 0.088487804 0.0059540956 -0.038607944 0.059432071 0.0016285528 0.09265475 -0.006152059 0.0080270497 -0.084626108 0.053606533 -0.021584662 -0.043084051 -0.093170136 -0.083443627 0.012906855 0.047236055 -0.067284726 0.036720071 -0.0023178919 -0.027237147 -0.032703489 0.017721647 0.0076393457 0.079884052 0.064910382 -0.049953632 -0.052863799 0.023226894 0.076631568 -0.021334866 -0.050904721 -0.06556014 -0.072245352 -0.07275106 -0.093724474 -0.046664391 0.080487177 -0.0049675088 -0.071358643 0.085108422 -0.051896274 -0.07698065 0.024452658 -0.057368081 0.090305209 -0.090627983 0.0085778553 -0.0055309623 -0.039032131 0.091577783 -0.087117977 -0.10737414 -0.10332701 0.038186416 0.10404689 0.012965736 -0.01295571 0.0049076816 -0.014804713 -0.064630583 -0.091156915 0.050226595 -0.0984478 0.067833126 -0.055770695 0.027235867 0.067155711 -0.079883866 -0.059752729 0.0016298164 -0.03234528 -0.087587349 -0.032500405 0.092825279 -0.059427273 0.029573094 0.064572953 -0.0058069769 0.01558312 -0.086251445 -0.026757587 -0.075590074 0.071792893 0.024032898 -0.034787573 0.040394593 -0.080919802 -0.060440846 -0.018976597 -0.078787565 -0.035604749 0.03855253 0.016985126 -0.089842252 0.051505376 0.053104725 0.036482286 -0.043579452 0.003608878 0.089958355 0.036070079 -0.025130982 0.06053381 -0.096739225 -0.023768989 0.027085969 -0.058656137 0.067784317 -0.032619704 0.0095503768 0.10130858 0.020988859 -0.090285398 -0.075375721 -0.073255166 -0.047457501 -0.0085435798 0.078860722 0.083361275 0.01206777 0.041606873 -0.0075967703 0.035887338 -0.013240403 0.060535938 0.068334013 0.0021651448 -0.058273133 -0.0015483061 -0.037248019 0.070022143 -0.087699741 -0.057227723 -0.024356283 -0.018022303 -0.020462509 0.094142184 0.079157569 0.03161335 0.028356416 0.034017369 0.10058721 -0.092918083 -0.056213688 -0.049159758 -0.010931648 -0.029044418 -0.052651014 -0.055519145 -0.075658187 -0.042002488 0.035847086 -0.0098616313 0.062896647 0.032922361 -0.064859763 0.021397719 -0.0058709434 0.09559729 -0.011105102 0.02513683 -0.047542796 0.0082475077 -0.066181242 0.027267603 0.027621496 0.079344735 0.025254006 -0.073380798 -0.040487908 -0.099706061 -0.065093175 0.018862465 -0.04344447 -0.09540686 0.089570828 -0.0060511995 -0.10027733 0.0094859721 0.050930962 -0.0296533 -0.0015101649 0.0086359903 0.079409853 0.08531937 0.049591042 -0.0019914322 0.024210373 -0.029015334 0.048631322 0.01185036 -0.013932713 -0.007377828 -0.073809028 0.05331637 0.008016563 0.092472896 -0.020453833 0.026151549 -0.0060157292 0.049085747 0.0019848791 -0.038465966 -0.09493912 -0.014096745 -0.030493988 -0.048517551 -0.016137175 0.050372135 -0.06531167 -0.081526458 -0.047487006 0.02363468 -0.035189141 0.024517702 0.033040918 -0.083057888 -0.066935807 -0.013961541 0.067011312 -0.063626789 0.031544395 -0.072824374 -0.056922309 0.016459059 0.038428713 -0.092797287 -0.079005532 -0.040700756 0.00088811852 -0.016712995 0.099162526 0.030957393 0.058492064 0.089441344 -0.070164897 0.066364728 -0.09565372 0.066008106 0.0065267035 0.022837361 -0.083198816 -0.041744795 0.099519037 0.06237071 0.070492886 -0.065718576 -0.084309071 0.0086950883 0.063697711 -0.044864565 -0.021443769 0.057179637 -0.031130603 0.05029821 0.099314585 0.040657248 -0.07389421 0.042869449 0.016854376 -0.051615931 0.089019656 -0.085392356 -0.053898968 0.050231736 0.061966453 -0.035015993 -0.05687657 0.04545274 -0.094717689 -0.035824537 0.063689098 -0.10079636 0.052193686 -0.012773766 0.026289072 -0.091209017 -0.06946943 -0.10353 0.088008083 0.08184015 0.10311774 0.038511142 -0.051122475 -0.053715896 -0.044356994 -0.019761909 -0.035774484 -0.072879054 -0.053969909 0.027244473 -0.11166435 0.0050014844 -0.068499938 -0.049891107 -0.079258867 -0.03469865 -0.064842172 0.0083081992 0.0049911444 -0.018895796 0.089143269 -0.093260258 -0.0020555658 0.069575667 0.031648841 -0.032078914 -0.031955082 -0.0053445827 0.051867392 0.063609622 -0.10073312 -0.016930625 0.012967881 -0.030981233 -0.031911377 -0.034580525 0.012390598 -0.055589348 0.021674531 -0.084568061 -0.043915268 -0.028499497 0.080836169 -0.079094581 0.0010284294 -0.03306295 -0.085449472 -0.047862425 0.10240275 -0.016427744 0.065207466 0.010566888 0.010063979 0.059125811 0.0037754416 0.041274443 0.049304847 -0.04120189 -0.055480979 -0.012381904 0.04122252 0.10594613 0.099577829 0.021508815 -0.09668985 0.057145052 -0.019051397 0.055028692 0.071911857 -0.0076163509 0.0041688667 0.076690868 -0.042290315 -0.079809524 -0.037971016 -0.035683803 0.093383297 0.075499512 0.073875666 0.09119571 0.07773535 0.038629007 -0.093574673 0.027969413 0.049761329 0.031932238 -0.026953239 0.057872362 -0.070785366 -0.055377465 -0.0022594449 -0.072599456 0.065789707 -0.039304633 -0.01219146 0.037424926 0.055451598 -0.020162391 0.013084252 -0.027261071 -0.027325436 -0.028481316 -0.03991808 0.014351333 -0.029050514 0.058542781 0.030008098 -0.025365317 -0.032966435 -0.03718837 -0.056556027 0.073371299 -0.022508809 0.035140127 0.059238724 0.097535409 0.078556113 0.028862001 0.08006794 0.05169012 -0.0028336034 0.095552452 -0.027504971 -0.0034694746 0.047538221 0.087230042 0.048600908 -0.051596686 0.050802082 0.05014364 0.092482664 0.088675343 0.071446426 -0.041557595 0.021892348 -0.039084259 0.034644797 0.01731229 -0.079518497 -0.057608102 0.057832293 -0.072580509 -0.045608655 -0.031173425 -0.10854068 -0.084044084 0.061511587 0.073961824 0.011831085 0.020125441 -0.06501428 0.096898094 0.034944065 0.044978019 0.079762995 0.1114544 0.039276037 -0.034409821 -0.078698598 -0.00034536398 0.033162273 -0.014952622 -0.082936101 -0.040605899 0.0672075 0.050003663 0.096674442 -0.094483294 -0.048820186 0.032457687 -0.049178924 -0.057144191 0.012124185 -0.036954001 -0.046861112 -0.024530811 -0.1015704 -0.021552265 -0.081096046 0.080998324 -0.006997054 0.091805115 0.094109945 -0.016044475 0.058897533 -0.032870669 0.084075816 0.089644514 -0.060053084 -0.029893847 -0.065396562 -0.093326896 -0.059237782 -0.09381175 0.074636929 0.049154639 0.021880193 -0.029709432 -0.060608301 -0.071360908 0.078301162 -0.028303813 -0.010555593 -0.07347028 -0.031183723 0.080571555 -0.046010938 0.10407486 -0.035152499 0.064941823 -0.086115979 -0.033591758 0.096087165 -0.073717691 -0.10328499 -0.021843625 0.088599578 0.026336253 -0.034453075 0.096507393 -0.050300725 0.089568861 0.055160381 -0.079989225 4.9043323e-05 -0.082462125 0.098200165 -0.01479819 0.030183632 0.024161186 0.029050129 0.023400581 -0.034374412 -0.086434722 0.037166275 0.02201847 0.028083058 -0.051868357 0.072706841 0.0037820141 0.037539683 -0.080302961 0.052455664 -0.00041568303 0.03706133 -0.096510328 -0.081000499 0.10488212 0.090602808 0.013417135 -0.086130947 -0.092277482 0.021318546 0.042322304 -0.0094789453 -0.047110043 -0.062790021 -0.0027078714 0.039007775 -0.00681148 0.09053456 0.002364286 0.041874945 0.00070847257 0.10330601 -0.025882863 -0.064255528 0.10219774 -0.077902138 -0.082199357 -0.084085442 0.0511522 -0.12160351 -0.025778992 0.055834759 -0.056657452 -0.02900739 0.008708003 -0.10658678 0.0094156004 -0.018392351 0.063928999 -0.059157316 -0.077523232 0.10107079 0.10262268 0.014735331 -0.061055504 -0.046299528 -0.039507732 -0.080991827 0.070182331 -0.038077705 0.081375405 -0.027682936 -0.038012013 -0.03788862 -0.01024866 0.091305293 -0.088863529 -0.069928616 0.021359665 -0.020909732 0.061472151 -0.0044841929 -0.043146636 -0.023985557 -0.062887199 -0.090091802 0.090959363 0.0036818692 0.0049287821 -0.089881383 -0.078433119 -0.0073460783 0.017109133 0.08522974 0.083376661 -0.074030191 -0.07393983 0.029133268 -0.011161796 -0.054010198 -0.070490137 0.056831826 0.087225325 -0.040462255 0.078881346 -0.0073873498 0.072629094 0.054037154 -0.048205242 0.057823814 0.012125751 -0.08815743 0.051406953 -0.081364617 -0.034396041 0.028105758 0.074588284 0.018055355 -0.08356221 -0.070053838 -0.025994476 0.027132859 0.04333362 0.048776973 -0.050468147 0.065924324 -0.027781149 -0.043527789 0.063117422 -0.039755762 0.0731235 0.031462539 -0.049360543 -0.045734603 -0.035918023 0.081750721 -0.081785202 0.024520196 -0.018519131 -0.0099327713 -0.10010801 0.03365197 0.024437821 0.040515956 -0.03415801 -0.037885789 0.089607753 0.054162819 0.047353711 -0.017843047 -0.086476102 -0.11801897 -0.027739195 -0.10061929 0.030498128 -0.018495848 0.031032188 -0.094560497 0.011008677 -0.024540439 -0.09742099 0.086205885 -0.084804736 0.014909639 0.060009237 -0.087402828 0.10992023 0.062705442 -0.11080875 0.099191532 -0.07373406 0.085349478 -0.074619606 0.013319666 -0.11446143 0.088702843 0.069739647 -0.10031117 0.080421835 -0.04346117 0.10269435 -0.054332387 -0.066887952 -0.0054256902 0.069302768 0.034370098 0.039397601 0.087228917 0.053344227 -0.016604591 0.021700494 -0.086350195 -0.053185586 0.058806088 -0.044241711 -0.074075088 0.124 -0.012695293 -0.016943386 0.074131884 0.093573891 -0.015459914 0.05034136 -0.069435015 0.035791308 0.067211114 0.041139126 0.0018016502 0.063085899 -0.0064520948 0.009242204 -0.098671444 0.12501216 0.077278219 -0.0074917707 0.033271462 0.027823346 -0.041261885 0.060716547 0.10003024 -0.026395066 0.033755805 -0.010707883 -0.030761363 -0.022076443 -0.022570705 0.037961468 -0.027367936 -0.11059974 -0.047109388 0.091334403 0.036496636 0.034238163 0.059014414 -0.053685587 -0.045491021 0.010115906 -0.1127196 -0.10326353 0.054234456 0.010739553 0.061343189 -0.10798652 -0.090235531 -0.11066275 -0.0094612092 -0.00066437991 0.016563218 0.071955226 -0.055382263 0.084169604 0.037768915 0.035061516 0.086616322 -0.053750787 -0.016854484 0.038739625 0.081683554 0.093304761 -0.021307407 0.066141404 -0.019750085 -0.079996318 0.045240529 0.0034932094 0.07510116 0.11222954 0.064901426 -0.046945799 -0.060292047 -0.069793358 -0.021947172 0.093970627 0.048949324 0.013057776 -0.10543936 0.0046522524 0.07395722 -0.00057638361 -0.059087504 -0.11155261 -0.07693962 -0.091930658 -0.016294438 -0.05377055 0.0710916 -0.0035364931 -0.067938164 -0.013012493 0.0734668 -0.047791224 -0.020709189 0.062696613 -0.014459142 -0.051797092 -0.0014759955 0.042101443 -0.096102178 0.027588978 -0.02906316 -0.091042414 0.093489274 0.011036057 -0.046022892 -0.019342197 -0.066625677 0.042069163 0.026537834 0.098574169 0.049223211 -0.084882334 -0.069505818 -0.070137553 -0.032879695 0.085177213 -0.0015644885 0.074293889 0.069292612 0.055373795 -0.088547513 -0.0066135009 0.055086672 -0.077165902 0.07167384 -0.042457204 0.051110361 -0.026356407 0.065402791 -0.0090469839 -0.023963364 0.0062242784 0.058964975 0.0034575241 0.079637438 -0.047043901 -0.040775318 -0.086442277 0.057373203 -0.057520922 0.088028535 -0.044560712 -0.01986121 -0.031100348 -0.025689751 0.081326067 0.048990689 0.0099328067 0.0055735442 -0.043658085 0.099606693 -0.014148383 -0.034195438 0.065128006 -0.044733122 0.0081919376 -0.055605371 -0.0089398697 0.1031884 0.050365418 0.012257095 0.018556654 0.0011139386 -0.0080802161 -0.049218386 -0.021878207 0.01898306 -0.083077885 -0.015509282 -0.064197227 0.075604491 0.052847754 0.071383744 -0.0161449 0.066987999 -0.098351538 -0.056288555 -0.09297622 0.10182393 -0.03223766 -0.04750761 -0.1009369 -0.014103004 0.061134119 0.073029101 -0.03260874 0.03278153 0.056990635 -0.069001563 0.046827652 0.092099853 0.016635936 0.038830552 0.05112543 -0.09058997 -0.059827749 0.0081030978 -0.0075532398 -0.084044926 -0.060292453 -0.011746012 0.047629673 0.067478515 -0.043821465 0.085895762 -0.056496549 -0.015228448 -0.051148448 0.044140682 -0.04403038 -0.0097092353 0.096519038 0.0081905946 0.060864102 -0.1138712 0.08329688 -0.049419798 0.080209479 0.020447047 0.006223869 -0.0006635075 0.11353455 -0.041547615 -0.081875272 -0.053057242 -0.11653326 0.10054079 -0.11456843 0.032889985 -0.067260183 0.056827325 -0.018029418 0.051418524 -0.01524692 -0.081121452 0.085461445 0.055425167 -0.022886442 -0.036769621 0.006132694 -0.11707379 -0.030999083 -0.077768289 -0.044837631 0.051944196 0.037295759 0.085924089 -0.031114183 0.07509923 0.0085573457 -0.046169639 0.092505105 0.021220738 0.042792521 0.045572754 0.08007744 0.097949885 0.081049137 -0.057868347 -0.038247209 0.087224923 -0.079329766 0.018151013 0.054113969 -0.01717446 0.074976876 -0.023869365 -0.12603177 0.011906751 -0.044806451 0.034371104 0.03845704 -0.017193059 0.031630334 -0.046949275 -0.01758709 0.021073846 0.10334522 -0.073255576 -0.012119382 -0.014421678 -0.057128899 0.060384732 -6.3044252e-05 0.050029274 -0.10169568 0.025624027 0.10166239 0.084707782 0.085228294 -0.048984446 -0.075089499 -0.077469982 0.11854181 0.054535143 -0.067278899 -0.039411359 0.055592176 -0.09040872 -0.056378979 -0.0047240215 -0.073162317 0.036208808 -0.030046914 0.0063715526 0.10297342 0.0079807257 0.0044892756 -0.032561116 -0.030820884 -0.0034613898 0.033974517 0.085729316 -0.005013309 0.079392903 -0.069146186 0.049578987 -4.9529113e-05 -0.10027579 0.056209203 0.0064818962 -0.051231299 0.062789187 -0.053150073 -0.072405808 0.042971887 0.040248822 0.072827682 0.080666997 0.091840282 0.016921505 -0.010682468 -0.035569165 0.040156845 0.10362329 0.034852412 -0.097574212 0.039459646 0.028264526 0.063149974 0.082098112 0.10086177 0.10271366 -0.04625446 0.013648218 0.019845331 0.058665723 0.021354722 0.08138141 0.095067978 0.0035715271 0.059819397 0.0062427945 -0.0054091476 -0.067830734 0.082769372 0.017218851 -0.050149113 0.025685916 0.065082811 -0.053759407 0.059404749 0.082096793 0.094752833 -0.082773812 0.02435093 0.040462092 0.015870126 0.073459998 0.061776981 -0.0076297205 0.025364758 -0.012343401 -0.050912168 -0.075599663 0.027622575 0.082301885 -0.079205565 0.03253321 0.081026055 0.031822242 0.0015711896 -0.03246678 0.052504554 -0.068249501 0.077650942 0.038389731 0.066159099 -0.040410917 0.018891783 0.090209022 -0.0040086079 -0.0061096898 -0.053230144 0.010786644 0.052798189 -0.09821073 -0.065835558 0.031639803 0.065206259 0.091276117 -0.033542849 -0.070152462 0.090378396 0.10314428 -0.031719625 0.10801888 -0.029442092 -0.081614338 -0.078962535 0.0046743713 -0.056158859 0.075902596 0.051714733 0.095320486 0.0083134854 -0.07504867 -0.065699331 -0.021497367 0.033549968 0.029369039 -0.0270142 -0.020909507 0.008008155 -0.035033673 -0.067940027 0.086939424 -0.065164439 -0.10299848 0.047590476 0.068121806 0.10856769 -0.0048234691 0.0048963181 -0.031816058 -0.0055949488 0.024501681 -0.097840458 0.071258679 0.082727365 -0.044873562 0.030893454 0.05838934 -0.061821755 -0.094359085 0.0616468 0.010452403 0.050734617 0.094134219 0.081304029 0.0012611798 0.1116535 0.044628926 0.011452031 0.025478857 0.0095831193 -0.032884624 0.038289793 -0.047743537 -0.070840299 0.066095941 -0.040065482 0.018600684 -0.03607047 -0.016040385 -0.092303738 -0.081169792 -0.057502888 0.061082356 0.08126191 -0.059305817 0.026900327 0.041884564 0.067059495 0.044567943 -0.054717273 -0.086878195 0.013571084 0.05270429 -0.0011993074 0.088903747 -0.075203769 -0.099011287 -0.075793207 0.047651555 -0.017570077 -0.083482444 0.093833067 0.028219575 0.05301623 0.085120507 0.091762282 -0.052816547 -0.08431676 -0.090318441 0.04466033 0.058489129 -0.047891676 -0.061102912 0.0028657492 0.053382117 -0.0098647298 0.023026526 -0.097526543 -0.093593769 0.012112363 -0.061247852 0.09014672 0.080279946 0.032879774 0.00096892653 -0.007564934 -0.0076814122 -0.041391175 0.057728153 0.085945264 6.233454e-05 -0.056791838 0.0046872003 0.067718185 0.055755351 -0.075878061 0.079011455 -0.058789581 0.068668142 -0.045213897 0.015116531 -0.058658294 0.014014474 -0.020721139 0.019297775 0.016353976 0.088413745 0.082698837 0.026016843 0.099223398 -0.057440337 -0.061378606 -0.079404332 0.01473402 0.10498703 0.064321652 -0.0030431014 0.02204911 -0.067693084 -0.036924805 -0.11471456 -0.018906441 0.046751257 -0.075285859 -0.082043372 0.066128328 0.040171083 0.020735255 0.022560999 0.0057144249 -0.09152846 0.033166595 -0.077582613 -0.079058893 0.084694803 0.025553044 -0.068933807 0.040437777 0.057658289 0.087420397 0.013466156 0.017942492 -0.089819163 0.011928582 0.065853529 0.058140401 -0.07931339 0.023340233 -0.1019804 0.0086791413 0.053456046 0.094658665 -0.012831577 0.066112749 0.027225418 -0.064083934 0.098052368 0.0014401126 0.081264347 0.03406043 0.023273027 0.034829311 -0.064239413 -0.045729745 0.00023235308 0.044611059 0.03096965 0.099665031 -0.021053109 -0.025712663 0.094216034 0.10068063 -0.059806939 0.075769342 -0.065542236 0.0074465261 0.075876236 0.096244544 0.053196181 -0.098611914 -0.061303273 0.039062098 0.077311113 -0.0350645 -0.0074450285 0.098664209 0.11432844 -0.00076202012 -0.052479379 -0.068731084 0.07199806 -0.054568909 0.076031178 -0.048892178 0.041903853 0.032301318 0.047807939 0.027819313 0.057309195 -0.027595626 0.026732694 -0.092722535 0.069034792 0.013843811 -0.023364641 0.078710452 -0.030564405 0.072889633 -0.024335256 0.041328982 -0.041462902 0.077247538 -0.033919126 0.018839348 -0.066817924 -0.083190151 -0.022334471 0.015170465 -0.041665137 -0.057944927 -0.065015234 -0.078080542 -0.019310914 -0.01086019 -0.064903229 0.00923556 0.055708587 0.05244232 0.05182974 0.060998183 -0.021037016 -0.080119975 0.053127132 0.10253864 -0.099811085 -0.032719739 0.027040405 -0.049550049 0.099649653 0.030704241 -0.0031810508 -0.094850525 0.084015563 -0.026385423 0.087493286 0.012072942 -0.052218657 0.033374701 0.078584097 0.030693857 -0.044766638 -0.037347995 -0.082492173 -0.061382979 -0.11986479 -0.094092771 0.076685578 0.017088244 0.064495422 -0.04394554 -0.029751899 -0.099820375 0.070547961 0.055612467 -0.052104309 0.00055372331 -0.096671768 -0.063827701 0.043817021 0.042459514 0.020683609 0.040275868 -0.060003843 -0.037824832 -0.082473502 0.1094606 0.0076998756 0.01976693 -0.11071519 0.056681167 0.073485367 0.10915639 -0.095305569 -0.058229957 0.065416731 -0.043402135 0.060077846 0.0099798189 -0.038875468 0.014432359 -0.037581809 0.0025242008 0.039882906 0.108505 0.033388551 0.11278435 -0.10482983 0.043517139 0.099595748 0.020671548 0.021565925 -0.047826562 -0.088264629 0.093507864 0.1020765 0.11262729 0.020206707 0.062208787 0.034613866 -0.077365324 -0.063176177 0.008051835 -0.0070830057 -0.056951609 -0.04345759 0.025613712 0.034642402 0.078779623 0.046512913 -0.077272967 -0.035253767 -0.022276487 -0.11813716 0.04620149 0.074305229 -0.094309069 0.050048523 0.014519146 -0.088677086 0.088123605 0.056367263 -0.052177578 0.083553515 0.086993955 0.082995005 -0.083806932 -0.071049295 -0.11688764 0.017246775 -0.12656182 0.019647514 0.062678233 -0.052820351 -0.05936563 -0.036624473 0.0294347 -0.020194702 0.0097079026 -0.00382455 -0.075329386 -0.089275815 0.010822997 0.040825699 0.0079619931 -0.10137949 0.042450871 0.11211275 -0.0044179177 0.082671188 0.064914338 -0.02853049 0.028481459 0.015795941 -0.067004599 0.11342649 -0.022850335 -0.016784264 -0.043965757 0.010034674 -0.054856949 0.007784938 0.048570365 -0.043115832 0.039572794 0.11390452 -0.020923866 0.020970644 0.043708332 0.038661793 0.09470433 -0.011318879 0.074027024 -0.037790902 -0.022559173 -0.0020276944 0.026589606 0.033721209 -0.080597043 0.073699743 -0.030821703 -0.036473107 0.014839814 -0.045391753 0.081238799 0.079105876 -0.063252941 -0.069692224 -0.085749596 0.091467939 -0.043073747 -0.034076132 -0.081648111 -0.033334043 0.060653649 -0.072798163 -0.059782486 -0.039949954 0.046964217 -0.066891871 -0.077257499 0.048500583 0.025578022 -0.1030926 -0.053465705 -0.01460678 -0.049410719 -0.045228291 -0.028140536 0.0064433874 0.016745275 -0.10084079 0.086555228 -0.050800145 0.028067103 -0.039374951 0.081921302 0.062944315 0.060096066 0.0033663057 0.021234116 0.024128603 0.0068148416 -0.096409261 0.014215363 -0.071577519 0.081444286 0.0432228 -0.041593704 0.047184899 -0.061496407 0.0099185416 0.050443348 -0.011673552 0.11713573 0.020319754 -0.1230901 0.038618084 -0.013810172 0.050961446 -0.094986543 -0.10989188 -0.029778181 -0.049161069 0.0497532 0.052730959 0.064332366 0.045064501 0.075983174 -0.038824689 -0.030911136 0.032446891 0.075593933 0.0080920858 -0.029330634 -0.063224129 0.032542624 -0.069148518 -0.11872198 -0.097904541 0.048406862 0.033844724 0.052155636 0.11294822 0.06518513 0.11976396 -0.10316411 0.07344003 -0.052567862 0.017764928 -0.10383369 0.019291557 -0.068093598 0.048694797 0.048282512 -0.13400154 0.048045032 -0.018792234 0.077654816 -0.036820091 0.0042894832 -0.0026502111 -0.023577869 0.062373731 -0.10169292 -0.046047103 0.029065732 -0.0059505566 -0.090304077 0.071439043 -0.055198491 0.047955528 -0.061118212 0.04040603 0.097734153 -0.019623678 -0.052845418 -0.084476545 0.016185751 0.054455526 -0.088053614 0.015316906 0.087665454 0.052710589 0.046458345 0.078272708 -0.031002168 0.051933158 -0.03254661 -0.0037684583 0.019978715 -0.11363304 -0.045245629 0.025654603 -0.01942599 0.018474016 -0.040783241 0.055442035 0.024206338 -0.11717325 -0.0062119877 0.059372488 -0.072307304 0.018621363 -0.011806001 -0.12872386 -0.070016846 0.017703744 0.045682125 -0.048584372 -0.054910209 0.032429308 0.014340815 -0.10181609 -0.00092226418 -0.037352793 0.0098937545 -0.071797416 0.04943442 -0.0040103504 0.087832108 0.12923709 0.029783756 0.028561963 0.033077531 -0.068210125 0.082338929 -0.0064356546 -0.04824559 -0.065081842 0.028471112 0.082889117 0.015255615 0.11062105 0.069402821 0.080870137 -0.072002865 0.082918704 -0.10958763 0.0054990593 0.028696775 2.588646e-05 0.023407334 0.036896814 -0.068686374 0.051073458 -0.0051499717 0.029056486 -0.11342973 0.031480286 0.02616374 -0.042438511 0.055620261 0.00041650824 0.045372844 -0.10056405 0.057799481 0.086655222 0.0043363147 0.063805103 0.048881661 0.072480246 0.12015519 0.017440934 0.13700025 0.085556902 -0.095413081 0.079133816 0.051015444 -0.031403311 0.011816894 -0.11693544 0.041029278 -0.012556472 -0.012732469 -0.044194214 0.015768833 -0.00080047903 -0.037050877 0.062374178 0.056391649 -0.018449862 -0.077393845 -0.087988026 -0.050209854 0.099937372 0.076245673 0.06319879 0.095909305 0.044055637 -0.082347102 -0.050431531 -0.099665537 0.066342808 0.0090265032 -0.10840554 0.028851628 -0.043243039 -0.091774881 -0.093821123 0.033076953 0.08449512 0.0039788368 -0.0094127338 0.073178589 -0.042767595 0.071254894 0.055373289 -0.074578404 0.096427724 0.024014054 0.047816973 0.089121826 -0.045458138 0.079763524 -0.083341286 0.077329837 -0.086523503 0.079813093 0.089883059 0.065673798 -0.022063119 0.075265892 -0.015919667 -0.022449961 0.045227457 -0.01513306 0.058839571 -0.098719418 0.034635246 0.075801402 -0.092461586 -0.063836589 0.040926356 0.049201768 -0.022604568 0.090906367 0.0083000129 -0.024679661 0.010163165 -0.078053012 0.0066769696 0.0021926248 0.033515025 -0.10413883 0.061625928 -0.050622754 -0.0023052518 0.025240332 0.10094666 -0.10067366 0.025342105 0.039481275 -0.071646057 0.08009211 -0.02963957 0.053475268 -0.01707604 -0.057356734 0.016025523 -0.018924778 0.074427173 -0.086669818 0.046692938 -0.065259643 0.023880644 0.050488833 -0.036871258 0.10737473 -0.073154464 0.021041563 0.013781828 -0.059189953 0.070208192 0.06081748 -0.074611232 -0.018604632 -0.10795186 0.041070085 -0.077240624 -0.038389545 -0.011635361 0.090519734 0.089447677 0.031174649 -0.024370734 0.09853068 0.098106563 -0.10891657 -0.065414563 -0.067816332 0.015350467 -0.051492095 0.048578989 -0.017651355 0.058706284 0.075841136 0.012842578 0.10053233 -0.0090063252 -0.06643834 -0.040163714 0.012563483 -0.082478456 0.091612697 -0.041434705 -0.020837527 0.040307265 -0.086534254 0.071633562 0.061446678 0.014832521 -0.024966788 -0.08441291 -0.074817725 0.053008016 0.068683803 0.035751846 -0.050264239 -0.032466844 0.079006471 -2.7732131e-05 -0.062665679 0.1134055 0.01061892 -0.073394172 -0.0039138668 0.05339621 -0.016195467 -0.087451443 0.063193232 0.044330165 -0.033824075 -0.052351139 -0.04233446 -0.032653511 0.073625058 -0.060117319 0.015122549 0.091592744 -0.10091306 0.00042893935 0.097121902 -0.098554321 0.082485229 -0.071665049 0.085667379 0.015656222 0.10699115 -0.093341127 0.012494269 -0.066931948 -0.069782369 -0.096429773 0.033388384 -0.054757737 0.097810686 0.039452899 -0.022709658 -0.060360473 -0.066808283 -0.02487996 0.046142399 5.2309333e-06 -0.076714799 -0.10234206 -0.055608492 0.083669581 0.081107669 0.057355374 -0.017943811 -0.05205122 0.0080617629 0.0066767996 -0.11631864 -0.0070674466 0.017987249 -0.040824227 0.019322276 0.041043192 0.042081136 -0.067012027 0.087367415 -0.079511546 0.030718071 0.07774435 0.045731653 0.015885508 0.098005556 -0.016683375 0.01385673 0.043694988 0.048397638 -0.03541873 -0.072469696 0.10088675 0.031141413 -0.048815645 0.090297543 -0.024360813 -0.026400974 0.0509753 -0.073362805 0.046247385 0.0035248895 -0.0044340612 0.079045877 0.047216214 -0.023586882 -0.037883904 -0.074528746 0.030965595 -0.075770169 -0.088208444 0.083256185 -0.084050521 0.071253099 0.0085684229 0.08222083 0.027296653 -0.029370183 -0.0079961391 -0.0031045419 0.010427244 -0.064913936 -0.053553592 -0.0070186704 -0.066511944 0.0011013903 0.06056264 0.078098863 0.099975042 0.085976005 4.446337e-05 -0.011132788 0.012638891 -0.058528259 0.049081985 0.021218274 0.05049073 0.032095954 -0.043799389 -0.079759248 0.074029535 -0.0193877 0.0093972469 0.014916603 0.10317317 -0.058516338 0.075264975 -0.017058384 -0.03223021 -0.0090564992 -0.0097081875 0.0029267552 -0.03054953 0.046168979 -0.043543756 0.027116816 0.059516598 0.011460871 -0.082267493 0.07028497 0.053453837 0.073706068 0.087588295 0.052931782 -0.040550757 0.098003745 -0.019495567 0.043673869 -0.051513426 -0.038854856 -0.0036584637 0.051640432 -0.041908007 0.11409948 -0.084372111 -0.099857748 -0.032393962 -0.10049892 0.08510647 -0.034566417 -0.091356196 0.038540915 0.079340145 0.0097418465 0.0095771616 0.032552209 0.062058307 0.080875874 -0.07996621 0.051673427 -0.038527146 -0.078653626 -0.017953169 0.089049771 -0.074722432 0.010536741 0.018696975 0.01385666 -0.067176379 0.065120488 -0.0097146817 0.019518048 -0.018453339 0.024050299 -0.06369888 0.057792746 -0.04930817 -0.018162938 -0.081176654 -0.061159506 0.044874486 -0.028833985 -0.075826898 0.082345486 -0.081427619 -0.039461199 -0.084350616 0.08597324 -0.02462001 0.08742439 -0.062041048 0.017626239 -0.041978437 0.029367944 -0.082088999 -0.093811072 0.071725905 0.034040485 -0.059544522 0.095515482 -0.07696113 -0.061526425 0.058891751 -0.10025787 -0.018733034 -0.018409329 -0.00045563266 -0.012978978 -0.054665539 0.0077743712 0.095838971 -0.019103577 0.017723847 0.00076432939 0.030206911 -0.080049589 0.073999867 -0.034392901 0.037727334 0.065942094 -0.016415644 -0.065721825 0.021099027 0.040649671 -0.038583219 0.031903584 0.095003046 0.038134553 -0.012975603 -0.048978001 0.0078879567 0.08973249 -0.0070677199 0.044095624 -0.0025293126 -0.091038406 -0.0087686544 0.019464148 0.0075705731 -0.06730774 -0.02065865 0.016447276 -0.031917889 0.079069674 0.085752748 0.012544295 0.036270186 -0.056804467 0.076140545 0.043948039 -0.088180423 0.11334248 -0.047042713 0.009515658 0.016922403 0.06070137 0.053196575 0.01193014 0.04782515 -0.032474771 0.07728301 -0.076143809 0.075291134 -0.0030090483 0.068716615 -0.0022639497 0.026529843 0.073144466 0.079473309 0.056639072 0.074067056 -0.080681056 0.08208093 0.09250325 0.048381623 -0.027126599 -0.018904775 0.056641333 -0.07275708 0.08710143 -0.056081221 0.043024477 0.1144241 0.050420955 0.024032876 -0.077849336 0.072521023 0.034203202 -0.050923146 0.0020993787 0.030265616 0.09942475 0.0095728133 -0.012957278 0.10548609 0.064974934 0.051595826 0.041068081 0.028076934 -0.045694787 -0.035710704 -0.039662372 -0.060443446 0.056843113 0.035041615 -0.04068476 -0.074188232 -0.055532031 -0.085325293 -0.083331719 -0.0041750856 0.076602414 -0.013055949 0.039357554 0.011793992 -0.010186536 -0.075778984 -0.08595331 0.057298593 0.084587403 0.052766465 -0.05277035 0.080478489 -0.021373952 -0.06422805 0.01141 0.059686366 -0.039435018 0.052603614 -0.060868364 0.067818388 0.062922016 -0.004452649 0.092385694 -0.060157884 -0.05707765 0.085083231 0.067980565 0.0708533 -0.023517484 -0.0021806988 -0.082349628 -0.079161577 0.073152468 0.071885452 0.004608816 0.018795257 0.06778007 0.038131189 0.056028947 -0.021100745 -0.050989982 0.080896638 0.05009602 0.034755357 0.040042158 -0.039315533 0.10285573 -0.090154231 -0.019780705 -0.084044956 -0.0043362882 -0.043639667 0.085463636 -0.006690938 -0.08977133 0.01573156 0.06520652 -0.010330596 -0.034270212 0.09848541 0.083294667 0.015194125 -0.1006342 -0.050035853 -0.037754782 -0.054672122 -0.082012765 0.027267853 0.098705202 -0.088017687 -0.067099921 0.075823143 -0.085990101 -0.06575235 0.097846329 -0.070094973 0.0088511426 -0.01642115 -0.11022893 0.011742361 0.06607087 -0.07226941 -0.010445263 -0.099112377 -0.032836754 -0.074705206 0.076541238 0.0010553643 -0.044570629 0.013022281 0.040583156 0.046882972 0.063650817 0.015693761 0.086497016 0.047880877 0.083042689 -0.00093033549 -0.068175495 0.091680713 0.018379901 0.021727409 0.065856814 0.024117796 -0.046081722 0.0077405409 -0.048136454 -0.066407733 -0.0684181 0.010104203 -0.075707637 -0.073192008 -0.066256016 0.019062568 -0.029453354 0.10761666 0.068520084 -0.076365694 -0.032695495 -0.050090764 0.018651836 0.039283033 0.022294011 0.083294921 0.022064261 -0.054598838 0.042584375 -0.0035251833 0.03211024 0.05019968 0.0056049321 0.026572123 -0.09319175 -0.082286283 -0.073333994 0.0077480897 -0.016966328 -0.010613508 0.026058342 0.0044648158 0.061313849 0.093534775 0.045646954 -0.07319957 -0.00055966375 0.050373171 -0.096301809 0.013472979 -0.019134257 0.042326145 0.0052895695 0.086375058 -0.04006708 -0.07617636 -0.037885543 0.016252518 -0.072385244 0.098221742 -0.095593296 0.018404895 -0.039153945 -0.065259568 -0.097428165 -0.031597871 -0.080127344 0.072011858 -0.087231815 -0.031936001 0.02487725 -0.016386129 0.016892096 0.10576431 -0.039198104 -0.09769278 0.016504746 0.027924996 0.0020344104 -0.048505608 0.08856567 -0.077429287 0.010004735 -0.076167122 -0.087939948 0.047960009 0.083134405 -0.08156015 0.039828736 -0.011608875 -0.10957567 0.011106218 0.035296541 0.055395856 0.1094242 -0.023931211 -0.054491404 -0.095963269 -0.0055584125 -0.047323544 -0.042340647 -0.089517087 0.10623888 -0.053948335 0.013035466 0.07360217 0.046752021 0.085653052 -0.0069969185 -0.072936326 -0.068852969 -0.047795784 0.051702715 0.01876366 -0.0459047 0.044549517 0.070730612 -0.011288218 0.046028987 0.061126396 -0.022367751 0.071258388 0.077580065 0.070699982 -0.10455956 -0.049425621 0.036873177 0.00068000646 0.11783137 0.082549036 -0.010359195 -0.08181528 -0.046587572 0.091412753 -0.028819188 0.037137128 -0.029211177 0.096441165 0.059892636 -0.046789452 -0.036618337 -0.055867981 0.042358574 0.096316889 0.023254097 0.043766677 -0.0081658168 -0.015772166 0.091599077 0.077424482 0.086205661 -0.059242301 -0.030975226 0.014694506 0.055170815 0.024018075 -0.024058668 0.017069979 -0.072441682 0.073435329 0.074039593 -0.044641931 0.035245348 0.025243156 0.083160624 0.095479026 0.092450306 0.071021125 -0.053826157 -0.030362222 -0.089376114 0.084426418 -0.050011888 0.1017972 -0.062199205 -0.083638698 0.098432131 -0.0014581922 -0.026697366 -0.05843199 -0.078204453 0.0046488629 0.019354824 -0.048631441 0.061503015 0.053333804 -0.024006734 -0.051103715 0.044260565 0.084681489 0.036144998 -0.043303382 0.033890259 0.064908676 -0.013386615 0.079990476 -0.10172457 0.014248908 -0.0234631 -0.0027085717 0.01910378 0.081775978 -0.10699668 0.088274293 -0.10179882 0.045054249 0.11667645 -0.079596154 -0.052641734 -0.026272304 0.04582252 0.0068087485 -0.096701786 0.046264362 -0.1055043 0.11946816 -0.076768048 0.049794797 -0.084572114 -0.090602152 -0.014776791 0.075999349 -0.075574167 0.065074682 0.078255169 0.060550008 0.020526841 0.003265043 0.078282766 -0.009290087 0.051523168 -0.065388381 0.067103058 -0.088835075 0.0086910855 -0.00052330369 0.0072848625 -0.096017383 0.087968268 -0.076474339 0.041471161 0.024977047 0.015407784 0.046647441 0.055927191 -0.038910646 -0.037812278 0.060601234 -0.061456934 -0.070938237 -0.092627153 0.020795263 -0.084577918 -0.031887267 0.02732927 -0.079489723 0.11325678 0.008078252 -0.034903925 -0.11746548 0.038597472 -0.032842528 0.0096347006 -0.038789272 0.0092612086 -0.009368401 0.052803941 -0.070026062 -0.036904447 0.039963711 0.0074135093 -0.031986453 0.0068033482 0.053912047 0.062127955 0.033630896 -0.082929946 -0.011837457 0.10766488 -0.095368981 -0.063209251 0.050108429 -0.0060925279 0.02575759 -0.095109507 0.0015475217 0.083683647 0.018596556 0.016478658 0.068325318 -0.019490143 0.098058686 0.028759016 0.096571557 0.11932763 -0.059266049 -0.10167783 0.10150427 0.10940371 -0.057459939 0.034391221 -0.0062730527 -0.079756811 -0.064205758 0.009576845 0.03428584 -0.09586402 -0.1075148 0.019472245 0.086031444 -0.081677407 -0.095736027 0.020969246 0.041055247 -0.068833865 0.022986947 -0.11027621 -0.014245812 -0.061889723 -0.026802158 -0.10307566 0.035708118 0.061909709 -0.045763846 -0.10074012 0.072405607 -0.041906867 -0.0060982262 0.035815448 -0.040864769 -0.088663399 -0.0001654176 0.040635742 -0.06500075 0.042233009 -0.06810455 -0.059632458 -0.091017239 -0.081632085 -0.022889089 -0.074996881 0.072862484 0.088690437 0.0099413013 0.095312037 0.034363803 -0.012729853 -0.084208317 0.03127829 0.11129615 -0.020986132 0.025286881 0.03717139 0.09096501 0.082864217 0.040455576 -0.075211383 -0.020110859 0.079288542 0.041632239 0.0064463047 -0.041920044 -0.11739964 -0.092458464 -0.024912922 0.061641458 -0.021442559 -0.10964707 0.016000783 -0.071457289 -0.04492382 0.10043075 0.12258788 -0.014719149 0.067032315 -0.068497621 -0.10528493 0.087697975 -0.048620753 -0.0571923 0.06666036 0.055675354 0.052630443 -0.0020894362 -0.041421965 0.032077804 0.035093047 -0.016287588 -0.040479846 0.072575964 -0.042027473 -0.0058876169 -0.065921791 0.02175105 -0.0063758357 -0.048847362 -0.026995225 -0.035590548 -0.028774604 -0.092889905 -0.064138241 -0.056981787 -0.026753616 0.0077763395 0.076842897 -0.014312997 0.028274208 -0.045902871 -0.10185082 -0.10777385 0.071419179 0.073381685 0.011925708 0.044723403 -0.059011541 0.090282731 -0.028396772 0.072740741 0.063299745 0.058987536 0.10903978 0.07587187 0.064623252 0.022185568 0.02058569 -0.081876114 -0.046252221 -0.1242324 -0.043668747 -0.066602193 -0.052721176 -0.031682555 -0.060925782 -0.00015686447 0.060639478 -0.0055893175 0.051612139 0.029227942 -0.052207202 -0.078697339 0.08185409 -0.048206344 -0.021056082 -0.080250345 0.092847191 0.02266565 0.11779884 -0.02768492 -0.019044338 0.017514305 -0.049424369 -0.081224501 -0.016988164 -0.070129149 -0.041769225 0.077378459 0.013818662 0.018520441 0.074197769 0.0052788355 -0.048191812 -0.0067800134 -0.010058104 -0.0088966405 0.079786494 -0.069027007 -0.06203701 0.010452359 0.053558793 -0.0011566773 0.053316306 -0.052509088 -0.10452563 0.116775 -0.017482324 0.088728882 -0.079925619 0.028804846 0.037892058 -0.038505677 0.0076607354 0.025059162 0.012320254 0.046995092 0.033251386 -0.053252313 -0.099473089 -0.047600389 0.02480147 -0.038176812 -0.1076469 0.035618611 -0.0024224063 -0.087922558 -0.076441839 0.027072798 0.0827372 0.090849519 -0.0052465517 0.039968234 -0.021897448 0.079669103 -0.056540705 -0.046034288 0.044037484 0.012556352 0.028468369 0.0039732531 0.014693931 -0.0062280679 0.027837563 0.10576092 0.022970067 0.00062029844 -0.02268341 -0.084150583 -0.013334993 0.030132517 -0.10679324 -0.032317497 0.088725924 0.071160376 0.022875872 0.079997681 -0.035898067 -0.0838608 -0.064334914 -0.0097501436 0.01566112 -0.0088605592 0.03540637 -0.067198105 -0.074555911 0.022859354 -0.03541727 0.067547403 0.090816826 0.086392961 -0.075584024 0.011588705 -0.023369221 0.057299417 0.061107613 0.075941294 0.016924545 0.10570422 -0.010806635 0.052277405 -0.036328834 -0.0020414216 -0.054385345 0.066812284 -0.065217353 0.096832 0.11542276 -0.075443298 0.03202318 -0.081377104 0.096980795 0.086380191 0.01764277 -0.025182078 0.083744429 -0.081075698 -0.059555598 -0.00093699299 -0.013753327 -0.051128253 -0.039161209 0.08308313 -0.069665112 0.0067762956 0.00041828986 0.055138458 -0.074198641 -0.013209221 -0.04302137 0.00096544746 -0.017574821 -0.060176216 -0.076270372 0.065535203 -0.083697289 -0.021730985 0.038551163 0.039310094 0.025767388 0.0073460937 -0.087941356 -0.086829223 0.011615395 -0.044387609 0.10088457 0.026856404 0.095992751 0.048009571 0.043439157 -0.034253195 0.01475608 -0.095608272 0.092548057 0.0026505245 -0.0015106939 -0.016012518 0.042484853 -0.080552839 -0.1004965 0.085027926 0.096021183 -0.10092407 0.095129423 -0.067817315 0.065814376 0.057413649 -0.084730931 -0.049989492 0.10300748 0.023484653 -0.050687 0.036605164 -0.038807217 -0.051538955 -0.037654188 0.070022881 -0.040123206 0.022871025 0.02677534 -0.083035126 -0.07705535 -0.039711636 -0.064361937 -0.021327533 0.051345598 -0.00088672817 0.0065741693 -0.081762701 -0.049092434 -0.015699806 -0.030081337 0.077453636 -0.01457944 -0.073323093 0.053082701 0.046815678 0.028411474 -0.017745238 0.07813558 0.029449303 0.10916266 -0.08441969 -0.031656489 -0.089680307 -0.0036106349 -0.091413602 0.0534705 -0.089693159 0.029387137 -0.075495467 -0.036492314 -0.013947981 0.037811052 0.092584886 -0.096912079 0.091217391 -0.040970936 0.049847677 0.024739031 -0.093877733 -0.048962943 -0.033718713 0.10477912 0.0039769248 -0.085798897 0.025184775 -0.08570233 -0.011518488 -0.055821676 -0.018313292 -0.03164513 -0.070006058 -0.094826728 -0.11810156 -0.068095088 0.037090436 -0.03801199 0.11040924 -0.035188757 0.094053403 0.00048713561 -0.01821341 0.077493154 0.0098258499 0.019551264 -0.013974734 -0.094857082 0.054846726 0.060145881 -0.063963793 0.084044695 -0.055101242 0.026235007 0.057927884 -0.076447837 0.029943585 -0.04311882 -0.014434057 -0.092362538 -0.087632947 -0.0049341079 0.099675864 -0.017428566 0.010016344 0.076555155 -0.069910832 -0.096569762 -0.034391005 -0.084803447 -0.084197395 -0.010635126 0.034192152 0.033093866 0.016473792 0.062061775 -0.065155841 0.018357959 -0.065795511 -0.066821024 -0.093793944 -0.064229764 -0.0049613533 -0.012160398 0.074275479 -0.018888533 0.001848176 0.015931387 0.044149142 -0.013505606 0.082868025 -0.063193306 0.04278785 0.035209235 -0.037848622 -0.044352602 -0.034241106 0.0063596386 0.03322557 -0.10151509 0.046411917 -0.10138784 0.030766599 0.078241207 -0.069751047 -0.051332567 0.025842417 0.077421822 0.0069154967 -0.079450101 -0.097646482 -0.052334286 -0.0089620845 -0.021437941 0.035399538 0.065118931 0.058351781 0.0079609081 -0.020972699 0.010369467 -0.0079144286 -0.030761303 0.028782686 -0.023446776 -0.095233083 -0.079294309 0.039071381 0.071884073 0.047780827 0.057429265 0.035037935 -0.010077298 -0.013722131 0.08391536 0.018553628 0.038163863 -0.099660739 -0.076160677 0.030826403 0.025114642 0.073445477 -0.0086302599 0.10795406 0.038796999 -0.029757259 -0.061915908 0.11248236 0.052387208 0.071758695 0.077876948 -0.10454932 -0.079826042 0.095477097 0.016099371 0.072849184 0.076123662 -0.029273799 0.095107131 0.093554653 -0.037732031 0.052865196 -0.023562821 -0.010422654 -0.049553152 -0.10184913 0.090463065 -0.086212642 0.06850601 -0.040711582 -0.054872938 0.07325913 -0.028899763 -0.01719773 0.033048306 -0.038066488 -0.030327709 0.076532893 -0.090366863 -0.084625132 0.083645865 -0.020992985 0.01734972 0.018340794 -0.0062882914 -0.062900014 0.014722879 -0.0043304195 0.084543958 -0.076422825 0.040516548 -0.066066541 -0.079081707 0.0059923702 -0.025509832 0.0083272839 0.069719233 0.055469275 -0.094992585 -0.0048439773 -0.093090639 0.08751715 0.014150642 -0.057393853 -0.066813305 -0.085017726 -0.071474887 -0.059883177 0.094639271 0.053727329 -0.040731069 -0.010812286 0.0094868978 0.036895081 -0.095972121 -0.031460173 -0.075051598 0.059130739 0.017874921 -0.050220251 0.064614646 -0.054032832 0.018850662 0.074901879 -0.043382406 0.062033873 0.018244864 0.035808656 -0.015744004 0.0092659043 0.077441104 -0.063527852 0.066293769 0.049560621 -0.029214507 0.02091632 -0.06073929 0.050547253 0.025296915 -0.0020754505 0.047386829 -0.031724188 0.043115482 0.11164425 -0.039356191 0.092267781 0.016233763 -0.029655661 -0.051405486 0.029802363 0.010928749 -0.088376485 -0.015750611 -0.017874843 -0.0011842909 -0.0011522667 0.037235353 -0.014571869 0.096598804 -0.010569929 0.028376868 -0.080381237 -0.088812739 -0.017179759 -0.078102723 -0.051381342 -0.08907976 0.040405255 -0.024766415 0.09299396 0.012218773 -0.084862262 -0.10043507 0.0018649762 0.078232333 -0.0015263284 -0.069334991 -0.017475385 -0.054992232 -0.013701237 -0.090253137 0.071001597 0.056798406 0.066051237 0.016643865 0.017241204 -0.066787772 -0.016975164 0.063120089 0.061403684 -0.044904105 0.042947102 -0.083189175 -0.054926097 -0.015916787 -0.0059931763 0.061202411 -0.059913173 -0.015974481 -0.085021816 0.0087697832 -0.047928777 -0.088576078 -0.00069312396 0.0030018357 -0.025880972 -0.038642943 -0.087449752 -0.051336374 -0.090743817 -0.099159233 -0.068807252 -0.091504559 0.033625595 0.0097184125 -0.082082547 -0.033077307 0.0057930117 -0.060623061 0.032019373 -0.027476946 0.053532403 0.095887668 -0.0303088 0.019186014 -0.054873485 -0.078778088 -0.04629568 0.1088872 0.088720106 0.058166601 -0.084250331 -0.071202427 0.023907537 0.054260917 -0.029283848 0.0093510672 0.095578551 0.049611606 -0.030677194 -0.019108007 -0.095389448 0.0014681588 -0.054150939 0.090388089 -0.05146635 -0.059776537 0.018058607 0.10634089 0.028127747 0.018533241 -0.030412296 0.065896794 -0.095030315 0.032075241 0.090205669 -0.043732844 -0.039845742 0.028181193 -0.07378599 -0.025912752 -0.0018320297 0.071394287 0.10036483 -0.042397127 0.073585689 0.0957288 -0.087503664 -0.047804791 -0.011840828 -0.03199039 -0.024012569 0.077922948 -0.068394035 0.091980182 -0.072477549 0.04458788 -0.024926199 -0.014651989 -0.0081364866 -0.035357583 -0.055291273 -0.077283777 0.040592484 0.084492981 0.040086683 0.054886647 0.081639744 -0.073415928 0.056709502 0.078657068 0.032615948 -0.0074177347 0.027760688 -0.083883189 0.053822882 -0.10209233 0.09351185 -0.042647623 0.027037047 0.028567597 0.075773679 0.061997041 0.10199933 -0.014545273 0.088857777 4.9590475e-05 0.0029568064 -0.0073501994 -0.0038460433 -0.01056101 0.074060433 -0.09319564 0.070364267 -0.019760432 0.01678469 -0.017967219 0.074390672 -0.072804175 -0.048574544 -0.034632467 0.032376956 -0.062475525 0.086294018 -0.0090250131 -0.084672533 0.045376182 0.058767624 0.000681479 0.066523939 0.0041759587 0.038454708 -0.10997294 0.0010442981 0.08946611 0.0087884236 -0.061795641 0.043761395 -0.010301433 -0.060100459 -0.0018387373 -0.10511073 -0.044663582 -0.00061374588 -0.0084259501 -0.10407947 -0.0045747282 0.063955382 0.088663891 -0.090040676 -0.023716992 0.010299472 -0.030612251 -0.098010078 0.08444941 0.075485028 0.020284697 0.06832283 0.033453748 0.048955116 -0.058598585 -0.082438886 0.053468231 0.073771775 0.10549664 -0.04698693 -0.09436854 0.097444378 -0.075791478 0.055757985 -0.07241638 0.049255978 0.081517607 0.071541898 -0.068418443 -0.059478994 -0.089828573 0.027152833 -0.091581434 -0.036283653 -0.098327339 0.010269878 -0.0049720295 0.048291568 -0.028533183 -0.066534422 -0.073060393 0.068799347 0.069224596 -0.0061801197 0.027584149 -0.060131669 0.047219165 -0.016481385 0.076463193 -0.057695597 0.070564769 0.084110044 0.071770921 0.075155653 0.05941464 0.06472116 -0.022122322 0.031063631 0.058600362 0.0054267701 -0.015466128 0.079195261 0.03962481 0.0037282472 -0.063825414 0.10013424 0.047021821 -0.091132417 0.01194279 0.053109325 -0.06066183 0.060364302 0.063806243 -0.048007097 -0.05674367 0.059313215 0.056275398 0.045102414 0.093212485 -0.011422007 -0.061617374 0.10058791 0.015376871 0.055528238 0.065250501 -0.076682687 -0.071091034 0.026548084 0.097089261 0.010503496 0.025161037 0.072913066 0.082341209 -0.028174182 0.00036543905 0.023302784 -0.08213941 0.078981057 0.053220212 0.024405399 0.095663182 0.058145266 0.014891413 -0.06199871 0.052337237 