#Parameter# /_2 {370,198} 909167 ZERO_GRAD
-0.034862373 0.059401229 0.024730859 -0.039070424 0.070306875 -0.029151898 -0.029684769 -0.00032492654 -0.031080391 -0.060933154 0.02088291 -0.016817372 -0.060158703 0.067208096 0.022152975 0.058608398 0.076066911 0.034078866 -0.12667193 -0.080744743 -0.072721735 -0.016648309 0.011537173 0.033891626 0.095289193 -0.041278653 0.059357911 0.11354202 -0.055927265 0.019002432 -0.058168877 0.0073355073 0.064989433 -0.022873031 -0.10735909 0.051247124 0.075998254 -0.049507957 0.014377985 -0.094355136 -0.051398359 -0.094449483 -0.046654049 -0.10331228 -0.034871988 -0.083605826 0.10524391 0.039414454 0.048363864 0.068149239 -0.070396945 -0.043446153 0.075149752 0.042974148 0.050175153 -0.029526994 0.010438055 -0.0063938769 0.066567361 -0.063519515 0.029667059 -0.12868589 0.014026558 0.028273957 -0.074681915 -0.0083043827 0.071230754 -0.032091726 -0.018541852 0.065195329 0.060399581 -0.10810266 0.069500968 -0.11390546 -0.09648373 -0.12565078 -0.04743256 -0.084434241 -0.062461715 0.017767163 -0.048627123 0.015352321 -0.08522772 0.083010375 0.077515863 -0.044755481 0.032010198 0.0098448591 -0.04992786 0.028917344 0.15286796 -0.092808545 0.050110418 0.11802413 0.026904073 -0.073506586 0.025571253 0.035820581 -0.00076009752 0.046475507 0.094240606 -0.034909505 -0.012557229 -0.10633067 -0.059299331 -0.13255301 0.0066369399 0.028005091 0.089097649 -0.036180928 -0.039149687 0.032357268 0.016743375 -0.080374584 -0.046929337 0.09100081 0.026169077 -0.061647579 -0.0064890906 0.067390218 -0.0051126792 -0.0029870567 -0.10921666 -0.074832812 0.03965367 -0.081296422 0.091745831 -0.070567831 0.076984785 0.049200047 -0.066910096 0.13210712 0.05597306 -0.089523017 0.034742735 -0.11556417 -0.029430605 -0.093111843 -0.070812896 0.053745113 -0.085968524 -0.026936725 -0.072748736 -0.0042887027 -0.012600231 0.03786264 -0.049054205 0.0030547485 -0.1256661 -0.061247759 -0.10206416 0.071325921 0.0001429846 0.024185076 0.058729503 -0.047692712 -0.070304088 -0.10778724 -0.11219124 -0.035530932 -0.038978193 -0.07371024 0.029451724 -0.055744868 -0.052686948 0.019578366 -0.052989151 -0.13123657 0.003876365 -0.10614394 -0.10100032 0.0481929 -0.073865436 0.068347819 -0.063850306 -0.093004473 -0.028278692 -0.11531204 -0.072128996 -0.038346108 -0.10358969 0.061000455 -0.026249932 -0.11356313 -0.098726079 -0.070410475 -0.090868585 0.083329685 0.020806022 -0.019386776 0.040320657 -0.068631895 0.058997177 0.052967355 0.11024351 0.027854158 0.003858601 0.041786108 0.069023132 0.14057429 -0.019290447 -0.11920445 0.042116296 -0.062118683 0.11798176 0.021217506 -0.083162099 -0.12103143 -0.051970288 -0.11697664 0.093736902 0.13669758 -0.086520188 -0.057789918 -0.035114761 -0.012509656 -0.061231058 0.04363735 0.019290391 -0.0066615711 -0.11663414 -0.081260614 -0.04794196 0.15052855 0.015236223 -0.0095415404 0.0058918446 -0.014247024 0.021961959 0.10105325 0.025101155 0.079006873 -0.0078661768 -0.0028914262 -0.11744247 -0.080917835 -0.074119776 -0.060827091 0.094147205 0.045406945 0.0022151025 0.065082833 0.056502525 -0.074544415 0.072578266 0.070322603 0.045639545 -0.055515844 0.051862899 0.061358694 -0.0061814361 0.052682616 0.03132318 -0.14191253 0.078315906 -0.047433235 -0.022772031 0.025226891 -0.10385564 -0.015661571 0.045206048 0.018210126 -0.10384328 0.11909929 -0.04605227 0.072646596 -0.094380677 0.0632829 0.10811821 0.038404837 0.090630308 0.010068112 -0.06347689 -0.0015401541 -0.054180663 -0.1178532 0.013677901 0.11371589 -0.13696568 0.011861987 0.073321544 -0.025386106 -0.016550543 0.0054046586 -0.041413188 0.022074226 -0.017378652 -0.10884064 -0.082603872 0.0014648166 -0.076421276 0.0027568736 -0.058174651 -0.10265384 -0.071424209 -0.058298688 0.028680081 -0.00091260287 0.022083534 0.093146056 0.12568779 -0.023754379 0.068258181 0.042525779 -0.032195635 0.10145231 0.12054911 -0.09876471 -0.041307326 -0.10701276 -0.061046828 -0.026693501 -0.10178219 0.075759791 -0.056492083 0.011774551 -0.0034087999 0.099100903 0.095753796 -0.059848148 0.024664294 0.11776952 -0.0080146361 -0.029797019 -0.050678875 -0.040027782 0.10350724 -0.043951739 0.0708379 -0.012030121 -0.019192286 0.080641106 -0.015168842 0.014992116 -0.052306671 0.022117827 0.10373587 0.048595935 0.075822473 0.04091977 0.077284642 -0.088169932 0.07388512 0.0016068352 0.00057854981 -0.05059113 0.048012506 -0.069882497 -0.14068237 -0.007922329 0.029000014 -0.051804222 0.065453529 0.096717089 -0.051606957 0.063642465 -0.13391927 -0.059785657 -0.046866219 0.10623467 -0.010100886 -0.071336284 0.04380089 0.10165384 0.020836407 -0.031204881 -0.12797549 0.026687428 0.034778114 0.052246708 0.032988884 0.0015338833 0.10466488 -0.041393194 -0.069192484 0.029509028 0.033045493 -0.089546554 0.071851939 0.059242457 -0.059597623 0.066759318 0.034145795 -0.098505288 0.036491591 0.032714985 -0.090188213 0.029992586 0.038877558 -0.091174528 -0.054021955 -0.013563455 -0.035145577 -0.11402744 0.020770397 -0.027894342 -0.027203696 -0.039965935 -0.11230975 -0.12474273 -0.033247735 -0.061458759 -0.032947518 -0.061007302 0.04529136 -0.0018394757 -0.075046167 0.017208669 0.052517205 0.029586691 -0.10314773 -0.055949964 -0.10567334 -0.00095694937 0.10518938 0.047883317 -0.069944166 -0.032434803 0.092595585 -0.015085902 -0.023475386 -0.06967324 0.022370407 -0.0085212309 0.073606238 -0.023720771 -0.097961813 0.10382023 0.096798047 -0.022536198 -0.026716325 0.042821933 -0.088516302 0.063182354 -0.093919873 0.12753838 0.0055090361 -0.019721439 -0.042950112 -0.087429486 -0.051437702 -0.041643772 0.087158009 -0.0063478588 0.04408567 0.07118272 -0.032866441 0.074830987 0.030070802 0.09219566 -0.095680244 -0.060228795 0.096340023 -0.060804628 0.097466975 -0.0044491957 0.068827227 -0.07271681 -0.067913443 0.059308745 -0.050108522 -0.090290956 0.11417232 -0.054349985 0.11009979 -0.015585082 0.079330169 0.065477245 0.080602229 -0.074364386 -0.079156324 -0.023989897 -0.045293447 0.036117319 -0.10797247 -0.0074464255 -0.055413134 -0.017906044 -0.01874665 -0.066822574 0.08353845 -0.052730802 0.0011206382 -0.035833862 0.033137254 -0.0070882528 -0.070939004 -0.027892813 -0.032397196 0.0091424026 0.071168087 0.057735994 0.055103328 0.056854408 0.016912533 0.08872287 -0.087117203 -0.10939386 -0.10538103 -0.077906139 -0.010524898 -0.079221584 -0.11312702 -0.032362398 -0.049803764 -0.067918703 0.11072004 0.0068213558 0.090609327 0.077610999 0.024737475 0.036160469 -0.006596013 -0.019573549 -0.094478913 0.046839461 0.0097936885 -0.090538412 0.13870381 0.055775888 -0.01880916 0.013323325 0.10059011 -0.054059025 -0.069997743 -0.021640465 0.084810443 0.021376729 -0.04186146 0.031730566 -0.076420382 -0.066646919 -0.020206586 -0.088452294 0.068121172 -0.012049205 0.015776718 0.039962206 0.00081768294 0.027655704 0.020866262 -0.032839928 -0.048660304 -0.027396161 -0.083232231 -0.10820393 -0.068158351 -0.029874321 0.019351562 -0.032654837 0.075086556 0.055628989 0.012754307 0.083030865 -0.070409201 0.086480327 -0.052168176 0.058268119 0.002862676 0.047953323 0.023779787 -0.00730856 -0.097775213 -0.11368681 0.017171271 0.13400105 -0.090224743 -0.0082985722 0.11548121 -0.035097901 0.095747069 0.02978006 0.0021661259 -0.0068766843 0.043531783 0.088660389 -0.0048621115 -0.074511424 0.027378969 -0.017326223 0.058963969 0.010906921 0.086650878 -0.023566777 -0.094513424 -0.085228294 -0.023622066 -0.024106301 -0.047572505 0.091367327 0.045824464 0.048532549 0.072183602 -0.072875611 -0.052889317 0.035756454 0.12279621 -0.013882344 0.075231515 -0.013696506 -0.11210521 -0.047785677 0.055235118 0.0032972577 0.010542867 0.045497216 0.071337834 -0.070443228 0.039139472 0.012459829 0.0049632136 -0.079908565 -0.023682287 0.040673159 0.0062721064 0.00096492283 -0.081646405 0.061778452 -0.071055174 0.10879457 -0.078552514 -0.0062058344 -0.086255252 0.094802566 0.088612616 0.065034017 0.026597681 -0.021813111 -0.084450148 -0.052868932 0.074725151 -0.0098655215 0.052495353 -0.066604279 -0.057271726 -0.069088295 -0.0044546924 -0.028112721 0.06619601 -0.068536811 0.008163088 0.015871953 -0.016698109 -0.024885982 -0.11649559 0.029276446 -0.098286316 0.059021752 0.080702059 0.061430898 -0.060553242 -0.082559936 0.013788992 0.033618599 0.057208262 0.028870489 0.054911483 -0.085808888 0.077068053 0.051747479 -0.08654917 0.0024856364 0.093351141 0.083583981 -0.029458016 0.10119723 0.068571992 0.086747065 -0.072642162 -0.075225689 -0.056498602 -0.056992386 0.038693219 0.1154441 -0.12835401 -0.014190573 0.057947684 0.01530983 0.051293001 0.042319406 -0.069854319 0.07292702 -0.055912375 -0.01600983 0.012253306 0.017490322 -0.078226246 0.026537493 0.077505678 -0.0038359037 -0.063721091 0.036563221 0.042170346 -0.0014606746 -0.020173209 0.065081775 -0.088290803 0.060778223 -0.07696154 -0.066917695 -0.060150281 -0.057776187 -0.053022806 -0.11544796 0.037606932 -0.10355661 0.063550353 -0.04034283 -0.013852319 0.060005002 -0.033551898 -0.019759368 0.085621879 -0.10378943 -0.0034311558 0.075965442 -0.0057989997 0.13314776 -0.032398704 -0.03910397 0.11968783 -0.055389192 0.020232463 -0.011068762 0.040593557 -0.00521708 0.11483057 0.11975466 0.051018119 0.013316296 0.087842248 0.028501693 -0.048019808 -0.024861846 -0.036116373 0.079414368 0.086738773 -0.050645825 0.014262532 -0.082873791 -0.036470015 -0.061580136 0.065364383 0.090268627 0.064507313 -0.037197374 0.086219095 -0.057832647 0.025848959 0.033774387 -0.02281831 0.049508013 -0.066221163 0.0036076701 -0.05757957 -0.07506483 -0.10455064 -0.0026627406 -0.024115456 0.086248592 0.028535031 0.058480829 -0.034700435 0.058083005 0.096808776 0.098084159 0.1280321 0.077722766 -0.031222805 0.055731378 0.035738446 0.085897222 -0.012428204 -0.11655342 -0.084122851 -0.075618066 0.035165716 0.04123804 0.033249069 0.0024689601 -0.08762975 0.012736938 0.053293724 0.078484967 3.7434205e-05 0.045979165 0.067564398 -0.09502957 -0.08922337 -0.047404658 -0.047456443 0.058641303 -0.02126197 0.0041703372 -0.11072789 0.028929966 0.025740828 -0.020605285 -0.034352243 -0.0061186617 -0.075813279 -0.13155419 0.058855802 -0.11299977 -0.026177088 0.0252007 0.098762065 -0.02498886 -0.014824957 0.025578933 -0.083804056 -0.094630346 -0.075518169 0.034893706 -0.086826541 -0.12123141 0.067600057 0.0012868766 0.10048942 -0.077260576 0.062318683 -0.033960473 -0.0226414 -0.01035268 -0.0051078591 0.10846559 -0.02699329 0.096742854 0.0022145554 0.022490019 0.10209914 0.087602012 0.11227719 -0.014776644 0.077617452 0.0022229687 -0.11336052 -0.071282297 -0.05758569 -0.052638382 -0.038439889 0.0034473091 -0.071415491 0.045437954 -0.057602417 0.022466149 0.05769904 -0.10501998 0.013253581 -0.041122466 0.027466495 0.094838396 0.012173627 0.021098845 0.00074094109 0.07172893 0.092623733 -0.025456361 -0.086186089 0.10690407 0.093739629 -0.020598626 -0.00039091808 0.043656018 -0.078435495 -0.054985255 -0.038812928 0.027869415 0.054893609 0.071985014 -0.021152049 0.073853411 0.0027310979 0.014471958 0.063101664 -0.059044231 0.099124126 -0.05285925 -0.059734855 -0.048575569 -0.028239537 -0.092678025 -0.0046498766 -0.029830571 0.032044608 0.011761223 -0.03415902 -0.036929313 -0.046276063 -0.023345042 0.10157011 -0.07815107 0.022109652 -0.077522062 0.042506058 -0.081585839 -0.079057015 -0.099430256 0.081988715 0.036223568 0.12901472 -0.073520392 0.043793306 0.092621386 -0.090346202 0.016760727 -0.044266768 -0.091212578 -0.047758587 0.017131707 -0.023876773 -0.004961689 -0.034633599 -0.083941504 -0.076897524 0.07479763 0.040551636 0.067261502 0.026395326 -0.090063944 0.063931741 -0.068744957 0.055637311 0.00037933057 0.055904236 0.080695875 -0.031990826 0.013046145 0.076543413 -0.032382973 0.066917002 0.05080346 -0.0048328522 -0.04126142 0.077742897 -0.066330478 -0.0026197471 -0.02896131 -0.058188189 -0.028940499 -0.0065731136 -0.12639582 -0.079284817 0.040941641 0.10676415 0.057371441 -0.025960973 0.013049711 0.071884848 -0.063799605 -0.05738458 0.017425597 -0.039437491 -0.12095121 -0.089341387 0.075135045 0.027222997 0.037586872 -0.065761261 -0.10210593 -0.03965902 0.030691983 0.085708819 0.02844329 0.0023999845 0.024383435 -0.082572341 -0.00024343401 -0.098337479 -0.072552085 -0.10426288 -0.013336653 0.00082302891 0.05579792 0.036810897 0.063982412 0.04583763 -0.038182214 -0.047996219 -0.0035586942 0.039312251 0.062827691 0.0099729579 0.041312281 -0.073356353 0.079424746 -0.060947426 -0.11230794 0.10582668 -0.059759907 0.078220628 0.053546946 -0.021989552 -0.073551469 0.00013590178 0.01512151 -0.034642171 -0.10938689 0.067511559 0.099611163 0.091727227 -0.079511859 0.069220595 0.02349671 0.023140833 -0.074377216 0.087323047 -0.03117316 0.11599655 0.038957972 -0.080112904 -0.058301445 0.015886907 -0.062578976 -0.031267691 0.045648858 0.033130102 0.079370722 0.016786279 -0.015219141 -0.1071749 -0.0775152 0.087083384 -0.037104558 0.034624875 -0.013130103 0.067555189 -0.024602549 -0.0055912421 0.0064504221 0.0012815597 0.0086392248 -0.059573323 0.010537005 0.063606665 0.064205118 0.031786844 0.086227275 0.079935946 0.083712161 0.094940856 -0.04557585 0.072914422 -0.033061601 -0.065097518 -0.048052847 -0.038640443 -0.04106836 0.09234152 -0.028002473 0.029036459 -0.04834174 -0.011755133 -0.059558608 -0.0181532 -0.11593002 -0.11371721 -0.0073189582 0.050228365 0.034251619 -0.12322447 0.08016444 -0.078769885 0.076327845 -0.092303537 0.0095551107 -0.051462296 0.11469531 -0.086795464 0.071605563 -0.081048928 -0.044930164 -0.081741996 0.095922761 0.045734294 0.045635432 0.0089375265 0.075538702 0.0042849681 -0.095659927 0.052346881 0.02624955 -0.090052463 0.0015923759 -0.076897614 -0.085775107 0.1192489 0.019970775 -0.058584314 -0.06802202 0.017089248 -0.068917543 -0.029574409 -0.0067163184 -0.059459075 -0.03834461 -0.046026584 0.079618894 0.071208276 0.084672697 0.061438899 0.13158083 0.10857262 0.096707165 -0.015931541 -0.026625467 -0.011121309 0.08202827 0.099321835 0.0069246287 -0.0073665013 -0.092490837 -0.11857253 0.059111588 -0.11829834 0.11669734 -0.069023512 0.065646097 0.009148106 -0.092965499 -0.067403175 -0.04175479 0.044843163 -0.073295943 0.073880345 0.016770381 0.1357256 0.072705396 -0.016968308 0.11649073 0.09409602 0.011729566 0.058568243 -0.10334811 -0.085427664 -0.082116298 -0.061037749 -0.033654537 0.074047081 -0.084659852 0.01436085 -0.033067238 0.014161258 0.065539233 -0.040228032 0.045734048 0.017688021 -0.057336275 -0.080598101 0.043455344 -0.053941514 0.052951332 -0.084633991 -0.12608616 0.058806691 0.046930198 0.051321931 -0.072279178 -0.012525035 -0.10812561 -0.001000782 -0.11882806 0.014618231 0.026245385 0.064739324 0.088788599 0.048727237 0.075314634 0.08961004 0.1014115 0.006927175 0.046107847 -0.11063486 0.0022216782 -0.047027621 0.016528778 -0.128216 -0.044766817 0.049483739 -0.027051779 0.015115786 0.0005406937 0.12355159 0.078463823 -0.025481455 0.055363409 -0.11662649 -0.017321534 -0.083098724 -0.024998527 -0.081294373 0.10819489 0.11475475 0.091464855 -0.039858826 -0.078750916 0.036223739 -0.033243362 0.084214836 -0.063254207 -0.020469336 -0.0019033239 0.053027209 0.0045445096 -0.033025131 -0.036842201 -0.11436363 -0.011570826 -0.057401624 0.0039554304 -0.08183454 -0.034427226 0.066077568 -0.055223327 -0.0042671831 0.06385006 -0.11535244 0.10744972 0.035463009 0.021808682 0.066643685 0.048469603 0.020005925 -0.097596496 0.027781017 -0.01381157 -0.04242615 -0.028125459 0.040501706 -0.047274727 0.045684796 -0.020041995 0.053589232 -0.12521867 0.121658 -0.079614498 0.093225367 0.077425249 0.012441411 0.010308966 -0.026250871 -0.066292129 -0.037208814 -0.10203415 -0.056002993 0.063926063 0.073507898 0.038661502 0.056822073 -0.032848168 -0.063729517 0.059071962 0.049258586 -0.051096056 0.11047803 -0.082750283 0.019109791 -0.069326498 0.082400598 0.075728737 -0.12241562 -0.012978981 -0.0084080324 -0.098611437 -0.062201198 -0.01353676 0.13006456 0.095622674 0.095693491 0.090931512 -0.10932966 -0.015077742 0.05867216 -0.052827556 -0.0078358809 0.05600138 -0.10373093 -0.035715517 -0.066644892 0.051057596 0.0042592231 -0.12225782 0.057300452 0.081424534 -0.011005589 0.034841757 0.047504377 -0.072181806 -0.087644905 -0.051547013 0.013333961 0.00081511843 -0.071415633 0.11090807 0.0082396315 -0.053441741 -0.0071253059 -0.084559642 -0.049429685 0.0077570905 0.084760599 -0.0031944253 0.12347461 -0.039918177 0.042482708 -0.074010216 0.12481948 0.022685375 0.02455204 -0.047761757 -0.046574015 -0.035465579 0.036532037 -0.023348782 0.047174819 0.070484295 0.10672133 0.10363089 0.013128144 0.074006014 0.028764047 -0.1157321 -0.10121612 0.03817917 -0.020626923 -0.066731669 -0.019905686 -0.0078212926 -0.054697182 -0.036562249 -0.05735743 -0.0096757701 -0.041213091 -0.018385082 -0.041495319 -0.033899069 -0.0039757369 0.022420678 -0.017395966 -0.11001661 0.027881553 0.037919346 -0.10026141 -0.030225296 0.1317046 0.099168465 -0.10474594 0.013085498 0.039389554 -0.096169658 0.074075289 -0.08047349 -0.039595772 -0.078526251 -0.069906563 0.069909029 0.093541794 0.019508695 -0.12478726 -0.098440446 0.11072696 -0.06001801 0.029251466 -0.008697371 -0.095430903 -0.076755606 -0.039260589 0.12505668 0.11088134 -0.12319104 0.031773262 -0.019749265 0.14213841 0.010684604 -0.12691854 -0.0084123369 0.065737709 -0.060443364 -0.11314221 0.089806497 0.0031306108 -0.054573011 0.0060696253 0.071347609 0.065434597 0.010968058 0.10673304 0.11216956 0.087508559 0.11454798 0.081197262 -0.0030810728 -0.061021451 -0.013416819 0.082659021 -0.01028659 -0.10030999 -0.071657233 0.073967248 -0.14203857 0.050452881 -0.069183007 0.0024995392 0.089326173 0.064066745 -0.10567592 0.020861205 0.074593268 -0.07164976 -0.08742281 0.028316481 0.022446441 0.023728197 -0.049996246 -0.072264664 -0.13199821 0.00092917576 0.0081476588 0.043600392 0.15015799 0.054527368 0.045169219 -0.036617309 -0.10334772 -0.041185305 -0.044059943 0.063068256 -0.10814895 -0.021530254 -0.095983602 0.088536635 -0.077832803 0.026775651 -0.047439091 0.071585543 0.03927844 -0.0099862507 -0.12529255 0.09080822 0.082571261 0.10175811 -0.12392745 0.029764695 -0.00043250577 0.044914503 -0.11454064 0.013107934 0.13318998 0.088144697 0.033064712 0.030541588 0.071826302 0.10330478 -0.068801858 -0.08027751 -0.11678845 -0.047143273 0.049943961 -0.0096250866 -0.074179575 -0.0916752 -0.0042314883 -0.11835126 0.045147587 0.1040532 -0.065392666 0.086903363 -0.0097354585 -0.10616615 -0.057275578 -0.041566696 0.042588439 -0.073612206 -0.06707485 0.035033099 0.046613462 0.081876427 0.067136422 0.042151172 0.060185 0.066012956 0.061826915 0.11985754 -0.0481942 -0.083566912 -0.088154532 0.021266272 0.034360081 -0.073745854 0.070417702 -0.13039188 -0.012963161 0.06119388 -0.039809741 -0.068753444 -0.0031933575 -0.032202408 0.014417174 -0.061788995 0.054498471 -0.020597242 -0.081476621 -0.070266955 -0.08877825 -0.050732709 0.054382764 0.064627528 -0.07319726 0.0094265994 -0.079552501 0.02548611 -0.10342087 0.097041711 0.075103357 0.078573741 -0.023184374 0.065822154 0.046862345 -0.0033067465 0.098856613 -0.044804886 -0.026088631 0.032964326 0.10026851 0.057058737 0.0055443151 0.054224506 0.035365406 0.0084701208 0.082618028 -0.1055795 -0.081870519 0.09144669 -0.018470787 0.035569064 -0.013675575 -0.026098825 0.046600908 -0.044785976 -0.027460765 -0.0059969178 0.056927714 0.0090204794 -0.08331155 -0.075012803 0.066485293 -0.073549218 0.097914696 -0.009639062 0.026003046 0.078027256 0.00096144353 -0.029956255 1.7516013e-05 0.072728083 0.11509653 0.035575341 0.043543879 -0.062025193 0.090943098 0.089781336 -0.081270099 0.046149574 -0.00093890453 -0.011562218 -0.064713284 0.10105155 0.027771549 0.025250884 -0.091285288 0.085771114 0.077882193 0.0087241298 0.068739064 -0.041937303 0.085024998 -0.052777972 -0.09724354 -0.058376271 0.014904049 -0.018946335 -0.095795646 -0.10456239 0.060369708 -0.086038083 0.0047166371 -0.036879383 -0.072702684 0.00071007112 -0.012886914 -0.0063254251 0.016723163 0.061430011 -0.011526425 0.082011797 -0.02351141 -0.02087668 0.064090014 -0.002900817 0.07009504 -0.072551288 -0.10382193 -0.021182049 -0.029445274 0.034444757 -0.038967527 -0.084638402 0.070986204 0.092488185 -0.068363577 -0.040956248 -0.020514581 0.032202262 -0.030121008 -0.071939111 0.054074381 0.036956269 0.085935198 0.11059878 0.099029638 -0.072900869 -0.078113198 0.080202818 0.084572531 -0.053740598 0.05460576 -0.073454186 -0.0086949589 -0.0093114302 -0.10378856 0.0088069495 -0.018760193 -0.060432285 -0.10839491 0.010193398 0.057633784 -0.018747712 0.036128554 0.076827906 -0.09349589 0.041383211 -0.035388816 0.019247681 0.032313164 -0.049200442 0.0078758486 -0.02841416 -0.036388628 0.095771164 -0.059363741 0.02119031 0.15335771 0.0046416768 -0.11240709 0.099706896 -0.075162128 0.078400701 0.045437522 -0.082346216 -0.047867462 -0.046944123 0.097242996 0.097586721 -0.010435329 0.057908099 -0.097357847 -0.076090477 -0.071563557 0.08501704 -0.073981643 -0.083260201 -0.0013175916 -0.1076875 0.037477724 0.068666801 -0.0328978 -0.083111092 0.02690356 -0.049301989 0.061449192 0.021903548 0.041835751 -0.079716742 -0.0048098727 -0.045319837 -0.025922572 -0.074269488 -0.03941381 0.015818587 0.081992231 -0.033349931 -0.031985104 0.084378228 0.019452753 -0.069174752 -0.097499847 0.062338807 0.092801087 0.027170047 -0.026088569 -0.08235091 -0.010624732 0.071738318 0.060911983 0.12909169 0.038887367 0.070398577 0.015036983 -0.0208421 0.055190109 -0.083330728 0.08767271 0.022629857 0.035202485 0.0017573622 0.05011211 0.076832071 -0.091761507 -0.027742285 0.045131773 0.1149835 -0.094583519 0.10187749 -0.079166338 0.0079916026 -0.062244631 0.065328643 -0.055445485 -0.015533105 -0.029718935 0.06781292 -0.035659168 0.038109031 -0.024885358 -0.0048444769 0.032643732 0.076723769 -0.03497548 0.017448224 -0.066861764 -0.077255636 -0.010081509 -0.0078708623 0.0099615781 -0.088192187 -0.009474067 0.080435686 0.02454669 0.020287132 0.043435555 0.020754995 -0.089363173 -0.018634439 -0.031695999 -0.12903927 0.094467282 -0.095795348 -0.11791918 -0.061144136 -0.097652063 -0.014092972 -0.014303459 -0.077282488 -0.10887381 -0.097253047 0.035893865 0.1163578 0.054367151 0.025294965 0.079826348 -0.011640888 -0.041794367 0.071888454 0.079678528 -0.030732218 -0.046859868 0.011971712 0.013317036 0.054909363 0.11434259 0.049190097 -0.025632994 0.046316128 0.037089624 -0.13379553 -0.081795745 -0.031070078 -0.099065199 -0.029915784 -0.092584856 -0.12876499 -0.10690127 0.057541449 0.029714037 0.039732482 0.083953731 0.065332629 0.038275488 -0.098539017 0.050056875 -0.041890118 -0.067522779 0.0062727546 -0.00032705144 -0.068116419 0.022210587 -0.056010693 -0.035961013 0.065283954 0.01926676 0.072151847 -0.0087926863 0.092248417 0.04622861 0.0018209976 0.017867988 -0.023582697 -0.010655676 0.018375106 -0.020596085 -0.045692116 -0.067714781 -0.10316489 -0.055002417 -0.012113277 0.10687521 -0.025480114 0.0002130325 -0.027823804 -0.033568159 0.0075577274 0.069444634 -0.010667897 0.018837901 -0.037882879 -0.012354224 0.0044444078 0.089419715 0.082359917 -0.0042512608 -0.096968561 -0.029950226 -0.0071715983 0.069959454 -0.037599053 0.074946091 0.074783437 0.023841104 -0.089744948 -0.098571911 -0.05599938 0.065957099 0.0047143307 -0.074162781 0.10559697 -0.041172542 -0.075976744 0.039688367 0.004135367 -0.00014667571 0.036422208 0.099810287 0.089009531 0.055131029 0.072521888 -0.026694065 0.0091423914 -0.041908532 0.03047324 -0.10588669 -0.047990836 0.0078828717 -0.066211373 -0.043020446 0.023628348 0.033679228 -0.025133245 0.054322157 -0.043124888 -0.0075223986 -0.02068794 0.035946079 -0.034059696 0.07234858 0.015926696 0.071106978 -0.077899657 -0.045671336 0.01326787 0.068554498 0.079487272 0.054813601 -0.0015390951 0.087861665 0.10335469 -0.049143944 -0.010508566 -0.10999126 -0.051517766 0.031927586 -0.097965345 -0.035348121 0.08767309 -0.085052572 -0.02656189 0.075398766 0.040471084 0.10230536 0.037357863 0.078870878 -0.074362382 0.059650842 -0.031044174 -0.022119077 -0.076104455 -0.045131043 0.068844929 0.0013903589 0.060547922 0.08373896 0.081024937 -0.093874015 0.062975995 0.033164494 -0.025433235 0.021779668 0.0027411336 0.013330993 0.088159867 -0.012631283 0.087464184 -0.038143817 -0.03955137 0.038511381 0.02289211 -0.081481151 -0.098318473 0.010832989 0.081265375 -0.02773354 0.058401152 -0.054651652 -0.018889699 0.079593554 0.026086684 0.095436245 0.067183651 -0.047050405 -0.060285583 0.077539295 -0.090506747 0.05948817 0.051425669 0.050553259 -0.11061944 -0.012508237 -0.049616631 0.032096319 0.086666889 -0.07371828 0.022451015 -0.064863198 -0.031821623 -0.078299254 0.030634582 -0.081447557 0.092614345 -0.06521415 -0.039492887 -0.021021239 -0.07142441 0.079795599 -0.087781861 0.013663117 0.023703873 0.047496323 0.055830047 0.017033506 0.094341218 -0.076713718 0.094023429 0.001721926 -0.10178783 -0.087506033 0.040664304 0.049366217 0.075724468 -0.029107992 -0.066914447 0.066982463 -0.015489083 0.092202924 0.00062279671 -0.080060013 0.0069601648 0.073342584 0.041940123 -0.099239878 -0.011442758 -0.039841156 -0.083282351 -0.10006333 -0.0028538741 -0.054852299 -0.0049432553 -0.057240717 -0.10586803 -0.095685042 -0.066113017 -0.04505061 0.0014681743 0.06318529 -0.055692889 0.044472821 0.0057906145 0.092728175 -0.022115601 -0.039764643 -0.058348231 -0.00017793057 -0.087906659 0.05304943 -0.10922585 -0.041040607 -0.080188565 0.062469751 -0.036195718 -0.044213448 0.06448555 -0.038776111 -0.010107946 -0.080964915 0.015158202 0.068896756 -0.036371656 -0.0077747796 -0.060035829 -0.08412724 -0.083538055 -0.04384014 0.071984828 0.026054733 -0.080874652 0.066523448 0.085558295 0.036745161 -0.026940282 -0.0020187504 -0.09455885 -0.021576533 -0.0038417594 0.015051302 0.10352333 -0.029616451 -0.061175451 -0.085987486 0.078829639 -0.05386531 -0.0071155545 0.097071812 -0.061312351 -0.0041477154 -0.026493723 -0.072311744 0.025670175 0.079268791 0.01238643 0.043728892 -0.015807733 -0.0092913508 0.069641925 0.074677706 0.058685925 0.054940447 0.047027208 -0.10145064 0.099545717 0.03455095 0.03629465 -0.082168847 0.010712702 -0.0019667763 0.094877921 0.033442985 -0.090067834 0.036827821 0.0098212622 0.030716868 0.0082366643 -0.053941801 -0.07102593 0.0066607394 0.07612545 0.097643457 0.01892348 0.075806677 0.045295268 0.032061875 0.089591064 0.097417809 0.069189802 -0.092475511 0.081447318 -0.068769529 0.0037445696 0.07597445 0.019103713 -0.093530536 0.039371792 -0.075927034 -0.091878749 -0.0064110397 0.039588295 0.014028048 -0.0029033399 0.046122275 -0.054576736 0.0750679 -0.022746131 0.053532969 0.066955924 0.0077924021 0.010101125 -0.042582955 0.033535361 -0.038205922 0.03176257 -0.10646391 -0.065297879 0.028318608 -0.027811127 -0.045937702 -0.04789827 -0.0835118 0.04257901 0.077467248 0.012449642 -0.034511313 0.073813878 0.046001833 0.075262599 -0.043416787 -0.064394668 0.074306138 -0.02708233 0.032028381 -0.10942551 0.073681071 0.074871399 0.011104101 -0.037563618 -0.018061845 0.080558613 0.083140925 -0.10990975 0.070611469 0.060678821 -0.062654853 -0.032862309 0.084016107 0.031842612 0.080034308 -0.016419942 0.01187242 0.098630302 0.050779171 -0.10939761 0.037257012 0.097431384 -0.003446646 0.039981522 -0.061870866 0.0064191385 0.06488312 0.0072697662 0.052606836 0.079105362 0.079415441 -0.09443637 -0.093759581 -0.067911871 -0.080528237 0.00060801225 0.081654035 -0.056163985 0.011738654 0.017519191 0.0037588193 -0.052633777 -0.11457924 -0.018166643 -0.1058797 0.037626274 0.01520003 0.032093473 -0.025515271 0.081619091 0.079436131 -0.097782798 0.079955198 0.033256304 0.065996468 0.070335627 0.017738506 0.090080835 0.010817989 -0.021076068 -0.078300469 0.057618216 -0.055372648 0.096407831 0.014283033 0.022328895 0.0091777788 0.0047347117 -0.099881433 0.081540242 -0.046796378 0.027813138 -0.060229961 0.073530555 -0.10729829 0.033852674 0.024551541 -0.080798514 -0.031325225 -0.011464719 -0.055227738 -0.082490012 0.054129653 0.086214148 -0.0076299109 -0.031390026 -0.041733805 0.064359151 -0.010203561 0.091712676 -0.047844406 0.10571797 -0.013612727 0.067410074 0.015397382 -0.031532839 -0.019790061 -0.021089997 0.045159709 -0.071286961 -0.060239781 -0.050724454 -0.052677896 0.02183182 -0.10448027 -0.077404737 0.063017473 -0.066771485 -0.044892471 -0.072053306 0.017860813 0.10557392 0.11565723 -0.086034209 -0.063029841 0.0053827004 0.085783735 -0.09591841 0.067844242 -0.094536811 0.096573412 0.062643304 0.016633227 -0.01064092 -0.0046507795 0.071767174 -0.016649321 0.08622174 0.1136558 -0.066140622 -0.011003385 -0.019451464 0.097336613 0.011374812 0.066672064 -0.10037286 -0.0083662271 0.032227557 0.048060901 0.041208256 -0.026340742 -0.027355291 0.059560586 0.0092091477 -0.073945381 0.061469261 0.083579369 -0.025884215 -0.053308416 0.09356904 0.00060516055 0.019831534 0.0070732334 -0.03001474 -0.021344896 0.052240554 0.021676641 -0.029855018 0.055682622 0.10849592 0.005745851 -0.020856835 0.060273446 -0.063085116 0.062967695 -0.06675259 -0.056936592 0.030963352 -0.06583669 -0.071104072 0.052990358 -0.088970006 0.029436707 -0.097327426 -0.015811548 0.046450552 0.048497688 -0.031011859 -0.023820518 0.042098917 -0.039101616 0.05795709 0.034795932 0.062753536 -0.054164354 -0.055383995 0.028149283 -0.0020663731 -0.012512513 -0.078271203 -0.032733086 -0.074639216 -0.1101651 0.037267957 -0.094881572 -0.096491724 0.061562695 -0.054025788 0.092151701 0.0056137163 0.089150593 -0.031395026 0.070625186 -0.082193665 -0.069283225 0.038233649 0.073799714 0.013828683 0.05596609 0.047040962 0.088287666 -0.028944576 0.040259205 -0.090630583 -0.079111949 -0.026040601 0.0054096524 -0.078979127 -0.085513182 0.058793027 -0.0039505968 0.049050193 -0.018109534 0.03187044 -0.058985919 0.041445572 -0.0022308459 -0.044092637 0.079531133 0.041175108 0.08174409 0.045237172 -0.088472739 0.041397095 0.0039358432 0.03436318 0.026458701 -0.038466737 -0.050969414 0.080603816 0.020762477 -0.088583939 -0.059498023 -0.054605998 0.054035168 -0.048546039 -0.086471222 -0.049359702 -0.079800501 0.082066253 -0.076595448 -0.0092104347 0.073736727 -0.048393127 0.060288019 0.083843686 -0.0091991443 0.062047351 0.087351345 -0.013871556 -0.031595662 -0.068747945 -0.013850644 0.067297548 0.032348733 0.067366168 -0.017476764 -0.051222105 0.018949257 0.046664685 -0.002292875 0.0087984381 -0.12402067 0.039788175 0.10805157 0.06755697 0.020134069 0.048058972 -0.044228431 -0.031059045 0.10558348 -0.095924564 0.048578396 0.053836498 -0.038914632 -0.027836928 -0.045386709 0.10835619 0.024408177 -0.040278327 0.036036544 0.050989088 -0.021141179 0.081208155 0.0060268696 -0.087901212 -0.068341672 0.0086361459 0.074886046 -0.053797141 -0.018539306 0.00029845256 0.066657998 -0.038593419 -0.097240917 0.035682768 0.055232711 -0.065374821 0.028258607 -0.056906108 0.060825121 -0.023070352 -0.049735274 -0.033059794 -0.05200782 -0.021625578 -0.022669224 0.016258493 0.093631074 0.099160761 0.079379186 -0.069679283 0.043170918 -0.092611432 -0.0068555051 -0.041481432 0.041864317 0.083829924 0.046305474 -0.10653434 0.10004084 0.055994619 -0.084516764 0.076268584 -0.038104948 0.089684144 0.047169521 0.037295345 -0.11262149 0.022878762 -0.026098795 0.085704312 -0.07676214 0.032127183 -0.016189534 -0.091971397 -0.073045656 0.023949897 -0.0582661 0.018701555 -0.061419412 0.03966479 0.07773637 -0.062175062 0.10113106 -0.08824645 -0.017341683 -0.0037119922 0.06293726 0.025150718 -0.044426605 -0.071215093 -0.0013450762 0.074530475 0.031484481 -0.00090126763 -0.087341577 0.10618291 -0.09168081 0.0355887 0.017633064 0.10595431 -0.098594524 0.066604875 0.038355373 0.0019791145 0.068447985 0.054571532 0.047551509 -0.071384549 -0.041934669 -0.069302365 -0.057875533 -0.047913603 -0.08676888 -0.028079743 -0.019378053 -0.033309903 -0.012815439 0.048431128 0.0084543917 0.084501654 0.020233711 0.015279347 -0.10228289 0.036730807 -0.014694462 0.071532525 -0.035901014 -0.083589442 -0.0080640949 -0.026578233 0.095715933 -0.012669574 -0.0088037821 0.01287281 0.0069686165 -0.0217096 -0.061341871 0.036367666 0.0021844874 0.04376201 -0.056682542 0.059926648 0.0099853966 0.071323499 0.049721513 0.099107951 0.070039548 0.013350389 -0.042463675 0.040430773 -0.066815905 -0.06072266 -0.016543521 -0.090033427 0.030075843 -0.0092624314 -0.022962533 -0.061247781 0.043743659 0.041186444 0.073367774 0.057748135 -0.1051304 0.066115648 -0.10397272 -0.081437767 0.083706625 0.044864453 -0.037767019 0.030218482 -0.038661078 -0.007779886 0.099614821 -0.046014842 0.019915849 0.008285597 0.085208334 -0.011134385 -0.020490091 -0.034496333 0.012297741 0.050703097 0.0031945053 0.0067408062 -0.070991501 -0.085706972 -0.039072365 0.060746703 0.0089367656 0.03678837 -0.071438305 0.029421577 -0.082287855 -0.090113036 0.086673699 0.069102995 0.054594729 0.093068555 0.043888636 -0.047129765 0.08091712 -0.023239246 0.10648043 -0.1046002 0.0098409252 -0.053674348 -0.056044351 0.077165946 -0.082459122 -0.041613188 0.056919485 0.098882735 -0.08600644 -0.0081649441 -0.093496986 0.041142326 -0.011386035 -0.035943899 -0.088826224 -0.030461458 -0.03121116 0.062553905 -0.08099553 -0.0075996793 -0.0034904643 0.099388309 -0.0077269957 0.013239088 0.086025774 -0.006553119 -0.019800039 0.052776918 0.024557551 -0.063512459 0.051723354 -0.008610351 -0.10782108 -0.053069286 0.022760073 -0.081095077 0.00081215653 -0.058253892 -0.087654002 0.068298832 -0.075778678 -0.047941338 -0.030426638 0.050801456 -0.025176998 0.064423412 0.044462677 -0.063521624 -0.090295635 -0.061127305 -0.039013758 0.072529197 -0.081737138 0.0069467062 -0.030253828 -0.0092383344 -0.090551466 -0.024351731 0.019158684 -0.0018889639 -0.043404955 -0.094495572 -0.037689611 0.045130219 0.10287757 -0.026118003 -0.062658183 0.058129769 -0.012483127 -0.091017127 0.0074121873 -0.013644726 0.0087977592 0.041595176 -0.028794035 -0.06418328 0.064826123 0.02991881 0.090697482 -0.075018287 -0.034369919 -0.024955356 -0.047764506 0.083605379 -0.11130746 -0.046026163 -0.058423042 -0.09536016 0.016933748 0.09612862 -0.075617388 -0.049288936 0.042388719 -0.069078773 0.044434369 0.022261074 -0.061413776 -0.06640365 0.11362 0.030827008 -0.1145942 -0.046138488 -0.050415535 -0.069114439 -0.091030322 -0.078319579 -0.01990517 -0.025149886 0.059735753 0.085661784 -0.041671742 -0.036856774 -0.0074834935 0.018035877 0.047036961 -0.049296319 -0.015357517 -0.10640432 -0.0137416 -0.020542683 -0.042136058 -0.071870342 0.025658347 0.089557439 0.021600172 0.063238539 0.067663826 -0.04662586 -0.081217773 -0.072856143 -0.038419612 0.10343449 0.06884332 0.096443735 -0.041026808 -0.062454838 -0.10148729 -0.033444352 0.012140867 -0.018378504 -0.070763178 -0.013034661 0.0071824221 -0.084368318 -0.052722506 0.034506943 0.018949095 0.051697988 0.062862001 -0.034184765 -0.080477759 0.053724907 0.055444639 0.021466745 -0.053915422 0.078616276 0.096993245 0.052166816 0.05749334 0.092822716 -0.015607885 0.034421425 -0.079335779 -0.064646505 0.06996344 -0.053354293 -0.030531352 -0.0080166589 -0.003713839 0.030214412 0.016183272 0.10635837 -0.041008022 -0.09952157 0.019680472 -0.055982441 0.015853846 0.080031164 0.073619075 -0.037414387 -0.038022116 -0.098258615 0.093528941 -0.014943006 0.041957311 0.017849484 -0.0064726518 0.083141714 -0.024542794 0.026899649 0.089127749 0.023464682 0.070472881 -0.058552809 0.08602301 0.016188491 -0.0052084029 -0.011003658 -0.076900788 0.015933018 0.10498957 -0.055130702 -0.0048342193 0.034991205 -0.098564588 -0.057894491 -0.019654647 -0.0098881284 0.093433745 0.042131018 0.010743414 -0.095443808 0.06492538 -0.023061143 -0.021049131 -0.088941909 -0.072330065 0.074266449 -0.026203617 -0.015845908 -0.10621826 0.066232003 0.040581748 -0.024669234 0.045626394 0.016787032 0.027110387 -0.018542495 -0.029255915 -0.067447796 -0.062738419 0.0042485278 0.10813199 -0.039558869 -0.035692748 -0.091972314 0.064050585 0.038542263 -0.098835275 -0.0279138 -0.062167972 -0.043409113 -0.034058563 0.067645267 -0.056791436 0.034416657 0.02185254 -0.092958391 -0.10886667 -0.017520228 -0.03007821 -0.041553948 -0.08629404 -0.11390604 -0.10851996 -0.054330118 0.051206484 0.032553621 0.016296128 0.048981633 -0.039216924 -0.053800061 0.036203586 -0.093262658 0.072383739 -0.11024464 0.066206358 -0.083560705 -0.064734109 0.055723257 0.067716621 -0.087275833 0.079473808 -0.047642093 -0.015775768 0.092802428 -0.036750022 0.059749395 0.092545383 0.020289715 0.081744432 0.091731608 0.029771468 0.029679535 -0.096135587 0.041488722 -0.050774321 -0.0034243907 -0.050188433 -0.047347013 -0.059083045 0.033356443 -0.01641712 -0.058888964 0.032303438 -0.062205985 -0.088874325 0.025947548 0.044753008 -0.058218595 -0.080642223 0.064952157 -0.072639942 0.089023218 0.039585646 0.053239521 -0.044640996 0.11623714 0.052951135 -0.020411747 0.030757243 0.0075552138 -0.078062169 0.055174008 -0.0086472565 0.079668291 -0.035296232 -0.015201123 0.031503521 -0.072925374 -0.10193394 -0.041324843 0.018770285 0.0061137313 -0.075523064 0.0049924268 0.014792767 -0.09529449 -0.071449667 -0.07314451 -0.092916079 0.067303583 -0.080224834 -0.017181817 -0.054083962 0.016272446 0.042214464 -0.0044470727 0.072997063 -0.087567732 0.08393003 0.057143264 -0.10042991 -0.022366293 0.097201288 -0.01563485 0.035611823 0.079981215 0.095920503 -0.057377085 -0.030083034 0.089383863 0.0030547928 -0.099179983 -0.083908916 -0.060147982 -0.086244725 -0.041820724 0.075002134 0.055650394 -0.098912381 -0.081230879 -0.057103503 -0.082646817 0.095858581 -0.028544215 0.075027101 0.013728079 0.046447124 -0.090047747 0.0088111013 -0.0041766474 -0.015035961 -0.015392578 -0.09476313 0.035141096 0.047307212 0.091794841 0.035804097 -0.093422383 0.10595474 0.026836677 -0.079919033 -0.092260942 -0.023988802 -0.045986701 -0.0046471735 0.076386377 0.026888428 0.03583229 -0.0028560115 0.0024387266 0.087691113 0.034141675 0.094990596 -0.081646778 0.0055781002 -0.060306579 0.023925509 -0.054919742 -0.016064415 0.065180331 -0.070722103 0.091495395 -0.080885172 0.016403669 0.00040865259 -0.1062199 0.07953684 0.046152137 -0.060167234 -0.057205882 -0.10045341 -0.10054637 0.087655596 -0.023772223 0.10501356 -0.042117726 -0.097575411 -0.052037269 0.059767414 -0.055963431 -0.081381232 0.075416863 0.010119756 -0.018153498 -0.0021662212 0.037116371 -0.09497951 -0.046804756 -0.097541377 -0.027827164 -0.010591038 0.072784819 -0.021874581 0.036483988 -0.0058624451 -0.023446925 -0.031377546 0.078367777 -0.071804985 0.051901039 0.075511038 -0.058632832 -0.047283057 -0.081742711 0.073011748 0.093161166 -0.0074883192 0.038046043 0.058783386 -0.0077764411 -0.087073497 -0.078863531 -0.056900959 0.046500765 0.015700072 -0.00051316334 0.028086593 -0.013872638 0.029975086 -0.071400151 -0.089453444 -0.073056825 0.056516334 0.011869941 -0.047254972 -0.014633889 0.03758458 -0.042464085 -0.04096543 -0.049333844 -0.0059404522 0.052653428 0.10015807 0.015043289 0.049348231 -0.099400803 0.023325615 0.048087813 0.044815674 0.024699792 -0.10474277 0.042275891 0.038389813 0.083005786 -0.0079392986 0.066960923 0.055328477 0.1000409 -0.0035687336 -0.081816584 0.038851097 0.10298615 -0.10315897 -0.026835393 0.043447692 0.068767041 -0.10292201 -0.10224346 0.019589994 -0.030264501 -0.073623046 0.041498087 0.0092435163 -0.0070961281 0.097573638 0.090720341 0.04890791 -0.089280285 0.017384516 0.03554789 -0.022194447 -0.080143481 0.038864594 0.056276683 -0.044598263 -0.066348068 0.03867165 -0.0048234696 -0.067909293 0.027396083 -0.058323953 0.011911346 0.0029973886 0.036660675 0.038249139 0.029379528 0.066135868 -0.046006504 -0.044117678 -0.099224143 0.063125506 0.052269973 -0.081997849 0.043375857 0.07646545 0.058944285 -0.03470052 -0.095058188 -0.03220395 0.00027684332 0.1049009 -0.079369277 -0.012822264 0.048859399 0.063773096 -0.030817617 0.027248424 -0.059572753 -0.054978926 0.075465731 0.060148008 0.063827723 0.052600902 0.084153004 -0.04004553 -0.076688997 0.010684179 -0.080158465 -0.0009428701 -0.013490077 -0.013788458 -0.080408156 -0.032841396 -0.068676114 -0.060576461 0.0087650819 -0.024473688 -0.020569192 -0.056734066 0.083425269 -0.02110669 -0.0057904967 -0.086437955 0.032962486 0.10295542 -0.049990889 0.042625643 -0.061421305 0.012688345 0.080326654 0.023041522 -0.048592795 0.068839848 -0.078822911 0.077041239 -0.021166682 -0.078983523 -0.10022589 -0.033932347 -0.063537486 -0.042458471 0.039264206 -0.075279422 -0.071619466 0.047994088 0.014634861 0.080636971 -0.11222955 -0.042926431 0.08205571 0.074052818 -0.052565414 0.050621193 -0.078442134 0.071519479 -0.0046754344 0.066297352 0.061727211 -0.061005268 -0.054785445 -0.039751854 -0.046857845 -0.015932402 -0.042694174 -0.050642967 -0.0093809348 -0.0067014033 0.0095986044 -0.033614349 0.04418302 -0.04241769 -0.077130184 -0.078770146 -0.018238993 0.072070763 -0.10641037 0.035576839 -0.046898078 -0.014303161 0.088180818 -0.022261202 0.06898839 -0.078299232 0.040927421 0.0017236404 0.067421481 0.017181408 0.091611989 -0.066678703 -0.044387247 -0.011845032 0.093302712 -0.033704989 0.021454316 -0.057388775 -0.04859392 0.053054795 -0.042994987 0.078706875 0.064170413 0.05317476 0.041218452 0.059184331 -0.014037342 0.078516141 0.054351147 -0.046475567 0.08585313 0.0065514022 0.061179437 0.012124937 0.089167282 -0.081576563 0.0030679961 0.011372744 0.05144782 -0.080707327 0.011609332 -0.048093587 0.041254938 -0.025561431 -0.096977137 0.071434692 0.015597274 0.064076826 0.038627308 -0.076034404 -0.081321925 -0.04224905 -0.0078773377 0.024007743 0.056559164 0.067438662 0.036797773 -0.096276604 0.0044154241 -0.099763505 0.033473719 0.086858921 -0.097129174 0.069799371 0.082498997 0.037097674 -0.093701914 0.075180575 -0.073917963 0.051883355 -0.023278559 -0.058738511 -0.032047335 0.066630118 -0.043118015 -0.047629148 -0.094944611 0.0210336 0.086132891 0.0055666822 -0.051266532 0.024325287 0.036202792 -0.043917704 -0.020876899 0.011285771 -0.058707502 0.063589387 -0.078406259 -0.033771504 -0.045215778 0.021651078 -0.020909514 -0.053470045 0.099764317 0.019996336 0.0065026521 0.0035366935 -0.030354133 -0.043832541 -0.12600952 -0.024947567 -0.066481307 0.004889952 -0.11828514 -0.040930942 0.062859379 0.065237798 -0.086682789 -0.040584344 -0.068630666 -0.011943794 -0.10941786 -0.033509083 -0.039637502 0.058371212 0.0040107486 0.094535269 0.031848282 -0.051458783 0.039097205 -0.013680998 0.07473959 -0.089045919 0.010657149 -0.081899732 0.012142736 -0.024499228 -0.067939602 0.027379077 0.060164325 -0.019479584 0.056570299 0.014605557 -0.039851088 0.017278189 -0.068617105 0.015052102 -0.012805903 -0.069511205 -0.072548486 -0.045151047 -0.08533407 -0.0068939435 -0.098401129 -0.049597014 0.050711349 -0.03735923 -0.062179107 0.023112819 0.042905089 0.083586499 -0.0044969111 -0.033177614 0.033127781 -0.086883366 -0.03566153 -0.013385724 0.03196751 0.07291057 0.053126808 0.053575695 0.036660921 -0.018751068 0.08849708 -0.013987359 0.092134207 -0.079948373 0.032568384 -0.078488894 -0.08409217 -0.062528223 0.010977636 -0.011544562 0.061052356 0.016685145 -0.017171973 0.079422794 -0.045903206 -0.048980221 -0.051462345 -0.048168849 0.002083566 -0.0048310827 0.055990055 0.057738923 -0.053611692 0.052785095 -0.06287463 -0.12108403 -0.0054467022 -0.016659586 0.10386798 -0.030755538 0.067905731 -0.049288295 -0.082570307 -0.059674904 0.074399427 -0.072325192 -0.010199626 -0.015009977 0.11193636 0.050579395 -0.029435238 -0.010891318 -0.065347493 -0.024848675 -0.079654865 -0.04403932 -0.11450347 -0.017281022 -0.026039604 0.059169117 -0.10355183 -0.015683932 -0.092341319 0.10371614 0.065129168 -0.034704983 0.040137053 -0.058699314 0.025787311 -0.10420286 0.00392514 0.0098278485 0.019581122 0.10064601 -0.086340256 0.09368787 0.035284493 -0.046167631 0.036798373 -0.035051145 0.10122475 -0.016243061 0.069350474 0.11383874 0.011071846 -0.027628636 -0.045224402 -0.018097591 0.080182828 0.058241889 -0.097326621 -0.028655771 0.04012629 0.066104285 0.067925058 -0.11927155 0.07150919 -0.020979861 0.073361717 0.089828558 -0.075345658 -0.10514853 -0.018311886 0.068185464 -0.073332548 -0.030837821 -0.085449427 -0.010883562 0.080206171 -0.10708345 0.056517854 0.018241616 -0.019311229 -0.016001591 0.046974294 -0.10065559 -0.073942371 -0.057037123 -0.093836389 -0.053498939 -0.04872869 0.11893824 0.04302109 0.008332747 0.017214213 -0.086129531 -0.06398993 0.015317522 -0.12076653 0.030743988 -0.033842292 0.075733647 0.047901206 0.069474198 -0.083325349 0.045611497 -0.054316539 0.06904757 -0.007424538 0.04217989 -0.077997975 0.0098041454 0.048106063 -0.0038251949 -0.038912199 -0.079854295 0.050941084 -0.11004878 0.069570236 0.0038743827 0.077367127 0.046905436 0.027522003 -0.029966151 -0.009590148 -0.037872791 0.064650983 0.070987962 -0.046917338 0.013761356 -0.038211927 0.032749385 0.067488112 -0.04244246 0.055530738 0.10336675 0.042478111 0.01332642 -0.094342127 0.025315464 0.02588848 0.088613085 0.010837571 -0.043567758 0.058477759 -0.042846847 0.038431197 0.0025075276 -0.073316492 -0.10862407 -0.076325305 -0.070177369 -0.038049433 0.087765761 -0.054370992 0.082490645 0.023589298 -0.019855754 -0.067359984 0.0070148064 -0.075143866 0.051514462 0.0049070083 0.036572609 -0.048421968 -0.08568462 -0.063367486 -0.013466182 0.12118021 0.038939342 0.016283268 0.059518747 -0.083880007 0.059003364 0.01132316 -0.028387966 -0.036927622 -0.051445343 0.11291821 -0.12844583 0.04243983 0.037115917 -0.016305981 0.015041216 -0.051021475 -0.057634294 0.042726409 -0.017485812 -0.093383186 0.070224017 -0.043030642 0.069012091 -0.0030710676 -0.089738429 0.035609853 0.0087462533 -0.034686126 -0.024689175 0.056340545 -0.09256237 0.060029447 -0.067735821 0.0047861054 0.12772465 0.038814876 -0.020758942 -0.05154933 -0.062868066 0.00042985272 0.049024146 0.075985081 0.013410809 0.075378463 0.014561298 0.026242508 -0.081479251 0.021765964 0.026712563 -0.085438579 -0.11472496 -0.10044784 -0.013573398 0.026928728 0.048309952 -0.045182042 0.096661419 -0.0030299597 0.038310185 0.095571905 0.10295396 0.067234859 0.083669879 -0.059900217 0.1038964 -0.070452772 -0.051631153 0.014946295 -0.021318711 0.0054257903 0.019039862 0.051400833 -0.0019982457 0.049661685 0.01837527 -0.095713727 0.065825075 -0.099436529 0.056670837 0.049810924 0.095463201 -0.041334733 -0.0043024747 -0.0035033305 -0.021824503 0.045072164 -0.10163454 0.0088032065 0.056237839 -0.04727409 0.024275687 0.031450104 -0.073054753 -0.04250275 -0.11590332 0.088468976 0.03437905 0.027136825 -0.098345771 0.081003875 -0.1035543 0.06915126 0.029784862 0.047370672 -0.0238596 -0.11711946 0.091667511 0.025900099 -0.010521803 -0.036547687 -0.050708346 -0.018083984 0.045784261 -0.056323793 0.053180788 -0.081254892 0.014902555 -0.081885315 0.023319282 0.008808882 0.050427377 0.029208599 -0.093248457 -0.061165307 -0.10935158 0.10746387 0.077847004 0.057792835 -0.063139193 -0.031222925 -0.059090253 -0.01412255 0.075450435 0.0038438144 -0.062267728 -0.10444199 -0.0031308201 0.088622741 0.094532758 0.054782115 0.10332885 -0.081271231 -0.051280279 0.023363419 0.0786127 0.065615311 -0.021177819 0.04396585 -0.00080366584 0.066809081 0.02224757 0.036906037 0.05070544 0.073231034 0.054018989 0.064968444 -0.061286304 0.061673738 -0.017603351 0.06494385 -0.038191937 0.034654684 0.035557408 -0.084281705 -0.088143647 0.024902623 -0.088424586 0.040250979 -0.063559853 0.068619058 0.12218241 0.088550985 -0.044873208 -0.018907677 0.0921067 0.058134209 0.043371618 -0.042772185 0.013693248 0.064699583 -0.052999858 -0.066150047 0.099717982 -0.12495403 -0.072616071 -0.019442402 0.066380098 0.032000307 -0.062513888 0.083975829 -0.010807601 -0.0052591707 0.06968914 0.024725502 0.037945505 -0.09159787 0.063416831 0.00931805 -0.10077264 -0.083018489 -0.026608557 -0.090269133 -0.020122064 -0.0712751 0.0058343289 -0.00012441147 0.084573463 0.015698217 0.10413201 0.05869069 -0.031110507 -0.0089361807 -0.05248484 0.014293682 -0.066127941 0.058966454 -0.0022987167 -0.042671211 -0.081050523 -0.080189265 0.05831093 -0.11700757 -0.069454558 -0.039935011 -0.0425172 0.011515209 -0.008666819 0.0096430676 -0.02037452 0.037116196 0.012932549 0.0022471233 0.11211607 0.030885078 0.047931761 -0.06826815 -0.063580401 -0.068403184 -0.061998811 0.038823999 -0.036312498 -0.022355203 0.026150938 0.081515089 -0.014442325 0.10753527 -0.018818589 0.061775677 -0.11090977 -0.00055851904 -0.018559773 -0.066948116 -0.10631222 -0.0031351387 0.029727636 -0.12336348 -0.075716302 -0.033998542 0.07740321 0.0066493372 0.032255843 -0.010840285 0.045321148 0.010347342 0.044661507 0.11607864 0.10440537 -0.017746473 0.058125325 -0.069682032 0.033774547 0.012794031 0.10497034 -0.10250881 0.0095069315 -0.096831381 -0.070225127 -0.058179677 -0.081643701 -0.035992119 0.065873638 0.11251652 -0.066985771 -0.0099531626 -0.10559716 -0.10459612 -0.075340278 -0.015932564 -0.056348156 0.031235131 -0.067255415 -0.026629319 -0.10078171 0.0072267097 0.03981493 0.031661671 0.0086877029 0.015182326 -0.1026978 0.018046049 -0.0047306912 0.085867465 -0.020488866 0.063980125 0.089304544 -0.015111323 -0.045467675 0.10878775 -0.045540735 -0.039055195 0.089375637 -0.0093042823 -0.048736073 -0.08703988 0.035478506 -0.069459781 0.076555133 -0.0884552 -0.073794365 -0.035273183 0.018806517 0.038820319 -0.059374291 -0.092446171 0.083298877 -0.062138673 0.08971867 0.042467877 -0.098370455 0.048748277 0.041441035 -0.088044368 -0.0718183 0.026042676 0.074402943 0.043466218 0.09826462 0.059692815 -0.063599557 0.065983802 0.019133469 0.0031681159 -0.06128392 0.04398004 -0.062916696 0.0089106672 -0.023449728 0.051626116 0.012040383 0.096011437 0.03755001 0.08055649 -0.12521565 -0.10340127 0.021093575 -0.034853272 -0.024954313 -0.084836803 -0.078310847 0.042491738 -0.0098868208 -0.022294609 -0.083014809 0.047071259 -0.022773961 0.0369431 0.025923908 0.07454399 0.031430807 -0.021007335 -0.05894959 -0.064662114 -0.060289185 0.028639661 -0.031523466 -0.064411692 0.041649777 -0.13082218 -0.056553271 -0.084800564 0.012845627 -0.023007574 0.056761932 -0.055903263 -0.023369817 -0.00067205395 -0.04657346 -0.080476545 -0.043813132 0.037714284 -0.064773895 0.090671524 -0.079037242 0.013620256 0.022601921 -0.0041253837 0.0063738548 -0.07876271 0.030147495 -0.1338831 0.060363278 -0.092167243 0.06348265 0.10110981 -0.025149049 -0.047775254 0.024697682 0.0074206176 -0.066868708 0.057184864 -0.07817512 -0.019526703 -0.025215363 0.038610313 0.078973144 -0.087148517 -0.0073438319 -0.065949671 0.10474434 0.023388626 -0.0087252147 0.10073993 0.0074867518 0.078990951 -0.064007618 -0.037013892 0.0006524013 0.077267088 -0.068443328 0.044386789 -0.086332522 -0.09199658 -0.025624113 -0.055818297 -0.0022701495 -0.092707433 -0.0085785696 -0.094417244 0.065895043 -0.050380353 0.039748404 -0.024630655 0.082189091 -0.055550396 0.12235788 0.082414337 -0.013011388 0.079669081 0.079172798 -0.1094494 0.073818848 0.089483552 0.11403532 0.010123562 -0.07182429 -0.056998946 -0.028863501 -0.078891031 -0.04117566 0.038648106 -0.0042250059 -0.07478255 0.073636279 -0.055434003 -0.051448215 0.043160837 -0.084788419 -0.034348067 0.049629133 -0.0049654697 -0.060126089 0.056309883 -0.019979304 -0.018210668 -0.062225554 0.043823455 -0.043203626 -0.055893414 0.093596414 -0.06575603 -0.024065891 0.092808634 0.008957102 -0.05219854 -0.094778433 0.0035612022 0.049962446 -0.097787008 -0.11177922 -0.051280826 -0.042493727 -0.055895995 -0.065090649 0.014945786 -0.0045510563 -0.096497521 -0.010420644 -0.01745067 0.032742295 -0.027973907 -0.028316699 -0.059488479 0.004261388 -0.030527372 0.01585255 0.060550608 0.090047166 -0.02652169 -0.0091329301 0.014580339 0.064397693 -0.089137472 -0.058547772 0.038771931 -0.024582379 -0.063054793 0.0068166116 -0.01914645 -0.0098403338 -0.053677775 -0.076244473 -0.091604762 -0.098642476 0.069607094 -0.034988441 0.011064261 -0.0472757 0.089950934 0.09882842 0.033965919 -0.011171443 0.0029343795 -0.085442379 0.013235727 0.014903435 -0.026048318 0.07963942 -0.088984221 -0.057577252 -0.086333074 0.058124661 -0.090777203 -0.09257412 -0.0085979616 -0.047346018 -0.0073677776 0.064746052 0.065998033 -0.098021798 0.028001983 -0.10749275 0.025010288 0.0012983843 -0.0078244712 -0.08030434 -0.091173738 0.044525653 0.0065635657 0.016530233 -0.0029376654 -0.07749363 0.036014698 -0.030045014 -0.019500447 -0.0042961692 0.056316853 0.088200785 0.062635325 -0.082264811 0.0088646244 -0.055133481 -0.015563678 0.038644291 0.076343156 -0.030259667 -0.043142505 0.047787845 0.10891294 0.070328288 -0.02727857 -0.042457845 -0.084262177 -0.058952522 -0.074987151 -0.11505698 -0.05612845 0.10268009 0.043774836 -0.061092138 -0.0018820594 0.041532703 -0.10366478 -0.085148111 -0.098605387 0.028757414 -0.088169307 0.041763574 0.019556729 0.021733172 0.024318317 -0.0096048769 0.018713253 -0.072275601 -0.05735961 -0.099134274 -0.10233513 -0.029699771 -0.082120083 0.05705566 -0.02067857 0.014096021 -0.0019427105 -0.10573281 -0.094034567 -0.086995743 0.084054515 0.10295474 0.029232373 0.018721551 0.018842062 0.070031762 -0.086586326 -0.053012189 0.087307036 0.041068871 -0.11222252 0.030317105 0.046438605 0.091203079 -0.054997075 0.094090074 -0.052755054 -0.055688914 -0.048155993 0.07750538 -0.039929777 -0.078315213 0.061837628 0.031978182 -0.030259397 0.030704996 0.068889834 0.036101069 0.050233502 0.0089581842 -0.035015117 -0.024654293 0.057308517 -0.089085519 0.0364323 -0.086115167 -0.013423103 -0.10182557 -0.038864609 -0.041184422 -0.080209874 -0.043383051 0.079605363 -0.02214548 -0.074057005 -0.074009337 0.085821599 0.072046652 0.06294623 -0.075613521 -0.0095138159 -0.071749777 -0.00083817524 0.025887953 0.026919419 -0.027163023 0.010629572 -0.077614449 -0.054623179 -0.098908685 -0.070108898 -0.06039552 0.074370883 0.01819532 -0.075031154 -0.072731979 0.04477948 -0.069787495 -0.052454837 -0.061905503 0.024340205 -0.025896134 -0.069231659 -0.09102758 0.00041615596 0.027887937 0.044089131 0.0047510606 0.026712153 0.079797462 0.050960317 -0.0024681697 -0.096250854 -0.07330291 0.0094212638 -2.2838123e-05 -0.070472807 0.0053372285 -0.026367636 -0.072740935 -0.017418398 -0.045372497 0.042856086 0.074767627 -0.096236661 0.01485659 0.081475101 -0.028546527 -0.011011286 0.0042327209 0.097750567 -0.085817553 0.083882041 0.046632174 0.0051430664 -0.060130831 -0.1066375 0.069223374 0.11176211 -0.088879772 -0.064309418 -0.096521832 0.026113274 -0.00013460623 -0.057596784 -0.11523729 -0.00032417275 -0.0025173328 0.032341097 -0.042025659 0.061326351 -0.061156716 -0.10869937 -0.10882958 0.017950915 -0.094271168 -0.0464934 -0.080094218 -0.050102793 0.05087027 0.098312475 -0.0096409321 0.0093047041 0.011581835 -0.02702824 0.087201148 -0.022260876 -0.027747255 0.026227854 -0.070970193 0.07917244 0.063064538 -0.016264543 -0.02633189 -0.082932122 0.0050259675 0.025488785 -0.087919727 -0.0029308677 -0.092647605 0.060139418 -0.037610289 -0.009821251 0.10736117 -0.10350464 0.081412219 -0.040334802 -0.0013650858 -0.11390337 -0.093415916 0.0024913077 -0.05095553 0.11030814 0.079378657 -0.017247565 0.066313699 0.11197069 -0.027670018 0.096175276 -0.0021683821 0.087641321 -0.018276647 0.040898006 -0.085166119 -0.056329794 -0.033083007 -0.077475511 -0.089648396 0.016505213 0.046979535 0.10926914 0.044409107 0.06403482 -0.071338326 -0.064322159 -0.015270036 -0.068025321 0.089254282 0.081594191 -0.069645137 -0.025111573 0.092307948 0.017136594 -0.071883619 -0.10103408 -0.021653403 -0.044732716 0.058863949 -0.032432444 -0.057311516 -0.046310931 0.09089116 -0.090337709 -0.045210615 0.063150942 -0.057722863 -0.027758595 0.060493238 -0.097845718 0.047222897 -0.052495874 0.022410188 0.023419198 0.020392114 -0.003244583 -0.027459027 -0.092576414 -0.019555127 -0.020702766 0.030468358 -0.022560427 -0.053869665 0.060915839 0.026209075 0.011408404 -0.049913961 -0.051622879 -0.089670949 0.10266311 -0.094213128 -0.050803941 0.0021423262 0.063048951 0.072789781 -0.038510062 0.073108003 0.04880539 0.079543881 -0.094999596 0.085020989 -4.3216911e-05 -0.07340692 0.051470783 0.048399448 -0.12711863 -0.12178473 -0.070048451 -0.066195212 0.081188671 -0.037850719 -0.052096549 0.021069353 -0.069376238 0.069817536 0.027709264 -0.05698964 0.04827686 0.096344404 -0.0050175651 0.0074923639 0.11889598 -0.03585802 -0.01964769 0.029032307 -0.070653453 -0.04161083 0.020387802 0.057382032 0.10206211 -0.012851428 -0.02622029 -0.097999476 0.061702482 0.092599131 -0.074793868 0.0045022462 0.068132401 -0.046068441 -0.02893801 0.045333404 0.063290946 0.04341859 -0.089066125 0.064606518 0.064588606 0.011165489 0.061870158 0.012624384 -0.023592031 0.03749118 -0.0084911119 -0.05078448 0.092081361 0.076885194 -0.076419182 -0.019651163 0.023443725 -0.10248468 -0.089988731 -0.043880872 -0.10621378 -0.064616106 -0.00076563249 0.017710371 0.044880949 0.063292518 0.071665406 0.023624936 0.025849288 -0.033887252 0.061849676 0.050790343 -0.030503441 -0.019747535 0.056686968 0.081549898 -0.12072922 -0.0026092015 0.051718306 0.054249093 -0.082242012 0.095046483 -0.066383667 0.098181486 -0.074156374 -0.096351691 0.019785538 -0.091240644 -0.069380984 0.0037537664 -0.090665266 0.05462211 0.057053398 -0.008075959 -0.062765688 -0.052505415 0.045228388 0.0071292599 -0.014932486 0.09860871 -0.087838449 0.083866425 0.076367892 -0.12189626 0.014611668 0.029534172 0.019320732 -0.068524778 0.0079011517 0.10132225 -0.069696344 0.084405951 0.0020045829 -0.1206238 0.07216277 0.043982837 -0.084061749 -0.076555967 0.018234534 0.074478902 0.048717618 0.016095243 0.010131214 -0.0022040964 0.10803702 0.025660461 0.019199137 0.10309237 0.021976164 0.10970838 0.046609871 0.023023132 -0.062517419 0.11393888 0.044008411 -0.0085699866 -0.011331075 0.10431672 0.052856479 -0.090168379 -0.025258042 0.047404818 0.03595319 0.0516138 0.046012897 0.014605396 -0.021159146 0.048181586 -0.049286544 0.053965028 0.0091703795 -0.046986967 0.11236781 0.039640862 -0.063457347 0.10977352 -0.086184621 -0.057821512 0.017769486 0.029068476 0.069893382 -0.090170093 -0.030131808 -0.097127475 -0.049809005 0.026697716 0.0079335682 -0.042287882 0.012482941 0.084879465 0.026671689 -0.042531237 0.035976194 0.1174866 -0.017549517 0.011574251 0.085425049 0.068913102 -0.048844371 -0.044798736 0.011248536 0.033792604 -0.11220267 0.070568345 -0.094233416 0.066440798 0.1098031 -0.00038880832 0.10571571 0.069623858 0.08589536 0.057331178 -0.0073088352 -0.035210382 0.10484641 0.078270301 0.071563333 -0.044062667 0.081155211 0.047756791 -0.10726617 -0.078271598 -0.033916458 0.10306691 -0.075588137 -0.041938074 -0.015823865 -0.059464514 -0.067876548 -0.056103397 0.029534418 -0.072065018 0.031372909 0.097432263 0.049726963 0.059477102 -0.079354279 -0.05512492 -0.091800347 -0.075618543 -0.063452214 0.080975942 -0.06644845 -0.070972435 0.026488522 0.0049883407 -0.066885978 0.0058453539 0.08509478 0.049529016 0.010853401 -0.073519625 0.080546424 0.036437802 0.010847818 0.050306745 0.066202544 0.10100906 0.028704653 0.090502039 -0.12478273 -0.0056018448 0.076094285 0.036631569 0.087094545 -0.032338701 0.056176841 -0.004539297 0.074433543 -0.050655246 0.026639419 -0.11699781 -0.10198943 0.023876756 -0.029765636 0.057682954 0.11595154 0.068631224 -0.020720193 -0.023252735 0.10092508 0.027728427 0.088820733 0.020907896 0.04840558 -0.07334803 -0.07023263 -0.076926559 -0.084256984 0.058575429 0.12539901 -0.042086054 0.078250438 0.094250895 0.080116443 -0.045078255 -0.022698287 -0.0057832128 0.087984808 -0.11661612 0.095111497 0.01631042 -0.026599355 -0.03484695 -9.1499751e-05 -0.014706025 0.039427351 -0.055947412 -0.016922414 0.058370683 0.11645739 0.026173845 0.11831214 -0.010623925 0.093112007 -0.091845006 -0.029387927 -0.022426061 -0.054316446 -0.11103284 0.049365982 -0.03546159 -0.11070629 0.065580912 -0.063183226 0.11414169 0.023415053 0.0041489382 0.0006610346 0.023766171 0.052267719 0.10949215 -0.04249008 -0.045637798 -0.029662965 -0.036805481 -0.01953768 -0.039863676 0.082907327 -0.024969604 0.063301131 -0.039633144 0.076803923 0.044870038 0.070485815 -0.023564139 -0.11461008 -0.079611622 0.089000881 -0.034637328 0.019480813 -0.10036796 0.084521994 -0.068537571 0.068073273 0.0074071097 0.081377923 0.039650358 0.0045823986 -0.058113083 -0.058888875 -0.031661421 -0.10169342 0.011005277 -0.11422906 -0.02126292 0.072531626 -0.10164876 0.0010880433 0.029906794 0.096258044 0.021381302 0.023315897 -0.068904124 0.0033377849 0.064299919 -0.039569125 0.00096024363 -0.0085889446 0.0037279294 0.047504351 -0.033743214 0.0021145311 -0.052887633 0.055487029 -0.0076042153 0.027064027 -0.054857671 -0.10726086 -0.025547581 -0.034040343 0.017285893 0.089113265 0.099970087 0.036730342 0.058592536 -0.025746159 0.021603717 0.035549633 -0.010698161 -0.12242027 -0.020299053 0.035399389 -0.038994461 -0.11086133 0.076465212 -0.061211031 -0.040270906 0.0021287431 -0.010959994 -0.040050387 0.04699529 0.084563747 -0.11350053 -0.085454531 0.025398919 0.046037223 0.038648572 0.051815238 -0.083565757 0.024655608 0.071733773 -0.018308135 0.10911714 -0.066808209 -0.087784469 0.059518136 0.038946569 0.054518558 -0.0069443416 0.029108455 0.074466281 0.086446159 -0.041848283 -0.058321685 -0.039808463 0.01109316 0.093060292 0.088202208 0.045955967 0.10132615 0.021165419 0.055842314 -0.075889111 -0.037274931 -0.12383627 -0.10498929 0.037056044 -0.011404975 -0.004459572 -0.076044604 -0.057747852 -0.0053057093 0.054768234 -0.032595899 -0.008913029 -0.018056631 -0.045386057 0.1298216 -0.0068804761 0.018213848 -0.098777883 -0.0094116619 -0.036212228 -0.029278522 0.096318476 -0.041330654 0.019599885 0.071256474 0.050995119 -0.0074775876 -0.039614283 -0.06053941 -0.10484849 -0.042232156 -0.084701337 0.026004754 0.026926652 0.020115161 0.0091133593 -0.087156206 0.042013023 0.042049255 -0.027778346 0.048292883 0.087620482 0.013783187 -0.079648145 0.012586773 0.12784728 0.05562019 0.018596169 -0.027165266 0.056510221 0.075185351 0.0013576339 0.11608112 0.020742308 0.080996372 0.041144956 -0.036901921 -0.05958645 0.015822796 0.02648343 0.10965966 0.09085805 -0.11386871 0.092861101 -0.026874825 -0.12952761 -0.088534012 0.090222873 0.063481241 0.016855512 0.11498563 0.11959524 0.098533191 -0.050463583 -0.085210837 -0.06208045 -0.069179326 0.030655939 0.0069905869 0.10305713 0.034180805 0.10315916 0.09749873 0.084059916 0.070633404 0.10237031 0.088428251 0.061469637 0.087732211 -0.013168834 0.061406951 -0.0075693154 0.080278367 -0.095119782 0.072146274 -0.081515454 0.032181706 0.032882314 0.11205125 -0.019627213 -0.028658545 -0.023950184 0.0047573149 0.0087974211 0.077871352 -0.016756028 0.062947877 0.072906904 -0.11573698 -0.12747203 0.074836142 0.084332854 -0.025680905 -0.0015797082 0.066574626 0.086798839 0.071982145 -0.09310995 0.085211605 0.086224332 -0.057564072 -0.026420169 0.041059267 0.048166525 -0.10374967 0.0018776499 -0.012102876 -0.091944836 -0.061978139 -0.079343311 0.047106486 -0.023692355 -0.07998123 -0.000690791 -0.0091999704 -0.12668066 0.08230412 0.029805493 -0.019411733 -0.073904335 0.030249909 0.068052202 -0.0058847982 -0.073403455 -0.032403883 0.041314237 -0.01777488 -0.098941959 -0.010641525 -0.026006559 -0.092551365 0.12443634 -0.079753965 -0.083634548 0.0065342248 -0.051485177 0.036689673 0.037033807 0.060206946 0.078535311 0.066168286 -0.08707685 0.03956956 -0.026699683 0.06615068 -0.05892488 0.07123366 -0.061719056 -0.048589226 -0.093538605 -0.0069114994 0.083318062 0.084808156 -0.0052274591 0.055855699 0.016573634 -0.084812768 0.027483398 0.10292847 -0.084393486 -0.03547018 0.030947452 -0.072487302 -0.067242816 -0.087124027 0.060473848 0.038877789 0.070747189 0.018342758 0.10090645 0.025873618 -0.044387873 -0.087244198 -0.02365645 0.047490403 -0.016016135 -0.052846562 0.088972948 0.016742337 -0.033096913 0.05301635 0.040147122 0.021782169 -0.016437961 -0.023416316 0.0088726981 0.1041536 0.087815315 0.10486227 0.10405037 -0.024739811 -0.11415419 -0.046038959 -0.08956933 -0.10713156 0.08550179 -0.019791568 0.019304479 1.7363433e-05 -0.11160684 0.015524548 0.030763455 0.062365785 -0.011514485 -0.084383354 -0.010299285 -0.061934903 0.051882256 -0.08916489 -0.13311006 0.11798482 0.07265915 -0.023358546 0.087924987 0.070324317 0.0052330093 -0.049218748 0.075995415 -0.064064324 0.077397704 0.088812798 -0.10374577 0.08788915 0.073344499 -0.032936748 -0.11370496 0.093402348 0.010383905 -0.0015388932 0.060284976 -0.014985347 -0.038784578 -0.065819234 0.00068815576 -0.074551642 0.069302469 -0.012694213 -0.011061156 0.054286782 0.078787655 0.08152201 -0.071650438 0.10352129 0.049234826 0.03290388 0.051956277 0.0037725582 -0.014611797 -0.0062945704 -0.016707845 0.041766044 0.061479919 -0.031303216 0.0066177868 0.018143591 -0.071522921 -0.037232522 -0.067527391 0.022181667 0.027965022 -0.10968051 0.040882248 -0.0086162426 0.038951132 0.073064633 -0.065566644 0.030572308 -0.049295165 0.015358323 0.05922617 0.062525466 0.023347534 -0.022537706 -0.0216066 -0.022468731 -0.061213993 0.024688872 -0.080504782 0.035962608 0.068430804 0.062458642 0.049082585 0.034510478 0.011704361 -0.063783981 0.025502056 0.066870533 0.0066266679 0.098219849 0.064534195 -0.0072525661 -0.044938907 -0.07294181 -0.0010672271 0.061391689 -0.079319298 -0.014526386 0.12081333 0.073023945 -0.041580588 0.035427175 0.079611771 0.034429669 0.00771516 0.031959802 -0.023075953 0.0055131256 -0.07540632 0.083389886 0.033928964 0.077216208 -0.056737803 0.011334074 0.015139321 -0.062263735 0.051739849 -0.063074522 0.072679184 0.08891613 -0.028310524 0.093664728 -0.011814718 0.073535584 -0.067845866 0.053224914 0.02708154 0.036165573 -0.014585922 0.074484259 0.014378127 -0.0080438638 0.10027336 0.035233006 0.018086849 0.065824941 0.01703603 0.072787575 0.055538286 -0.033331115 0.054691888 0.0056262179 -0.033130754 -0.015779803 -0.011365887 0.044782821 -0.05876844 -0.044355337 0.066539921 -0.083070703 -0.070789866 0.10201298 0.093353704 -0.042729907 -0.0673467 0.052936479 -5.1122406e-05 0.011446226 0.10464269 0.10187063 -0.044412732 0.056069907 0.025234682 -0.0070936289 0.0066612628 0.045457046 0.03347278 -0.062384922 -0.076220132 0.10344201 0.061670907 -0.057025611 -0.030137556 -0.062917389 0.031873152 0.029749421 -0.010804554 -0.076741368 0.029419785 -0.024731515 0.012421623 -0.096221387 0.075273305 -0.049581755 0.10722544 0.07289809 0.092255212 0.11381967 0.069840796 0.094255053 0.094506025 -0.020853793 -0.02309051 -0.095083706 -0.029594872 -0.0011854797 -0.077233426 -0.0068701678 -0.030500103 0.057346676 -0.063019216 -0.083893888 -0.10163293 -0.081507497 0.069281727 0.049030844 0.066021524 -0.008672961 0.068503246 -0.048047826 0.074125275 0.033416864 0.030228021 0.080392249 -0.075813532 -0.037024532 -0.022800168 -0.0080303764 0.029444821 -0.058713369 -0.098764375 -0.0072946311 0.049917612 -0.010303683 -0.016625896 0.037695341 0.078342818 -0.0031193693 0.01918263 0.011394428 -0.030935721 0.084471263 -0.08443705 0.036394756 0.060762927 0.1069803 0.076166324 0.020628607 -0.091585636 0.056596991 -0.037246328 0.016457224 0.016949769 -0.065902419 0.037077714 -0.070760995 0.10769232 0.031131556 -0.0091270609 0.043012299 0.078185342 0.0093110641 0.0011372508 0.073266275 0.027862795 -0.030469859 0.0053803409 0.082814336 0.087310143 0.071904734 0.017486174 -0.019238243 -0.069690436 -0.031661339 -0.083786689 0.056165703 0.069223419 0.040051445 0.0094771357 0.055722371 -0.038432725 0.035299614 0.11679332 -0.079454064 -0.088006869 0.038814031 -0.10220199 -0.059605684 -0.0026902361 0.032871239 -0.092449754 0.050480548 0.11363525 0.068528697 -0.00051115837 -0.024770504 -0.016910765 0.038583398 -0.10315682 0.081670262 -0.067631744 0.049599104 0.065813437 -0.01949586 -0.040659294 -0.050847203 -0.061672661 -0.005347217 -0.0033095842 -0.069263272 -0.11328831 0.10967613 0.050930969 -0.05351064 -0.022970002 -0.0062055425 -0.033310253 -0.021886017 -0.023074534 0.00067201647 -0.030387267 0.0069520343 -0.090292163 -0.016195487 0.068813838 0.023159206 -0.069893964 -0.093021341 0.078508973 0.04806684 0.084197395 -0.09454716 -0.080130495 0.089703128 0.013584255 0.068647809 0.039990921 0.04576581 -0.095284075 0.012991656 0.093647853 -0.094748296 0.022391472 0.0044805929 0.038918808 0.035095282 -0.030335015 -0.083612785 0.046213482 -0.0003271508 -0.037368041 -0.068829045 -0.054110512 0.010771977 -0.030580968 -0.027988004 0.053965218 0.025508769 0.00033472656 0.011660415 0.0083876234 -0.058924705 0.074673839 -0.068770193 0.020254577 -0.018516695 0.062870942 -0.0022939346 0.025579914 0.019910252 -0.05816799 -0.0085187722 -0.081787534 -0.074076802 -0.088521577 -0.048326634 0.07681939 -0.034413226 -0.051528726 -0.012164561 -0.015082241 -0.043005489 0.070457071 -0.07240174 -0.0022669823 0.092990167 -0.075198494 0.00093326956 -0.084024392 0.066937052 0.068560168 0.086342901 -0.044548664 0.081981525 -0.080255285 -0.033097792 0.086468853 0.02822965 0.051225938 0.0036471819 -0.08879862 0.059487667 0.027887072 -0.095598876 0.0021545065 -0.04766969 -0.010173552 0.10699668 -0.027342865 0.0079604592 -0.023935925 0.022796925 0.048757374 0.074671783 -0.033620093 -0.053973921 0.077161603 -0.011044859 -0.093851283 0.00040742932 -0.089480408 -0.034714848 0.020229969 0.088226505 0.09213616 -0.017980287 -0.051184915 0.010847749 0.06318488 -0.060194764 0.070172116 0.095282353 0.096554175 0.040468309 0.0042117322 0.042402454 0.083912872 0.026428554 0.039002471 -0.034049083 -0.075638078 0.047378547 0.017206592 0.061785981 0.026723873 0.07921128 -0.10585782 0.039751858 -0.080380611 0.059458915 0.080186665 0.10051644 -0.026673723 0.020838922 0.038302261 -0.025943987 -0.085382015 -0.055050708 -0.078548193 -0.057227135 0.04744678 0.025522763 0.096768312 0.013404346 -0.061985429 -0.094306 -0.053492062 0.056331307 0.040401768 -0.02094299 0.0075250957 -0.062639676 -0.032881495 -0.053229969 0.082825087 -0.079322994 0.064064138 -0.051966712 0.074778542 -0.049176991 0.073047675 -0.0086556701 0.060263764 -0.010525295 0.061640851 0.092465766 -0.045733169 -0.043279588 0.012996595 0.01044139 0.083088242 -0.0074039376 0.0030196218 -0.085620299 0.08272849 0.056355879 0.0090701664 0.01808659 -0.083037272 -0.047601227 -0.10995606 -0.041226182 -0.031737946 0.043931369 0.019900136 -0.04596439 0.094473258 0.046148229 -0.023328876 0.035803299 -0.057449594 0.060432084 0.089229353 -0.077000789 -0.10003538 -0.03130601 -0.075595029 -0.067823529 -0.0091475379 -0.056386862 0.09132535 0.013838189 -0.096978784 -0.046198137 -0.020823296 0.036517687 -0.023762781 -0.012381272 -0.10456816 -0.040684171 -0.057708327 0.073871925 -0.070885673 -0.01654052 -0.013240101 0.091860943 0.081953682 0.095756814 -0.053741772 -0.10417919 0.047794055 -0.11009292 0.058469296 -0.07473816 -0.02028962 0.065049753 0.051005695 -0.074375398 -0.0482236 0.095317088 -0.0379523 -0.078228541 0.081953622 -0.079471231 0.058897249 0.058176681 0.03461637 0.028098417 0.070487164 -0.027737007 -0.011726064 0.085945576 -0.054570671 0.068825491 0.055190057 0.010163967 0.032271124 0.011634283 0.041100822 -0.10269728 0.082628846 -0.073808506 0.074978814 0.063028753 -0.018608835 0.062448554 0.025593653 -0.054609369 -0.030342866 0.0045267176 -0.028944533 -0.041408706 -0.031405728 0.014555474 0.018325079 0.091972075 0.0052561387 0.027666094 -0.074411467 -0.041321486 -0.041239258 0.052610531 0.032549854 0.066687033 0.052903391 -0.074325897 -0.037447527 -0.064777516 0.07558009 -0.058654428 -0.088926025 -0.074391797 -0.02646485 0.033960141 0.062665686 -0.015984088 -0.084895425 0.09214627 0.06081209 -0.060775816 -0.046577733 0.016039833 -9.3458337e-05 -0.074723668 -0.079905219 0.045453846 -0.075920172 0.025593156 0.035507001 -0.059990194 0.058162436 -0.0068651838 -0.045591459 0.01300183 -0.070287347 -0.023815624 -0.10740414 0.054398648 -0.075338602 -0.030061951 -0.092285469 -0.056572672 -0.0012745098 0.074188299 -0.052929539 0.0454611 -0.050052561 0.08625856 -0.01140434 -0.054229137 -0.0053550876 0.031035798 -0.041929659 -0.069943473 0.034641709 -0.087075822 -0.081146643 0.0014585373 -0.076696113 -0.012558802 -0.0070661893 0.001134206 0.00067723135 -0.05192025 0.083092324 0.036069881 0.093642302 -0.051691979 -0.081626266 -0.0059830397 -0.03081342 -0.028137729 -0.04810774 0.093844116 0.074528776 -0.048443675 0.0047471263 -0.067979068 0.038342219 0.0035732377 -0.069402091 0.091480725 0.085282922 -0.028356569 0.068524256 0.063120879 -0.10460971 -0.045354493 0.068195365 0.063979462 -0.04412134 -0.072164893 -0.083927147 -0.0045896443 0.041024402 0.077051274 0.0050426042 0.078107677 -0.031965535 -0.0070685484 -0.01374054 -0.073316462 -0.023214279 0.077745751 -0.1026361 0.026674723 0.046420671 -0.019814286 0.017469957 0.080264397 0.049561791 0.073728681 -0.050403718 0.057800468 -0.066393897 -0.0018139536 0.09583886 -0.05722069 0.034229964 -0.052757278 -0.10249639 -0.07010214 -0.099859565 0.077833183 0.031591725 0.045642015 -0.025166333 0.062446777 -0.067525081 -0.061913252 0.045356516 0.012880123 0.082151219 -0.0065256618 0.067271836 0.067552753 0.088018686 0.10433117 0.10014074 -0.063846104 0.042542879 0.022886489 -0.063468397 0.057021499 0.032639913 -0.079808146 0.062538117 -0.086594552 0.022777027 0.097210638 0.091274634 0.056842398 0.054290459 0.050099555 0.077803768 -0.10774156 0.051176831 0.0088361111 -0.085077547 -0.051445242 -0.0083653182 0.049533762 0.062602997 0.040287707 -0.052616835 0.018604763 -0.04009334 -0.02365436 -0.03350085 -0.094215237 -0.070690811 0.0030935521 -0.069123857 -0.050035015 0.015001282 -0.049785968 0.019242181 0.10459327 -0.013166964 -0.086383417 -0.049291912 0.088763855 0.022021059 0.069607705 -0.022136346 -0.062818043 -0.064702258 0.013809572 0.054542776 0.06968119 -0.043998811 -0.052091431 -0.048889242 0.071365707 -0.062639743 0.0041366783 0.028784785 -0.0080324747 -0.042225752 -0.094903536 0.030317798 -0.005838742 0.073294111 -0.037822098 -0.016271904 -0.056629907 0.021059256 -0.079626881 0.053976178 -0.019868756 0.076481298 -0.017502047 -0.067806847 -0.035533946 0.043141853 0.022066912 -0.00095956324 0.06939394 -0.0069464128 0.051180698 0.098198965 -0.10407761 -0.070412733 -0.093454912 -0.10861926 0.090602756 0.032591682 0.087982103 0.081709817 -0.08667478 0.083766714 -0.0075858212 -0.011274985 0.03841833 0.043475963 0.0007745474 0.024759902 0.0037206165 0.018535351 0.05132927 0.0087386165 -0.052342366 0.032335006 -0.056887593 0.026379436 0.082919709 0.084132962 0.091813028 -0.049381007 -0.062365349 -0.034804691 0.043772865 -0.0096321553 0.023719488 0.0058748238 -0.018848093 -0.084590748 0.082590088 0.039847087 0.034847915 0.048724726 0.014689131 -0.043088187 0.043822695 -0.057941034 0.11453985 -0.033854533 -0.025872996 0.00032808649 -0.021879263 -0.027836952 -0.038181581 -0.11366074 -0.056939323 -0.023501752 0.064771459 0.034252483 0.005162498 0.00067956286 0.070500076 0.0055107498 -0.082505547 0.068183728 0.012811543 -0.0097530158 0.073691361 -0.023027474 0.087213524 0.057434369 -0.065043136 -0.033289701 0.0014272855 0.0052545192 -0.036208875 -0.098041788 0.062057495 -0.030868834 0.094625294 -0.066505663 -0.0051693986 0.050742254 0.088727653 0.052825995 -0.097088195 0.063428521 -0.021779625 -0.091411948 0.097870387 -0.011125375 0.0056117717 0.095798314 -0.021255471 0.073585033 0.010548573 -0.076557226 -0.095340751 -0.058373615 0.084476948 -0.018181622 0.047984563 -0.076206796 0.045290165 0.061886586 0.084949516 0.003125123 -0.077619784 -0.048248213 0.093133822 0.085949458 0.058939017 0.074215151 -0.040366359 -0.011390811 -0.082732879 -0.07464207 0.014897205 -0.060631536 -0.04693152 0.056242295 -0.047834132 -0.0261252 0.040517654 -0.029279293 -0.072766878 -0.098278977 0.055586137 0.074777402 0.02941916 0.090053141 -0.062962033 0.079530805 0.072485134 -0.017098794 0.10847465 0.065757819 -0.097424559 0.091202155 -0.017217409 0.016029984 -0.026272036 0.0068286308 0.051715601 0.084237739 -0.030932246 0.057145718 0.071559958 -0.052256774 0.072865255 -0.001891573 0.098738357 0.060736582 -0.079189047 0.015952885 -0.023930823 -0.045669619 -0.097766921 0.021180175 0.030234979 0.03714066 -0.042075131 0.0055425875 -0.061556689 0.047781803 0.073499702 0.095294356 -0.02932268 0.087372109 -0.075913422 0.06287124 -0.10545827 -0.024399927 -0.063342609 0.10040444 0.069538727 0.076538838 0.022678358 0.071830109 -0.073394954 0.11762184 -0.028291835 -0.013544414 -0.045287367 -0.047210045 0.072098821 -0.01846147 -0.051959157 -0.11298881 -0.01381881 -0.056407131 0.060441859 0.0024501088 -0.023523847 -0.023415301 0.099704072 0.0013450654 0.0053425049 -0.072907113 0.021308545 -0.091123909 0.033651773 -0.011054032 0.066587679 -0.010192601 0.050772745 0.071884573 -0.003655931 0.019215504 0.028967528 0.0062485319 0.055407185 -0.067359649 0.053841051 0.031829059 0.026509419 -0.015552196 -0.043747514 -0.012032191 -0.039736345 -0.080216452 0.061489001 0.1058341 0.097304225 0.085533187 -0.015540319 -0.02241797 0.0060910876 -0.028081033 0.088785701 0.1096253 0.029451504 0.063451529 -0.099484645 0.065602787 0.016676908 -0.061187666 -0.090405151 -0.010628049 0.011850528 0.015122513 0.057791755 -0.059903406 -0.037126485 -0.046313386 0.020430671 -0.0038303637 0.041798834 -0.065210976 0.1134779 0.087579362 -0.0071327668 -0.043484643 0.0080863032 0.071100682 -0.025421217 -0.093343712 0.046798173 -0.054163154 -0.026607767 0.024605757 0.077156574 -0.069939703 -0.05882968 0.044485852 0.061871685 0.018332927 -0.045717057 -0.045446247 0.10434771 -0.071014851 -0.060272157 0.072106898 -0.051514395 0.052696522 0.088043146 0.058002841 0.039863717 0.049180869 -0.036881156 0.041462559 0.093417548 0.10304306 0.10606124 -0.011250459 0.0062567974 0.011466266 0.087741107 0.063179187 -0.0013886815 -0.061317757 0.055511519 -0.063742332 0.010715755 -0.070826672 0.00046582357 -0.026900893 -0.11103943 0.016112313 -0.038163122 -0.0044559631 0.017177004 0.052941013 0.070384927 -0.11120993 -0.037091099 -0.10013019 0.050915111 0.020714024 -0.035066962 0.089973986 -0.080022447 -0.013194354 -0.077470914 -0.10490625 0.060293667 -0.073059194 -0.090473227 -0.013194191 0.051159874 -0.074276119 -0.082669839 0.027465357 -0.075897984 -0.077848643 0.075795531 -0.10298439 0.067063905 0.021366082 0.086793534 0.050593272 -0.046096735 0.083664119 0.035763439 -0.051973492 0.050469797 0.076573677 0.10070392 -0.067148246 -0.089087829 -0.061412472 -0.11657613 0.076469347 -0.017346306 0.029699013 0.04031894 -0.048987199 -0.095540814 -0.043179043 0.037274811 -0.047453538 0.0078748465 0.038136862 0.10124797 0.10827286 -0.089890361 -0.049373616 0.032135602 0.073733851 0.088709414 0.0552794 -0.00805471 0.098954245 0.020781633 -0.11089732 -0.11234924 -0.084518157 0.037977789 -0.10729697 -0.053287864 -0.01958479 0.018506577 0.026769547 -0.092740789 0.047245506 -0.10141162 -0.064399861 -0.10272986 -0.0098474212 0.02560005 0.090409137 0.085093394 0.11044084 -0.016760681 -0.05623021 0.089054681 0.032198999 -0.034502458 0.055660151 0.051123004 0.024166269 0.11794461 0.0039405329 0.077511139 0.065014273 0.030640997 -0.032391455 0.047495842 0.06157542 -0.10431502 0.038408846 -0.035667989 -0.0055044778 -0.096257843 0.069857292 -0.062149577 0.051103845 -0.01561323 0.022688488 -0.0077437176 -0.051911157 0.013075094 -0.04490352 0.11958418 -0.039442111 0.032736965 -0.038376067 -0.059267785 0.02228424 -0.018987995 0.064388141 0.085639 0.0093083791 -0.017384071 -0.019183051 -0.057279289 -0.035185192 0.059739489 0.043170288 -0.036065307 0.0263381 0.067341387 0.010437794 0.081316449 0.080171518 -0.085929714 0.028155632 0.025599645 0.028259138 0.027656261 0.069914237 -0.077095516 0.074810483 -0.068189807 -0.058698654 -0.065606266 -0.05849728 0.034849741 -0.097488672 0.050658856 0.060064733 -0.02059513 -0.047465343 0.06106494 0.054915451 -0.080233343 0.1069067 0.095821053 0.075471953 0.010203457 -0.063397482 0.00081450597 -0.074779302 -0.0089047616 0.12118837 -0.0023469056 0.081254065 0.079496749 -0.076190785 -0.0087298742 -0.017480148 0.058604766 -0.088499397 -0.015103878 -0.063652627 0.057088625 -0.017102448 0.027268782 -0.0130821 0.029539973 -0.011646684 0.11463299 -0.089658268 0.071249425 0.036533285 0.0018913164 0.078667365 -0.03549527 -0.050987225 -0.048746217 -0.068667501 -0.017118806 0.035552517 -0.061051138 -0.023753947 -0.0067477184 -0.0092440974 0.085455835 0.038891025 0.0585653 0.067226343 0.027010828 0.019773781 -0.027153598 0.063120618 -0.066418491 -0.06025596 -0.06582427 -0.070944235 -0.076620422 0.0052070417 0.073667981 0.075116143 -0.054586072 -0.041122068 -0.071539387 -0.035155341 0.014837152 -0.1043887 0.01759704 -0.068782888 -0.079618275 0.062915705 0.029106805 0.028712461 0.06744042 -0.05067309 0.034565914 0.063165307 0.0814 0.079601973 0.020223387 0.011457066 -0.066134445 -0.059551939 -0.010302552 -0.023098918 0.071728162 -0.084289461 0.091786765 0.0040361057 -0.062740639 -0.045303021 0.00345881 -0.0031815378 0.053095184 -0.0087644225 0.049280848 0.071776673 0.090329066 0.06419462 0.032061171 0.052224174 -0.0035189623 -0.04071999 0.077341467 0.029089453 -0.0021959969 0.063376047 -0.042949975 0.10369245 -0.059557445 0.022265337 0.092458323 -0.014054198 -0.064081177 -0.050155479 -0.086626306 0.023716956 -0.026373684 0.070730358 0.044816729 -0.030880257 -0.03417597 -0.043929942 -0.036742304 0.027311508 -0.02269361 -0.11861802 0.082109094 -0.020153873 -0.052085064 -0.024576109 -0.029604709 0.0082003372 -0.10455364 0.069815882 -0.047858406 -0.031003697 0.057381392 0.0042121857 -0.031059397 -0.10126892 -0.012659829 0.10563206 -0.093528762 -0.05989664 0.027928388 -0.05658938 -0.017217351 0.090942129 -0.024163393 -0.078796186 0.054612361 -0.11033083 0.01650659 0.017615175 -0.10676423 -0.074281655 0.047991768 -0.084266685 0.053874277 -0.095669404 0.070977576 -0.1195455 0.041680362 -0.067834117 -0.022779956 -0.072399907 -0.099537238 0.068949752 0.025400836 0.029712688 0.087932758 0.062560841 0.03355512 -0.071386755 0.071093142 0.001529227 0.065275013 0.040218133 -0.054105345 -0.029227672 -0.020663094 0.071834937 0.089940749 0.069170535 -0.064133756 0.069221757 -0.073894702 -0.093938127 -0.098782398 -0.0020221677 -0.037784006 5.7696641e-05 0.046349227 -0.014180859 -0.080389507 0.081406623 0.0078902747 -0.094670571 -0.069355726 0.011070127 0.028009908 0.033536229 0.051103879 0.066696107 -0.06378229 0.05211838 -0.02577858 -0.054519314 0.090794548 -0.088075034 -0.085464589 0.11871159 -0.10539129 -0.09888 0.10303704 -0.090091832 -0.087061718 -0.094459787 -0.010547623 -0.087738059 0.057373483 0.020449175 0.016437374 0.0025780909 -0.044125214 -0.0068711126 -0.098161124 -0.06497743 -0.078437701 0.037166316 0.084827855 0.11917268 -0.0054366901 0.0048466572 -0.040430512 -0.062959023 -0.013570676 -0.02081172 0.029535515 0.079229236 0.028444255 -0.086656235 -0.071974896 -0.074844457 0.074221447 0.006553344 -0.12179046 0.057659615 -0.11694136 -0.013696992 0.064517394 -0.075214781 0.0015885015 -0.05859682 0.076336697 -0.066646628 0.078538842 0.058226839 0.023306279 -0.025336007 0.048484802 0.040296994 0.053262327 -0.086819932 -0.081667677 -0.075410843 -0.030898847 -0.089110151 0.10903072 -0.048219845 -0.026236385 -0.073760644 -0.026466558 -0.052328601 -0.058918525 0.024415309 -0.11498684 0.030690998 -0.069606319 -0.01252917 -0.030594852 0.0054221484 0.052132882 0.080403432 0.013027017 0.12706524 -0.0014856582 0.063898094 0.0021502562 0.04288245 -0.061257362 0.09697479 -0.050116878 0.016150892 0.097546913 -0.022321962 0.042099416 0.026635971 -0.024805138 -0.012891179 0.013454556 0.051800903 0.012332414 0.021629371 -0.078294709 0.019930013 -0.074279502 0.039801992 -0.055156067 -0.0342062 -0.06731914 0.048842985 -0.10412155 0.066073515 0.016074054 0.06445308 -0.022046821 -0.047510907 0.094207481 -0.084438056 -0.099233337 -0.012757446 0.049483024 -0.031076441 0.00040348494 0.048627157 -0.0294795 -0.054187719 -0.0046641626 -0.076285638 -0.047561996 0.071008556 0.071690053 0.01993127 -0.081580646 -0.10205529 -0.070141844 -0.062397297 -0.019067895 0.038772613 0.11732063 0.041340306 0.090362012 0.059944581 0.0015247802 0.00095407024 -0.10770231 -0.069407687 -0.076707855 0.093176536 0.12248223 0.039643932 -0.011669416 -0.048465014 -0.072301865 -0.034674097 -0.090351172 -0.064669825 0.035688702 0.043584578 -0.013915204 -0.067370422 0.046543177 -0.029181415 -0.059750024 -0.045439996 0.0053983708 -0.082447261 0.057659317 -0.052229948 -0.063828968 0.0025651264 -0.0098650828 -0.064431749 0.1049291 -0.056397282 0.039994184 0.024022829 0.0079446808 -0.088095225 -0.018210119 0.087044917 0.046499047 0.12130186 0.0083085885 0.061422218 -0.066146277 0.0073602339 0.015657276 -0.034133352 -0.054390538 0.024595795 -0.005606561 -0.043594312 -0.088790268 0.020622162 -0.040687818 -0.029397836 0.055119671 -0.085356012 0.12850969 0.056666784 0.083512589 -0.10009592 -0.0054262038 -0.057318453 0.061133575 0.077715114 -0.098851621 0.027299434 0.040655229 0.092047639 0.087716319 -0.1017449 -0.093511656 -0.031140784 0.099346094 -0.059937332 0.037512224 0.026960783 -0.011263105 0.076944344 0.11335839 -0.0068185888 -0.0098669445 -0.045417685 -0.036773596 0.040884092 0.091574192 -0.0565353 -0.022912394 -0.093723789 0.023219032 0.088909023 -0.019212803 0.0083222985 -0.076049678 -0.055704169 0.011447759 -0.045825265 0.063563325 0.02891607 0.0076962058 0.09251032 0.072174773 -0.04134028 -0.044634767 0.091579527 0.037603699 -0.099120617 -0.077230647 -0.078729309 -0.058107 0.10052044 -0.035940472 0.039806832 0.024250772 -0.026387963 -0.068377376 0.014089081 -0.010706264 -0.11254653 -0.10422969 0.079920821 0.01091716 -0.01076453 0.0033366438 -0.12016944 -0.054498333 -0.10480613 -0.025930734 -0.095805474 0.10655722 0.06626413 -0.0060583134 0.10046271 0.065673545 0.086347364 -0.014342608 -0.002190473 0.068161808 -0.050689433 -0.0081772851 0.0083994642 -0.029643714 -0.094722368 0.022138646 0.0062365318 -0.059809186 0.027510816 0.08268559 -0.024500342 0.070856474 0.024624752 -0.014446383 -0.031730272 -0.11351316 0.0439879 -0.044275157 -0.0070504635 -0.077649035 0.10682881 0.05814096 0.054075323 0.11330751 0.11141883 0.10321611 0.0064274487 -0.079735801 0.035924494 0.016516784 -0.018828342 0.060466956 0.065513521 0.072380401 0.040765002 -0.015615 0.0074944254 -0.038900994 0.084050074 0.052370589 -0.094760507 0.10627785 0.027355652 -0.069833092 0.062760048 -0.019520836 -0.048460353 0.018991608 0.096420847 -5.0094539e-05 -0.021700054 -0.02746753 -0.032935351 0.016527256 -0.076059632 0.027218327 -0.047185868 0.064684436 -0.0085229464 -0.088284582 0.0089692436 0.096347891 -0.011272611 0.049503691 -0.043257713 0.078916788 -0.10487311 0.046694983 -0.10322079 0.11154002 -0.070191108 0.019917792 0.040295988 0.021611534 0.047278836 -0.079694368 0.022274975 -0.099894419 0.093325481 -0.064443894 0.076217629 -0.034316935 -0.012261919 -0.10638523 0.094131969 0.031177673 -0.0067539481 -0.11573315 0.030113185 0.0049973293 -0.048432101 -0.030855345 0.099106595 -0.055641726 0.074915662 -0.075857617 -0.074065931 0.099934585 -0.012407865 -0.028105054 0.035557866 -0.093693145 0.0132176 0.10339211 -0.11349529 0.095661454 0.056841642 -0.047327854 -0.014388687 -0.006720284 0.053735796 0.10292077 -0.0093846666 -0.022379123 -0.013100443 -0.1025837 0.0073363539 0.019770198 0.042734023 0.032363486 0.018693216 -0.10985643 -0.087814011 -0.066006027 0.086962394 -0.045715876 0.097481549 0.11012643 -0.080013894 -0.071266703 -0.017037628 -0.097877294 0.040475693 -0.06001468 -0.069217831 0.012318201 0.027373729 -0.097950816 0.006342303 -0.086967185 0.04674571 0.0084627001 -0.044909108 0.052694406 -0.067450978 -0.10747848 0.11913051 0.050982215 -0.0026022512 -0.027500538 0.089695908 0.073875993 -0.064824797 0.042416964 -0.076518275 -0.098882712 0.069080062 0.0056644008 0.079851866 -0.10310215 -0.064718515 0.0085383682 -0.046227638 -0.054762196 0.040134024 -0.10760695 -0.0010282169 -0.068614721 0.0994571 0.12711623 -0.032047689 0.063280292 0.086348146 -0.0071645202 -0.010883915 -0.017231915 -0.053074885 0.0012909402 0.049887732 -0.052070331 -0.034847051 -0.049630284 0.027678182 0.10159149 0.0116425 -0.099331222 -0.005489816 -0.042839848 -0.0068235788 0.046943717 -0.048134748 -0.0054966756 -0.0011974622 -0.10789921 -0.063539229 0.078773893 0.061563209 -0.003106904 -0.084027104 0.10932778 0.09785863 0.042910967 0.097806722 0.13225293 -0.051134437 0.094669916 -0.017439293 0.024451409 -0.060681853 0.066016294 0.025801612 -0.06508965 0.063769072 0.043280445 -0.076659665 -0.085392371 0.0019510911 -0.033053722 0.075624682 -0.015199897 0.013580066 -0.059639908 -0.042326443 0.076394789 0.057049654 0.024925526 0.042562202 0.0099498788 -0.049814545 -0.064944997 0.057098668 -0.00075068302 0.090584047 0.0095169991 -0.047558594 0.11032289 0.054872975 -0.055134948 -0.052082896 -0.060273591 0.02608205 0.015769986 -0.018606309 -0.003318392 0.074097455 0.10401536 0.13423058 0.04746221 -0.039792914 -0.067915641 0.017050656 -0.054194074 0.020518698 0.052883122 -0.013878725 0.084635988 -0.11971366 0.11709675 -0.04415011 0.001309644 -0.052969314 0.0065337596 -0.0015367129 0.0017800485 -0.070376679 -0.054514118 0.020845808 -0.10068905 0.0190136 0.051153984 -0.057277557 -0.042743478 -0.026299916 0.06633006 0.06070273 -0.057696786 -0.0019122935 -0.11526901 0.051636931 0.06266015 -0.066813529 -0.10131837 -0.092233926 -0.015991392 -0.035510026 0.080179445 0.047512501 0.032842729 -0.03232874 -0.085629947 -0.078807756 0.078909814 0.047676753 0.0045535723 -0.082172275 0.061969195 0.097164787 -0.032702927 -0.060865637 0.018364787 -0.11408737 0.038429432 -0.044387441 0.084590532 -0.075871818 -0.076157421 0.057588082 0.0079028513 -0.064128734 -0.069955193 -0.07552956 0.091461509 0.082197256 -0.0365397 0.031841509 0.015373716 0.076196857 0.059644464 -0.030503469 -0.014344981 -0.037270475 0.085644521 -0.025978111 -0.0033910398 -0.053547036 -0.00030754061 -0.016641159 -0.05234126 -0.10134363 -0.083512582 -0.047252823 -0.058233283 0.0078184977 0.031295121 -0.042267621 -0.0055511682 -0.026988858 0.044745371 -0.13861343 0.016374035 0.014343571 -0.048143033 0.034828629 -0.052773532 0.05198279 -0.0690616 0.075005479 0.028534899 -0.042524312 0.096749775 0.086803935 0.04585043 -0.023097454 -0.079817221 0.057630297 -0.059310067 -0.047322541 -0.040657338 -0.025472371 -0.09366969 -0.0245951 0.097242288 0.015053353 -0.065330066 0.047775645 0.073810056 -0.089889295 0.025184279 -0.025273805 0.095593736 -0.046911348 0.097294033 -0.085586384 0.090975665 0.057359084 -0.03680392 -0.046984352 -0.013151254 -0.14047436 0.04503613 0.12542553 0.085488088 -0.017573051 -0.035334364 0.0068188338 -0.067508087 0.006727098 -0.067189053 0.11627717 -0.051116165 -0.022458578 -0.030619364 0.036381222 -0.037828915 0.042738479 -0.11085372 -0.028759664 -0.043378498 -0.0024283754 0.061235316 0.010380533 0.037443731 -0.07226602 0.0076019517 -0.021598872 0.072023824 0.052071493 0.048055924 0.030675875 -0.017159313 0.095606782 0.062244531 -0.049195021 -0.0094005149 -0.026729012 0.053989802 -0.067405038 0.020371355 -0.040773291 -0.012501897 -0.022945488 -0.019370209 -0.039863747 -0.039942425 -0.010923838 0.10317851 0.05129401 -0.027015885 0.025527345 0.052640673 -0.079508118 -0.026404491 -0.043155517 0.058975767 -0.026130587 -0.067886949 0.040298983 0.075547986 0.04732585 -0.079112075 0.070263594 -0.0077352771 -0.11842934 0.066950612 0.032795783 -0.093115032 0.092664011 0.076087028 -0.0326401 -0.076686226 -0.027406743 0.0102099 0.016882952 -0.018694811 0.024604544 0.097198211 -0.086905643 -0.11050832 -0.033219058 -0.0186405 0.042210564 -0.073709786 -0.071664393 0.094984226 0.065330207 0.012409947 0.004989028 -0.098281652 -0.011775512 -0.010252601 -0.1121415 0.023285208 -0.026761346 -0.066838622 -0.063249476 0.011595773 -0.090813749 -0.053982269 -0.074392311 -0.10023953 0.069830112 0.050669622 0.017855167 -0.095373996 -0.072224304 -0.00179237 0.050634701 0.018183574 -0.017222876 -0.11227577 0.035548456 -0.074284367 0.10354384 -0.042215679 0.044045545 0.1159835 0.11637665 -0.022424478 -0.0066579995 0.10071933 0.10444947 -0.046710856 -0.10712054 0.026355924 0.035627067 -0.083402038 0.016845129 -0.0244906 -0.043156326 -0.053280041 0.0088456059 -0.049403839 0.0046017803 0.03805811 -0.069045529 -0.066279709 0.079256944 -0.0086657861 -0.084376439 -0.11044534 0.08313445 -0.032515787 -0.044117745 0.047360949 0.041290075 0.053163122 0.073027775 0.0095650665 0.022567885 0.010461937 -0.022725284 0.050083172 0.064227492 0.0066717337 -0.067664266 0.0056555299 -0.069305204 -0.09122894 -0.051779561 -0.087617695 -0.038478423 0.022798844 -0.025580524 0.054346617 -0.09722659 0.0014758335 -0.03939794 0.10646768 -0.081471004 -0.081901789 -0.10431267 0.056593854 -0.017799074 0.064623199 -0.029785326 0.037894174 0.0044477354 0.062538326 -0.047639299 -0.039785463 0.015012632 0.059186496 -0.058489095 -0.029799929 -0.051974457 0.0066599632 -0.099297106 -0.014941863 -0.010890384 -0.078472838 -0.0054100393 -0.090261802 -0.053148463 -0.10825795 -0.041500811 -0.031359997 0.052635923 0.094507888 0.017541258 -0.12135818 -0.076167233 -0.10207269 -0.018344672 -0.010876946 -0.021774396 -0.1043807 -0.024982957 0.027901283 -0.094073772 0.0099550774 -0.035318263 -0.068607144 0.060123697 -0.12621894 -0.021295231 0.010811199 -0.089724712 0.077616662 -0.019763464 0.0011119127 0.047887713 0.051230721 0.056713469 -0.045623928 -0.032556355 -0.084206767 0.099730015 0.076265253 0.076473713 -0.028055433 0.13542631 0.031013137 -0.02858061 -0.044596311 -0.053255137 0.010129764 -0.0021182562 0.013723609 -0.019510396 -0.10973795 -0.10339075 -0.081976101 -0.0077067045 -0.055987872 0.074370027 -0.023935694 -0.015761292 -0.02732509 0.11735623 -0.086340152 0.12678045 -0.061143778 0.090582512 0.089820839 -0.094787486 -0.042494535 0.088981614 -0.076250739 0.10246374 0.11297904 0.077172056 0.036032706 -0.016818559 0.11242608 0.11149824 -0.054371592 0.017535094 -0.054198857 -0.032202534 0.058832861 -0.10860316 0.10709688 0.1152323 0.047858991 0.023283424 0.039680634 0.062349569 0.082097843 -0.03588105 0.080178656 -0.019043498 0.11497698 0.052961834 -0.041377429 0.058583055 0.10391982 -0.033370193 0.018273948 0.066242114 -0.044948038 0.093936905 -0.070103087 -0.029799197 0.029344372 -0.034470607 0.086148031 -0.086243041 -0.033957228 0.014097494 -0.034541119 -0.06656374 0.0053932667 0.060804177 0.08083304 0.0073974612 0.0080925347 -0.087615423 0.033653311 0.075330421 -0.1119605 -0.10169628 -0.029246289 0.070820324 -0.1114239 -0.033991311 0.089281924 0.0601868 -0.012988507 -0.0023508808 -0.098705485 -0.0087312562 0.11905593 0.088816635 0.061938368 0.085777149 -0.081571735 0.015321393 0.0034525357 0.043932177 -0.065313742 -0.0047769402 -0.083315127 -0.066643633 -0.046759322 -0.056042183 0.016582498 0.058026452 0.021032775 0.02206645 -0.04343408 -0.075880148 0.014315175 -0.060134981 0.00033105011 -0.046637632 -0.10614441 -0.11414967 -0.031263012 -0.024902306 -0.065701753 -0.031289458 -0.07093823 0.074185476 0.073825836 0.10253501 0.13124849 0.10621864 -0.036921456 -0.063972674 -0.037664253 0.06337861 -0.0046767509 0.091336027 0.02498344 0.025892844 -0.098072708 0.00024370191 0.057738379 0.054131649 0.060588632 0.039574917 -0.04520914 0.024113676 0.01145211 -0.032981507 -0.069410779 0.027141364 -0.067128286 -0.018779209 0.066545732 -0.020169219 0.060625337 -0.069922917 0.12153219 -0.051270187 0.12236611 -0.012615157 0.025462028 -0.039281055 0.018485865 0.031409457 0.00094590487 -0.068452008 -0.00062057475 0.079918168 -0.072669782 -0.090741381 0.13065304 -0.022886686 0.020423146 -0.047215652 -0.0016320068 -0.092690274 0.023130717 -0.025470758 -0.056348022 -0.0056929602 0.053690683 0.059669763 0.09700077 -0.026858177 0.079226449 -0.07397081 -0.04171757 0.013798047 0.067168579 0.075028077 0.13286421 0.077410944 0.084552772 0.025931392 -0.078852855 0.0087107075 0.041583523 0.084334351 -0.047090102 0.058591489 0.020542573 -0.048288707 0.076935239 0.03171489 -0.018336518 0.067982234 -0.011295095 0.052198421 -0.096893966 -0.12751892 -0.059582837 0.0475486 -0.059791069 -0.070998907 -0.039995611 -0.099478073 0.050846078 0.04228146 -0.018262208 -0.018391427 0.021587487 -0.048170015 -0.076132752 -0.051504605 -0.043669134 -0.10230477 0.099341482 0.053646773 0.0015530692 -0.09525042 -0.052378777 -0.1176577 0.051615734 0.087201349 0.030152095 -0.013181166 0.1071073 -0.015234762 -0.024868498 0.072751254 -0.031535875 0.057409227 0.10206949 0.11025979 0.026082443 -0.08997269 0.08421015 -0.027168386 0.024818251 -0.084605761 -0.11012928 0.057123486 0.042948004 0.029179569 -0.0472751 -0.00055869983 -0.077311344 -0.011149894 -0.0024178482 0.11238179 0.026090682 0.028921586 -0.079241551 0.089801341 -0.072788186 -0.10224795 -0.073718809 0.054887988 0.0156521 0.045786452 0.014520172 0.064587042 -0.027734729 0.022242434 -0.039324209 0.034221608 0.082046919 -0.057258498 -0.034855168 0.071482629 0.058884118 0.10877767 -0.059802987 -0.098260485 -0.032263808 0.05319443 -0.054635338 0.065346897 0.06606815 0.073495999 -0.054074105 0.015654756 -0.07036797 -0.11558923 -0.081655718 0.01915548 0.0018129961 -0.009069982 -0.043835975 -0.0069259168 0.0026761221 -0.070062615 0.11659383 0.068434641 0.12035862 -0.026258405 -0.0090894476 0.058761697 -0.029167935 -0.0023714018 -0.039612941 -0.0049171518 0.10286596 -0.057190493 0.10157076 0.069824673 -0.084656671 -0.10855524 0.027029611 0.07652963 -0.074117295 0.0052399412 -0.075154446 0.094224438 0.033513263 -0.046691988 -0.10629931 -0.031689145 -0.11270978 -0.0033206586 -0.01522993 0.045296766 0.0039648004 -0.040093016 -0.099562377 0.09841419 0.026632085 -0.011199572 0.0018716055 -0.0067009656 -0.024989225 -0.063558333 0.024173167 0.033836167 -0.093877226 0.021714453 0.0098495446 -0.1057414 -0.048659928 -0.036583766 0.0047395937 -0.079247661 0.14583132 -0.044930872 0.12886065 0.093916215 -0.003343181 0.065410316 0.06025083 -0.018975787 0.12701792 -0.12226686 0.10746461 0.11878266 0.038506281 0.06773334 0.0072613102 -0.062402066 -0.029708838 0.069757961 -0.0366125 0.14068022 0.019861702 0.1022082 0.0025687993 -0.026445054 -0.05703669 -0.039356478 0.026578352 -0.052556064 0.027120009 0.12511849 -0.048736352 -0.14528438 0.056760993 0.094174936 0.043191236 -0.0034287833 0.086352363 -0.018259905 0.037519131 -0.10117218 -0.12433356 -0.064210773 0.11967853 0.082589664 0.14118554 0.0016732675 0.041441664 -0.0090037044 -0.084282562 -0.078069739 -0.021479594 -0.07378865 0.032247432 -0.017469857 0.00060015183 -0.0632369 0.067510508 0.028567169 -0.078560725 0.023605898 0.083701089 0.1107064 0.041694179 -0.0030317502 0.010823596 -0.091236241 -0.01166139 -0.091427438 0.0098652281 -0.033366006 0.10353898 0.0088187912 0.10937929 0.093295731 -0.011662206 -0.079869367 0.11638245 0.017276451 -0.041696526 0.03652177 -0.0075799255 -0.019091424 0.069505431 0.056492224 -0.0028383874 -0.069798253 -0.10481326 0.034549277 0.017143803 0.056628846 -0.13329421 0.026764577 -0.025719369 0.023307603 -0.023004431 -0.011449378 -0.053385466 -0.10858945 -0.030446112 -0.037050813 0.038662042 0.0042005493 -0.1314809 -0.051892467 -0.0174443 -0.10379586 0.078292504 0.043632407 0.071318783 0.087852754 -0.072435603 -0.050885927 -0.053492576 0.088774748 0.050958917 -0.11810107 -0.030791877 -0.055947561 0.0044566807 -0.0079525514 -0.083031461 0.0088800127 -0.035219464 -0.064994022 0.042775411 -0.018193683 0.081740998 -0.010370974 -0.024147939 -0.058834132 0.095620126 0.014129518 -0.046197068 -0.12933335 0.10548884 -0.13202845 -0.046686567 0.019331025 0.075432353 0.024864759 -0.099636845 -0.0065882639 0.085222147 -0.1334829 -0.12617485 -0.03397505 -0.032105271 0.13990097 -0.057600841 -0.066173896 -0.017244136 0.035469677 0.025698749 -0.055507232 -0.008832098 -0.054612823 -0.077036701 0.058748752 0.067452289 -0.052304376 0.020164674 -0.027588766 0.075090215 -0.0046800361 -0.019913241 -0.0019158848 -0.12496637 -0.0076875244 -0.0028437474 0.0097718723 -0.041369334 -0.05996725 -0.038491622 0.049355432 -0.018894639 -0.047525506 0.028077586 0.034276776 0.10537465 0.034368716 0.058409937 0.054526091 -0.10895216 -0.037547663 0.044065446 0.038290311 0.029519234 0.085253969 0.10344386 -0.083915532 -0.12174773 0.012947056 0.063758992 0.073760249 0.031003924 -0.047820229 -0.030883886 -0.069816001 0.11176055 -0.014503587 -0.0031701829 -0.1261355 -0.052421324 -0.062483869 -0.059926689 -0.015400663 0.0010445729 -0.015414299 -0.013865149 0.046132438 -0.1263278 -0.054739676 0.016862266 -0.00020067676 -0.013687648 -0.030988852 -0.032284483 -0.10339794 -0.057689153 0.042304773 0.12110373 0.11417364 0.059506986 -0.064793311 0.067520037 0.047494102 -0.05851813 4.5217872e-05 -0.10378084 -0.0053158035 0.023609342 0.1216477 -0.034850471 -0.1481913 -0.02545586 0.091771327 0.13427626 -0.029813211 -0.035909504 -0.059279189 0.092470832 0.10479765 -0.024408858 0.12604782 0.014914691 -0.055074453 -0.09472055 0.060177647 0.036554519 -0.0045869807 -0.13546941 0.043806106 -0.12029063 0.0016613182 -0.055014845 -0.08481507 0.010203967 0.0050527453 