#Parameter# /_2 {370,198} 909438 ZERO_GRAD
-0.053930718 0.073352754 0.023363618 0.025228851 -0.096134365 -0.070628822 0.059140183 -0.025517402 -0.096391119 0.049355783 -0.010846012 0.032776579 0.097365715 0.04280759 -0.072470985 -0.041866478 -0.0014061418 -0.032027647 -0.016688768 -0.054908805 -0.034536529 0.093327358 0.060592446 0.0053013731 -0.059421789 0.035200644 -0.067529313 -0.10241108 -0.018116798 0.089023136 -0.073022224 0.042910177 0.073467344 0.042520519 0.065225452 0.046726994 0.063710034 0.03004271 0.037076537 -0.075664937 -0.083060168 0.039066982 0.053268075 -0.037889004 -0.087339431 0.055859726 -0.080687866 -0.0048228726 0.024893826 0.081152767 -0.00065325387 -0.067464858 0.063865766 0.065043271 -0.028153831 0.06784673 0.028248366 0.01612336 -0.065051608 0.027827939 0.086764298 -0.016165847 -0.044821035 0.0048884954 -0.04446125 0.060198948 -0.065013587 -0.099628232 0.045200087 -0.026090188 -0.062900573 0.071758069 -0.043051664 -0.013687613 0.0075884317 0.075160541 0.029351505 0.012645066 -0.032539692 0.086897194 -0.10171142 0.087311745 0.031751975 0.02783902 0.045449454 0.066955023 0.078950085 0.064223222 0.028409222 0.071750514 0.03665648 -0.06747029 0.053782523 -0.090229481 -0.028870629 -0.061824381 -0.047760457 0.084478319 -0.027036097 -0.024193797 0.010915999 0.015542328 -0.023543935 0.055073079 0.077898316 0.015259434 -0.067067981 0.031814564 0.0869895 -0.059420131 -0.048962399 -0.071420312 0.041212276 0.10349691 -0.023241805 -0.051852308 -0.019913005 0.074048214 0.084649496 -0.086830691 0.03118171 -0.077455766 0.010494419 -0.063625067 0.079314359 0.10343979 0.010757606 -0.052100714 -0.098417334 -0.028773539 0.056836363 0.053891454 0.026490895 0.078753985 -0.015784958 -0.052277863 -0.057771008 -0.042527694 0.029748335 -0.054261502 0.084718011 0.057782255 -0.10129117 -0.097644098 0.010614086 -0.1091277 0.078649044 0.009464819 0.077801012 -0.0164559 -0.084854193 0.028847257 0.090043247 0.0022333534 0.063729003 -0.04816832 -0.0013561894 -0.064851649 0.028043719 0.034521434 -0.038553916 -0.085833073 -0.087747566 0.067676738 -0.052333552 -0.060949504 0.037860494 -0.038516521 0.056359075 -0.089122005 0.074392729 -0.05303498 0.014065609 -0.098306119 0.09012232 0.065661758 -0.032105234 -0.037412185 -0.087060973 0.018922657 -0.032003339 0.00094894267 0.05765361 0.070962064 0.05158215 -0.10509241 -0.060321942 -0.053250164 -0.055795908 0.039333209 0.035907246 -0.10098987 -0.033086821 -0.037919722 -0.096836604 -0.094528243 -0.077741131 -0.045697257 -0.09760762 0.10425415 0.004612206 -0.026266942 0.049923301 0.066555835 -0.057170019 0.022094572 0.045779034 0.071107619 0.077505432 0.010979077 0.0068690553 0.10003988 -0.029132435 -0.035233464 0.079641454 -0.0094566708 0.046117656 0.011047596 -0.053536352 -0.084627882 0.064185038 -0.084995538 0.032672919 0.073138848 -0.016968694 -0.088250078 -0.048684094 0.058965094 -0.09162724 -0.077179931 0.037826087 0.018252235 -0.0068314183 0.026141902 -0.014109717 0.089973621 0.070073783 0.025086455 -0.060482133 -0.066313244 -0.026042586 0.03899546 -0.050144594 -0.042053569 -0.089620575 0.013590273 -0.022832921 0.0161226 0.060214244 -0.083670624 -0.057755463 -0.088290609 -0.0066960915 0.0212624 0.075996019 -0.0078047239 -0.0049924157 0.040261436 0.017746842 0.087343723 -0.07436163 0.062812746 -0.042509019 0.026832893 0.093721569 -0.034421299 -0.096906886 -0.091285929 -0.055554334 0.07639657 -0.011660867 0.014446999 -0.049509659 0.045266036 0.096006505 0.021134626 -0.028869964 0.0086391391 0.047053739 -0.020993218 -0.091533244 0.036944173 -0.079261303 -0.10073788 -0.0497876 0.044923078 -0.069520906 0.064667448 -0.057114292 -0.088262126 0.062453702 0.047800288 -0.10254887 -0.09100879 0.074765123 0.044136982 -0.057421755 -0.045232624 -0.063339658 -0.05277127 0.055792566 -0.034974262 0.026014222 -0.08374764 -0.054086078 0.095706828 0.045815904 0.034190062 -0.067585975 0.0812589 -0.062250145 -0.03448803 -0.023406027 -0.02655435 0.01420012 -0.015599622 0.087313153 -0.090094961 -0.097052626 -0.0035483546 -0.076198153 -0.08239001 -0.0031745385 0.038258802 0.009140349 0.068579286 -0.077514134 -0.050561208 -0.031514022 0.051345594 0.051790096 -0.061357237 -0.037366845 0.10744132 0.020598549 0.054994252 -0.0049696891 -0.026757997 0.0023263302 -0.0047175577 -0.032982614 -0.083836921 -0.10223571 -0.1058401 0.10248557 -0.046265874 -0.0028527447 -0.007589886 0.065104723 0.063651517 0.0670164 0.090515643 0.012929993 0.094725601 0.037461821 -0.0073416894 -0.045406442 -0.085378751 0.076416135 0.0592761 -0.016100897 0.020711411 -0.069586821 0.020655883 0.058652923 -0.007576725 0.06717544 -0.070694335 -0.062396031 -0.082432278 0.0036282679 -0.1233061 -0.014977129 -0.0084484108 0.014507324 0.065104671 -0.075404689 0.028659681 0.060564332 0.027405765 -0.032024033 -0.082179211 -0.024633655 0.047465503 -0.046764381 -0.055647671 -0.038752217 -0.0041708248 0.0059868055 -0.078504406 0.085373111 0.088659227 0.059894677 -0.057974216 -0.052939832 0.015355625 -0.013826135 -0.019320773 0.015669195 0.020378044 0.012215949 -0.014442526 0.027232364 0.065079965 0.016244836 -0.11818314 0.02063448 0.018293988 0.10407247 -0.014100938 -0.095463559 0.023516901 0.017418059 -0.0063531506 0.037357859 0.039943345 0.078711741 -0.05856517 -0.0035836278 0.037129097 0.03699895 -0.0087426594 0.0028395129 0.062378533 0.015061937 0.060370591 -0.00034625322 -0.10246876 -0.012342565 -0.055976786 -0.053781282 0.065176606 -0.015113474 -0.027028061 -0.035307541 -0.0078223934 0.062826291 0.05907749 -0.077861488 -0.025691874 -0.0043897852 0.046599966 -0.090697013 0.0024228999 0.022335824 -0.031702444 0.0028796121 0.025607616 0.082745463 0.0020159748 0.01407621 -0.0030193778 0.056063704 -0.0017061469 -0.023077633 -0.10725843 0.017216081 -0.056781881 -0.051627368 0.022295771 -0.01964437 0.0633737 -0.037997674 0.061027262 -0.084078699 -0.079808772 -0.022919049 -0.082456909 -0.076633118 -0.073037006 0.052778684 -0.082136624 -0.099769235 0.079674758 -0.092628703 0.016175322 0.074810162 -0.09517777 -0.029736739 -0.077590197 0.036660817 0.061256625 0.017498216 -0.081970885 -0.059022337 0.0069036018 -0.077692315 -0.041635644 0.025142809 0.010302977 -0.028149443 0.03026866 0.071406774 -0.064592823 -0.00011071606 0.036865536 0.094923377 -0.069789447 0.00058115798 -0.089227922 -0.041989986 0.093170859 -0.0066181552 -0.040327244 0.075294293 -0.040076021 -0.064934403 0.0070005287 0.062620923 0.063499942 0.045896091 -0.080108799 0.0021946179 -0.049758714 -0.071825415 0.016325807 0.024702786 -0.099846043 0.011086358 -0.097410642 0.081318304 -0.02588651 -0.029629273 0.075117216 -0.030849749 0.019712264 -0.045841299 -0.11784402 -0.069469273 -0.0077573862 -0.078408368 -0.041004162 0.0751995 -0.056701966 0.028888764 0.0090073431 0.025076453 0.076219194 -0.045986161 0.01794778 -0.077672027 -0.099216916 0.020761866 0.086521074 -0.082684375 -0.062534466 -0.025875481 0.084182478 -0.10795037 -0.039505448 0.064591311 -0.049910806 -0.08077804 0.038770992 -0.063562416 -0.0485483 -0.051186759 -0.075037353 0.047700409 0.038397372 -0.11804436 -0.094871007 -0.013327561 0.046662204 0.02077801 0.1117656 0.043298405 0.077237725 0.062955946 0.047724552 0.022030519 0.089132972 -0.038871631 -0.032381453 0.057391521 0.036315661 -0.068854295 0.067175962 -0.076491803 0.060323343 -0.011098624 0.077797331 -0.070946947 0.064598508 -0.10332324 0.079689346 0.093372539 0.042487863 -0.027478609 0.0054062051 0.04579372 0.060344324 0.050921965 0.023162318 -0.00075543486 -0.10834106 0.061359435 -0.024242226 0.043444108 -0.08683084 0.019048205 0.010330275 0.014271226 0.093989991 0.091334574 -0.094329104 -0.033952743 -0.0088852514 -0.087602973 0.094264865 0.061021864 0.080597103 0.071236491 0.052244253 0.096557125 0.0098748282 0.066709734 0.0070995213 0.049662489 -0.10404602 -0.024378022 -0.045034751 -0.090193592 0.065932319 0.089977384 -0.057612952 0.0022767447 -0.065692179 -0.034238368 -0.10395761 0.0019412555 0.042358011 0.022057287 0.089057446 0.070147768 -0.024287151 -0.041191772 -0.080983721 -0.0093548866 -0.027022181 -0.032716699 -0.096408136 -0.09224283 0.0099118827 0.025150957 0.075514421 -0.047658917 -0.003151516 0.055282217 0.099639565 0.058355398 0.11344825 -0.077393219 -0.060551759 -0.075066991 -0.011275688 -0.013706082 -0.054744877 -0.095725268 0.080715515 -0.10669152 -0.055546314 0.0069667059 0.074809536 0.0070297346 -0.015562689 -0.074193433 -0.032200523 0.089867897 0.030072384 0.046124469 0.062766679 0.0515389 0.056411948 0.000673423 0.082700565 0.048032358 -0.04856953 0.053781401 0.035632402 -0.065054007 0.030910058 0.042325936 0.014996471 -0.051030394 -0.0032995411 0.013217027 -0.10578219 0.060468446 -0.11116048 -0.044677719 -0.097773619 0.0021546548 -0.077967465 0.0090923021 -0.031972151 -0.06626419 -0.0083670011 -0.057186551 0.057712369 0.063393138 0.063454047 0.090624146 -0.074129313 0.10884847 0.029184336 0.062916666 0.12019587 0.0080419108 -0.11830299 -0.0061371322 -0.053062074 0.070926376 -0.059189945 -0.11829557 -0.067141496 -0.053846437 -0.0068566077 0.074499696 0.10636567 0.079767033 -0.061337091 -0.04543848 0.014213526 0.12222829 -0.090732686 0.09710262 0.087175041 -0.07263574 -0.042083893 -0.031483408 -0.018644998 -0.012163711 0.10456885 0.013811813 -0.03087794 0.026956236 0.041254025 0.023837822 -0.078116544 0.057421736 -0.0069041112 -0.11253689 0.065382652 0.017858924 -0.078532152 -0.062878028 0.096598543 -0.096551768 -0.018430699 0.014001595 0.057812121 0.084682934 0.023316855 0.080819026 -0.099331647 -0.0024237521 0.03185299 0.0085942568 0.063275285 0.025549764 -0.083083972 0.018939471 -0.08429493 0.080190256 -0.046093915 0.032430511 0.055382755 -0.045783568 0.033695079 -0.0025815661 -0.047713183 -0.016015217 -0.088864379 -0.091548875 -0.10469607 -0.022803057 -0.076822534 0.073791258 0.090047948 -0.11212311 -0.00087832555 -0.0017709434 0.063934609 0.11153933 0.0031791076 -0.015349152 0.053778838 -0.10220782 0.016283873 0.050335225 -0.05131216 -0.022989262 0.086422138 0.10783216 0.066630676 0.046604604 0.001810502 -0.084421456 -0.049044549 -0.038401663 0.095638305 0.059420511 0.0094164331 -0.010945821 -0.083615564 0.059522089 -0.021771016 -0.0032473849 0.015255445 -0.03869132 -0.030487714 -0.04527843 0.024728874 0.047956545 0.0066431654 -0.010881868 -0.096452959 -0.1004595 -0.0059207776 0.010227618 -0.086545646 -0.086279914 0.044774514 -0.047776129 -0.032256529 0.044013482 -0.0816148 0.020161154 -0.03039127 0.08872287 0.007908389 0.074294567 0.075895458 -0.0093042031 0.084927082 -0.0017583518 0.077470444 -0.051246572 -0.008995086 -0.038205072 0.088276893 0.0062993555 -0.074716702 0.1026476 0.027423348 -0.077963278 0.10763663 -0.01697021 0.065664254 -0.077952906 0.082546763 0.065557189 -0.069238551 -0.035605561 -0.073477738 -0.10398749 0.02830095 0.043312646 -0.10464821 -0.054322574 -0.013417925 -0.082536809 -0.046307754 0.044108342 0.10349384 -0.038447849 0.071363986 0.060441747 0.00088224607 -0.035181951 -0.0020799825 -0.051283956 0.0073429751 -0.061382968 -0.073524438 0.059699506 0.036614213 -0.014217844 0.07221324 -0.070711903 -0.053701747 0.075728975 0.030762229 -0.11363502 0.00094029825 -0.035676312 -0.019355506 0.030824495 0.10591871 0.06951306 -0.090647653 0.019837534 -0.077055179 -0.030037818 -0.019892992 -0.013732458 -0.022072302 0.098859608 0.10744463 0.066555031 -0.026703682 -0.086823143 -0.037279062 -0.08281035 0.041173279 -0.084452718 -0.12193083 0.039844424 -0.039737158 0.098056383 0.038626797 0.045704719 0.036055736 0.0061576581 0.060302049 -0.0044355853 0.061980899 0.023775116 0.04516378 -0.0057233511 -0.00083829241 -0.071321823 0.069568172 0.070137136 0.071682066 0.021612272 0.089472212 -0.050608926 -0.032648437 0.068466857 -0.089280613 0.031538729 0.084921569 -0.07986819 -0.016087497 -0.0079259844 -0.052457087 0.026780186 -0.0080681201 -0.090616964 -0.017355615 -0.013437863 0.010295853 -0.021879051 0.069794931 -0.086879902 0.027856942 -0.020964941 -0.071913943 -0.094535656 -0.0058364263 -0.0069102109 0.064179592 -0.034157902 0.068667114 0.020885117 -0.092106298 -0.065761834 -0.11073336 0.072378889 0.010450375 0.0052914233 0.045002531 -0.019377409 0.081439957 -0.11548594 -0.035714649 0.0062597785 -0.031371597 -0.016390624 0.059012543 0.026801016 -0.061504684 -0.10560759 -0.037791599 0.013850376 0.012367083 0.088827632 0.1054837 0.023784075 0.0011573156 0.05243551 0.047613699 0.014370107 0.098846629 0.080177464 0.062602505 -0.010767848 0.10100965 -0.035809767 0.10089846 0.063665457 -0.026153564 -0.085261904 -0.031883106 0.027671671 0.0122022 -0.07957501 -0.032327849 0.0088668093 0.060637947 0.053353991 -0.068945803 -0.08150842 0.085049964 0.070839077 -0.044271294 0.038028348 -0.10989811 -0.003074788 -0.059457038 0.10743298 -0.039036524 0.11150278 -0.020245228 -0.12714335 0.051783342 0.060757522 0.054039299 0.084264532 0.035652924 -0.09269359 -0.099621087 -0.108907 -0.0055640503 0.06691841 -0.046005689 0.063764669 0.098107383 0.062847264 0.047319423 0.085350655 0.043311071 0.042748261 0.090912275 0.0003006442 0.01665186 -0.07009384 0.058341213 -0.061618544 -0.035110556 0.054366175 0.090882413 0.073424362 0.013754408 0.043748621 0.045587175 0.02956892 0.082505859 0.06440194 0.078074366 -0.076996692 -0.049632106 -0.042133696 -0.031162549 0.10368373 -0.049102023 0.038259629 -0.031540316 -0.039193396 -0.070018597 0.067580476 0.068116017 -0.092349023 -0.026676092 0.093700372 0.015730532 0.010745578 -0.047034912 0.089480206 -0.067085445 -0.076713413 0.0096579203 -0.10574789 -0.088047065 -0.057223905 -0.033626534 0.0059024473 -0.040119801 -0.021807525 -0.012243974 -0.053295404 -0.039638981 0.0734208 0.065677173 0.038032532 -0.0069860946 0.097542882 0.08122088 0.10431234 -0.039600469 0.077010214 0.064947814 -0.078104056 -0.052632235 -0.038790029 0.062322833 -0.056788128 0.089575976 -0.099614263 -0.10166731 0.12046456 0.11593244 -0.022544743 -0.11483668 0.084695332 0.040445644 -0.062637575 0.0026019921 0.0030894266 0.046226017 0.11416005 -0.087135702 -0.11296532 -0.060311105 0.025166987 -0.076173037 0.094093889 0.03129058 0.081568435 -0.01377607 -0.090882771 -0.051959399 0.11208992 -0.058747306 -0.0043409457 -0.14167267 0.08548329 0.0064120358 0.017460417 0.047205184 -0.058739994 0.011431195 0.012727806 0.017217195 0.067265883 0.044823498 0.055528402 -0.098536737 -0.00050602754 0.014284231 -0.087199315 -0.048516918 0.088680252 -0.055503339 -0.10315177 0.080067299 -0.10284647 -0.064979702 -0.0091634616 -0.0089737987 0.03496673 -0.00060585554 -0.13191541 -0.072188519 0.12483402 0.070881948 -0.10397654 0.059407763 -0.12987636 0.036273319 -0.05738955 -0.02722558 -0.013050228 0.040777992 0.10842723 -0.0075675487 -0.078762628 -0.00746579 -0.13132745 -0.1043698 -0.075476296 -0.057800397 -0.12513612 -0.085250638 0.031155633 -0.01331028 0.054894064 -0.097979352 -0.018542513 0.055816896 0.038150836 -0.12407041 0.072685242 -0.043884851 -0.025675809 0.030776177 0.089159869 -0.10132261 -0.012175566 -0.07004711 0.11598407 0.10189459 -0.091704786 0.044632941 0.034495443 0.017202023 0.011507602 0.027377741 -0.05075065 -0.073850729 0.10472394 -0.024198813 -0.090431884 0.081475206 0.025658738 -0.038335111 -0.092962973 -0.099911898 0.12200297 -0.054566339 0.04542328 -0.054538075 -0.0074433563 0.042363238 0.048738323 -0.13309713 0.095017008 0.11561587 0.047866836 0.0049954122 -0.13075556 0.07970874 -0.00047869692 0.11168896 0.031160217 -0.057398021 -0.00026753612 0.099947192 -0.049610402 0.041197252 -0.1043529 -0.068367586 0.10552686 -0.020551236 0.032435417 -0.066852376 -0.13734138 -0.091102794 -0.086715594 -0.022170538 -0.033882476 0.10930639 0.10785674 -0.09816841 -0.075521216 -0.0074308608 0.016807029 -0.02192113 0.079194635 0.047665399 -0.011802391 -0.061138291 0.014303824 0.12362739 -0.078136817 -0.10340647 -0.084903039 -0.029360203 0.036829032 -0.091892406 0.07382001 -0.071228497 0.050683148 -0.0058292937 -0.03601012 0.077948697 0.052453078 -0.12665413 0.12306028 -0.094736494 0.095467217 0.087609686 0.070434444 -0.010208883 0.024270145 0.11157817 0.00283641 0.0022940023 -0.092763498 -0.079403676 0.025953224 0.12454604 -0.077811837 0.065262437 0.05093037 -0.047218557 -0.094284259 -0.14139618 0.034040544 0.038229965 0.0058316612 -0.04288188 -0.026316758 0.07332664 -0.0535709 -0.046920568 -0.061888341 -0.047443967 -0.089446932 0.031325847 0.028546486 0.0042068167 0.0046904096 -0.039395571 -0.047747336 -0.065131925 -0.041243099 -0.081887558 0.082569472 -0.066520117 -0.047456548 0.063085377 -0.041666374 0.071915261 -0.092891864 -0.027653893 -0.061449707 0.086463712 0.020689333 0.12286831 -0.079068445 0.13936663 -0.059681218 -0.064092793 -0.092424437 -0.068550907 0.072118774 0.12177925 0.088615969 0.013357453 -0.1108197 -0.05541575 0.055848531 0.014349733 -0.0051350663 -0.048983421 0.080563277 -0.069200076 -0.036440931 -0.033545721 -0.096337654 -0.026540769 0.100645 -0.063744828 -0.049175125 -0.0083998451 -0.026423203 -0.004652258 -0.038487602 0.072823435 0.12474234 0.076992229 0.013914813 0.068637475 0.12520404 -0.012666252 0.12023587 -0.063529044 -0.046455346 -0.046241969 -0.0047354358 0.056463003 -0.11874543 0.027034979 -0.03210498 0.12664898 0.10797286 -0.019310834 -0.042998932 0.0089218831 0.0023556575 -0.017776629 -0.1405918 0.046323374 0.076778263 0.014794467 0.095436409 0.090102643 -0.11955807 -0.00029373565 0.022167701 -0.028614253 -0.085612781 0.033991031 0.054856222 -0.11108755 -0.088312484 0.10867396 -0.07341101 -0.015689116 -0.0073829116 -0.06832248 0.082550801 0.028849225 0.067540936 -0.06787467 -0.11049406 -0.10896692 -0.022868823 -0.10790086 -0.084623657 0.13243324 0.0023705452 0.034041923 0.03812886 -0.089899242 0.094804868 -0.0097771473 0.14045011 -0.056588132 -0.082859792 -0.11328568 -0.0091577657 0.10443528 0.04505606 -0.080478042 0.039816599 0.1161103 0.025284365 0.071252406 0.056066427 -0.065050028 -0.00033221999 0.03057093 -0.079657421 -0.04932519 0.095007539 -0.083225682 0.10408308 -0.010907625 -0.047909491 0.092730112 -0.051826961 0.037501752 -0.077240981 0.0019781943 -0.082788073 0.0018877971 -0.016812852 0.086699776 0.04740401 0.046879504 0.11878307 0.10767455 0.091260925 -0.059793524 -0.10165548 -0.097891271 -0.027043158 0.093695126 0.09870369 0.035289999 -0.020763574 -0.033073481 0.0027841371 0.036541339 0.089328535 -0.031765066 -0.064346589 -0.024768628 -0.033359371 0.039036695 0.019834746 -0.08160498 0.059946839 -0.093279734 -0.086545974 -0.080261461 -0.037131205 -0.029727301 -0.10280464 0.077519275 0.12238389 0.084403582 0.040206701 -0.046033695 0.083365656 -0.071894929 0.030544145 -0.07206127 -0.058035564 -0.067035057 -0.013623136 -0.058184437 0.098256744 0.053544965 -0.074686982 0.097802944 0.010048447 -0.060266756 0.015342532 -0.069416493 -0.011177734 0.077572756 0.1138078 -0.019606689 -0.010339273 -0.035511613 -0.026508031 0.065618195 0.055612553 0.054927282 0.053056151 -0.047451686 0.033708967 -0.099999301 0.0029232514 0.046682309 0.080370016 0.034900021 -0.045875587 0.062239267 0.044863567 -0.088244587 0.046124749 0.033737794 -0.05171058 0.04091103 -0.0077504637 -0.08157666 0.10452933 0.038507096 0.092659846 -0.00015969395 -0.069382206 -0.095457345 0.013821669 -0.076923393 -0.064456046 0.094827108 0.03805751 0.10774136 0.06338039 0.023670789 -0.035879601 -0.045463651 0.10835331 -0.060750905 0.03621839 0.076033108 0.0033306093 -0.04475696 0.012625327 0.036329918 -0.024713546 -0.04882047 0.03842799 0.083743557 0.070105769 0.074924655 0.024184834 -0.03826135 -0.069743849 0.017319527 -0.060413592 -0.01161215 -0.059793033 -0.043397158 -0.068408251 -0.083961964 -0.031012446 -0.046793099 0.031796638 0.065631807 -0.0069495048 0.10911948 0.085159808 -0.077283837 -0.082318209 -0.00018441729 0.073771961 -0.0021819992 -0.1075767 0.078107454 -0.0068928399 -0.027250059 -0.056239527 -0.087787986 -0.025223089 0.052776936 -0.061138984 -0.037023764 0.053906266 -0.067071602 -0.032200761 -0.074441075 0.070663512 -0.048685789 0.07048215 0.001139224 -0.060149588 -0.042542037 -0.07295166 0.031962708 0.066152371 -0.037372015 0.060449343 -0.05638694 0.0058642728 0.057993814 0.027995586 -0.084987469 -0.09791483 0.080540523 -0.00091971795 -0.098446772 0.014111716 0.08239381 -0.0018725004 0.087409973 0.019159136 -0.013439648 0.027476467 -0.070984863 -0.095805518 0.049445361 0.092210136 0.0023164446 -0.067799963 0.020971144 -0.094756134 0.017916353 -0.08959835 0.0080303587 0.056575168 0.045546032 -0.018653987 -0.048027333 -0.10921784 0.020271903 0.011433152 0.05831226 -0.088858604 0.092355609 0.074926175 -0.03898466 -0.070227385 0.029073041 -0.094617501 0.10862245 -0.045909416 -0.025774352 -0.00010054047 -0.017572865 0.029066302 0.0041247751 -0.03167389 -0.022229567 0.00054570689 0.07080514 -0.035566233 0.0030925616 0.00067890016 -0.054874446 0.04559999 -0.0068636457 0.059316721 -0.048927251 0.088774644 -0.10020894 0.057209834 0.020785095 -0.089890569 0.0044037891 0.08197666 0.058106225 0.080372348 0.048230078 0.046646778 0.0077126399 -0.018292528 -0.047658555 -0.062432196 -0.034648307 0.044937231 -0.097405702 0.066063717 -0.06740386 0.067042455 -0.090184882 0.077659942 0.023709439 0.066474959 0.055621192 0.096945331 -0.01207012 -0.045129288 -0.095202707 0.013778904 0.056783348 -0.079221174 0.013868957 0.11887066 -0.010372043 -0.10530519 -0.061999757 0.074145958 -0.021267105 -0.00053658942 0.088411242 -0.056215331 -0.057738792 -0.032884412 0.03674265 -0.031136477 0.044497021 0.10254531 -0.11576501 -0.058917969 0.03808926 -0.097585052 -0.052916348 0.037746362 0.014129624 -0.035685986 -0.071166195 0.055118516 -0.00077105523 0.068665549 0.012606783 0.065069951 -0.066789977 0.048728842 -0.10911918 0.088853151 0.08898332 -0.016106993 0.03608337 0.0010083261 -0.06014403 -0.075663649 0.044002749 0.024787242 0.075354598 0.085816503 0.004989781 0.00032934206 -0.10233162 0.0018448064 0.028256958 0.055939328 0.069212757 0.096781678 0.0302458 0.067884468 -0.06631311 0.030455064 -0.072472453 -0.02902565 -0.064287663 0.019414207 -0.03651895 -0.076515719 0.043196343 0.035301358 -0.061737239 -0.087195762 -0.02771589 -0.046881847 -0.11168106 -0.051704563 0.043578226 0.01766604 0.0086166775 0.061035063 0.037908226 -0.075448975 0.079088748 -0.07755547 -0.079475574 -0.066549405 0.0024982961 0.069423437 0.010836292 0.022837725 -0.062157325 -0.01225914 0.072490513 0.035228256 -0.035735041 0.032031558 -0.0045157732 -0.085049868 -0.063387796 -0.090878457 -0.10349002 0.029529834 0.0079899598 -0.083801582 0.030784784 0.0069479058 0.031614054 -0.058048461 -0.063950442 0.081355371 -0.034060128 0.018140787 -0.031910155 -0.10001227 -0.061949916 0.096732132 -0.0093552954 -0.03057855 -0.04337734 -0.0099743465 -0.041686982 0.028192392 -0.071518183 -0.051158573 -0.097564019 -0.1154376 0.046704181 -0.0018789589 -0.021405822 0.0024702547 0.069782399 -0.042466007 -0.086159028 0.0077233897 0.029039849 -0.032059539 -0.035979412 -0.00020877602 0.0095847351 0.093014389 -0.017030735 0.08863721 0.066266589 0.091441363 0.034336101 0.028405212 -0.11240417 -0.045452267 -0.095187426 0.085632451 0.012196927 -0.073917694 0.0058596623 -0.063114069 0.063541502 0.056254596 0.073193334 -0.052841693 0.013999478 0.026545933 -0.093586884 0.089094833 0.015387602 0.035719115 -0.02970363 -0.085334137 0.11303306 0.034096595 0.019926643 0.021309322 0.065594763 0.016660744 0.025884502 0.06602972 -0.049284052 0.1206895 -0.026613545 -0.086475328 -0.093998738 -0.1311982 0.1398589 -0.022996241 -0.087680422 0.11011338 0.024806991 -0.0012157172 0.12038366 -0.08401835 0.011236126 0.020637153 -0.089077346 0.036288448 -0.051595587 -0.036552928 -0.044906549 -0.037677452 -0.010346259 -0.060824912 -0.0072638085 0.036641873 -0.0018529469 -0.081361614 -0.037612356 -0.050031599 0.11116072 -0.00086270849 0.016290957 0.079853706 0.11294298 -0.11013507 0.001552328 -0.030693574 -0.12484816 0.069943197 -0.090034284 -0.0027372155 0.10709462 0.00060164876 0.082705535 -0.0232931 0.061285786 0.02532029 0.011262557 -0.017464701 0.1581849 0.056217272 -0.010212563 -0.033747036 -0.057363536 -0.067090325 0.028223954 -0.10737282 -0.055358741 0.037948426 -0.10868622 0.044491928 0.10725117 0.02983968 0.10768238 -0.013736386 -0.10419711 0.12422837 -0.051325366 -0.10915004 -0.051311236 -0.119851 -0.073256239 -0.021429768 -0.096780278 0.031719141 0.02131949 0.059041627 0.10007532 -0.088275991 -0.024304315 -0.051384352 -0.12467213 0.080863863 -0.062998496 -0.012465968 0.013439892 0.12429792 0.0316259 0.003095598 -0.023363238 -0.063028596 -0.035999384 0.088288613 -0.043521404 0.044821609 0.15318878 -0.051975157 -0.0052858437 0.064640708 -0.13679086 0.043223292 0.088521898 0.0061061839 -0.077182852 0.033200044 -0.079929776 -0.0081666568 0.042156443 -0.092340447 -0.058471035 -0.015967954 -0.053408783 -0.054664277 -0.0047621671 -0.11039463 0.0075739333 0.15614729 0.10059652 0.12403582 -0.091616571 -0.0097708534 -0.0008676647 0.0084487209 0.08291512 0.083161309 -0.094202913 0.081000209 -0.065184399 0.031869598 0.078417316 -0.058912911 0.038047504 -0.098428592 -0.079002552 -0.0097046942 0.06508749 0.08809685 0.079311222 0.024183361 -0.037546918 -0.030612208 0.054185573 -0.076665759 -0.17026843 0.014333569 -0.01296128 0.026118297 0.021266688 -0.0043746727 0.0097952476 0.059564997 -0.079839192 -0.062735103 0.071090378 -0.037132677 0.010000108 0.038456455 0.046462741 0.0016795063 -0.044074953 -0.027033228 -0.048522439 0.085361913 0.013944878 -0.028212652 -0.037858643 0.024829844 0.13044892 -0.00049851451 -0.063475929 -0.025602492 -0.023523618 -0.016307592 -0.16066134 0.097723961 0.038088311 0.070192911 -0.06468381 0.048645198 -0.09997455 -0.060926724 0.1553677 0.036518365 -0.11409647 -0.10187961 -0.023803329 0.013292754 0.0862123 0.10489107 0.042917643 -0.038661454 -0.14241345 0.10178051 0.0046131858 -0.05461682 -0.018081915 0.11031374 -0.038931131 -0.061996479 -0.088076718 0.013020129 -0.13616399 0.0068434332 0.13318419 -0.059514567 0.0069306898 -0.043319013 0.0080762533 0.073589787 0.014107377 0.076386005 -0.04653227 -0.022391714 -0.036113262 -0.14291537 -0.069744043 0.0023849986 -0.028693283 -0.036655661 -0.0099617559 -0.028983707 0.038890474 0.052346345 0.083573848 0.016832896 0.049355775 0.037641276 0.016354451 0.017683404 -0.0066632489 -0.04633626 -0.03492802 -0.073821709 -0.087790169 0.047386926 0.064821318 -0.048972122 0.080294259 -0.0036425281 0.12901889 -0.082224958 -0.0077216914 -0.045187309 -0.10770676 0.056402929 0.003506477 -0.12629132 -0.023232127 0.026099609 -0.0018684715 0.090339944 -0.115462 0.15107469 -0.041641366 -0.13075341 -0.02740695 0.035447136 -0.044493649 0.15142941 -0.029045977 -0.053988334 0.045538493 0.034892775 0.015211096 0.042375315 0.021129396 0.069593765 0.010305234 0.041238792 -0.14585887 -0.03373687 -0.1240451 0.058049344 -0.086698309 0.1108005 0.0074430001 -0.044602849 0.14370173 0.006714242 -0.020597918 0.060990147 -0.055971421 -0.037267476 -0.014285943 0.11996866 0.024362816 0.0050897929 0.12839019 -0.08616446 0.036289856 -0.042542215 -0.092759714 -0.058219988 0.049305394 -0.081770919 -0.034701996 -0.060151406 -0.080662511 -0.099400736 0.011785384 -0.003173047 -0.023388205 -0.013240441 -0.04249227 0.080143541 0.062719986 -0.0058730324 0.037516426 -0.089084938 -0.042127404 0.017048201 -0.029509239 -0.012585685 0.071694188 -0.053003732 -0.065687463 0.11273902 -0.032422561 -0.11471234 0.027885269 0.10682202 -0.01779988 -0.078940175 -0.12588891 -0.0068864725 -0.12430549 0.063334823 0.0022063542 -0.057346478 -0.043770421 -0.102313 -0.058915157 0.083769418 0.018222958 0.010005647 0.041963015 0.024504205 -0.030436203 -0.001697398 0.10599532 -0.0023257185 -0.064016849 -0.12985785 -0.026192419 -0.12375817 0.11518355 -0.024236754 0.070536196 -0.01232958 0.01693799 0.055940565 0.039823726 -0.0098718405 0.031678323 -0.020760302 -0.12539215 0.038138188 -0.00036752416 -0.016009344 0.11566979 -0.081472985 -0.064373843 -0.060777936 0.073597416 0.028066462 0.0032323378 -0.057887211 -0.042944741 0.012394029 0.045086682 0.080674455 -0.08778473 0.032094263 0.070795782 0.046818055 -0.010107725 0.062159501 -0.075215742 -0.00729628 0.014596739 0.040831432 0.029784551 0.029317126 0.069757901 -0.012557531 -0.002810867 -0.044390518 0.043158926 -0.0020559856 -0.051652819 -0.030832199 0.048109904 -0.059994575 0.065160014 0.04832235 -0.040811062 -0.021486554 0.081852086 -0.070615165 0.03441792 0.010845939 -0.0060613127 0.092482343 0.040253494 -0.043261047 0.0478498 -0.054703653 -0.057648953 0.047315877 -0.011080439 -0.042943001 -0.01187848 0.08809568 -0.037840787 0.065968826 -0.049654942 -0.00169403 -0.0095277783 -0.061475508 -0.056818735 0.053496275 0.034716517 -0.033445701 0.04415787 0.034777515 0.076643445 0.0030309986 0.038379077 -0.033525638 0.056090482 0.0999467 -0.051359318 -0.051861443 0.094148964 -0.054698814 -0.020498406 -0.021125995 0.040105686 -0.021926444 0.081077129 0.10391026 0.1060609 -0.082014486 -0.09506385 -0.029609267 0.080591239 0.049167573 0.058789637 0.1166558 0.010727613 -0.071847044 0.064089894 -0.034711357 -0.074612133 -0.023373146 0.031199092 -0.0064863469 0.084897488 0.035357378 0.096357435 0.0079646092 -0.0364413 -0.038519405 -0.042552296 0.099632435 0.020640556 0.10448767 0.094425388 0.08339797 -0.076911449 0.054726664 0.070560023 -0.02563517 -0.084373944 0.033944197 -0.028528014 -0.098764427 0.0039839703 -0.0056889211 0.013612583 0.039906744 -0.031637114 -0.024263211 0.071048349 -0.061388567 -0.064548366 -0.05904571 -0.055631477 -0.017609535 -0.069929801 -0.027638817 0.059089318 0.087140195 -0.015139465 -0.029345375 0.088639095 -0.025298942 0.0098461993 0.092219569 -0.019211277 -0.06061352 0.094517969 0.10686329 -0.076694094 -0.0015930934 -0.083443306 -0.0058323233 -0.010120704 0.022857599 -0.075315289 0.034040645 -0.054813851 -0.087936886 0.0065629589 0.080835901 -0.068705037 0.037911158 -0.085095204 0.0527495 0.07365299 0.061872121 -0.034460824 -0.075028427 0.095624998 -0.018695544 0.063728757 -0.087511078 -0.0013769495 -0.064511329 -0.094909675 0.032229722 -0.061419882 0.053409882 0.080002248 0.018479137 -0.06863673 0.017711967 -0.019955598 -0.076265641 -0.086276144 -0.011436223 0.080205746 0.035921626 -0.061642878 -0.10883822 -0.050575048 -0.031412151 -0.02839962 -0.056141045 -0.014966907 -0.071056955 0.097599231 0.097015016 0.0140767 0.04151877 -0.05196707 0.045158502 -0.054841269 0.015895309 0.072162554 -0.060379058 -0.084558368 -0.038239297 -0.086252511 0.022847254 -0.010860663 -0.06996122 -0.0076075043 -0.049168311 -0.065339543 -0.0376103 0.038561922 -0.11544716 -0.01852496 -0.0065839277 0.071392678 -0.043627605 0.023250123 0.064973317 -0.046494186 0.065224893 -0.025186429 0.015025374 -0.0066764769 -0.027865829 0.034047987 0.016797392 0.077562459 -0.03586923 0.092562452 0.058374863 -0.087637089 -0.031739064 -0.067285202 -0.088883996 -0.073059566 0.066421337 -0.1120877 0.042034291 -0.050909355 0.024833472 0.010900876 0.018763045 -0.092199169 0.037722085 0.032157365 0.10203718 -0.063452959 -0.084598355 -0.0034295365 -0.020194346 0.096004032 0.013165645 0.018072108 -0.076287679 -0.033689659 -0.050847594 -0.046914082 0.023483459 0.076591395 -0.066993386 0.03658456 -0.063569494 -0.025824666 0.016209122 0.076124161 0.070640154 0.016004363 0.05168929 -0.091501474 0.045851398 0.087132506 -0.099252887 0.069805704 0.092920087 0.054149885 -0.021822071 0.016961107 -0.10508563 0.096134707 -0.089372113 0.080995403 -0.069667257 0.064033262 -0.01560225 -0.080949612 0.073751159 -0.0477212 0.0035426568 0.048836656 -0.043058816 -0.07895004 -0.046671551 0.023725267 -0.01722846 -0.030373851 0.066751026 -0.036670774 -0.040380903 -0.039182562 0.021172723 -0.005742677 0.067198947 0.02742747 0.099508092 -0.025809687 0.029676933 0.086273924 0.1013739 0.057724141 -0.053855572 -0.041115873 0.032708269 0.026076764 -0.056462403 -0.019808367 -0.072180495 -0.046482954 -0.098785512 -0.094936565 -0.072495788 -0.05237985 0.073446825 -0.059741128 -0.032711502 -0.088700406 0.039527178 0.08003635 0.017205646 -0.017266501 -0.088437155 -0.032837953 -0.072068013 0.046032913 0.065963082 -0.0087739043 0.047701959 -0.020031953 0.079011977 -0.082046412 0.066987447 0.080984317 0.097209945 0.012808448 -0.10128961 -0.051741797 0.026930682 0.018712007 -0.094885603 0.088906601 0.10079789 0.012562206 0.065159008 -0.10002665 -0.066503145 0.036026761 0.056835283 0.036714643 -0.1067492 0.089110613 0.020229468 -0.065773658 0.023539251 0.10809284 -0.10477307 -0.049471922 0.046553735 0.035918836 -0.050234888 -0.0064292811 0.033686325 0.011878178 0.045702428 -0.050431252 -0.063240647 -0.044446059 0.074595071 0.091190204 -0.090760954 -0.076084599 0.058630817 0.0082608964 -0.092286274 -0.022864273 -0.080533452 0.04279495 0.078629345 0.047936935 0.057494693 0.10244141 0.072623737 0.025980433 0.087854467 -0.029486697 0.05793862 -0.0072945035 -0.072532766 -0.028771153 -0.044854827 -0.016910359 -0.0074460576 -0.016119916 -0.07166104 -0.063372739 -0.085717134 0.063072711 -0.012574608 -0.050715338 -0.038191341 -0.021310532 0.067649506 0.078818604 -0.093228325 -0.077997662 -0.01942013 -0.092481449 -0.014545128 0.11411893 0.053138964 0.025652386 0.021174304 -0.09429168 0.012832519 0.05857325 -0.080495462 -0.0098183127 0.042287994 0.11449977 0.048639316 -0.10352527 -0.030324517 0.07866095 0.01225879 -0.066939645 0.069078982 -0.078198992 -0.064858191 -0.063991047 -0.092321232 0.046178252 0.072698422 0.10693917 0.11717828 0.01617403 0.013884729 -0.088096604 0.0023041768 -0.086263247 0.083026104 0.068106428 0.0090599358 -0.012162183 0.089479722 -0.043117058 -0.044789799 -0.026673729 -0.0012511765 -0.074795246 0.073266618 0.032726742 0.079903387 -0.002419177 -0.077549346 -0.022316763 0.081218995 -0.036134426 0.066010162 -0.050506927 -0.065996453 0.023931896 -0.054596961 0.095105469 -0.015197868 0.068555683 0.022001792 -0.02227921 0.068245627 0.065145716 -0.087220281 0.030311417 -0.10220926 -0.068240911 0.077406228 0.042189136 0.082327746 0.082329527 -0.10000984 0.11326267 -0.045252111 0.085221805 0.066190325 -0.045134421 -0.033426378 -0.13210081 0.10523874 -0.052143771 0.074440211 -0.083829843 -0.031325873 -0.048944298 0.075204156 0.031153841 0.098842226 -0.010229861 -0.12927248 -0.027112568 0.035400312 0.0020959782 -0.11417738 -0.019686831 0.041108944 -0.10234573 0.092620015 -0.028033797 -0.12198131 0.027144056 0.040097259 0.0024376533 0.043152574 0.10898046 -0.0082208253 -0.03981879 -0.057544991 0.04781156 0.089482114 0.014993863 0.012273856 0.054124434 0.12221804 0.11036923 0.056887157 -0.010911807 -0.10428125 -0.065316372 -0.1035028 0.010985926 -0.070872001 0.069859318 0.050469622 0.059716772 -0.089354783 0.032517277 0.064247295 -0.0920344 -0.071541525 -0.1162604 -0.11259361 -0.10383288 -0.027708026 0.040510215 -0.0027101496 -0.038202196 0.039585549 0.11245622 0.0074440553 0.059140798 0.11558161 -0.052410096 -0.018072082 -0.048459191 0.093377605 0.029005697 0.064129569 0.064981565 -0.10099448 -0.024428731 0.093602926 -0.03868242 -0.057547335 -0.011657545 -0.013154344 0.027593281 -0.089343056 -0.066731058 -0.043944228 -0.075772911 0.031112632 -0.047544021 0.069298431 0.082804345 0.076633088 0.088596337 0.10816883 -0.072294407 -0.068765692 -0.12961566 -0.035883654 -0.011735342 -0.065803558 -0.072919518 -0.11903527 -0.033520389 0.046539735 -0.06712839 -0.055710681 0.10112733 0.069657609 -0.080106795 -0.04844182 -0.044100553 -0.081331648 -0.023910282 0.072451279 0.053677898 -0.10807107 -0.081792928 0.025819605 0.10482629 -0.090720706 -0.03509333 -0.050390013 0.074875206 0.00034157041 -0.023530263 -0.0077832914 -0.072140522 0.034208808 -0.062468052 -0.061014004 -0.080166832 -0.087469548 0.062516645 -0.097001277 -0.022464387 -0.10966681 0.00036288999 -0.075629957 -0.073468804 -0.056329932 0.073275298 0.029800413 0.087015159 -0.027397919 -0.11017144 0.12205944 0.088842884 0.0073777265 0.055227168 -0.090206556 0.055194877 0.014480064 0.073950656 0.10623253 0.015362431 0.051756579 0.031938914 -0.029195594 0.028286802 -0.050977122 0.091660626 0.011912582 -0.062817663 -0.072924085 -0.088766746 0.02595707 0.081840299 -0.129012 -0.082478747 -0.0024698982 0.0077131754 0.05226611 0.0612293 0.022167057 -0.049215809 0.061288465 -0.024693053 -0.083871357 0.0075819083 0.082443945 -0.065163776 0.072446637 0.071901321 -0.023520179 0.075517915 -0.063239075 0.012531823 -0.0038902755 -0.079159349 -0.027694782 -0.1181583 0.11657493 0.041874375 0.064491957 -0.054403402 0.044044171 -0.066077605 -0.082535848 0.07041388 -0.10337991 0.005028666 -0.098799504 0.042453978 0.025006492 -0.078432716 0.075010657 -0.086313441 0.072638743 -0.10177644 -0.016938539 0.086007006 -0.033967126 -0.067774482 0.069700152 -0.05617049 -0.11107475 -0.055991072 0.021478957 0.085740723 -0.026248995 0.020520652 -0.011384396 0.028092267 -0.021484161 0.068768859 0.10121927 -0.091022722 -0.0051078037 -0.07274776 -0.11374955 0.036896233 -0.0093312161 -0.049363147 0.0776079 0.027479548 -0.088196501 -0.10157453 0.05418982 0.10198306 0.11205212 -0.055810526 0.062891558 -0.10428645 -0.054174464 -0.04698582 -0.0071354532 -0.083280951 -0.029179644 0.085707471 -0.091144383 -0.066406377 -0.020351838 0.016113503 0.0024290616 -0.079204857 0.023183951 -0.087449677 -0.065751091 -0.021864606 -0.11450891 -0.033378664 0.089702807 -0.094255209 0.0311857 -0.091496997 0.029717771 0.050879981 0.033419475 -0.0036785675 0.057610407 0.038298436 -0.011893942 -0.020299938 0.018349843 -0.074552961 0.075742818 -0.078772068 0.00039979076 0.037793249 0.036225259 -0.023003213 -0.074960828 -0.003319815 0.0636077 -0.10738569 -0.085267603 0.024747562 -0.016882367 -0.050017882 0.0069268011 0.082602024 0.041207213 0.016627451 0.045091193 -0.045768525 0.044933803 -0.038831543 0.056046836 -0.058194131 -0.062995285 0.10299145 -0.051573556 -0.081405185 0.049502805 0.0055472874 -0.09164945 -0.0015633092 0.09336254 0.027033435 0.0043194345 -0.065094627 -0.076179445 -0.00094389444 0.057719946 0.04380447 -0.050642326 -0.081508525 -0.10351413 -0.021926243 0.05064429 -0.0464609 0.07909476 -0.026967196 -0.04833829 -0.00035954424 0.050212942 0.037712008 -0.076762557 0.039793022 0.074643798 0.069962271 -0.0071211085 0.0054919617 -0.032940451 0.037294284 0.041315451 -0.082270034 0.030109823 -0.013444894 -0.10401133 0.075906172 0.11642908 -0.070597582 -0.059394844 0.050029773 -0.00063675194 -0.074267261 -0.010581834 -0.034141984 -0.076088548 0.053514391 0.081876449 0.016333679 0.0075363852 0.10020776 0.057587974 0.011175468 0.031992435 -0.027597902 -0.086844847 -0.010593486 -0.070616059 -0.026703039 0.042674884 -0.062799267 -0.050069902 0.018131102 -0.070885785 -0.081884548 0.025752647 -0.044590458 0.086858384 -0.087697841 -0.10167906 -0.08231134 0.055943023 -0.05698226 0.055062454 0.060632262 -0.006052509 -0.088683821 0.088163644 0.033046734 0.031081401 0.040674005 -0.10983555 -0.052960172 0.050314993 0.020285556 -0.10008357 -0.051551145 -0.077067062 -0.028328726 -0.025190214 0.071067266 -0.03551494 -0.069477268 -0.032284375 0.10934795 0.076418363 0.029517239 0.095983356 -0.023940366 0.0020089776 0.019006608 -0.026759554 0.041916657 0.042848729 0.025481757 0.030197145 0.059470963 0.053329498 0.046714775 -0.05035188 -0.064461924 -0.024698466 0.066107415 0.086666092 0.051853247 -0.037702046 0.054623283 -0.034053333 -0.042376094 0.082416855 0.015992476 -0.065161526 -0.031446386 -0.010086954 0.033108324 -0.048658986 0.084782183 0.020209545 0.10524958 -0.0017890941 0.010895061 -0.076626897 0.0028536762 0.10815604 0.019760462 0.00071823568 -0.097622991 9.0021866e-05 0.045570191 0.037508931 -0.043181971 -0.0021520036 0.071703374 0.11049435 -0.099954531 -0.099804007 -0.046823498 -0.010371787 0.035510704 0.0055939769 0.051095601 -0.026945908 0.1013246 -0.062480405 0.086893961 -0.0074562808 -0.062269252 0.094712339 0.077177525 0.011316454 -0.09397845 -0.054502532 -0.12055718 0.029026225 -0.068541341 0.035065401 0.067546159 0.052164439 0.11400968 0.060768042 0.00062115164 0.0042314315 0.015278822 0.079990678 -0.046001896 0.10064748 -0.0387512 -0.0029344663 0.084701896 0.046848558 0.063333169 0.019139025 0.051685773 0.052263193 -0.03339259 0.010557228 0.054055769 0.021681219 -0.036427148 0.085918002 -0.10368135 -0.016576048 0.043813258 -0.073653027 -0.016935948 0.05361861 -0.031923946 -0.019483875 -0.034189451 -0.00093137071 -0.017705124 -0.042419471 -0.017325653 -0.093449771 0.011191291 0.023363896 -0.079407454 0.035717621 0.022512106 -0.084791429 -0.11811687 -0.060139935 0.084195703 0.062560178 -0.036790479 0.071120679 0.11363313 -0.064459987 0.087800317 0.025035469 -0.07517276 0.00523378 0.021917872 -0.050784744 -0.058076549 -0.064989127 -0.043543946 -0.041567624 -0.090218551 -0.011816363 -0.10237208 0.065543614 0.067674547 -0.032959871 -0.011346166 0.024697689 0.044069152 0.078230865 0.049088512 0.0030035223 0.052266564 0.034548722 -0.011988588 -0.0026813974 -0.011630093 -0.028345373 0.047716513 0.054378044 -0.031344514 0.058334827 -0.03903399 0.011342182 -0.0090599339 0.08668787 0.095523827 0.050713614 -0.0945886 -0.070705414 0.002088258 -0.026810035 -0.049090937 0.062395651 0.085685559 -0.08979848 0.10424475 -0.024963565 -0.027247313 0.0037894193 0.0018399353 -0.093455084 -0.030310739 0.061775256 0.04788024 0.087431379 -0.076286428 -0.052738003 -0.052509509 -0.044274513 -0.08998403 0.050141998 0.10064715 -0.10835005 0.091621712 0.058669794 0.092310198 -0.094321288 0.098829702 0.078164794 -0.017887365 -0.073483005 -0.06881737 -0.019541234 0.0071427887 -0.098896742 -0.054750841 0.059525155 -0.066514499 0.087875858 0.066139564 0.062552266 -0.090332299 -0.056998193 -0.10056903 0.041430093 -0.069596782 0.10588773 -0.052631047 0.0058390442 -0.041197613 0.048306853 0.046355501 0.11328445 0.0070339204 0.065675773 0.084660038 -0.024564406 -0.023794476 -0.049439665 -0.06928698 -0.064972632 0.059493661 -0.001993295 -0.059660323 -0.081210367 0.060025327 -0.020281117 0.047412787 0.030723382 0.088608034 0.085477874 -0.076274663 0.049636167 -0.090249203 -0.063005716 0.017646717 -0.022317676 -0.0490968 -0.055740733 0.015237193 -0.024277899 -0.096135952 -0.067284048 0.073051043 0.12308724 0.11006718 0.004312559 0.042202882 0.041656815 0.03355002 0.10070489 -0.065010689 -0.042390786 0.045574564 -0.027343115 0.10643661 -0.077517606 0.075013466 -0.046299413 0.039270855 -0.088229075 0.070333429 0.10364792 -0.072108984 0.11324169 0.11508635 0.098468348 0.012601158 0.10991585 0.028891515 0.036569498 -0.10187129 -0.048212323 0.083764754 0.0083344486 0.00067477056 -0.12113538 0.079031557 0.02286613 0.028013375 0.017538369 0.078741208 0.027258269 -0.042651288 0.085501306 0.077763408 -0.056930207 -0.01727055 -0.030108826 0.11225986 0.076657251 -0.081940107 -0.062225521 0.0026977966 0.048038028 0.10040166 -0.071822651 0.056542721 -0.063774645 -0.023264522 -0.037525803 -0.013969675 0.023007236 0.01845425 0.017979262 -0.091465324 -0.082919486 0.10155758 0.047152441 -0.044499807 -0.080554873 0.056426313 0.077148452 0.013432617 -0.069464311 -0.052031107 -0.093917765 -0.026433198 -0.018423228 0.034027532 -0.07651712 0.060054068 0.016987342 -0.068060324 0.03389883 0.066026181 -0.013428803 -0.037869185 -0.029538669 0.047291979 -0.056087479 0.088401183 0.065401979 0.026103264 -0.006208349 0.036815949 0.057392545 0.011258158 -0.00031777928 -0.024088709 0.03503884 -0.052566055 0.021334194 -0.070729353 -0.066242889 0.051426116 -0.040763427 -0.0097569618 0.083070904 -0.017414417 -0.03283624 -0.065840535 -0.094431318 0.067603126 -0.083496146 -0.0092881527 -0.066118017 0.040716566 -0.091239363 -0.039977022 0.046909787 -0.077335767 0.046618462 0.095866136 -0.026666544 -0.04195299 0.0012519658 -0.059200931 0.027602583 0.01049576 0.0097550852 -0.012257321 0.048136275 -0.018375142 0.096522152 -0.014033973 -0.014735411 0.015504811 -0.057133008 -0.0045324787 -0.0077566332 0.10316967 0.063240848 0.077577725 -0.022803005 0.061495528 0.10568839 0.065540023 -0.086539499 0.032217104 0.054859679 0.013812806 0.069289953 -0.059942007 0.035937026 -0.06643571 -0.032493055 -0.005641324 0.098193735 -0.042198215 0.0012764563 -0.089642897 -0.0070984825 0.09333428 -0.081244193 0.029602859 0.042236071 0.0074391346 -0.069119178 0.025722424 -0.043521516 0.08662954 0.046362102 -0.052894924 0.10748672 -0.020807296 -0.095284335 -0.017945904 -0.076777764 0.037104391 -0.054448374 -0.095503196 0.055750426 0.035683252 -0.061225768 0.020017428 -0.034744103 -0.027660459 0.096931115 -0.048255619 0.10662413 0.036220208 -0.032051325 -0.030423593 0.089232631 0.060987096 -0.0022455843 0.07208883 -0.12065814 0.060488116 -0.035886418 -0.08108557 -0.054518428 0.039806377 -0.033635046 -0.0070125624 0.024092037 -0.084098049 -0.10578471 0.050927904 0.049247451 0.055038463 0.012064879 -0.051584531 -0.068865925 0.062758647 0.056929342 0.0067261029 0.080125146 0.097465008 -0.030713236 -0.10171876 0.032501012 -0.041270256 -0.092371091 0.014058494 -0.10912082 -0.077759124 -0.065385014 0.002207258 0.077850513 -0.094268754 -0.0085254405 -0.033840831 -0.0060387738 -0.095271535 -0.0022687728 0.027276797 -0.07860183 -0.02508728 -0.059440535 0.03000319 0.038636286 -0.077367604 0.081435598 0.034631584 0.0085336752 -0.041631505 0.071346022 0.01899929 0.071480907 -0.074941479 -0.03505674 -0.0086168218 -0.087182827 0.060229473 0.051249038 0.058361415 0.011826782 -0.067203499 -0.063110657 -0.021284375 -0.029707598 0.027026685 -0.076055184 -0.00021763652 0.00029015224 0.097966224 0.081038989 -0.068386056 0.021977611 0.11191598 0.093543977 0.05213714 0.042133786 0.034272633 -0.069908321 0.015464777 -0.026634632 0.10394277 -0.071726382 0.0062516849 0.014888492 -0.10719369 0.028433736 0.067940213 -0.029129479 -0.074605525 0.060582668 -0.060452297 -0.054109491 0.008427632 0.056653842 0.069066003 0.072383106 -0.080005929 -0.024680145 0.0097336564 0.0073179859 -0.028323352 0.056007989 -0.099822037 0.029205294 0.087852068 0.10849105 0.020657394 -0.030860063 0.040736895 -0.0060294792 0.0074293767 0.062932178 -0.062585898 0.071886636 0.10026854 -0.014229142 -0.0073118964 -0.05996874 -0.077357918 -0.0005852321 -0.012474597 -0.019119548 -0.10169137 0.014119889 -0.084591165 -0.071662545 -0.0468399 -0.079798222 0.0074717449 0.081196018 0.01538258 0.051882818 0.0053882366 -0.08796265 -0.035851043 0.011574287 0.034861397 0.02007835 0.054059189 -0.051707234 0.069551818 0.0049634273 -0.02248569 0.058262385 -0.022327853 0.040614814 -0.081529729 0.095436014 0.076440327 -0.039322644 -0.056825809 -0.064343795 0.098722011 0.062607333 -0.058104068 0.073423266 0.066723481 0.04556315 -0.061278831 0.079675034 -0.005582659 -0.017012125 0.091008589 0.027872594 0.042675775 -0.064428121 0.027956905 -0.0096022654 0.056712627 0.047259811 -0.038839899 -0.011436559 -0.022780685 -0.057728991 0.080731153 -0.051999517 -0.023668312 0.085004583 0.087052487 0.049763232 -0.052398615 0.00050708931 0.0013188074 0.026192544 0.040947236 -0.070557468 -0.10969443 0.082577296 0.067499071 0.045809023 0.031419072 -0.045688055 -0.047274522 0.080431461 -0.011180812 -0.0028098004 0.0023533725 -0.002040575 0.020659031 -0.064305969 -0.02116715 0.081013165 0.10070173 0.089526452 0.089704163 -0.087741479 -0.013401089 -0.0032483973 0.072602808 0.036817964 0.071277365 0.047049958 -0.011763402 0.05277925 -0.098318465 0.010815579 0.077117741 0.10976946 -0.058933452 -0.033769939 -0.11687733 -0.042808399 0.060721256 -0.057059877 -0.082687162 0.096857011 -0.067245804 -0.02924416 0.031982284 0.092245854 0.0052814181 -0.084162422 0.093140922 -0.059108466 -0.047799621 0.085491739 0.10342781 0.016869344 -0.099347487 -0.016329026 0.028042376 0.037687935 0.012930253 0.013234265 0.059972908 -0.11613981 0.018494867 0.056073792 0.046099551 -0.042461999 -0.11165223 -0.11785011 -0.056517929 -0.032347795 0.038643073 -0.048829868 0.087845907 -0.0037203205 -0.053651638 0.029798679 0.082354791 -0.029961998 0.025522154 0.048341259 0.047170438 -0.029656421 0.049658127 0.031108666 0.063584849 -0.021912711 -0.058082394 0.012774101 -0.048265044 0.056232434 -0.013497092 0.086505003 -0.058154594 0.03600049 0.035540003 0.0053947712 0.075855963 -0.045314606 -0.012379379 0.093800627 -0.085958645 -0.096037991 0.076670229 0.014073485 0.084278308 0.082520291 -0.031226192 0.08154887 -0.10108238 -0.067767739 -0.034743324 0.087446101 0.056921188 0.021613657 0.030161034 -0.032295153 -0.017355964 -0.042401079 -0.047482487 -0.098371945 -0.013843019 0.060100578 0.082991667 -0.0029221871 -0.051442564 0.062974371 0.064236969 -0.0058842339 0.10445248 0.00049990229 -0.062529132 0.028011929 -0.031521365 0.076900683 -0.065053627 -0.019234357 -0.00024836778 -0.0033297231 0.019337017 -0.02701118 0.097617209 0.033313666 0.04685045 0.0050388486 0.12471266 -0.0878492 0.015278623 0.030309509 0.10684372 0.0084373923 -0.066222057 0.014355121 0.11215053 0.027464658 0.0034824791 -0.019829875 0.043336235 -0.075069375 0.047713384 0.037300769 -0.083944239 -0.014698238 0.0038127617 -0.030819505 -0.095110156 -0.033065416 0.095027551 -0.042542551 0.08153712 0.036088888 0.08755026 0.023196237 0.09573172 -0.066078179 0.088113949 0.042121191 -0.058051534 -0.031538218 0.014910524 -0.008936841 0.10892811 0.059594873 0.078069948 -0.042986497 0.064010106 0.041904379 0.083949409 -0.0055371611 0.10906904 0.079438806 0.059640914 -0.01322958 0.055586491 0.048271734 -0.074152596 0.052763455 -0.0053670923 0.097315095 0.0069683976 -0.014877488 0.10905052 0.049233712 -0.03516832 -0.012955537 0.032131303 0.0096452646 0.094995409 -0.029001018 -0.0096784756 0.080606163 0.096946545 -0.084429391 -0.050745692 0.11076666 -0.036215335 0.030537443 -0.11351854 0.049037173 -0.02760002 -0.040400434 -0.070701413 0.061614506 0.039808024 -0.039780084 0.061684743 -0.068171129 0.064147979 -0.092556402 0.027111525 0.084191851 0.081814848 -0.056005288 -0.079037711 -0.029642982 -0.063076213 -0.074527495 0.0073715854 -0.059034277 0.057604663 0.098380558 -0.071752459 -0.079966739 -0.083330221 0.03240728 0.10504191 -0.077748217 -0.098524667 -0.02840697 0.089843273 0.016788621 -0.061729919 -0.052236911 -0.090896279 0.0055403453 0.021122722 0.063484497 0.059056755 -0.030264385 0.0069242772 0.024337063 -0.064214893 -0.066490903 0.048631337 0.10180138 0.035529315 0.053788919 -0.010453384 -0.0091485996 0.012121336 0.0087677035 0.045197338 -0.033856127 -0.094400629 -0.088546433 0.0029089956 -0.08485432 0.03541762 -0.016185561 -0.01229632 -0.0033649986 0.064566836 -0.080880143 -0.030345095 0.057002384 -0.043748721 0.032648582 0.074646667 -0.066765741 0.013809405 -0.069162518 0.076407991 -0.057700727 -0.05136722 0.029091621 -0.052094378 0.065273307 -0.012989417 -0.070542023 -0.072043881 0.11347948 -0.10912491 0.072123982 0.051050186 -0.020626377 -0.042940978 0.094016165 0.0029513054 0.050599478 0.094606526 -0.10455509 0.032739136 -0.039205134 0.09836363 0.072050713 -0.10073337 0.037836403 0.026163843 0.010803968 0.083291247 -0.068596631 0.10346548 0.0050956681 -0.073664665 -0.10153204 0.037300043 -0.087623104 -0.0060962108 -0.084559165 0.025428738 -0.025387524 0.078493163 0.062751427 -0.077806294 0.063088655 0.024721794 -0.078451179 -0.065022714 -0.0064799567 0.055339228 -0.034780394 7.1195398e-05 0.064763486 0.03319094 0.028216051 0.070622012 -0.082698435 -0.062905863 0.071790621 0.041889008 -0.089161672 -0.028113339 0.048006497 -0.062510513 -0.042584125 0.042174466 0.073266856 -0.014444849 0.041320775 -0.01918588 -0.042878546 -0.018489815 0.022458412 0.02940589 0.025202936 -0.067101121 -0.072663613 -0.080415003 0.0091036838 0.10393093 0.042388305 -0.070315637 -0.014984623 -0.017042885 0.07161665 0.052767556 -0.022614395 -0.0075733503 0.031757828 0.085814022 -0.091683544 0.051912848 0.087122776 -0.040528372 -0.090578571 -0.047054209 -0.070870608 0.011463976 0.066959843 0.085203558 -0.014339683 0.077773757 -0.10648239 -0.046338245 0.071938865 0.063203268 -0.011260455 0.00027465512 -0.01325694 0.075286359 0.066085309 -0.054913491 -0.0090285232 0.082204573 -0.00020670603 0.026627243 0.097884193 -0.04829675 0.067205511 -0.0082733184 -0.038624331 0.077756159 0.072155043 -0.02787484 -0.0022973933 -0.050405316 0.04613094 -0.041699957 0.061103094 0.002759184 0.058956072 0.00013368262 0.038684033 0.1273647 -0.0042541437 -0.042858724 -0.040288765 0.10775021 -0.059162859 -0.024135577 -0.019224159 0.038098872 -0.083205715 -0.053760178 0.10318666 -0.0096812714 0.0098135797 -0.054697201 -0.10211755 -0.0026427098 0.090406224 0.059949491 -0.032097328 0.11214887 0.035503354 -0.091277815 0.052287798 0.078830011 0.072603025 -0.08442463 -0.026292756 0.091227733 0.092565447 0.07719516 0.061580792 0.082799315 0.087138563 0.034572557 -0.058677252 -0.052889295 -0.059296243 -0.0052989912 0.01682427 -0.023764657 -0.05351096 0.026934024 -0.1164153 -0.051145192 0.042562578 0.047891587 0.089987256 0.084096305 0.017102389 0.037123386 -0.010516401 -0.0099807158 0.058774076 0.099826135 -0.075395167 -0.088994771 0.080393694 -0.048562642 0.033572234 -0.041070025 0.1204315 -0.069070719 -0.092541657 0.010186997 0.002886937 0.019017452 -0.039862756 0.089297965 -0.071908586 -0.0067291856 0.084145121 0.069852538 0.071327023 0.062347881 -0.016304413 -0.030154226 0.0055815973 0.1073185 0.080225281 0.073261634 -0.11161756 -0.098690853 0.032563433 -0.0026050261 -0.0018374661 -0.070017576 0.078849077 -0.0083089769 0.041749027 -0.045737129 -0.10291579 0.10019804 0.015020361 0.02029217 -0.020903826 0.11000796 0.043213472 -0.0016252728 -0.085407704 0.041374914 8.5860949e-05 0.035854377 -0.07762526 0.024943866 0.014839868 0.051147725 -0.044790998 0.064189911 0.069491334 0.069789365 0.09110669 0.068198018 0.071233101 0.036735695 0.060574654 0.068880841 0.10750296 0.050862648 -0.050373025 0.10557401 0.023878504 0.092382789 0.052207757 -0.020865979 0.085226454 0.02589009 -0.0088874185 0.023375547 0.052459713 0.029661164 0.032799087 -0.093575001 0.052627388 -0.08556141 0.044241633 0.033225026 -0.022311242 0.071661711 -0.068991363 -0.013153888 0.043136172 0.032598753 0.013066313 0.087945253 0.085984975 0.072505325 0.067601644 0.10867859 0.017513478 -0.089519732 -0.010161444 0.029012401 0.033595435 0.0095787086 0.0039965198 0.060289256 -0.09883818 -0.038069811 -0.057149388 0.034817725 0.01027368 0.0047021606 -0.010452904 -0.11484277 -0.073632434 -0.0078851404 0.063572928 -0.038925081 -0.037300825 0.038690265 -0.06356442 0.077118151 -0.03795534 -0.010826513 0.092787653 0.078495309 0.093580224 -0.016155627 0.10245927 -0.075095117 0.11400329 -0.017864294 -0.064542651 -0.01713844 -0.089692377 -0.11320762 0.0070993439 -0.0609097 -0.013590174 -0.019724634 -0.072554916 0.087586261 -0.010809355 0.035980646 0.10695118 -0.0091908565 0.0663753 0.076858379 0.11289512 -0.0032756545 0.12556715 0.0730832 0.020476468 0.06050916 -0.087371878 0.055434838 0.023466021 0.076090582 0.076422602 -0.019306179 0.050556906 -0.049496513 -0.038607035 -0.020928012 0.012710663 -0.050872762 -0.034345485 0.084174201 -0.076426826 0.043386877 -0.02609334 -0.064377226 -0.0066641406 0.12979145 -0.031101495 0.060685769 0.041818086 0.092520095 0.022017114 -0.058734518 0.0010870105 0.043367676 -0.082927927 0.12455768 0.046721682 0.042651076 0.010371532 0.068055868 -0.0069136429 0.053273719 -0.10208778 0.092782877 -0.062946394 -0.034397267 0.033574268 0.10432828 0.010933226 0.035762176 0.000133211 -0.087795809 0.10412186 0.017603043 -0.052679915 -0.056483012 0.12801969 0.042397242 -0.10292242 -0.080366619 0.08678741 -0.082362786 0.057393618 0.043523602 0.079501912 0.015697446 0.0039210878 0.02605677 0.0035122635 -0.049585603 0.0070666093 0.076394975 -0.074275456 0.10430188 -0.02181082 0.038241934 0.078550234 0.045412019 -0.017020488 0.033487894 -0.076950632 -0.093714327 -0.051354088 -0.12680671 0.092827477 -0.020907663 -0.09783157 -0.1157243 0.1064069 0.032034047 -0.025950504 0.014880579 -0.086697169 -0.030441288 0.012039111 -0.056932278 -0.090117462 -0.059200205 -0.087728232 -0.10513552 -0.059882842 -0.046626598 -0.06197273 -0.061686289 0.022268355 -0.028760182 0.038369901 -0.041333362 -0.055513144 -0.050377551 -0.010176361 0.038592923 -0.057231691 0.014519237 -0.071013905 0.051848598 -0.046407457 0.011068948 -0.080927826 0.026578953 0.06356407 0.0042691091 -0.052210052 -0.048670359 0.0022353756 -0.0099653499 -0.10344222 -0.09388452 0.11740929 0.016806297 0.070154667 -0.046912868 0.020797102 0.061199617 -0.011981407 -0.083395444 0.020575322 0.0038711748 -0.084364809 0.053566538 -0.0055697374 -0.069474779 0.022643609 -0.09582404 0.018160202 0.021422394 -0.034141503 -0.0018210827 -0.062266238 0.077795923 0.0099093132 0.01388679 0.0059415824 -0.051937614 0.044693332 0.11248577 0.031599101 0.050422017 0.064487621 0.076687425 -0.01934973 -0.085435316 0.027806019 -0.10359351 -0.099490963 -0.062578842 0.030612495 0.076876111 0.0082543464 0.086730979 -0.0018822941 0.015128775 -0.087649286 -0.0005155254 -0.044089451 -0.060849734 0.045697916 -0.047716577 -0.071381658 0.087767601 0.038524035 -0.052321255 -0.046547636 -0.12497076 0.12174451 0.098634847 0.0040556658 -0.011298276 -0.0094338376 -0.07136897 -0.015097991 -0.059466675 -0.0064826002 -0.034416337 -0.0071044648 -0.024651047 0.04957534 -0.074959405 0.006894704 0.080488779 -0.026676759 0.05977821 0.018302543 -0.080169804 -0.027125243 0.0047483663 -0.063368283 0.01683123 0.081132576 -0.099923164 -0.051042613 0.045486562 -0.10518266 0.0055139875 -0.024200462 0.051154006 0.093077421 0.063034035 -0.064434193 0.05880107 -0.041958664 0.066396862 -0.04490133 -0.12491152 0.074490018 -0.080372423 0.069448739 -0.014510695 0.039559439 -0.032078732 0.00054292823 0.079305157 -0.056558684 0.07793054 0.089506693 -0.037797593 0.038032081 0.055853188 0.059405677 0.0096562374 -0.048273012 0.043589689 0.093319073 -0.05276328 0.0087281065 0.015205041 -0.014521641 0.062266361 0.040750749 -0.054302055 -0.035574395 -0.0048126318 -0.037777554 -0.0810517 -0.034757797 -0.022267314 -0.058250614 0.0493421 0.00087877194 0.0013395177 -0.091467634 -0.083317906 -0.01095215 -0.029219106 0.055890225 0.035966009 -0.075915791 0.0040740594 0.054027431 -0.042342801 0.072217487 -0.0021679269 0.024438158 0.044219419 -0.012049801 -0.0022792004 0.060916614 -0.0049762619 -0.071771041 -0.076438501 0.040155146 -0.069064081 -0.099013381 0.11172856 -0.10040179 0.10879552 -0.016196037 -0.13164651 0.073485479 -0.0091543579 0.039933629 -0.056026831 0.088530622 0.066759363 0.085806072 -0.00051277876 0.10293817 -0.079920575 -0.049599301 0.062464386 0.020612974 0.011571161 0.016441995 -0.046425648 -0.01599755 0.027818793 0.034248471 0.00093246013 0.056249794 -0.031190313 0.11138938 0.044690449 -0.09440738 -0.00079794152 -0.029808015 0.039185107 0.040614028 -0.078175649 -0.05574993 -0.025027214 0.027266501 -0.056681786 0.039691798 -0.088706903 0.075584769 0.028667811 0.029872842 -0.060595457 0.092296146 -0.034006786 -0.0031748146 -0.083012037 -0.047492437 -0.083587572 -0.043080699 0.081737041 -0.11360376 0.027430307 -0.059561823 0.065101966 -0.022285864 -0.10586485 0.093943685 0.051677417 0.088407457 0.05250144 0.040789206 -0.086861745 -0.034986444 0.048080631 -0.063455611 0.11294644 -0.0010467176 0.02551136 0.053388145 0.033465844 -0.00095501053 0.022788661 -0.034480453 0.099939555 -0.022507207 0.12865661 -0.046173368 -0.053260062 -0.084706917 -0.055043783 0.086544104 -0.040167011 -0.031635102 0.00018017167 -0.0083850697 0.026568482 -0.079086684 -0.037537895 -0.029427776 0.080875136 0.077106118 -0.0070786164 -0.017391279 0.030312786 0.046645056 -0.080240823 -0.049256142 0.027009914 0.0087066544 -0.075818807 -0.038611818 -0.031855181 -0.071370311 -0.084025882 -0.018447086 -0.039688248 0.056753617 -0.10406909 0.023697892 -0.0014156265 -0.028867852 0.10539462 -0.07884948 -0.080650002 -0.053609971 -0.070023671 -0.11065876 0.035024021 0.089744315 -0.069332927 0.0321499 -0.040100299 -0.11268444 0.10494678 0.054960385 -0.026125548 -0.048542254 -0.029196275 -0.081989311 -0.05332217 0.061094806 -0.011447941 -0.087457716 -0.04372216 -0.083064638 -0.06676612 -0.044857003 0.0033972196 0.048549213 0.069973521 0.060150847 0.051387858 0.058910549 0.021355418 -0.10120558 -0.014950376 -0.11772346 -0.039266668 0.0058799176 0.010293533 0.11811537 -0.1003871 0.090833388 -0.028652299 -0.06831038 -0.020665066 -0.030827671 0.019445511 0.066741399 -0.055325672 -0.037593227 0.088883273 0.011239314 0.06361635 0.058031701 0.029230479 -0.020795461 -0.025488567 0.074733093 -0.1109296 -0.033096347 0.12416739 -0.0049978332 0.026555456 -0.0065782359 0.099414207 -0.042001825 0.093323395 0.024146454 0.055987887 -0.0113963 0.06270615 0.066355519 -0.0022336587 0.067846932 0.0034325661 0.079705037 -0.10345388 -0.056898002 0.070434503 0.042868201 0.023272829 0.067446575 0.075653829 0.067074537 0.031570937 -0.052707296 0.080571704 -0.06419117 0.010079416 0.059533846 -0.062281128 0.032221671 -0.0061888015 0.085658327 -0.0081671765 0.10442283 -0.094246149 -0.027864212 0.048685268 -0.11877239 0.052462943 0.021503769 0.086702295 0.020951379 0.0067813536 -0.037355948 0.10038225 -0.021069773 0.063360319 -0.055577684 0.0069427737 0.097027406 0.078910187 -0.10061122 -0.033348642 0.017038548 -0.040018078 -0.096388228 -0.0087866522 0.029612761 -0.043166131 0.049547691 -0.039274689 -0.043119427 -0.067619041 0.1044523 0.057270005 0.014729766 -0.068467312 -0.052832503 0.016425852 -0.087034829 0.022385545 0.013879047 -0.1046112 -0.047541715 -0.054862462 -0.041345276 0.068103373 0.018476924 -0.067502022 0.08878354 -0.0086715389 -0.039733913 0.011702887 -0.07392247 -0.10548039 0.061115522 -0.00017366061 -0.11850729 0.05510217 -0.11582324 0.070680954 -0.064336047 -0.1061219 0.06185453 -0.067752115 0.0061733923 0.035045333 -0.004096007 0.081634805 -0.078187495 -0.077355027 -0.040796522 -0.024746189 0.013981641 -0.0064562038 -0.10221513 0.0010902663 0.0096465591 0.076576665 -0.020115798 -0.057771269 -0.0086583151 0.073853686 0.030562455 -0.010956181 0.024784863 0.12612313 0.0025212895 0.070053101 -0.082860045 -0.015198455 -0.034265503 -0.11692977 -0.044146553 0.0049546389 0.050997291 -0.052187286 0.016793769 0.014391494 0.036334835 0.045546919 -0.052353989 -0.028617822 0.10516214 -0.0076076984 0.089080185 -0.11574811 -0.037250888 0.01357868 0.071634248 -0.012840914 0.047875155 -0.079702035 0.072781235 -0.076504238 0.064525761 -0.020417394 -0.11314929 0.073340856 -0.02052483 -0.012512428 -0.039452717 -0.11353475 -0.047637947 -0.06484808 -0.042874351 0.027297147 0.030950803 0.075544842 -0.081541598 0.073184192 0.068976827 -0.012809364 0.053845938 -0.017030647 -0.026451927 0.084721908 -0.005436704 -0.029065944 0.034594718 0.016046729 0.072847322 -0.043568131 -0.030473165 -0.085262373 0.1043188 -0.053330559 0.044602912 0.035001785 -0.068510398 0.066788942 -0.079073943 -0.039391175 -0.089737222 0.073258609 -0.089653946 -0.083186001 0.088641398 0.10301312 -0.015302246 0.011048879 -0.0595489 -0.055938937 -0.033540018 0.088735215 -0.043216608 -0.080037072 -0.1096291 0.077387229 -0.07554473 0.044230141 0.045504007 -0.07875222 0.063118368 0.013959843 -0.049524315 -0.0383409 -0.017433377 -0.039581589 0.014898562 -0.060906541 0.093838319 0.011364396 -0.067977875 -0.051445171 -0.045453731 0.0099441204 0.063772954 -0.10638207 0.05711988 -0.049072504 -0.057705306 -0.058202814 -0.067070298 -0.017392248 0.07869678 0.0093999067 0.083421037 -0.097012118 0.095779151 0.026136551 0.058395524 -0.10138667 -0.064718358 0.098996639 -0.047435489 -0.0073743826 -0.047962952 0.0077086235 0.047489043 0.10161366 0.021400332 0.057475481 -0.0064158766 -0.09603174 -0.087151922 -0.013668364 0.070155017 0.0027743524 -0.08957874 0.072263978 -0.048082869 0.071205251 0.055496443 -0.026729845 -0.012123831 -0.023758482 -0.028983548 0.042385671 -0.078578003 -0.010136692 -0.04757208 0.032525931 0.039639503 0.020065313 -0.10906783 0.07676059 0.0033228958 -0.058943886 -0.032437388 -0.020261899 -0.063845441 -0.0835476 -0.090614602 0.12320893 -0.041184321 0.10199806 0.063084394 0.11197377 -0.069599874 -0.094055161 -0.027668817 -0.00066768483 0.026380174 0.01696177 -0.066269629 0.090527385 0.01595802 -0.073979087 0.029713999 0.015810981 -0.061183996 -0.046722747 0.0567047 0.00098661962 -0.0013001102 0.049585905 0.066777207 0.073067389 -0.032934751 0.094074532 0.0090360586 0.026714694 0.076936752 0.10097902 -0.066472925 0.029216552 0.060688026 0.12700765 -0.040680349 -0.0062637967 0.035672192 0.055164035 -0.012970449 0.017255064 0.03755312 0.0023664844 0.11786244 0.032319047 -0.0021144 0.10132018 0.043132178 -0.074761413 0.027323229 0.026254984 -0.036900617 0.043680452 -0.049114972 0.095383011 0.019106524 0.08334446 -0.10826629 -0.025327832 0.044401255 0.012702795 0.03977263 -0.055823259 0.095341057 0.10880081 0.0041569429 0.060272317 0.056158599 0.031389564 -0.00078195432 -0.10462245 -0.037866339 -0.061479349 0.0382649 0.036683112 0.10992802 -0.019420156 -0.034417093 -0.079593979 -0.091447227 -0.064022504 0.087732963 -0.09233366 0.029972039 -0.024542497 -0.067729056 0.028704034 0.095664829 0.014847774 -0.02427089 0.049823884 0.045381635 -0.020895949 0.047524873 0.08894302 0.03655849 -0.058886256 0.048082426 -0.085130014 0.001038466 0.086232752 0.052438203 -0.063623689 0.11071791 0.10747358 0.035938904 0.0085479394 -0.077166535 0.016143704 0.036850672 -0.095045894 -0.046865564 0.01643813 0.064315416 0.013047594 -0.00012204192 0.015645929 0.10883521 -0.048880581 -0.0098781995 -0.016480995 0.049063288 -0.0065744575 0.054525122 0.095374957 -0.069045737 0.034936357 -0.091135964 0.052135076 0.093150906 0.0134982 -0.071831807 -0.028317122 -0.0057920306 -0.0088863149 0.0093039628 -0.03479293 -0.011753347 -0.031566687 0.047817718 0.041616756 0.049768776 0.086694382 -0.069806114 0.040429879 -0.064074092 0.035398945 -0.0083471332 0.052172571 -0.047220208 0.037505761 -0.025159519 0.024708344 -0.054938808 -0.0063473778 -0.051156446 0.059890132 -0.089156561 -0.055323116 -0.029321004 0.076842874 0.019674072 -0.098536976 -0.077897385 0.001635147 0.03427051 -0.019939821 -0.038889144 -0.065846942 0.10177553 -0.062869586 -0.053403128 0.059647098 -0.07757213 -0.049367778 -0.037941236 -0.10338774 0.045227192 -0.01439783 -0.054665755 -0.047344528 0.038845219 -0.063703448 -0.026009444 -0.051432889 -0.11171697 0.037644774 0.010188986 0.043590203 0.017561365 0.00072953734 0.065827437 0.023394674 -0.023196224 0.023970196 0.088372879 0.080425359 -0.013477863 0.053946283 -0.06137304 0.061071619 -0.0011263456 0.01929675 -0.081423722 0.043473035 0.066654548 -0.035508916 0.091415189 0.034627017 0.045912411 -0.10021076 0.083585247 0.078271016 -0.012724531 -0.020424686 0.10438072 -0.051300865 -0.04651795 0.051959611 -0.0045989119 0.043372225 0.04225691 -0.065246083 0.057921108 0.065527752 -0.013476698 -0.062234525 0.079792269 -0.026569704 0.021190958 0.057497263 0.05954941 0.013465546 0.00036288021 -0.067015432 0.07827051 -0.07478302 0.092514969 -0.027391035 0.048493072 0.087165967 0.057670027 -0.092453867 0.098097228 0.096631698 0.066167369 0.080559678 -0.02457105 -0.070694827 -0.024095964 0.013713117 -0.0019229956 0.082371958 0.080132931 0.02249153 -0.0030261022 0.10445056 0.050408363 0.038413893 0.016793903 0.068899877 0.063324884 0.085474275 -0.050908811 -0.099079296 -0.032558035 -0.053960107 -0.099328987 -0.033398628 0.025781192 0.044018913 -0.056345701 -0.012830544 0.036837187 0.11876338 -0.10057729 0.10688609 0.095215216 0.05151391 -0.02843353 -0.05170485 0.010968548 -0.031844281 0.065730497 -0.055327516 0.047716215 -0.017498402 -0.09890268 -0.069358423 -0.021538107 0.098709442 0.0067389375 0.085946135 0.044130795 0.069517858 -0.0045876624 0.076335415 -0.032293852 -0.084982969 0.030391436 0.020141061 -0.086694635 0.010989539 -0.05529717 0.024904527 -0.032155327 0.042530518 0.0069190548 0.10525068 -0.089851908 0.018252794 -0.028812077 -0.069060102 0.074694335 -0.09750437 -0.07304506 0.037482224 0.087583557 -0.031310812 -0.022132568 -0.063102044 -0.060388528 -0.090922132 -0.0077427006 -0.0024191102 -0.027643926 -0.065518782 0.097879089 0.092530347 0.076800719 -0.030045727 0.094650581 0.048887156 -0.012887503 -0.077052042 0.022326346 0.097791962 -0.074811496 0.037194081 -0.050639294 0.0049300445 0.093330182 -0.084540121 0.069333546 -0.035363685 -0.058883544 -0.06631913 -0.059451651 0.036858879 -0.033590611 -0.10518024 -0.10301582 0.051459167 -0.027143048 0.072405696 -0.03909139 0.0042149359 0.079543903 0.088279694 -0.052227005 -0.10030867 0.0069915019 0.014952735 -0.049163498 -0.0696951 0.098421916 -0.02005521 0.031548716 0.084887676 0.0049840719 0.053417284 0.037030671 0.071044952 0.052477524 0.065671697 0.092419729 0.078094676 -0.0067641889 -0.066512935 -0.015450666 -0.099408723 -0.010442569 0.075364143 -0.049379427 0.020987596 0.062290143 -0.034577474 0.089533083 0.019183654 0.049874593 0.072520554 -0.017072748 -0.0020015177 0.10269743 -0.0047910232 0.016786177 0.012029689 -0.06939777 0.04769199 0.017636171 -0.022712538 0.019217851 -0.077152364 0.066434704 0.064841971 -0.057933234 0.0086845085 0.014636026 0.064025342 0.018170089 0.066126958 -0.026188377 -0.086393923 0.09135896 -0.06974601 0.057704251 -0.040460065 0.029770816 -0.057239618 0.023317469 -0.017567515 -0.052845705 -0.04803969 -0.00743896 0.030567076 -0.096841708 -0.040790301 0.071532004 -0.0306376 0.051176552 0.051022138 -0.092532709 0.027902292 -0.078000061 -0.097300321 0.039496072 0.05873622 0.012814653 0.087610714 -0.1082626 -0.063137859 -0.087474175 0.092386827 -0.078733079 0.055486482 -0.024024287 0.05206858 0.003553696 0.0074284771 0.10736802 0.11013271 0.0039602942 -0.060389541 0.029962976 -0.025471352 -0.050961751 -0.031394836 0.032450996 -0.0099015534 0.097623475 -0.095984466 -0.025273262 0.031401705 -0.040646214 0.038552772 -0.0066316612 0.035484117 -0.0047775358 0.0052466369 -0.077908747 0.053696066 0.073766552 -0.059692629 -0.044422861 -0.015596921 0.071959943 -0.042481743 0.0090127066 0.015336245 -0.046038244 0.060294181 -0.01502619 -0.0063572186 -0.012367499 0.033654265 0.027445054 -0.069761485 0.041542046 0.080351263 -0.07309074 0.053754743 0.060085513 -0.046591025 -0.11353402 -0.039428864 0.056660183 -0.092086442 0.037752371 0.10285026 0.056298707 0.0039066169 -0.0069634621 -0.11926463 0.02207459 -0.051525403 0.075878479 0.073703229 -0.081578806 -0.057674453 0.042072739 -0.020641068 0.06646277 0.11001758 0.04336543 -0.005513777 0.097183198 -0.085132919 -0.0059421957 -0.041805893 -0.010207097 -0.051258359 -0.0040464755 0.049941547 0.11514647 0.039117329 -0.017924003 -0.029190937 -0.087380245 0.1102741 -0.064709872 -0.042106923 -0.066326357 -0.093469612 -0.040564317 -0.042689197 -0.071715571 0.051528428 -0.096292123 0.016002363 0.06440042 0.053892627 -0.043332238 0.030789535 -0.064860128 -0.083631396 -0.08941748 -0.022700384 0.012484279 0.043977838 -0.096765958 -0.014369353 -0.085950963 -0.050415445 0.034994744 -0.0032263249 -0.015556248 -0.093386292 0.008637147 0.08867459 0.092779785 -0.10725232 -0.05880408 -0.098501086 0.013762137 0.049362056 0.0122185 -0.099703282 0.079111718 -0.069763392 0.095026501 0.0045208111 -0.024314608 0.058988389 0.087817863 -0.091835022 0.049899857 0.032528788 0.11848046 -0.014758583 0.044424221 -0.054042373 -0.091412172 0.05916173 -0.05040301 -0.045680072 -0.019479148 0.094097942 -0.026023323 0.059070401 -0.022470059 -0.098619297 0.088090986 -0.10343036 0.013577588 0.075863339 -0.091074251 -0.030561445 -0.062863402 0.0093878917 0.075421005 -0.068587326 -0.11410662 -0.0808734 0.0060543991 0.086189806 -0.028865278 -0.097882882 0.10931522 -0.016849766 0.034801915 0.08681231 -0.098320134 -0.013138817 -0.10079529 -0.063811943 -0.078757688 0.072021142 0.092748106 -0.0092672603 -0.10738035 0.041691232 -0.054430176 0.04074651 0.066481993 0.011750996 -0.048741426 0.057139982 0.052485552 -0.06157713 0.06589561 0.0080914916 0.070517637 -0.03809274 0.083458073 -0.056403112 0.047928598 0.036695383 0.015155898 -0.06800203 0.10589377 -0.054402042 0.045116048 0.062823363 0.075269893 0.016614046 -0.039743088 -0.032079287 0.049411882 0.0069349194 -0.099172801 0.0049530552 -0.058792662 0.09473414 -0.02519005 -0.037201401 0.032495223 0.049320374 -0.007340943 0.027375065 0.0064643146 0.070516355 0.086506069 0.015363888 -0.020168753 -0.024914011 -0.056457471 -0.019829724 0.02989706 0.012865889 -0.074499838 -0.080679432 0.016402854 -0.024918184 0.064750098 0.063449353 0.089051649 -0.03378468 0.025340788 -0.10665469 0.088166125 0.053977661 0.07225699 -0.0002330718 0.013146241 0.058692191 0.052584093 -0.1125427 0.061963897 0.010578254 -0.079873003 -0.041972868 -0.095818289 0.020353563 0.0018930936 -0.099399731 0.035988752 -0.063928999 0.058783721 0.0052679181 0.01209631 0.031419832 -0.024058953 0.057868879 0.021553742 -0.080842748 -0.065484017 0.0014824944 -0.10727394 -0.057542466 -0.053695552 0.10649485 0.022472315 0.05721591 0.015136484 0.032912821 -0.030687179 0.079107039 -0.021012448 -0.041680954 0.080133937 0.076372914 0.013205172 -0.11103038 0.017865857 0.012442348 -0.0001164706 0.06117196 -0.038918372 0.083984658 -0.055775866 0.08137206 0.063245475 -0.058928676 0.071722515 -0.013116136 0.093488321 0.018831538 0.019966532 -0.077226304 0.079522058 -0.005905434 -0.07797502 -0.068952702 -0.077963307 0.080998071 0.025133416 -0.047318671 0.094831146 0.1032296 0.05795024 0.10028849 0.053475909 0.056793168 0.026551288 -0.066535771 -0.0070550363 -0.060735412 -0.0058198641 0.013354735 0.080011904 -0.0060267197 0.022320701 0.096936271 -0.036597904 0.0097379563 0.094742447 0.060005657 0.031594206 -0.056029644 0.032388277 -0.08525189 -0.072652757 -0.039212592 -0.050982948 0.068680324 -0.085057944 0.038737729 -0.10221092 -0.039045017 0.032071851 -0.084803917 -0.07405553 -0.021830706 -0.017705219 -0.055319548 -0.08234448 -0.013249856 -0.041677479 -0.090948418 -0.032604311 -0.0024662854 -0.049833648 0.10369905 -0.084251925 -0.022509638 0.074927501 0.011782871 -0.061091661 -0.086287029 -0.055577219 -0.0064414977 -0.10265786 0.084509499 0.027670156 -0.08432439 -0.070702769 0.037992906 0.04617577 0.068795852 0.0015982109 0.0095311319 -0.070221722 -0.0042058444 -0.1025091 0.079972975 -0.089719065 0.088592663 -0.068644769 0.0079155928 0.0047653294 0.03026038 0.065986283 0.093491457 -0.090758428 0.092538118 -0.016695106 -0.068875156 -0.046044964 0.028100574 0.126138 0.14229006 0.032148354 0.055166241 0.071387544 0.019624133 0.050368801 0.035527796 0.017535903 -0.08900252 0.013822437 0.016342141 -0.052100752 -0.11077842 -0.060790204 0.11304379 -0.062512197 -0.067122862 0.02770892 -0.11799739 0.027530681 -0.0068887691 0.031939019 -0.072494373 0.057124965 0.043809649 0.075924151 -0.044322025 -0.078828 -0.034175102 0.033497274 0.063172042 0.068452895 -0.020446574 0.068478361 0.11463214 -0.022435639 -0.098289527 -0.12646826 -0.077336654 0.12699085 -0.026771655 -0.031723168 0.096501373 -0.044982534 0.076935768 -0.066699773 -0.043093041 -0.075362578 -0.02161042 -0.03156108 0.034235995 0.04407851 0.028034138 -0.10666752 -0.022596149 0.048444226 0.062734224 0.044016182 -0.050645441 -0.050017323 -0.085180625 -0.057087116 0.10429129 0.023982478 -0.010178135 0.040937826 -0.080401607 -0.04527384 -0.025455758 0.013040979 0.0039817546 0.10680238 -0.099298194 0.038713675 0.09665972 -0.022474959 0.011791379 0.11061944 0.086458668 0.02672199 0.10812712 0.057612605 -0.0541104 -0.074939914 0.12789772 0.089396283 -0.06092253 -0.025575358 0.13420205 -0.036563065 0.052470502 -0.019312644 0.11413141 -0.01228195 0.0011253515 -0.068858646 0.10942858 0.0055210372 0.065258488 0.044521011 0.025101619 -0.063594431 -0.021919338 -0.10445043 -0.060394295 -0.057056792 0.0014026494 -0.019648792 0.016197871 0.094733231 0.065701663 -0.034014873 -0.10948547 -0.012579674 0.094163671 0.1074744 -0.088980488 -0.043701861 -0.020487268 0.086054765 0.098735988 0.086197898 0.14967996 -0.060627103 0.072617702 0.065105952 0.034323327 -0.023937343 -0.019139346 0.0099127349 0.024648217 0.02308156 -0.007429481 0.063765764 -0.062891111 -0.061710697 -0.082416259 -0.11104051 -0.014650851 0.082088038 0.011684014 -0.041578542 -0.10639998 0.098799586 0.016995586 0.094794102 -0.080389261 -0.014939488 -0.083298266 -0.021871416 0.0388771 0.026176121 0.060756404 -0.084238969 0.052419163 -0.039747987 0.061221384 0.045233019 -0.044653803 0.082408197 -0.12784515 0.11443098 -0.05466957 0.051728729 0.0066867559 -0.099239714 0.12847897 0.10917412 -0.079238676 -0.041876871 -0.021192653 -0.10831425 -0.099153988 -0.038956687 -0.059493169 -0.053566463 0.077307068 -0.052614745 0.078823209 -0.10920887 0.024040626 0.046029985 0.058180396 -0.086023115 0.05046647 -0.030869067 -0.027925933 -0.036348596 -0.012980445 -0.01265954 0.086278722 -0.013001566 -0.088849567 0.025132004 -0.064012781 0.099336296 0.079660319 -0.095387027 0.12566943 0.0066751125 0.011739301 -0.060892899 -0.013293597 -0.075467013 0.03875709 -0.070601434 0.063297704 -0.051803298 -0.018951992 0.12403489 0.11497519 -0.083764128 -0.098820202 -0.088112868 -0.056166027 -0.064667337 0.099525198 -0.054769449 -0.090547279 -0.055483423 0.0054039694 -0.028873956 0.039587885 -0.006990145 -0.058746979 0.03846867 0.10270116 -0.0073804674 0.042360738 0.052972414 -0.042915672 0.068458021 -0.068799898 0.090983458 0.055644397 -0.010199526 -0.056120962 0.078043774 -0.01778011 -0.033930071 -0.019965081 0.045122944 0.080540836 -0.044367149 0.0022210015 0.0071459324 -0.094300568 -0.063228831 0.024022877 -0.040312264 -0.076969258 -0.065620013 0.047763381 -0.038933616 -0.041775353 -0.026884196 -0.031255994 0.01814837 -0.05632928 -0.068513542 0.055291031 -0.063687265 0.13101533 -0.055618905 0.13629223 -0.10733548 -0.022437144 0.0076310146 0.085804656 0.10199577 -0.12878376 -0.09695036 0.053608485 -0.093727298 -0.021792734 -0.032777641 0.039922159 0.074014843 -0.091101065 -0.11940414 -0.053871259 -0.090138212 -0.099346235 -0.0031323985 -0.018025478 -0.1092588 0.0071332692 0.051107235 0.027914023 -0.0222717 0.078203462 0.0047149914 0.018313007 -0.092911348 -0.012203242 -0.11064862 -0.0072797122 0.14704369 -0.082422793 0.03033293 -0.0024522415 -0.099005073 0.0079330057 0.1110015 -0.10369603 -0.056901008 0.0014443545 -0.027992466 -0.05341376 0.12381328 0.048209339 -0.11553349 0.025351755 0.1162012 0.080498435 0.066680409 -0.050304357 0.076271735 -0.073272653 0.12357776 -0.067495897 0.053201187 0.016504796 -0.032976937 -0.048713628 -0.015747344 -0.092984512 -0.090354249 0.089988843 -0.11676301 -0.048524532 0.10747298 0.025871279 -0.009569468 0.078077376 -0.047925849 -0.031231582 -0.060037311 -0.051888756 -0.0030357372 0.012349249 -0.059545077 0.11316659 0.12073711 0.081168346 0.064864285 -0.052936666 0.11031957 0.025303818 -0.021840503 0.074572153 0.044011161 0.14096072 0.00071465113 -0.085057743 0.046311956 0.091967128 -0.06739565 0.061032541 -0.0055153952 -0.062379871 -0.088554956 0.041213945 0.12401733 -0.069563061 0.04579249 0.028817838 -0.058856163 -0.07237488 -0.091606513 -0.047474511 -0.04283464 0.0055055106 -0.07480263 -0.10259643 0.089565828 0.0007800184 -0.052532651 0.0091766194 -0.027464204 0.046322331 -0.07478939 0.10461874 0.025894236 0.043675356 -0.028979219 0.093565017 -0.09284132 -0.017972948 0.073486723 0.072173826 0.041584652 -0.064281911 0.046912059 0.037493665 -0.075907715 0.073951393 -0.018946605 -0.012774797 -0.055801157 0.081913687 -0.007730992 0.068913691 0.03488718 0.070111923 0.00034421583 0.052482899 0.094844349 -0.097848184 -0.047408182 -0.0085944971 -0.087289602 0.062041819 0.0067255376 0.095587514 0.095485799 0.048871357 -0.044588204 -0.096144512 -0.093405418 -0.075648218 0.054106738 0.026383674 -0.052729838 0.076346241 0.069920868 -0.032938898 -0.094192617 -0.095797457 0.0053847525 -0.0088110827 -0.07865528 0.015111482 0.023108216 -0.010451441 0.035690121 -0.072864421 0.037145898 0.021565344 -0.062418554 -0.024028454 0.027916932 -0.040910784 0.012754835 -0.084859021 0.018829828 0.006390681 -0.020399073 0.04824429 -0.047002442 0.071054757 -0.011205258 0.096328512 0.022515591 0.0025482629 0.056487668 0.009880146 -0.075144753 -0.052387509 -0.030005993 0.046032757 0.09701176 0.051769242 0.095273554 -0.10343017 0.035665043 -0.097289011 0.052815739 -0.047198247 0.025288451 -0.064447634 -0.063755058 -0.078061536 -0.011837397 0.084703699 0.014834839 -0.027949421 0.00047361248 -0.021737268 -0.0045594838 0.059860334 -0.098082729 -0.069831304 0.051326193 -0.086738303 -0.017455552 -0.04560725 -0.059768129 -0.055086941 0.084235325 0.085545011 0.0016349921 -0.098170765 -0.080370039 -0.10143472 0.029603709 0.052803233 0.036150515 -0.053006232 -0.051636819 -0.011590159 0.049627528 0.043397032 0.084504113 -0.034677073 0.083483726 -0.078380339 0.025562949 0.045822378 0.068278626 0.094903544 -0.070461124 0.028412554 0.039298661 -0.00028841814 0.012496858 -0.08337409 0.035314783 0.014000427 0.068548448 0.071105793 -0.073505968 0.094307803 0.07115218 0.092907757 -0.037946291 -0.096337892 -0.040785354 -0.045789234 0.067620948 0.032671262 0.047503147 -0.079853818 0.056232605 -0.014879276 -0.024552185 0.060947586 -0.052382477 0.052772578 -0.028210469 -0.03083696 0.091540106 -0.090087235 0.060463432 -0.069572121 0.060295898 -0.074215353 -0.054768082 -0.075529791 -0.061182227 0.048369888 -0.02118892 0.08343529 -0.014032608 0.056347799 -0.062862001 -0.036423471 -0.016969949 -0.11008506 0.02673017 0.05261958 0.072356187 0.026471404 -0.044835284 0.048847713 0.063757472 0.043723285 0.027367385 -0.10270463 0.012933954 -0.0073994529 0.015741959 0.044635948 -0.036070827 -0.040625226 -0.081059627 0.098428331 -0.040774941 -0.022132093 0.057600077 0.063582525 -0.09398631 0.01976403 0.043538712 0.040366724 0.012703393 0.019633282 0.04159449 -0.09040264 0.058273133 0.0474847 -0.042181961 -0.045357775 -0.090296932 -0.086491354 -0.040354799 0.067246549 0.027484775 -0.0039729783 -0.058237247 0.10036531 0.029184051 0.076094434 -0.078125075 -0.073374942 0.0193743 -0.10292844 -0.016430082 -0.0042649228 0.0068858089 -0.084570579 0.068164304 0.090476677 -0.10002042 0.027699444 -0.028143218 0.07528045 0.070310421 -0.0098664882 -0.011844938 -0.035720117 -0.072398134 -0.051919818 -0.076659225 0.076321177 -0.0072884248 -0.02562709 -0.075188138 -0.064427756 0.011330694 -0.019800453 -0.064570695 -0.01764112 0.084296688 -0.0092806173 0.08181154 0.030376097 0.086740814 -0.086536996 -0.0058876709 0.076506436 0.0079895854 -0.066723466 -0.082298383 0.025435731 -0.049042158 -0.045677491 0.041055538 0.046390146 -0.052735656 0.054788671 0.094807342 -0.077779897 0.077854358 -0.094228312 0.072491251 -0.089200392 -0.039454997 0.075992823 -0.10739518 0.10571019 0.051977556 -0.090699531 0.0023708334 -0.066229574 -0.004794131 0.10167543 0.089725718 0.054983985 -0.072270975 -0.060725734 -0.027331607 0.0036446049 -0.029944191 0.015267882 0.063825518 -0.086339727 0.032784179 0.0494757 0.074164934 0.066383474 0.048385959 -0.035647336 -0.0045783562 0.054296669 0.085991696 -0.017702486 0.0081864633 0.065518081 0.027575152 -0.081871554 -0.073316552 0.016860893 0.075620323 0.088123553 -0.0044990969 0.089194119 -0.0020265365 0.018036939 -0.067495354 0.0035551388 0.060362097 0.028330527 0.027771648 0.069711663 -0.060234487 0.031430788 0.0028321408 0.048837576 -0.046433415 0.028251957 0.033807587 -0.088046543 -0.097313747 0.040931497 -0.01889077 0.097461693 0.022284618 0.056317259 -0.027127573 0.0019390942 -0.012790784 0.071917869 0.049639035 -0.046227515 -0.0087819817 -0.006620944 -0.059095219 0.024707848 0.068284035 0.0052143969 0.022852294 0.038066477 0.010744753 0.082242794 0.0058985525 -0.053125482 -0.047050979 -0.058997914 -0.045851726 -0.10046666 -0.040161908 -0.057796929 -0.020980783 -0.0074083507 0.070873022 0.02164964 0.022328034 0.00022987304 -0.078134082 0.018179983 -0.11690204 0.091305159 0.11479093 0.0264812 0.091711871 -0.050821081 0.059422646 0.063714258 0.094083793 0.038202014 0.0068900078 -0.021475064 -0.0028781136 0.045139924 0.073170178 0.041580837 0.11667335 -0.017778501 0.035905793 0.07597179 0.005547246 0.087640673 0.051174562 0.048031438 0.045476396 -0.010944012 0.03582684 0.040640973 0.017723436 0.0014860878 0.10019718 0.082283735 -0.072586313 -0.13663566 0.046692323 0.01556526 0.027711829 0.10684156 0.077057511 0.068414129 0.13362239 0.083591729 0.10069281 0.068549342 0.0285879 0.072267435 -0.094395071 0.077226229 0.013140626 0.038820416 -0.021324463 0.087445453 0.058274016 0.0080051962 -0.022414265 0.096650593 -0.079039551 -0.080741271 -0.00072251522 -0.032189097 -0.0022935751 0.067357361 0.053895097 0.07884039 -0.090651445 -0.011191099 -0.080825157 -0.076437391 0.13264912 0.074688107 -0.068560794 0.082911409 -0.11312204 0.074333124 0.04522571 -0.064969607 0.041565206 -0.1043328 -0.11055016 0.009077901 0.0093930494 0.0055967546 0.02720112 -0.022264449 0.05584944 -0.022002544 -0.061707284 0.019618837 0.09891057 0.022238504 -0.041223153 0.048929483 0.0134661 0.086384401 -0.042754203 -0.079078585 0.069940917 -0.074274436 -0.072108552 0.0031814922 0.010378937 0.091395073 0.026216695 0.0060285642 0.086017288 0.013152561 -0.01977009 0.048839904 0.049537409 0.027556218 0.013042463 0.086198084 0.071903326 -0.092909671 -0.046602171 0.076602846 -0.067926958 -0.043586146 -0.10124025 0.0026525578 0.020393901 -0.059734818 0.020134768 -0.05186088 -0.069567867 0.12913625 0.073416032 -0.0074011488 -0.0053910697 0.051541738 0.035018716 0.03649101 0.069398835 -0.045228221 -0.12568517 -0.083489411 -0.017488405 0.079413965 0.016819602 -0.071760997 -0.057029881 -0.083565958 0.09345229 -0.024734035 -0.0021533296 -0.05052216 -0.023946419 0.0320624 0.10103728 -0.097914122 -0.025043234 -0.058565699 -0.035602298 -0.060964879 -0.028474623 -0.067956232 0.014911206 -0.033032194 -0.051471926 -0.094001338 -0.10119047 -0.064530402 -0.013981919 -0.046828549 0.07706058 -0.11088591 0.031253461 -0.014872423 -0.055273741 -0.069263048 0.10812928 0.050571211 0.11188726 0.078375891 0.028404374 0.033596274 -0.05983955 -0.090566397 -0.054700643 0.010545051 0.033954412 0.067337237 0.036221609 -0.034299716 -0.07721781 -0.032436743 0.027386056 0.072544664 -0.06037597 -0.015859209 -0.062177371 -0.045927417 0.0045274748 -0.051063158 0.017331889 0.038994584 0.080136627 -0.037176374 0.036603365 0.088909112 0.10133714 0.046305221 -0.039521053 -0.022391681 0.035899885 0.030851191 0.10405494 0.10926872 0.024842322 -0.073721893 -0.048632853 0.065518707 0.04820618 -0.10988647 0.052244004 -0.024585325 0.10977946 -0.050318461 0.010223772 -0.086837493 -0.12120999 -0.06892845 0.01266582 0.0029889215 -0.051865511 -0.095494203 0.010396652 -0.036800679 0.042819511 0.044654984 0.0021480727 0.0039069476 0.052249964 0.03907818 0.10758341 0.067402609 -0.071922287 -0.034761466 -0.036357053 0.01799278 -0.03875351 0.0069095944 -0.11113913 0.11546621 -0.13148364 -0.072026327 -0.055803355 -0.047387939 -0.012907146 -0.098978996 -0.03687663 0.040061701 0.046870168 -0.084222324 0.019478528 0.094269618 0.098282732 0.033772022 -0.088477604 0.065884277 -0.075928904 -0.0027000166 -0.10098159 -0.015510305 -0.0061035529 -0.068821043 -0.038520388 0.07819692 -0.080693796 -0.0027810952 -0.088071682 0.042639572 0.033474438 0.010271098 0.012540676 -0.0061681154 -0.12614293 0.026698461 -0.10052183 0.089348562 0.029379044 0.067649476 -0.009018153 0.077053793 0.091657184 0.047736738 -0.064641275 0.027091678 -0.00083896797 -0.029994493 0.075913675 0.042697072 -0.063017339 0.028409055 0.022090755 -0.014932571 -0.039175253 -0.059522435 -0.01366837 0.048676584 -0.025030484 -0.049341604 -0.029468251 -0.065217823 -0.035341237 -0.081701696 0.083068177 0.036181789 -0.024819346 0.072931252 -0.06224145 0.039311484 -0.059264515 0.063737758 -0.090884678 -0.0017523401 0.012831941 0.075806886 0.10930399 0.039774761 0.0072242254 0.05077932 -0.089525349 -0.034159988 -0.11209362 0.015751602 -0.096743256 -0.049442042 0.053986177 -0.091531545 -0.070229717 0.034859315 0.061697513 -0.088822573 -0.0068987245 -0.099914484 -0.061232649 0.06640441 0.00094554416 0.079869531 -0.047337234 -0.037214678 -0.016676186 -0.083044291 0.098930843 -0.045998391 -0.020852081 0.099828817 -0.0035129662 -0.0081371311 0.076672412 -0.085382193 0.0037851278 -0.08000157 0.071011469 0.04740468 -0.07457187 -0.070145644 0.071497969 0.044447999 0.015686674 0.07897824 -0.089489006 0.012299912 0.036770366 0.064288989 0.02926301 -0.061667927 0.03287065 -0.024628449 0.036835745 0.080031283 0.025305575 -0.02924381 -0.031004637 -0.079652958 0.036972415 -0.082747266 0.053069092 0.00096674298 0.0832709 0.065388866 0.013205663 -0.060997702 -0.092893556 0.0083691059 0.10110889 -0.020812199 -0.022670129 0.071557462 0.059014555 0.072646916 0.090835847 -0.018218393 0.097111195 -0.013797273 0.010918121 -0.064925343 0.094949596 0.09137354 0.10430748 0.026645001 0.062672623 -0.058345996 -0.036885984 0.00093113101 0.054630354 -0.086870641 -0.039171774 -0.087850675 0.010556167 0.032993525 -0.087281153 0.026661528 -0.040640384 -0.059402432 -0.0075718393 0.038152896 0.0040778262 0.051574048 -0.0098746 0.072080851 -0.039952576 -0.007434919 -0.074666239 0.010680118 0.025048438 -0.037895598 0.088796712 0.081974827 -0.05528092 -0.021255769 -0.021063803 -0.092751727 0.039324112 -0.055268623 -0.024061216 -0.020077975 -0.029287001 -0.045108136 -0.004937625 -0.037004165 -0.099840425 -0.051502589 0.0073594516 -0.057177033 0.068655841 0.019600721 -0.085892938 -0.077736884 0.082498282 -0.057728458 -0.066512495 -0.068164103 0.053861588 -0.034943797 0.062578492 -0.090837047 0.026613982 -0.088686556 -0.064092025 -0.058023237 -0.003165832 0.095753312 0.092607766 -0.040572263 -0.089029871 0.01188127 0.031343933 0.00043299171 -0.067238607 -0.067870811 0.057116129 0.10144378 0.058482751 -0.048362531 -0.02686191 0.050090186 0.028087817 0.050574586 -0.035263661 -0.083798505 0.076557726 0.066027775 0.092242062 0.05388578 0.0058471435 0.061631955 -0.034765866 0.025231035 0.022954881 -0.025031066 0.033504132 -0.04643596 -0.028494731 0.097534999 0.063749626 0.038566936 0.01298012 0.094340168 0.07909926 -0.050821155 0.02262794 -0.084877513 -0.006849641 -0.074130826 0.029493745 0.063223302 0.0025347192 -0.036800377 -0.057272013 0.028093316 0.060260072 0.032842997 -0.069428585 0.080531918 0.068091214 -0.067884289 0.038180072 -0.095872872 0.0040667239 0.061018605 -0.010442566 -0.078624479 0.05168882 0.089397192 0.08773312 -0.035102975 -0.0069367392 -0.099608056 0.021081518 0.081805788 0.051881451 -0.062077105 0.092450745 0.058245923 0.0086454861 -0.079767548 0.080820419 -0.087706096 -0.05278594 -0.025298657 -0.10010725 -0.040201426 -0.095425323 -0.011719665 0.03042981 -0.030931123 0.067331843 -0.041447584 -0.069148317 -0.060010366 -0.080237113 -0.0943131 -0.092345484 0.074179463 0.061846718 0.063703433 -0.089345723 -0.01140316 0.039751187 0.099666141 0.021215161 -0.013510584 -0.083565436 0.033327758 -0.033097032 0.028643398 -0.043661006 0.071568005 -0.044702668 -0.027099913 -0.073277108 0.0058354028 -0.021100288 0.077453353 -0.059455305 0.10402176 0.097258136 -0.019575749 -0.047400605 0.0066618742 -0.063032702 -0.10159539 0.065113038 -0.033548135 0.016977137 0.068914607 -0.082556471 -0.0058422154 -0.019374928 -0.025026295 0.027150661 -0.062079072 -0.031720072 0.099098407 0.075357929 0.01179422 0.01455432 -0.08270441 0.0095891962 0.045473237 -0.035412487 0.053141408 -0.060983635 0.071213633 -0.062813915 -0.0081676152 -0.015347836 -0.031421348 -0.0035587698 0.052827056 -0.0014776817 -0.037444368 0.077476487 0.10317686 0.038478974 -0.053434134 -0.045264967 0.019304378 0.022072813 0.054928154 0.035030112 0.082827263 -0.012763084 0.016763344 0.069113076 0.043642074 0.057087459 0.062003907 0.049747065 -0.013706398 -0.057113219 0.00091128261 0.032096695 0.033370554 0.012134716 -0.018453168 -0.028881382 0.025876448 -0.014855791 0.062261213 -0.074947871 0.020105895 -0.089560829 -0.024999438 -0.0078591369 0.054262228 -0.065426357 0.061791461 -0.096033014 0.025307903 -0.087929636 -0.026957586 -0.083060004 0.042435229 0.096280292 0.055695552 -0.090476863 0.077085249 -0.078657344 0.010806237 0.093655117 0.035309695 -0.04787796 -0.070315421 0.055245727 -0.05485623 0.091530472 0.0054055955 -0.061958324 0.069039829 0.0085098362 0.059079137 -0.087895587 -0.044497237 0.0024282376 -0.020253738 -0.0038469201 0.08486443 -0.09527763 0.078251012 0.00056625967 -0.053640306 0.078311741 -0.039741479 -0.094488733 0.049003065 -0.055142935 -0.066053197 0.057154674 0.078550838 0.094675876 0.072200954 -0.068229109 0.049726471 0.022052804 -0.030268501 -0.065944701 0.081978582 0.090163574 0.027144372 0.0029704524 0.086480044 0.0025998396 0.00066507549 0.10179864 0.079516158 0.03885093 0.028481167 -0.035557795 -0.038247235 -0.068702042 0.061983671 -0.040456783 -0.078161702 0.040612925 -0.039959107 0.078207187 0.060706802 0.030490179 0.063852727 -0.01053027 0.019176183 -0.034484349 -0.075259216 0.08557383 0.066228084 0.072032571 -0.01399093 0.074075103 0.086224824 0.029387902 -0.046612058 0.044667814 0.067866676 0.012809118 0.070481867 0.12764202 -0.0088899601 0.017997397 0.041340478 0.078607067 0.067572579 0.08858192 -0.023488197 0.060110535 -0.090816438 -0.016360771 -0.086957231 -0.022697777 -0.10358468 -0.048697744 0.071489669 -0.069443949 0.10007011 -0.050229598 0.00080529513 0.11618512 0.053379174 0.12738013 -0.020092096 0.032879841 0.016801558 0.076844878 0.080007941 -0.099205688 0.050074708 0.099141397 -0.10082224 -0.10039707 0.014647692 -0.042905789 -0.0582221 0.054784272 -0.0039927163 4.3973916e-05 0.053308103 -0.043208767 -0.088878475 -0.10748858 -0.05782431 -0.11486382 0.1372114 0.12740271 -0.087956488 0.069634594 -0.11277668 0.11852425 0.073948517 0.058602568 -0.03272514 0.046069823 -0.035608057 0.066126071 -0.045851979 -0.041928891 -0.020110402 0.027415365 0.057524752 0.10211983 -0.044654626 0.062206451 0.11237242 -0.019623281 -0.084761493 0.058758914 0.084725261 0.036895342 0.083600223 0.0866035 -0.0030596945 -0.085267454 0.04930269 0.012317195 -0.067030117 0.0028777053 0.05317039 -0.028151585 -0.051914696 0.001414631 0.049143307 0.039641995 -0.068447664 -0.071449846 -0.071653344 -0.0679956 0.026816374 0.03306222 0.078819066 -0.044947352 -0.12093154 -0.050214633 -0.11070891 -0.021815343 0.037363216 -0.07474684 -0.095528476 -0.059552353 0.061216123 0.061176825 -0.02841375 0.026434749 -0.046316572 0.07882008 -0.025645506 -0.03168001 -0.087452576 0.0015567712 0.044220652 -0.012247947 0.10653498 -0.04778615 -0.022157814 0.10403724 0.013346835 -0.079720818 0.00011079456 0.0091627156 0.10251392 0.017468495 0.11231836 0.11761013 -0.01855927 0.075199798 0.040023237 -0.078291804 0.079977468 0.11470859 0.080145746 0.048376076 0.095403664 -0.069922663 0.047232777 0.097515024 -0.047817927 -0.015211213 -0.059443455 0.096743472 0.05097872 0.0015508719 0.070302337 -0.078433804 0.043209389 -0.076821603 -0.011423059 -0.082054168 -0.024150318 -0.0478478 0.073018335 -0.036882229 -0.0142698 0.09468504 -0.087852292 -0.051354963 -0.012468303 -0.041292574 -0.10822649 0.033893269 0.080774806 -0.060130809 -0.035978507 0.052103739 0.11132081 0.087660022 0.027070295 0.061729044 0.070967138 -0.051971778 0.1303978 0.031804204 -0.10289516 0.024905432 0.0094982535 -0.0046285917 -0.007425338 0.047651839 -0.038593616 -0.0070469258 -0.065246411 0.016945651 -0.0069187144 -0.027173011 -0.016726075 -0.010994465 0.045721751 -0.067820974 0.12086817 0.036907345 0.064285845 0.13066319 0.010359991 0.088650718 0.052322306 0.0098570101 -0.067190751 -0.012452675 -0.035003804 0.067971781 -0.057094663 0.025027974 -0.042418007 -0.075811699 0.073404387 0.052810658 0.033310618 -0.0020642744 0.039616991 0.033872474 -0.02056133 0.085262336 -0.11133202 -0.023948714 0.096288241 -0.027608357 0.050860252 0.042339217 0.1173951 -0.10048726 -0.090625189 -0.033818465 0.059327949 0.077617526 0.094850175 0.056385435 0.10895639 -0.040811799 0.044556729 -0.023087189 0.087112911 -0.096574172 -0.069447517 -0.076386102 -0.067290366 -0.056083255 -0.055731531 0.026755922 -0.015834425 0.031069871 -0.0054832739 -0.063059457 -0.0051451423 0.022645392 0.031214373 -0.020567007 0.013512022 0.099886112 0.064022087 0.078653723 -0.059070971 -0.007729013 0.085220367 0.059880573 0.098283365 -0.085057877 -0.025022082 0.028056402 -0.017450489 0.15160131 -0.07617268 -0.11245836 0.011215397 0.012058428 -0.021275513 -0.064221904 -0.010211224 0.015121727 -0.050336648 -0.1227176 -0.076872095 0.030615851 0.029594118 -0.082767263 -0.068096206 -0.056836519 0.049345668 0.013952463 0.11185309 0.0081205862 -0.048536722 -0.083176732 0.094669484 0.072576925 0.0064295074 0.032794975 -0.045598682 0.05072087 -0.049346205 -0.054236483 0.060152121 0.087173827 -0.00089535397 0.052570805 -0.034694754 -0.047611848 -0.054885495 -0.049725942 -0.012829446 -0.061949987 -0.086162418 0.014029133 -0.041829858 0.05978141 -0.012023573 -0.097431734 0.034881804 0.055177152 -0.05720539 0.10350711 -0.079457223 -0.046730045 0.063423999 0.091864027 0.067996174 0.0059106634 0.098272301 -0.095742598 -0.076516822 -0.011911644 -0.0095214769 0.066498809 -0.037421346 0.046099346 0.042593297 -0.0089089023 -0.066482827 0.010876274 0.063293323 0.093017451 0.0067410553 0.031305671 -0.027761387 0.059581719 -0.029644242 -0.0073029469 -0.050423566 -0.010259044 -0.035611264 -0.04388307 -0.081690699 0.085172154 -0.036381423 -0.076715849 0.090155259 0.059598401 0.080743752 0.019464422 -0.029246718 0.015943892 -0.05128292 -0.071058579 -0.01629075 0.092613943 0.11529934 0.011719768 0.0051357085 -0.060919754 0.039419562 0.041941561 0.040729217 0.0053599672 0.087895073 -0.013479455 -0.088667274 -0.075347498 0.038509231 0.07692492 -0.028337952 0.063642047 -0.10883605 -0.053219214 -0.064447954 -0.077759013 0.011528033 -0.060473155 -0.017310545 -0.10504801 -0.046113312 -0.0078581292 0.0054632486 -0.053878225 0.055787873 -0.074409068 0.034772392 -0.011827627 0.059626676 0.06342715 -0.058651928 0.030287109 0.083267726 -0.10238411 -0.07426732 0.069566019 -0.024099395 0.039994437 -0.063036233 0.011486121 0.0031484675 0.076878838 -0.035435513 -0.045645457 0.0096923634 0.014669986 -0.10870778 0.074920431 -0.007010865 0.041572053 0.024539687 -0.067379124 -0.041221578 -0.075108886 -0.0024296928 -0.038680457 0.0002472364 0.052366793 0.038619019 -0.05441048 0.049922936 0.021154199 0.05262056 0.0082474891 -0.065164044 -0.064137213 -0.0063651754 -0.057470012 0.036105625 -0.072802931 -0.056532159 0.078196272 0.011785818 0.072336674 -0.0013036142 -0.011119166 0.044168789 -0.085649967 -0.1031424 -0.01745012 0.018685643 -0.093936168 -0.014487011 -0.027411798 -0.090717264 0.067756087 0.091803566 -0.023902757 -0.016405135 0.042782914 0.024212057 0.0028495414 0.089920223 0.068066485 0.047953717 0.03123471 0.027839849 -0.078490801 -0.085204475 -0.087416664 0.076708801 -0.012544537 0.031633258 0.070215859 0.046108268 -0.076672763 -0.0029511868 0.067524254 -0.091657445 -0.017688276 -0.087769479 0.10086822 0.04277445 -0.093592294 -0.062192675 -0.019665863 -0.035509713 0.08625365 0.026539948 -0.09510351 0.076748088 -0.019312581 0.097757064 -0.031214813 0.070188425 -0.015224457 -0.04572526 -0.059797127 0.063938759 0.017022176 0.055869993 0.008437519 0.01116997 0.074548289 0.0092666391 0.046608452 -0.10173481 -0.031720795 -0.07296849 0.091869749 0.032244686 -0.0072500268 -0.079971477 -0.10371045 -0.074648499 -0.040619247 -0.033645354 0.080355331 -0.022922557 0.048184793 -0.093421698 -0.087774374 -0.011967894 -0.082577713 -0.078607805 -0.016924234 -0.016816031 0.067122787 -0.014501784 0.060245801 0.02722316 -0.079591893 -0.07066004 0.0051395842 -0.00048563327 -0.036387656 -0.0019892426 -0.031515393 0.0023717862 0.04359474 -0.019276375 0.077094443 -0.088634424 -0.024881829 0.053725023 0.042010799 -0.030126022 -0.04933231 -0.01929874 -0.084878422 0.05068969 -0.092256568 -0.0082181552 -0.088844769 0.016270531 0.064725682 0.049853802 -0.037213977 -0.024345677 -0.056842439 -0.0045547215 0.04460353 -0.086503483 0.041940216 -0.10406028 0.072814204 0.05785523 -0.099594668 0.025811233 0.0063572987 -0.065467454 -0.047257587 -0.0069777477 0.052234918 0.10501314 0.087672994 -0.041315716 0.030942973 -0.038891118 0.052897327 -0.10918521 -0.089454919 0.075268753 -0.052464381 0.044467911 0.090148799 -0.0034082811 0.047976702 0.065178029 -0.035735529 0.016416827 0.048745066 -0.031481478 -0.079507425 -0.10067224 -0.036408972 0.010152743 0.051763311 -0.061881606 -0.023147926 -0.060372055 0.010094124 0.072016105 -0.075188667 0.070651785 -0.024089422 0.082209952 0.06769494 0.039765246 -0.036460835 0.10417883 0.054248732 0.073708668 -0.070269659 -0.0021302011 -0.013001208 0.085822299 0.046445142 -0.084891498 -0.019616114 -0.081745744 -0.014847758 0.066808902 -0.024073852 -0.086088464 -0.080174074 0.091891818 0.040984392 0.0061235665 -0.096943699 -0.046956778 0.061317731 0.023008429 -0.011973096 0.019566504 0.072215997 -0.058554139 0.088491403 -0.0017429334 -0.028267322 0.063963681 -0.089349665 -0.061519489 0.029061468 -0.014261833 -0.065832347 -0.089870058 0.07229434 -0.011788109 -0.011890737 -0.051897809 0.030838255 -0.012135183 0.091554746 0.014444625 0.016169956 -0.089969389 