#Parameter# /_2 {370,198} 909924 ZERO_GRAD
-0.10545426 0.011265311 -0.07348334 0.006265766 -0.031997573 -0.085316055 -0.040033866 0.091790393 0.037495535 -0.055231236 0.024731984 -0.043802228 -0.041743822 0.0038855246 -0.085154101 -0.059738863 0.050826631 -0.021854019 0.032627191 -0.007814181 -0.034649204 -0.080590926 0.10019841 -0.068622172 0.02500114 -0.070544988 0.057722963 -0.061332118 0.038980361 0.029552141 -0.093005016 -0.015325652 -0.018924868 0.086415567 -0.088059194 0.023645733 -0.024054244 0.013789354 -0.028750394 0.098327264 0.10575592 -0.027910633 0.021720482 -0.010481 -0.031925209 -0.027237833 0.016727965 0.070231758 -0.075563952 -0.052149158 -0.028406847 -0.014613848 0.067002214 -0.0040233401 -0.028937103 -0.005223481 -0.018807799 -0.084289812 -0.0054547857 0.078961797 -0.0087548224 0.094935097 -0.024572391 -0.020563152 -0.010372288 0.0061035696 -0.10056801 0.090428121 -0.06595856 0.069551602 -0.043333929 0.047959846 0.10868023 0.043228228 0.027631782 -0.10424875 0.09033709 0.093471929 -0.085256584 0.071997046 0.010722607 5.8023063e-05 0.094254188 0.082024537 0.079487845 0.0092701446 -0.0060244058 -0.10788235 -0.033637371 -0.034355808 0.087152772 -0.0022208195 -0.0063164593 0.056787875 -0.040938273 0.024174931 -0.072014295 0.020254366 -0.036255181 -0.031914536 0.05335306 -0.048667159 0.087513782 -0.048988499 -0.05330902 -0.082832277 -0.003707234 -0.070617504 -0.095070228 -0.088849507 -0.073664971 0.008102173 -3.3539654e-05 0.086194143 0.066761598 -0.094598874 0.10007507 -0.02437529 0.010741075 0.069094099 -0.003046921 -0.081077099 0.0081984615 0.018779457 -0.0014121106 -0.087452456 0.061412334 0.050060038 -0.098189801 0.05290382 0.062159341 0.083381891 0.089558408 -0.023513494 -0.049308665 0.053171948 -0.084984198 -0.068613455 0.0765891 0.0074375607 0.030135678 0.02297271 0.10962618 0.018864103 -0.041010715 0.062476359 -0.089023963 0.10482842 0.056284904 -0.060091309 0.011165801 0.090171598 0.008292051 -0.011987465 0.018754734 0.0072079622 -0.081595257 0.010352221 -0.03088779 -0.060217381 -0.090910628 0.020749608 -0.019294867 -0.055864215 -0.056228422 0.06315279 0.048561107 -0.025292091 0.071238555 -0.077092722 0.10003788 0.024483684 0.031601287 0.059835616 -0.015147924 0.08037293 0.041234348 -0.072994754 0.046997666 0.028506897 0.06590914 -0.071875848 -0.046389092 -0.050135408 0.0017034942 0.037336309 0.083270922 0.023953073 0.0068542855 0.016192848 -0.0082225846 0.077961124 -0.0028094403 0.061314244 0.040511571 0.086751133 -0.10239744 0.0675736 -0.062332015 0.016884498 -0.021602953 0.083171271 0.039281625 0.094043337 -0.010888884 0.083771743 -0.044024087 0.064730577 -0.022790693 -0.076007947 -0.05392731 -0.020754999 0.028840499 0.091808252 -0.066119149 -0.090206049 0.096636117 0.031365819 0.063797414 -0.011660749 -0.080291435 0.056964193 0.060491711 -0.073842533 -0.036463268 -0.085346997 -0.094647311 0.055482324 -0.053533912 0.08201991 0.021020919 0.067768164 -0.038710132 0.014175134 0.012178825 -0.016777132 -0.019053327 0.023934033 0.096722826 0.019817604 -0.10417188 0.054661147 -0.058184613 0.080461375 -0.090402931 -0.041261807 -0.079787612 0.052602682 -0.092551671 0.066753246 -0.011167401 0.093255825 0.082941629 0.065547638 -0.10221162 0.052086663 -0.07667537 -0.011621254 0.004274671 -0.05506504 -0.095052868 -0.0069964975 0.042598292 0.033856701 -0.015688442 -0.068500347 0.070331916 0.071788438 -0.058139753 -0.072796591 -0.077601627 -0.10368283 -0.033140261 0.057533361 0.084317535 0.052690435 -0.079760998 -0.00024316157 -0.094954789 -0.034504663 0.088609494 -0.044924848 -0.045993477 -0.049855698 -0.040536422 -0.028922632 0.056379769 -0.091975436 0.058983006 -0.05837917 -0.048719525 -0.057982113 -0.034636311 -0.028183488 -0.084413141 0.0074515701 -0.090933867 0.011319114 -0.062290188 0.068153627 -0.018366706 0.011392229 0.096136801 -0.083426617 -0.091450445 -0.025332989 0.094116509 -0.029028136 0.046154026 -0.097177029 -0.052019231 -0.090659767 -0.032608066 0.090621509 0.087264091 0.09793482 0.019713476 -0.087797076 -0.051093604 0.05014668 -0.063145041 -0.074422337 -0.091681041 -0.07304021 0.066604026 0.092246003 0.052034684 -0.063206151 -0.044057406 0.054198399 0.042509489 0.023603253 -0.06396962 0.0053609018 -0.047939461 -0.058811989 -0.099441014 0.073448956 0.045638632 0.06390132 0.094475582 0.054371405 0.018443914 0.092988171 0.0044810511 0.034531891 -0.043932863 0.014813058 0.01984168 -0.069234207 -0.0018244691 0.088054799 0.047369037 -0.093370229 -0.028650831 0.10408937 0.035505421 0.040229078 0.034054562 0.068445481 0.014843143 -0.065148354 0.047212403 -0.0070356992 0.0040629692 0.049197089 0.063606806 0.018993776 0.066152625 0.015478388 0.016734784 0.024255034 -0.019380243 0.05632671 -0.011606358 -0.065431185 0.019810874 -0.03973157 -0.096859209 -0.096519977 0.074652441 -0.10905788 -0.083226994 -0.027880292 0.033369478 0.0088737765 -0.02416187 0.078869089 0.022216061 -0.0084209647 -0.070949629 -0.039824199 0.0012888577 -0.048694421 0.027499039 0.060415193 0.012270731 0.053705964 -0.084699452 -0.097390451 0.061803799 0.026031857 0.021811521 -0.016038286 -0.076380864 -0.094090678 0.033311646 0.07006973 0.021503257 0.078181207 0.070429593 -0.07470905 0.028440377 -0.076929979 -0.018124817 -0.0024671543 0.081340618 -0.074691124 0.0089356042 0.017425206 0.060950756 -0.031196004 -0.094081402 0.0045635267 0.010046666 0.089865439 0.066160269 -0.067462534 0.01565226 -0.070509687 -0.08276204 0.087830529 0.0096929017 -0.002494426 -0.049625278 -0.058674451 -0.064934477 -0.050556954 0.039628126 0.10964376 -0.085017718 0.032536671 -0.019092293 0.091945849 0.057104036 0.050259337 0.050475176 0.011529184 0.037225328 -0.029365312 -0.10075519 0.044822071 0.035389971 0.055986799 0.10385116 -0.051700525 0.056203537 0.026788091 -0.024649221 0.042641494 0.061964177 -0.081794865 0.061289929 -0.089185439 0.033967711 0.076323479 0.019852316 0.022947326 0.011005077 0.058153477 -0.06376265 -0.0023645875 0.074897148 -0.0095196636 -0.022325475 -0.091339692 0.043658823 0.063908868 0.075801492 0.027874444 0.062329654 0.10009717 0.043855004 -0.092517041 0.059351552 -0.024538798 0.042403188 -0.062864803 0.058773763 0.01393611 -0.084974751 -0.04736945 0.026205139 -0.050892837 -0.035124194 -0.035169836 0.080894142 -0.099302605 0.090694323 -0.073224835 -0.05360334 -0.015644791 0.077123575 -0.057710554 0.028768692 0.10834554 -0.045128006 -0.086867459 0.096714459 -0.030781405 0.088612847 -0.10004003 -0.043599524 -0.073649615 -0.061188731 -0.047423944 -0.036869649 0.021108355 0.11990527 0.052456878 -0.065232977 0.0040578791 0.018587917 -0.0202365 0.050138205 -0.099576928 -0.021971412 -0.048126865 -0.016245132 -0.05450188 0.034619093 -0.071280785 0.044318207 0.040863041 0.0051087532 -0.039403912 0.055177458 0.084206551 -0.067515396 0.053022277 -0.017082877 -0.073145784 -0.095609911 0.090993389 -0.043320406 -0.068405114 -0.016089752 -0.066828407 -0.037384294 -0.055764355 -0.0059399004 0.016042328 -0.087868378 0.07616996 0.075181991 -0.030787367 0.034813896 -0.011343139 -0.075782239 0.03226494 0.0099265985 0.1133448 -0.081608228 0.015013285 -0.014810788 -0.059665769 -0.083338529 0.04368953 0.013586464 -0.028189322 -0.018887442 -0.043533262 -0.085529983 -0.023136865 -0.054402374 0.035679854 0.024819637 -0.035884161 0.06241297 0.015307732 -0.080128513 0.099969886 0.065554455 0.043663509 0.053597931 -0.01342435 -0.0071180933 -0.068244949 0.00080452324 0.018600333 0.053382687 -0.044862527 -0.10075824 0.0010553263 -0.019189339 -0.098165467 -0.02847117 0.067062497 -0.082266651 -0.05366217 -0.025881706 0.01422609 0.079720102 0.06876304 0.013518572 0.022348844 -0.048262551 -0.079558469 -0.043289613 -0.012977066 -0.10745752 0.11600289 0.088714808 0.0015836828 0.0034851385 0.060861453 -0.014729874 -0.036860168 -0.071673036 0.012082993 -0.011391542 -0.017445104 -0.0040897341 -0.10525237 -0.070051365 0.091160677 -0.097441442 -0.057738308 -0.022679759 -0.066761285 -0.027355777 0.047892943 0.033154126 -0.012004753 0.10055639 0.024926173 0.092604086 -0.031132855 -0.062740639 0.073320806 -0.049812496 -0.054575298 -0.06908913 0.035590313 0.032075346 -0.10645314 -0.022900922 0.0026443417 -0.023154154 0.076308489 0.094367623 0.070809498 -0.049526505 0.11384133 0.030893551 0.077015072 0.069320105 -0.082553998 0.090886645 0.038007587 -0.03857594 -0.013352791 -0.078981258 0.080821708 -0.010819171 -0.079305992 0.034178197 0.030630102 0.012498057 -0.1001192 -0.11048244 -0.019659681 -0.08924026 -0.10007662 -0.10331558 0.044282198 0.056564745 0.006434036 -0.042933393 0.032573059 -0.02143514 0.056996077 -0.041941147 -0.026608456 -0.057010233 -0.015264053 -0.01397907 -0.10245939 -0.077854171 0.0095793055 0.0014690384 -0.048341211 0.043062616 -0.11408072 -0.077004544 -0.0383633 0.094597645 0.064396106 -0.036446419 0.036740791 -0.060109895 0.09164574 -0.02586421 -0.034421876 0.074099377 0.040785797 0.016222971 -0.0029443416 -0.091055766 0.039523501 0.0063054981 -0.0095668444 -0.016695566 0.084791683 -0.063142106 0.0086707333 0.057341017 0.037382782 -0.014962514 0.0053223572 -0.04248761 0.025589326 -0.035960343 -0.0011639026 -0.067772873 0.021182185 -0.060909301 -0.034480475 -0.03920304 0.049538057 0.029595423 0.048409589 0.0013542026 0.035428397 0.10032173 0.078855336 -0.0011733802 0.014871536 -0.066968367 0.03941898 -0.014034241 -0.025759039 0.038570918 0.004838516 0.088664696 -0.029586142 -0.11521318 0.028192753 -0.034710132 0.11394983 -0.073464043 0.036659893 -0.016328465 0.057989128 -0.038712323 -0.061602179 0.062779345 -0.046211954 -0.12650602 -0.059211619 -0.042555828 0.045002624 -0.034729637 0.091506362 0.079597428 -0.062242646 0.077350043 -0.057916787 -0.036915042 0.065129407 0.084151745 -0.059323002 -0.072452001 -0.069579877 -0.017981621 0.055112939 -0.029949224 -0.093644448 -0.058290914 0.010903039 0.062788963 -0.057223562 -0.055240255 -0.081454419 -0.11162618 -0.068589859 0.060211904 0.049244381 -0.095055707 -0.029177343 0.10615272 -0.07707458 -0.08187905 -0.12071876 0.10277254 0.058125567 0.038386058 0.049101233 -0.0064695333 0.052506991 -0.070094466 -0.051037803 0.056363251 -0.0078505976 -0.00075598469 -0.043103367 0.062871292 0.017850466 -0.068401575 0.05060818 0.011337349 0.024928955 -0.053957839 -0.045442726 0.081518836 0.12050853 0.020621752 0.093974397 -0.045230974 0.091362931 -0.073639333 -0.079077929 -0.030890666 0.059193823 0.0025676582 -0.1170939 0.054139271 0.01716869 -0.046364471 -0.060628675 -0.051688489 0.036589772 -0.042202432 0.02233701 0.073983677 0.080231607 -0.014016424 -0.069467001 -0.056185286 0.0073117549 -0.048410527 -0.10446054 0.097541772 -0.092503965 0.023132896 0.043959778 -0.081159651 -0.022828337 0.075018935 0.029052686 0.094269462 -0.066596836 0.034986187 -0.027508777 0.031173646 0.084078483 0.018383993 -0.060355648 -0.052712809 0.070763297 0.082840025 0.05237402 -0.044928007 -0.03682198 0.073446251 -0.068701752 -0.085769519 0.079011083 0.015464765 0.0029920612 -0.017891085 -0.096378006 -0.052933179 0.07716611 -0.12096988 0.023827909 -0.045431264 0.034924023 0.079043835 -0.06401325 0.033158746 -0.050374746 -0.040316813 0.11031873 -0.06221205 -0.074264698 0.051211141 0.023672748 -0.038264692 -0.064387627 0.011146939 -0.0032018186 -0.1174394 -0.015347765 0.038957987 0.023168663 0.077130891 0.097446345 -0.10300302 0.03005469 -0.09404958 0.026231747 -0.0097899064 0.043283775 -0.046969678 0.0073052202 0.11134325 0.05520197 -0.064678602 0.05141937 0.064970985 0.067491859 -0.067947417 -0.052746784 -0.018723221 0.078923918 0.074063122 -0.049776509 -0.053010266 0.035301395 -0.075635292 -0.055538487 0.057805166 -0.014117161 0.052042097 0.055735491 -0.091606654 -0.075135574 -0.023276066 0.11074582 -0.0067784847 -0.11074311 0.070378646 0.11352213 0.028741611 -0.013199626 -0.087075301 0.10222236 -0.086379446 0.094110996 0.058308803 -0.087995283 -0.10425021 -0.021216927 -0.051733878 0.024086623 0.037472364 0.10603867 -0.061651338 -0.04616598 -0.016758163 -0.11781764 0.029567603 0.024032384 -0.098606631 -0.029136606 -0.069445826 -0.083658375 -0.052146763 0.023100127 0.012714898 0.08336015 -0.077385165 -0.038141735 -0.024594672 -0.082372487 0.043431833 -0.016924988 0.010737345 0.03258552 0.059830405 -0.05796906 0.020882232 -0.078172676 0.048550699 -0.04193205 -0.078459136 0.025019571 -0.068494469 0.0070857508 0.022542441 -0.081041306 -0.011426543 -0.028876392 -0.091504879 0.083300471 0.081066109 -0.075071827 -0.025628332 -0.072300814 0.062615998 0.057289455 0.044283085 0.013573349 0.093734227 0.10511836 -0.015057376 -0.0025320158 -0.039031181 0.018847102 0.020790746 -0.068926886 2.5410989e-05 -0.062663898 -0.11042149 -0.026979771 -0.046225537 -0.016917974 0.0011598413 -0.048940808 0.050472453 -0.02599936 -0.094107002 0.10384983 0.0059170322 0.014922651 0.063083358 -0.039010126 0.057617515 0.028188821 -0.098233081 0.074914098 -0.065748088 -0.063204497 -0.031267729 0.046477467 -0.060397472 -0.01206616 -0.02985063 0.028037179 0.011238734 -0.035246499 0.032708891 0.051568024 0.065442502 0.10368479 0.032053307 -0.016311826 0.016343156 0.065203026 0.056058459 -0.081971832 -0.037503369 0.087785497 0.086665712 -0.045809951 -0.098629571 -0.078970611 0.06339103 0.027843937 -0.03477608 -0.033024374 0.061727382 0.090132512 0.074458189 0.035549641 -0.021694949 0.029636286 -0.092882961 0.027472073 0.071887024 -0.049751263 0.051371854 0.019747827 0.0032843866 -0.092035763 -0.093682088 0.01158679 0.095459156 -0.014847929 -0.075245351 0.045726303 0.013855029 -0.050642442 0.033167358 0.018695181 0.043056786 0.031201525 -0.037966173 -0.0050223423 0.052633505 -0.041512508 -0.094413854 -0.071671188 -0.0040790485 0.088265873 -0.08434274 -0.046919912 -0.10432253 0.0013252579 -0.10129359 0.11006748 0.045737721 -0.06206717 0.087059729 0.037178632 0.064714029 -0.058760408 -0.048321038 0.025185162 0.045718484 0.065930352 -0.049050923 0.063757531 0.021407556 0.055587556 0.11141478 -0.041287441 0.05576776 -0.073751271 0.058260538 0.0061317082 0.054184854 -0.043402147 0.071143389 -0.030740544 -0.066573478 -0.092007816 0.045273822 -0.049628455 -0.086663857 0.012606294 -0.05241647 0.026701856 0.077021919 0.013932856 -0.077858701 -0.039500687 -0.066913776 -0.046575267 -0.11035594 0.071404874 0.017279027 0.004559427 -0.0054573761 0.014622864 -0.044230625 0.02409045 -0.063534908 0.010377732 -0.084830873 -0.068763211 0.045353442 0.0085204551 0.0930641 0.054725006 0.051662825 -0.0037872696 -0.073299408 0.024073621 -0.066584654 -0.095266566 -0.014161232 -0.068209648 0.086048782 -0.024702163 -0.008165814 0.0094328038 0.092200838 -0.023574328 0.07425274 0.025676521 -0.10444853 -0.048375584 0.0065890369 -0.06657856 0.0062433807 -0.05036417 0.050026994 0.043824911 0.082300991 -0.087221876 0.054431964 0.073284797 0.10394856 -0.036276463 -0.03801962 -0.095200531 -0.047849283 -0.044477824 -0.085454635 -0.034032907 0.077242285 -0.088163085 0.048511766 0.078470036 0.10325667 -0.059329696 0.087835565 0.042299908 -0.024387462 -0.065361977 -0.02859257 -0.085074306 0.073947564 -0.00041736377 -0.069129661 -0.091415726 0.065467052 0.07251481 -0.063747473 -0.046654005 -0.012665585 -0.057514764 0.053268455 0.10838972 -0.098914526 -0.038551923 -0.092682555 -0.065662585 -0.033377778 -0.068129107 0.0028687452 -0.053765167 0.032831192 -0.068759657 0.0025293627 0.10257205 -0.013149616 -0.064534225 0.089589506 0.0053983671 -0.043838948 0.088298999 -0.037194412 -0.019628048 0.0085075237 0.020100707 -0.053495381 0.069078885 -0.0075963996 0.0069187405 -0.031738464 0.055448957 0.052709199 0.094777338 -0.0016313012 0.0010159079 0.017145058 -0.0093857916 0.070985049 -0.062772349 -0.1118882 0.0033214642 -0.080608122 0.065482363 -0.090149164 -0.046040855 -0.024483664 -0.042304412 -0.0072168414 0.013238387 0.03257142 0.089702062 -0.014596321 -0.014552571 0.02901719 0.044858016 0.078705765 0.068178475 0.099959537 0.077660412 -0.062619723 -0.0096821953 0.060284581 0.041861337 -0.093659885 -0.071449682 0.081993856 0.052893326 -0.031878274 -0.071431294 -0.006687738 -0.032210883 0.077730037 -0.066320553 -0.055648595 0.068424582 0.047521152 0.050500404 -0.0017998538 -0.035503767 0.072739296 0.033048674 0.042001095 -0.024357537 -0.0025460336 0.011053233 -0.099230856 0.014214202 -0.011112547 0.0029284181 0.037502978 0.043483261 -0.016679091 0.046162937 0.077817582 -0.01556538 0.076290257 0.037250023 0.048403859 -0.024132941 0.047334433 0.021783965 0.099095196 -0.085838884 0.029016273 -0.047637042 0.0061148326 -0.043358572 0.069423974 0.043766588 -0.061779942 0.030614952 0.033518225 0.073973082 0.11470137 -0.10174166 0.10619567 0.088251196 0.0012889761 0.033854157 -0.079125546 0.018388851 -0.015729232 0.082919858 -0.057485729 0.10045986 0.015774384 -0.090655759 -0.071021296 0.037007749 0.090891987 -0.018587548 -0.072586395 0.074122638 -0.03612962 0.056662001 0.059627213 -0.016069628 -0.065967485 -0.055054456 -0.0066305655 -0.018853966 0.022721944 0.062096797 -0.066483431 0.060569488 0.079553306 -0.047268804 -0.03952086 -0.0087870797 -0.042998653 -0.095321663 0.0036649671 -0.037711162 0.0097692674 0.092633694 -0.034421481 0.051968131 -0.072425224 -0.018509932 0.090306483 0.078884423 0.0014545838 -0.042776223 -0.032174896 0.091577545 -0.080667689 0.087517172 0.038213298 0.077749327 -0.0085255373 -0.068122961 0.020608202 0.074438252 -0.067152321 -0.08063674 0.088977069 -0.074337013 0.082826108 0.069944851 0.08345972 -0.048920002 0.087647676 -0.067802466 0.039342269 -0.051217973 -0.10228305 0.089883469 -0.072815508 0.047993943 0.029241279 -0.022317059 -0.00050809665 -0.0015815345 -0.05022382 0.071052499 -0.032483224 -0.01898675 0.022801071 0.076175146 -0.041589987 -0.048577651 -0.070749201 -0.097748838 0.075325549 0.079235025 0.063254632 -0.032457426 -0.022746814 -0.013961234 -0.048677478 0.011559195 -0.051661752 -0.045279082 -0.032418199 0.038313478 0.049003836 0.035912894 -0.00026701612 0.081361026 -0.040938333 -0.068585627 -0.082949489 0.032104619 0.073953204 0.092758641 -0.093846865 0.026843084 -0.010748713 0.096800171 0.055041559 0.0091398833 0.029177148 -0.077786006 -0.043252345 0.0062454329 -0.06838423 0.085998774 -0.088252917 -0.057813272 -0.10721969 0.031539664 0.049839742 -0.065185659 -0.092971377 -0.076696508 0.11576848 -0.037574075 0.10396679 -0.027874844 0.068539545 -0.022328053 0.06896773 -0.030159721 0.035674009 0.059931226 -0.033963665 -0.047718536 0.098367274 0.10214172 0.02819759 0.078667544 -0.014511661 -0.062894158 0.070935383 -0.031410366 0.01531091 -0.097950101 0.017528769 -0.059473768 -0.083049536 0.0061773863 -0.0063916459 0.016532043 0.071229629 0.057032935 0.041902207 -0.067836113 0.074680232 -0.060261264 0.065337211 0.030265544 -0.0044271257 -0.022945456 0.0084479395 -0.05966153 0.051381849 -0.012483585 0.0076096277 -0.032590639 -0.094504267 -0.0020158822 -0.0077874595 0.020729879 -0.052288197 0.069864839 -0.034323178 0.070055775 0.011661957 0.055657599 -0.051647153 -0.1099246 0.019203307 -0.026066551 0.0040240614 -0.024529967 0.086294495 0.061211787 0.075138696 -0.052246362 0.051649433 -0.074800588 0.061809849 -0.073601797 -0.049425393 0.10369475 0.035661064 0.082002245 -0.044835445 -0.11542664 0.087867334 -0.023577668 0.03959243 -0.091611266 0.01367224 0.028357403 -0.047396243 -0.090180948 0.0067578373 0.090855375 0.047294673 0.00672821 -0.056424938 -0.026296113 -0.084275797 -0.041524518 0.049232934 0.040272076 0.012039045 0.1150891 0.011091288 0.10395825 -0.0083819777 -0.006816105 -0.091277122 0.041886188 -0.016699364 0.062232599 -0.064653911 -0.021198716 -0.075018212 0.013298817 0.00038672955 0.055603355 0.010007574 -0.059339967 -0.017808933 -0.016199326 -0.037737012 -0.0084174415 -0.060839128 -0.06728106 0.069237471 -0.092783689 -0.071147688 0.01529741 0.037053943 -0.03257069 0.017844584 -0.068592191 0.011985308 -0.065609261 -0.012493059 -0.037970167 -0.057035018 0.052852217 -0.029515658 0.099953465 0.025735093 0.055086277 -0.12280791 0.012094159 -0.084955655 0.035668273 0.089144751 0.045042843 0.012520973 0.016031865 -0.1193252 0.044361986 -0.049542405 0.037467562 -0.025234783 -0.057820976 0.079134539 -0.084817573 0.087370627 0.080070041 0.0073992731 -0.028621968 0.093061589 -0.0076334048 0.053124279 0.001529991 0.088606328 -0.097941548 0.062887341 -0.068300754 -0.079728812 0.09219297 -0.040187713 -0.052618518 0.03057407 0.034329113 -0.021261586 0.036087994 -0.041333519 -0.064121649 -0.0393061 -0.047543965 -0.0062184734 -0.10097989 -0.061221853 0.087375619 -0.019368388 0.066148899 0.0092760045 -0.0098477183 0.053666826 -0.036403261 0.073482089 0.09081953 -0.047524046 0.081114478 0.01096981 -0.0085025765 0.0072026257 -0.086169921 0.076493129 0.11755878 0.068588465 -0.068494283 0.0169688 -0.015533606 0.046389639 -0.023950923 -0.077018917 -0.0028665196 -0.059319556 -0.093134396 -0.12420528 0.044892006 -0.067112304 -0.054132629 -0.036571193 0.071606651 -0.027901189 -0.0334027 -0.05702753 0.11150562 -0.035659406 -0.042377479 -0.041675858 0.084452033 -0.056515623 0.070530243 0.097732171 -0.032125793 0.014184439 -0.086807914 -0.10452836 -0.0023525392 0.070419721 0.0023467392 -0.053390816 0.06443727 -0.0030019346 -0.060478952 0.05968013 0.028831569 -0.083199225 0.016581193 -0.05604922 0.082418829 -0.021762177 -0.0098293619 -0.053777669 -0.062001862 0.01807479 -0.041031882 0.039090905 0.08557111 0.087858759 -0.011819813 0.014498943 0.010096119 -0.097735912 0.095003083 -0.066230446 0.03994897 0.0061600879 -0.02148458 0.05811074 -0.092782252 0.06386961 -0.0043733702 -0.079521187 0.094010517 -0.084416553 0.038923644 -0.044997655 0.063087784 0.068978049 -0.096794032 -0.080823153 0.090566777 0.065544419 0.073418222 -0.063672595 0.11090348 -0.0078069554 0.10877653 -0.04005127 0.012356467 0.038924165 0.067403503 0.086615317 0.08324001 -0.054969363 0.048723634 -0.028147351 0.029940635 0.076426104 0.0060939016 0.033166137 -0.024897886 0.0078928797 -0.057591584 -0.049054828 -0.086950257 -0.03846572 -0.10473764 0.073246188 -0.070231013 0.090976842 0.018533012 -0.013535915 -0.089401633 -0.073329672 -0.052800469 0.10815968 0.073318258 -0.093663186 0.064151891 -0.051513117 -0.053213254 0.0027960171 0.011890169 0.073285379 0.056800846 -0.066641293 0.066701874 0.026061988 -0.10774701 -0.0096765663 -0.093394369 0.060647041 0.051013023 -0.07927534 -0.04733216 -0.050404377 -0.07952942 -0.0020309058 -0.068949431 0.026857235 0.049539521 -0.015794782 -0.093767762 -0.093427271 -0.073292032 -0.053452406 -0.045041904 -0.083580986 -0.0076125232 0.0069763926 0.041446514 -0.00022698767 -0.059972867 0.012340629 0.015530857 -0.074700251 -0.024443207 -0.084064499 -0.048304804 0.05619422 -0.018712519 -0.028668642 -0.0089954576 -0.00075446063 0.034900352 -0.030057272 0.05923767 -0.083416745 -0.082631461 0.071962066 0.037996382 -0.10503715 0.096697174 0.025037469 -0.010156596 -0.06809058 -0.0030891856 0.062498849 -0.095543146 0.078702547 0.053138155 0.059826892 0.062223677 -0.087043278 -0.069586612 0.055320349 0.0081177279 0.046386797 -0.10135899 0.046868816 -0.046916388 -0.011848763 -0.0091609536 -0.030333012 -0.085984431 -0.10578707 -0.022544254 -0.054801054 -0.034953829 -0.067027248 0.044946063 0.016598897 0.07167884 0.043417528 0.079526588 0.016873531 0.015825862 0.024982581 0.073507294 -0.11112474 -0.085607499 0.016956497 -0.064743951 0.048487231 0.0093131643 -0.056923095 0.053099554 0.067700453 -0.063906774 -0.031371608 0.032442067 -0.023002319 0.071639113 -0.094589464 -0.0097778346 -0.013794741 0.016210275 0.091829628 -0.064656191 -0.076256447 0.043202147 -0.034556162 -0.049848843 0.055160765 0.03922081 -0.10029759 -0.04140288 0.088482939 -0.043519989 -0.046508972 -0.064481318 -0.093147479 -0.0052360268 -0.043101698 -0.053940624 0.037166134 -0.055660635 -0.04072601 -0.10069043 0.070330843 -0.098874286 -0.081011288 -0.06853243 -0.046579693 -0.05484169 -0.01581612 0.040831763 -0.069962606 0.040359203 -0.036387369 0.049618676 -0.033713561 0.088748433 -0.06451986 0.052666634 -0.04342727 -0.055997174 0.09570118 -0.050777983 0.054855429 -0.052778561 0.039030608 -0.013237868 0.024301758 -0.060864531 -0.01624725 0.062595159 -0.034032196 -0.019879051 -0.014433343 -0.0076306257 -0.044472903 -0.025390178 -0.070699513 0.021168495 0.030214766 -0.07779412 -0.015786661 0.019308832 0.052727435 0.03949758 -0.030759795 0.079805143 -0.01535246 0.0058741677 0.088303022 -0.029590864 -0.074648947 -0.002551072 -0.034342796 0.072209589 0.0072455145 -0.035821807 0.080755755 0.043351892 -0.061120439 -0.026393183 0.020157352 0.020997131 0.052350126 -0.085204586 0.072782062 -0.048510343 -0.017432228 -0.10709634 0.026915833 -0.10141429 -0.034616515 0.016612722 -0.094429262 0.098023266 -0.029083839 -0.032326344 0.040530283 0.044964682 0.049272221 0.031426035 0.0266778 0.0054427572 -0.049334362 -0.021913916 0.066712655 0.094279081 0.094420336 0.094495893 0.077978171 -0.08906287 0.026361242 0.0024567409 -0.028821008 0.01990604 -0.090170898 0.0090819541 0.093342006 0.066394754 -0.097514227 0.0059884917 -0.020162901 -0.030868165 -0.062999554 0.00040964771 0.062777631 0.017240554 -0.006820858 -0.088864505 -0.073536798 -0.10693443 0.0071090702 0.10190446 0.047796123 0.072714254 0.073123761 0.07571514 0.038764503 -0.032594666 0.074944176 0.013599948 -0.036645092 0.0051837484 -0.018992132 -0.1010954 0.091948383 -0.0050054058 -0.10085893 -0.018470492 0.055160474 0.0058992682 -0.094538793 -0.015776262 -0.0077339709 0.065168858 -0.00051951519 0.0024985473 -0.057113878 0.026930613 -0.003112982 0.047829609 -0.094924569 0.048198529 0.022386158 -0.017226525 -0.033495266 0.031665932 -0.060071152 0.010524327 -0.046855118 -0.001693488 0.045535378 -0.093290232 -0.0017867475 -0.013232499 0.09902712 0.081518374 0.0021469928 -0.014843986 0.078802891 0.039939556 0.054587528 -0.055810012 -0.084229164 -0.0069576083 -0.057498816 -0.0078146765 -0.010472087 0.034503717 0.041998357 0.050609466 -0.088641047 -0.029777879 0.028842375 0.010225744 -0.032670744 -0.062827513 -0.059060901 0.043144092 -0.082305729 0.0017256262 -0.068130836 0.033833377 0.036501527 0.042763542 -0.011676516 -0.095640332 -0.10002946 0.022742521 -0.053778268 0.035765477 0.070580781 -0.11060106 0.054010265 -0.048169333 -0.015858993 -0.062939338 0.040028464 -0.0053157355 -0.0066410634 0.10067339 0.031958763 0.0038183855 -0.0885396 -0.0618532 -0.029638542 0.030202707 -0.05173561 0.080700643 0.05035327 0.038596891 -0.018922992 -0.10397217 0.017528711 0.026992528 -0.044847153 0.049581774 -0.09953326 0.05641304 -0.00025782426 0.03417648 0.083982587 -0.095281132 0.019597637 -0.075473569 0.047765501 0.044495106 -0.030297507 -0.05033892 -0.013464292 -0.047262229 -0.09125454 -0.036934912 0.093018174 -0.0014787086 -0.01542219 -0.029997922 0.010158714 -0.040738761 0.097997986 -0.029292645 -0.038729683 -0.08025039 -0.10167159 -0.026651384 0.04293979 0.036861904 0.098252483 -0.061803769 0.02087076 0.0086368453 -0.085865319 -0.0019795725 0.055493787 0.065274976 -0.088413946 0.060808599 0.085539095 0.061491605 -0.032233436 -0.094733089 0.034359958 -0.047679827 0.047628194 0.064490013 0.085294522 -0.019687276 -0.053607054 -0.023904648 0.0064368527 0.07375624 -0.064209037 0.090048157 0.077070579 -0.029503267 0.085691392 -0.1012923 -0.104643 -0.010980697 0.056723379 -0.043811686 -0.074684784 0.086442053 0.040791463 -0.012071758 -0.10663034 -0.065170914 0.052547894 -0.019836485 0.048056249 0.093798958 -0.061724845 0.084396966 -0.034432359 0.071940213 -0.077260993 0.10737344 0.014472401 -0.027297782 -0.043250818 0.010562707 -0.075596437 -0.026642198 0.045402326 -0.058190577 -0.041898414 -0.080404162 0.051470865 -0.03448442 -0.048459616 0.045686118 -0.01656762 -0.040768389 0.071519278 -0.039684102 -0.075277261 -0.092860349 0.0076901815 0.027022317 0.030818958 -0.058924019 0.026461454 0.0057131886 0.015497378 0.0060249292 -0.096814014 -0.078596927 0.02668616 -0.072601907 0.085423715 -0.0079356339 0.066238202 -0.049500987 0.01231019 0.080928594 -0.017077362 -0.082439378 0.02963235 0.027560826 0.042205043 0.0099147893 0.011151787 0.011570677 -0.11446632 -0.10580751 -0.0792211 -0.088859238 0.097026959 0.004174347 0.073166907 -0.080298595 -0.075417131 0.022812948 -0.031982105 0.049494617 -0.060287464 -0.08859098 -0.098005489 0.00084279873 0.086321756 0.0098384861 0.048353877 -0.050711963 -0.021628669 0.067957312 0.08841037 -0.033278648 -0.075528689 -0.047083292 -0.080932923 0.03963552 -0.031659726 -0.066281088 -0.0389884 0.055203661 0.04969186 -0.099558495 -0.054131992 -0.055744991 -0.027309548 -0.075157173 0.027940614 0.072946787 0.071257085 0.0023924962 -0.080480196 -0.084523842 0.073408507 0.055216886 0.058079239 0.043517616 -0.063995734 0.025621334 -0.021425365 -0.028798625 0.051608134 -0.054810949 0.097615324 0.0081594335 0.026877562 -0.085223369 0.081218682 -0.068157278 -0.054652229 0.092836857 0.044983499 0.034577206 -0.067365512 0.093393095 0.063103959 0.019500505 -0.11064933 -0.0046600574 0.0057648658 -0.00032274716 -0.076038264 0.10358571 0.034315277 0.080505602 -0.079196118 -0.075778373 0.06633357 -0.059794314 -0.035541955 -0.090886176 0.05286631 0.011885181 0.10320266 0.061330833 0.083293483 0.10247634 -0.024797048 -0.051903427 -0.040092118 0.093715869 -0.061749216 -0.015758907 0.042159133 -0.065283507 0.053465512 -0.11249311 0.00057390792 -0.043358691 -0.084529057 0.094010219 0.049503315 0.049105451 -0.007967242 -0.059547622 0.085001774 -0.046045877 -0.094057329 -0.060670249 -0.014963405 -0.057899334 -0.093226939 -0.11167072 0.10136086 0.030654073 -0.040193535 0.079018377 -0.094581194 0.040278982 -0.12013792 -0.047913194 0.028863322 -0.06503088 -0.030779531 -0.044327028 -0.045219701 0.10586762 0.094923668 0.014439924 -0.089511476 0.059508573 -0.10766535 0.093340799 0.029085543 0.032959733 -0.06278047 0.045601364 0.023274176 -0.064116739 0.089354247 0.067977585 -0.040775836 -0.10277286 0.003513925 0.069602519 -0.087672122 0.08245644 0.087681778 0.073417686 0.042054359 -0.085473038 0.095538706 0.022522088 0.075486109 -0.050915454 0.1033719 0.087007761 -0.098406367 0.04886255 -0.10259358 -0.10797439 -0.036893874 0.049470246 -0.049697235 -0.11052109 0.060967751 -0.011138764 0.032592464 0.074564263 0.10233255 0.072032608 -0.057407904 -0.015125894 0.095836498 -0.073849916 0.061702941 0.037259664 0.036593385 -0.018001661 -0.070524111 -0.071090832 -0.0033140255 0.096736938 -0.0061476952 0.029613161 0.074305624 0.088162407 -0.092386656 -0.066405967 -0.092124432 -0.012871387 0.075184897 -0.011759485 -0.064846329 -0.035593718 0.064335309 0.084429599 0.020618809 0.0082279118 0.054563526 -0.042673942 -0.090888709 -0.004693462 0.050735842 -0.086577378 -0.0683541 0.082825981 0.071297653 0.038009804 -0.021203153 0.10380745 0.015665282 0.023544893 0.004109886 0.0027730626 0.11160196 0.042131774 -0.034607105 -0.084940404 -0.086627111 -0.036605202 0.071922027 -0.010512315 0.083532773 0.087662078 0.0068216766 0.07358668 0.045490686 0.084716983 -0.042474035 0.10685479 0.025814261 -0.00063798734 -0.05960096 -0.0070928833 0.054374427 -0.0024255093 0.072101578 0.058661293 0.021577433 0.052652456 0.10936785 0.041407291 -0.080468401 0.07542824 0.051754069 -0.0028296656 0.048651714 -0.012349392 -0.045632768 0.015230387 0.032715309 -0.041732136 0.093372457 0.054738827 -0.056109883 0.071338639 -0.01894228 0.10610697 -0.084799409 -0.080358751 -0.038123474 -0.053924017 0.0057090437 0.012567181 0.00058313564 0.0085542053 0.095389202 -0.039024681 0.043207839 0.054917052 -0.07694459 -0.092803769 -0.058545917 0.007894869 -0.02284475 -0.096199505 0.0078643998 0.060910802 -0.036925141 0.098445512 -0.037358113 0.021265246 -0.075948581 -0.0072660171 -0.034740474 -0.099454723 0.051691137 -0.014738109 -0.021653084 -0.024490954 -0.042367946 -0.026572794 0.043014504 0.0035107399 0.072379895 0.051437281 -0.074085861 0.091215841 0.091070853 0.0018828501 -0.043836746 0.0095380843 0.070150934 0.028895102 -0.063812256 0.029914966 -0.019734375 0.09452866 0.086189941 -0.077472977 0.018706623 -0.049051795 0.068508573 -0.10792026 0.10858551 0.060891349 0.072625034 0.094688065 -0.023233203 -0.01057559 0.0035028399 -0.062203772 0.031009011 -0.069626532 0.051584616 -0.058462925 0.088438705 0.031367663 0.039271139 0.03301562 0.024760036 0.022705391 -0.021402411 -0.05567601 0.064651787 -0.075090304 0.013446053 -0.074723117 0.10056973 -0.096766427 -0.081206828 0.091559894 0.034606308 -0.092468478 0.073138937 0.083353594 0.013218299 -0.042720802 -0.047424164 0.091726199 0.084799714 -0.050720602 -0.052832652 -0.093449496 -0.032100443 -0.062641114 0.092373446 0.10514026 0.078059815 0.063455649 0.034787685 -0.059051346 0.049024194 0.077113621 0.048082408 0.037206203 0.082097426 0.0090997135 -0.022643812 0.01510291 0.056042168 0.092040308 0.14108346 0.054558896 0.024889898 0.049385399 -0.090314239 0.076884739 -0.053559598 -0.10812868 -0.060349345 -0.060842019 0.018040501 0.0055638975 0.039086208 -0.0028890257 -0.077359118 0.013997772 0.067436516 0.16522232 0.028674578 0.036355566 0.063012339 0.029980494 -0.070325524 0.095928565 0.1429631 0.12985136 0.055075996 -0.11877979 0.020177262 -0.03375807 0.046185356 0.071800627 0.11233943 -0.018363725 -0.053908218 0.087351434 -0.14308 -0.08112143 0.034637861 -0.026207631 -0.040209841 0.035324186 -0.077290319 -0.074062034 0.079268895 -0.022320345 0.006919777 0.055394284 0.015613954 0.059642758 0.09078867 -0.14606634 -0.056876197 -0.081338532 -0.061208807 0.051883575 0.016486708 0.0080719125 -0.1106774 0.023412328 -0.0080671404 -0.033175398 0.061705064 -0.080718167 -0.10041551 0.045312546 -0.032300819 0.01959735 -0.093510255 -0.062158879 -0.094052114 -0.0016018837 0.033551052 -0.0092446776 0.059516262 -0.11769638 0.12820578 -0.092764735 0.054695129 0.033057369 -0.10520867 -0.032891013 -0.087535866 0.058510743 -0.093519904 0.016657388 -0.018354477 0.12003748 -0.02855324 0.0036970251 0.083961233 -0.039302252 0.11323825 -0.044409811 0.084105551 0.13360724 0.056933094 -0.039648533 0.026455034 0.079764917 0.076351315 0.013717555 -0.0084847966 -0.059741814 -0.023116577 0.027268738 0.020018818 -0.027991461 -0.15579116 -0.096691839 0.043524269 0.016010975 -0.024283437 -0.081310563 -0.056866504 -0.013790376 -0.0087273493 0.036555536 -0.052263465 -0.016508954 -0.10597521 -0.026056755 -0.09341152 0.090181231 0.056674961 -0.11049038 0.066027664 0.012536346 0.031366386 -0.093909666 -0.049197391 -0.019184999 -0.071605556 0.06409616 -0.0026782856 0.063236475 -0.0092097782 0.033403285 -0.0042797457 0.0007374977 0.0017642409 0.076653816 0.012221707 -0.11055723 0.0041558528 0.057897013 0.0084657138 -0.049430791 0.091697231 0.042904392 -0.010743623 -0.084100246 -0.029292895 -0.14625667 -0.083344094 -0.010059079 0.061023045 -0.0024628639 0.070906997 -0.047170132 -0.086850099 -0.030285783 -0.02661173 0.075435966 -0.088535435 0.017435376 0.021504784 0.069773771 0.12795965 -0.073108397 0.10622913 -0.071715564 0.13809776 0.021568522 -0.038717669 0.0016740995 0.09603297 0.10373662 -0.048553169 0.0080721434 -0.084443539 -0.098314062 0.15290895 0.12191485 -0.099000216 0.015744459 -0.098857917 0.041044243 0.078291096 0.02720088 -0.12195329 -0.016927321 -0.12552451 0.057683464 -0.067466609 -0.10310555 0.015129684 -0.020926641 0.025945436 0.092238799 -0.064582139 -0.11282103 -0.11857853 -0.026784441 -0.046088845 0.013470816 -0.12703635 0.083786346 -0.077990904 0.0089837508 -0.079251662 0.042713869 0.12099078 0.087706298 0.0088243447 0.077567577 -0.060160108 -0.11608353 0.066330567 -0.054557443 -0.10317502 -0.050929684 -0.031638134 -0.016050434 -0.091069981 0.008030274 -0.034115251 -0.045274567 0.072105266 -0.078007698 -0.037601974 0.053419497 -0.14821021 0.055532526 0.0048716571 0.12953441 -0.048335496 -0.10453766 -0.010537587 0.024854116 0.04285828 0.071416117 -0.057655025 0.11666045 0.13192841 0.067437068 -0.093495578 -0.073430181 0.0061960304 0.049132541 -0.060185324 0.10520211 0.084654555 0.067583449 -0.10865095 0.020795012 -0.056952499 -0.072097205 0.079036154 -0.055218361 -0.019044088 0.077908695 0.029867262 0.070437714 0.032549672 0.030813375 0.032009263 -0.011109632 -0.029310387 0.084422372 0.021893261 0.11418239 0.002794459 -0.090760224 0.1061224 -0.025728326 0.14204705 -0.019699698 0.025319701 0.034995098 -0.086890951 0.044990133 0.0086206421 -0.029393971 -0.077928543 -0.0027644245 -0.087067306 -0.0081468215 0.11046797 -0.02523689 0.067294165 -0.018684585 -0.10045543 0.019685406 0.1156552 -0.02742457 -0.019532472 0.12541202 -0.10237313 0.10811707 0.021184668 0.039276365 0.03228898 -0.088522002 0.0099950898 0.06489107 0.02915238 0.0010397158 -0.091943219 0.087709777 0.033227049 0.017761413 0.080708802 -0.057859391 -0.064490095 0.093476184 -0.063239858 0.014881369 -0.0055337842 -0.091298439 -0.06385918 -0.028247576 -0.11321478 0.13222979 0.0086824009 0.027120739 0.079692505 0.039422065 -0.03373687 -0.12139997 -0.046369974 0.03892079 0.080286928 -0.025384894 -0.078551024 -0.0039343848 -0.060077406 -0.088958986 0.014012634 -0.017673641 -0.036978632 0.028180242 0.083938472 0.086413734 0.0169858 0.022252707 0.060449563 -0.023174828 0.056609619 0.05564655 0.024677772 0.020296136 -0.0028451958 -0.068225667 -0.00598166 0.10132388 -0.01860727 -0.0054551298 0.036751587 0.026922915 -0.059050798 -0.034255054 -0.02884472 0.075184166 0.029013988 0.048540734 0.10500318 0.042694386 0.021078376 -0.00096906599 0.064020336 -0.04203127 -0.0068359319 0.080838427 0.083057433 0.09370669 0.072704263 0.098699436 0.019788709 0.019287506 -0.059657268 -0.055090323 0.0058270306 0.057228249 -0.029134886 0.022329472 -0.087974325 0.09719833 0.091027707 -0.038127653 0.074759327 0.012678212 -0.067675099 -0.077517845 0.090284154 0.0077528437 -0.0085844574 0.050512843 0.029246399 0.054010935 0.085440539 -0.068735607 0.10053402 0.097748004 -0.032035265 0.042368915 0.018613642 0.073909834 0.041163966 0.040754873 0.089816913 0.093510628 0.076637805 0.05368029 -0.005783549 0.042105924 -0.017294539 -0.022660485 0.081475355 0.011016906 0.090380892 0.088756084 0.046300236 0.026026104 0.085069403 0.089205414 -0.0040840008 -0.01561387 0.073771589 -0.066067226 0.075560912 -0.014470067 0.00060388295 -0.069485441 -0.075388402 0.085793875 0.088924035 -0.0076031005 0.039203379 -0.062314272 0.043818861 0.014736378 0.059251621 0.09547805 0.072838761 -0.089783743 0.011013658 -0.013065283 -0.076676786 -0.064627945 -0.053837217 -0.0095608952 0.065708309 -0.031677734 0.032052778 -2.207802e-05 -0.05552176 -0.0084362291 0.0023611104 -0.057237081 -0.069567606 -0.034628458 0.05153209 -0.099155024 0.044297993 0.052328829 0.11916569 -0.028930753 0.042048015 0.023303902 0.053430635 0.091671862 0.026607262 -0.024129687 0.014012279 0.045154497 0.050301012 -0.08621747 0.0061812811 -0.0098922476 0.022756493 0.05619498 -0.041472565 0.040450234 -0.04617662 0.076517552 0.062091742 0.063604333 0.046913225 0.015560611 -0.0045215096 -0.077748746 0.039288245 0.0068200212 0.084289134 0.088654906 0.083705828 -0.064133324 0.070633218 0.08501628 0.035182074 -0.054591786 0.0076134508 0.069867611 -0.024218302 -0.026212391 -0.020121034 -0.022842882 0.091994479 -0.095454872 0.06210855 0.049337786 0.090019502 -0.032521054 0.059128165 -0.10777965 0.091497786 -0.034163371 -0.015914148 0.022243328 0.0088476362 0.0042419373 -0.057416622 0.090417579 0.093837485 -0.1030428 0.060840081 0.067777701 -0.044395849 0.014088414 0.07225915 0.061030578 -0.057166941 -0.015330231 0.013647775 0.049248673 0.083875254 -0.054104548 0.034463443 0.061084673 0.033105668 0.094201699 0.0092834672 -0.0088453833 0.0045773643 0.05372965 -0.055443235 -0.11398183 -0.093386978 -0.070443064 -0.017578701 0.06623631 -0.00025349567 -0.044357333 0.021999614 -0.04230132 -0.0098251598 0.080303185 0.030995935 -0.10435476 0.042399142 0.081944317 -0.03356858 0.069965668 -0.066752069 -0.057882611 0.067451678 -0.0130033 0.091027044 0.10173011 0.06600932 0.064703859 -0.019385494 -0.006469246 0.087584823 -0.0057877819 0.060567413 0.095335372 0.093835019 0.053364832 0.048326891 0.089458026 -0.045643888 0.0081375334 -0.10727964 0.0068574236 0.07655859 -0.0044133388 0.0076897349 -0.010077136 -0.015231066 -0.02236193 -0.09369985 0.060890973 -0.096583374 0.016477808 -0.025873911 -0.04825243 0.03093458 0.032185577 -0.069477104 0.042522345 -0.10134445 -0.0032576565 -0.0026186006 -0.064678475 -0.081609488 0.026754454 0.026920509 -0.0027741475 -0.030655054 0.11656021 0.032416809 -0.11405329 0.050303143 -0.077036515 0.082150452 0.050346684 -0.039316364 -0.097149089 0.00034771813 0.11053973 -0.10331392 -0.090142682 -0.060037617 0.054901898 0.085591152 -0.016336899 0.060994446 0.069427423 0.021975709 -0.10901397 -0.023591405 -0.026074134 0.092362948 0.022119714 0.0075862668 -0.065830812 0.02933339 0.025980946 0.0022132876 -0.043680754 0.074615635 0.11607512 0.028795792 0.042901017 0.040410701 0.06011362 -0.07316824 -0.08426407 -0.061164156 -0.096042052 0.0017763115 -0.087821014 0.049463782 -0.046339493 0.086897656 -0.080477685 0.080487832 -0.097959973 0.0074789491 -0.0040647849 0.012337836 0.033257689 -0.10043092 -0.010936063 -0.035482958 0.021642735 0.032001212 -0.048854392 -0.078079693 -0.011528962 0.03279835 0.062135842 0.071163677 -0.0075219702 0.066708796 0.042649712 0.061094735 -0.040814135 0.028328691 0.044450041 -0.016821269 -0.030101968 -0.074235536 0.016798217 -0.078738399 -0.01872582 0.11220898 0.10639424 0.069262527 -0.030065456 -0.018226169 -0.094440199 -0.087165944 0.02071606 0.043667622 -0.085981011 -0.00096613442 -0.0074223415 -0.049866177 -0.071317919 -0.020318091 0.10704383 -0.018965796 -0.0058509773 0.071071953 -0.046970446 -0.091468483 0.10143247 -0.06885995 -0.021305911 0.026497133 -0.032371473 -0.037764773 0.026024971 0.087947391 -0.06608595 -0.068775289 -0.066515215 0.11256837 0.023271231 0.087620221 -0.051574558 0.033232249 0.036368404 -0.092323549 -0.077325426 -0.012500582 -0.075833626 -0.062330607 0.10967896 -0.10652322 0.053589944 -0.009537911 -0.033693969 -0.060273625 -0.10671516 -0.044027273 0.0013045404 0.028362336 0.07918153 0.06502299 -0.11359206 -0.0060970085 0.062339172 0.043826174 -0.10013109 -0.096318036 0.009670713 -0.092309318 0.085466258 0.037990116 -0.054954089 -0.073345616 -0.014659887 0.11942851 -0.054339752 0.076001406 0.003119322 0.032718454 -0.13138106 0.065340087 -0.066566646 0.10299663 0.051196475 0.11405262 -0.075907841 0.10319602 -0.087182365 0.097013034 0.090179592 0.1321025 0.080675632 0.075486235 -0.026765428 0.044466253 0.0089496123 0.066071749 -0.08340352 -0.065384515 -0.028317757 0.023098467 0.098478675 -0.011518224 0.088829413 -0.080465555 -0.0027877574 -0.02769422 0.032528248 0.030391494 -0.032727312 0.027585292 -0.056402661 0.02508452 0.010256303 -0.026322044 0.070675485 0.073258057 -0.015432513 -0.089947462 0.021270262 0.038699165 -0.016479747 0.0065674679 0.037161075 -0.054026134 -0.072796643 -0.11864271 -0.026057158 0.011177074 -0.0028017811 -0.09874665 -0.062212311 0.063857421 0.01006759 -0.10339262 0.029137792 0.089175522 -0.036260258 0.088177487 0.024736987 -0.016053133 0.076871686 -0.0084597999 0.038281582 -0.11082435 0.081283845 -0.054575577 -0.017100444 -0.015677374 -0.024303868 0.11991327 0.011367437 0.02918792 0.053563938 0.014752256 -0.00011901099 -0.022372376 -0.12343258 0.13505894 0.097736537 -0.11381049 0.019872712 -0.089094825 -0.038278818 0.062252779 0.1215983 -0.10347641 0.012181127 -0.0099526914 -0.11837023 0.048872422 0.09950041 0.068963341 0.0034994872 -0.12263672 -0.017780144 -0.11209705 0.024235278 -0.0087367659 0.06345395 0.026760252 -0.053075321 -0.10127602 -0.072186232 -0.058611605 0.0013537355 0.025404776 0.062557459 -0.077356525 -0.085193008 0.096332997 0.10474745 -0.021086005 0.092768289 0.10479791 -0.12931168 -0.012256435 0.035969596 -0.076837346 0.050365727 -0.10107485 -0.13591146 0.04236846 -0.0036253796 -0.075571492 -0.065295957 0.0066596353 0.058528308 -0.029584622 -0.039673384 0.11830653 -0.076928578 -0.087293185 -0.041297037 0.045209385 0.057998154 -0.06675344 0.071416646 0.020506343 -0.015853543 -0.051107436 -0.0014568713 -0.076033644 0.048947576 0.043437276 -0.10900929 -0.037961364 -0.11071375 -0.014920795 0.072355054 0.11385739 0.053998098 -0.097689576 -0.038588688 -0.051250648 0.0029268856 -0.045314316 0.10099913 0.021825522 -0.013853765 0.093526639 -0.00099131244 -0.090972692 -0.019033292 0.00096533535 0.010401504 -0.048239928 -0.082786083 0.066509254 0.035137892 0.032894593 0.036254056 -0.039485253 0.023532249 0.0051203752 0.08735615 0.025025547 0.038316965 0.043763973 0.070158809 0.029052088 -0.028540846 -0.024729135 0.0104496 0.023154061 -0.039547771 0.051596094 -0.11236342 -0.11330535 0.094043292 0.019659895 0.14064811 0.055738632 0.031189766 0.034011956 0.017895913 -0.0011553894 0.095636047 -0.047866799 0.060011737 -0.056434155 -0.062214777 0.0082465457 -0.019694962 0.071733095 -0.068161547 -0.044238884 -0.072121732 -0.021585455 0.068048537 0.052473862 -0.12715282 -0.028913416 -0.073303618 -0.069169067 -0.10565067 0.13324212 0.035538279 0.099463955 -0.0081873732 0.023915576 0.090445854 -0.030170595 -0.0185959 -0.040533975 0.060697727 0.062536679 0.10811438 -0.070196465 0.10612866 -0.032520078 -0.067756794 0.010250246 -0.025623329 -0.048249733 0.032004315 0.099599078 0.11576481 -0.084294491 -0.089028314 0.0001659155 0.11170948 -0.04751819 -0.051309273 -0.0034081112 -0.073506482 -0.078355357 0.054087777 0.091157146 0.12509775 -0.0018374295 0.047977705 -0.0071224538 0.019265743 -0.090889364 0.015906312 0.065303877 0.056029547 -0.079505332 -0.037767597 0.036053903 -0.075676396 0.04366466 0.031741761 0.0066754106 0.046895489 0.088482127 -0.037629314 0.042990975 -0.062248729 0.014697524 0.079181321 0.027031003 -0.10614674 0.0089706434 -0.012053763 0.040990565 0.12096896 0.080512807 -0.012577035 -0.074469887 -0.082579106 -0.0055502472 -0.023711886 0.077974975 0.028334683 0.06513425 0.016461659 -0.07673306 0.064022511 0.053891931 0.095878363 -0.0671416 -0.012409201 -0.050313894 0.058837283 0.048853301 -0.037102979 -0.073534302 0.0054864902 0.00047670701 0.04208719 0.083027378 0.021275666 0.063341022 0.083280787 0.021605218 0.021057578 0.090585299 -0.10396571 -0.12240302 -0.00024428533 -0.080865175 -0.019811513 0.0096440148 -0.0096192528 -0.12028476 0.10808869 0.099832118 0.060751349 0.014723805 0.081135415 0.046808086 0.12009759 0.05357958 -0.085352458 -0.082463421 -0.023729488 0.054343965 0.010013043 0.11139016 0.07683707 -0.015785007 0.099943057 -0.11352237 0.030177243 0.10827584 0.039383236 -0.050227839 -0.036399379 -0.057256408 -0.0010792968 0.045810405 0.07786005 -0.061418552 -0.099266358 0.049966592 0.065699235 0.026567925 -0.059037998 -0.020512715 -0.10149936 -0.014596195 0.014351959 0.090298876 -0.025644064 0.065040313 -0.034258138 -0.042780019 -0.059454482 -0.043871563 0.0047243517 0.030347176 -0.059522659 0.024259623 0.080645472 -0.01653632 -0.0092519447 0.0051682466 0.098345548 0.091982812 0.029240422 -0.060686607 0.049969316 0.042217642 0.01498131 0.10003701 -0.0016755336 0.030900538 0.10590902 0.10386458 -0.0070690908 -0.013235013 0.055454843 -0.070195064 0.021310549 -0.087985627 0.077618077 0.084975295 0.075467601 -0.066365555 0.058812823 -0.022989757 0.093306221 -0.024510961 -0.043519396 -0.072516851 0.050593615 0.0097793732 0.02042477 -0.05358962 0.00032038614 -0.079906374 -0.052015506 -0.10105903 -0.060767308 0.072316177 -0.077804074 0.034074627 0.066091858 0.024837416 -0.088647999 -0.037681211 -0.039669409 0.077503361 -0.063001171 0.072373547 -0.079937465 -0.018890904 -0.096297108 0.010781606 -0.047596689 -0.097882509 0.0059536723 0.057583746 0.039586134 -0.053124279 -0.085193954 0.00034098263 0.03021892 0.082137622 0.052367553 -0.01638581 -0.030465635 -0.058432296 -0.066227086 0.048685193 -0.091787487 0.058345441 -0.0041060257 0.099399447 -0.025382088 0.088773631 0.057998314 -0.045668703 -0.062189348 0.037161883 0.022158565 -0.068549864 0.00019809311 -0.060250044 -0.041792896 -0.070142239 0.0070568947 -0.051402435 0.10092226 0.02732322 0.017804138 0.026075823 -0.077186145 -0.082395114 0.066428244 -0.011412798 0.011351141 0.088948466 0.066890329 0.018790275 -0.056535676 -0.034030318 -0.039950643 0.021178858 0.070171513 -0.055423681 -0.091195256 0.042621855 -0.090340346 -0.090888798 -0.0035868408 0.012888134 -0.046173476 -0.0075068553 -0.0062316908 -0.080836259 -0.10015997 0.016581934 0.017166151 -0.084655903 -0.036066692 0.091743 0.023925554 -0.017359778 -0.10492125 -0.0065528117 0.077193916 -0.052657317 0.0031639722 0.085783437 -0.051035605 -0.031927556 -0.086614855 0.10160105 0.056683592 -0.10030624 -0.022893852 0.091362663 -0.021323422 -0.04790974 -0.063094318 0.077831842 0.053404037 -0.07423263 0.08133959 0.018460389 0.011891266 0.056941189 -0.0043257382 0.060502671 -0.025026537 0.094291478 0.0248334 0.036883943 0.072415702 -0.019550757 0.038388371 -0.063505344 0.045325439 0.076184079 -0.047626127 -0.0043891906 -0.1025606 0.046254866 0.087082207 -0.071809933 0.068170354 0.072166003 0.0080636581 0.027197355 -0.029479176 -0.042376965 -0.019037599 0.084115461 0.02647044 0.09944696 0.0021385096 -0.067986012 0.069248937 0.091657601 0.05114634 0.065572649 -0.0020670691 0.053820591 0.07970231 0.02589565 0.048422571 0.072744913 -0.046295259 0.043807417 -0.097503528 -0.059887905 -0.020972937 0.081982322 -0.044396393 -0.050694074 -0.033978742 0.058730256 -0.055242941 -0.091445722 -0.092491522 -0.014804474 -0.031687364 -0.025044683 -0.04747092 -0.039078854 0.033411264 -0.079408698 0.011470642 -0.079028443 -0.078947924 0.067310639 0.085287914 0.045631874 0.065073922 0.029203581 0.10258783 0.014477592 0.082039379 -0.080168754 0.04615768 0.051523615 0.085980393 -0.0023668341 -0.0048316126 -0.10058571 -0.0032930956 -0.052274711 0.055616565 -0.035846375 0.056682978 0.019734269 -0.015499206 -0.016638625 0.11436092 0.074452333 -0.078002051 -0.062241334 0.053167604 -0.074880011 -0.056617588 -0.081195362 0.027464338 -0.041074011 0.10310248 0.029770175 0.04869609 0.096688725 0.041466929 0.016525287 -0.083883978 -0.019734196 0.12244757 -0.09592627 0.066569723 0.054961164 -0.092267841 -0.003209715 0.050253257 0.095090024 0.085257843 -0.012656946 0.027837921 -0.057706039 -0.075982444 -0.049983688 0.031572174 0.047424696 0.094385706 -0.01140016 0.070065901 0.078542709 0.0093667954 -0.068205811 -0.045909334 0.10791095 -0.024615528 0.084584646 0.0035843037 0.012997968 0.074770153 0.017304733 0.080537446 0.057698898 -0.0081235226 0.0074754776 -0.017456112 -0.086707301 -0.071496986 0.049553972 -0.024062909 0.07974425 0.068182848 -0.062288951 0.080061592 -0.07384789 0.035257939 0.059591018 0.0071977354 -0.038431987 0.054217506 -0.053610954 0.045247983 0.049075603 0.057698891 -0.044606254 -0.052265752 0.0542516 -0.0711779 -0.013415048 -0.029467091 0.054991137 0.003289887 0.053745966 -0.013541462 -0.0066865887 -0.070873432 -0.037732236 -0.067476124 -0.026625004 0.014160777 0.00082377909 -0.064995892 0.028478233 -0.0057585468 -0.042891469 0.0095857708 0.019673921 0.053140085 -0.092268504 -0.012156872 -0.01610394 -0.083702043 0.014646931 0.032846965 -0.0086756228 0.098973833 0.12370985 0.046108693 -0.043433748 0.080809921 -0.056506474 0.11144166 0.054521758 -0.093422562 0.019438194 -0.11231449 0.080933653 -0.068505853 0.0044644419 0.049946163 -0.086302549 -0.063818581 0.092976481 0.091481164 0.058190603 -0.098170936 0.068261184 -0.06871175 -0.02353085 -0.089739904 0.037698627 0.028101191 0.078082427 0.054579761 0.094206065 0.02714158 -0.086997971 -0.050763942 -0.08356671 0.010544213 0.10509906 -0.058096953 0.0018415314 -0.098530568 0.031440873 -0.089922495 -0.0036169672 -0.062257566 0.052087776 -0.066571012 -0.054699689 0.037491333 0.08862818 -0.051475897 0.068477206 -0.075784087 -0.020309653 -0.034455039 -0.085823625 0.012603099 0.063068569 -0.010544474 0.038140725 0.015487502 -0.023754539 -0.032045744 0.095945567 -0.043805383 0.053111762 -0.01389954 -0.10679767 0.072346538 0.078788064 -0.019895416 0.0070651886 0.052421007 -0.062394105 0.062241703 0.069071792 0.049666125 0.066786543 0.012789981 0.00076653523 0.060671277 -0.021445416 0.072849683 -0.016551584 0.042340469 0.074705347 -0.044995423 -0.095317535 -0.012402592 0.00045580795 -0.061307676 0.038850002 -0.081380166 0.071111836 0.069240369 -0.00057089608 0.030464305 -0.083936878 0.020072436 -0.055316675 -0.035072856 -0.090527549 0.011813947 0.091703191 0.0028239219 -0.033989467 -0.019127274 0.013458098 0.053693268 0.080649868 0.1062685 -0.021424579 -0.060209285 0.016792782 -0.045632694 0.019899301 0.027349774 0.053982619 0.01336258 0.0093800044 -0.017788861 -0.06390734 -0.016352033 -0.0875009 0.035488654 0.028265292 -0.024562497 -0.034794208 0.11014125 -0.075692095 -0.072272561 -0.034750976 0.078704275 0.020642925 0.032849077 -0.04248612 -0.065021351 0.038255855 0.107283 -0.025239795 0.010549953 -0.057852592 -0.053502571 -0.05372699 -0.026361868 0.007173276 -0.094690315 -0.021114808 -0.0090073347 -0.069968998 -0.026055295 -0.085328817 0.084447719 0.085212395 0.08706066 -0.015684268 -0.080673434 -0.021839658 -0.0056838123 0.091987088 -0.085491188 0.062394608 -0.010096911 0.058863636 -0.092642866 0.023073947 -0.10032597 -0.082120799 0.031304419 -0.025440061 -0.077157602 0.038312308 0.034545042 0.047284815 0.019567899 0.044175938 0.0057269083 -0.040965099 0.035285007 0.083913215 0.094705127 0.1003529 -0.030810634 -0.064529195 -0.056075726 -0.06064098 0.04923714 -0.04305869 0.060231883 0.065515511 -0.025736114 0.069365442 -0.04139933 0.026896192 -0.097367875 0.020888757 -0.090851471 -0.024006242 0.033392079 0.038554527 -0.03018151 0.087741755 -0.092578813 0.047642544 0.082209058 -0.065148063 0.088001534 -0.008526613 -0.038803346 0.026009306 0.069037244 0.072040468 0.037794292 -0.04574836 0.094976351 0.086386599 -0.023130732 -0.014776425 -0.021271463 0.072576232 -0.017276093 -0.049122572 -0.05617537 -0.089330114 -0.029002281 0.052568745 0.070248269 -0.02769273 0.048446305 0.0016866359 -0.052180104 -0.032805938 -0.022600606 0.069856703 -0.076241821 0.10727216 -0.049303047 -0.05368384 0.053543013 -0.085871413 -0.04079631 -0.018110389 -0.016656047 0.011339817 -0.07270316 -0.033117644 0.011884953 0.052505247 -0.019111332 0.07024277 -0.0095786052 -0.03218136 0.095873781 0.053901952 -0.0070502404 -0.031375401 0.062978998 -0.01764545 -0.068651177 -0.10375901 -0.014306976 -0.091529384 0.070331626 0.030720998 0.10372854 0.05666383 -0.0050342372 -0.022416804 -0.052348245 0.06196006 0.021684598 0.0015777687 0.060781971 -0.07143081 0.071103156 -0.084602617 0.020704305 -0.035746194 -0.028431742 0.09863165 0.073585272 0.098019354 0.039963607 0.088039771 0.08772976 0.086152583 -0.047044817 -0.090594895 -0.088884033 0.084624991 -0.068289369 -0.064706825 0.010191591 -0.079949431 -0.019676391 0.065855965 -0.030683616 -0.015582178 0.029358057 -0.055906825 0.046024315 -0.020623589 0.025717186 0.069481939 0.011591996 0.0085558603 0.022698577 0.08182735 -0.050000422 0.031333823 0.032089695 -0.11385722 -0.11001127 0.0017305111 -0.080992721 -0.089513004 0.0061222324 0.076676667 0.039878603 0.087746926 -0.047634624 -0.042226207 0.016895873 -0.025280396 0.048482027 -0.043715544 -0.091260791 -0.016649997 -0.0256593 -0.024524258 -0.096861072 -0.067888252 -0.11085664 0.036042482 -0.057059452 -0.091076717 0.086681023 0.040676057 0.065972395 0.075463258 -0.033639275 -0.026098184 0.083898373 0.026946584 0.028998448 -0.072329603 -0.020343484 0.0027788808 -0.0095514143 0.11814057 0.032828797 -0.037189879 -0.018907331 0.025745686 0.0045606303 -0.0038390122 0.075126521 -0.074944109 0.024001591 0.022056919 0.060326986 0.0027365114 -0.09766151 -0.022492891 -0.015410637 0.056988847 -0.051212914 0.077490203 0.051103625 0.047235858 -0.10803004 0.050008595 0.060163163 -0.067053564 0.073704138 -0.057270974 0.065055706 -0.061917219 -0.066919379 0.030818433 -0.096000664 -0.086096637 -0.037660837 0.098429382 -0.087839723 -0.075480677 -0.02416065 -0.090322457 -0.053494975 -0.053262394 -0.022563074 -0.14344557 0.017583935 0.040783007 -0.11107698 0.067085296 0.055663314 0.055094194 -0.056130294 0.14312556 -0.031658657 0.010468238 -0.12416199 -0.1216898 -0.016167918 0.057506822 0.14948641 0.080677465 -0.056612782 -0.11652336 0.051628992 0.015737737 -0.0084015625 0.00025505197 0.056270454 -0.040123727 0.022717843 -0.065204605 -0.049971495 -0.087968133 -0.11370969 -0.0070115924 0.037837617 0.067739986 0.0083015338 0.052010179 0.038414679 0.021440094 -0.085319176 0.016241265 -0.1316044 0.068253979 -0.082989149 -0.028857077 -0.043334156 0.12105883 0.091901429 -0.094639018 0.081470899 0.020818653 -0.10122149 0.0055304184 -0.10284691 0.010086946 -0.0035417858 0.10803675 0.072650827 0.016588083 -0.046178181 0.022657705 0.066116273 -0.028829457 -0.01176015 -0.061787017 0.010573876 0.12457371 -0.12916079 0.047529686 0.099403642 0.10842215 -0.10630054 -0.01978294 0.062651701 0.022685815 -0.0051947408 -0.064172335 0.10681468 -0.025672892 -0.045354672 -0.069369495 -0.076107137 0.043782555 -0.024458496 -0.03613726 -0.11539713 0.056031231 0.044293433 -0.0017294027 -0.046396729 -0.11984869 0.078661427 0.077078603 0.049109343 -0.11936155 -0.113808 0.040204063 0.10404475 -0.10932954 -0.0042095394 0.035973031 0.086993098 -0.074517682 -0.081906162 -0.069028437 -0.018534657 0.13978742 0.073044084 -0.054995846 0.093061939 -0.076711535 -0.021619258 -0.06986817 -0.1338677 -0.0013633632 -0.028725108 0.00022640731 0.049933672 0.051833101 0.077966854 -0.020729445 -0.092258133 -0.027703673 0.024865603 0.072241314 0.081360318 0.042646244 0.071194962 0.01227975 -0.030405628 0.093188755 -0.01297174 0.021541726 -0.054694168 -0.031120159 -0.052105699 0.080981016 0.099251695 -0.07253328 0.056133874 -0.05581139 0.015958525 -0.041247178 0.083628029 -0.098787621 0.033942755 -0.13338675 -0.00063266244 -0.071924433 0.099511959 -0.04281082 -0.064265348 0.031020964 0.10346495 0.058467232 0.011614403 -0.079051428 0.063906476 0.041403316 0.081192754 0.0074239965 0.02384329 0.092650719 -0.034010239 -0.020477014 0.055379756 0.07046812 -0.0095626581 0.074274473 0.10199058 -0.033234153 -0.032085828 0.067877941 -0.016478186 -0.072167113 -0.078414105 -0.065576926 -0.013752281 -0.046242818 -0.045867022 -0.10844674 -0.11260939 0.071845658 0.030929396 -0.043673292 0.081921987 0.064873613 0.0093297595 -0.090709805 -0.0082454812 -0.042695101 0.0071947994 0.082142718 0.086114146 0.039279327 0.022791833 -0.096167192 -0.039097168 0.095052257 0.090036869 -0.045700889 0.070668489 -0.0062639038 -0.036715236 0.027525185 -0.053879119 -0.0090340069 -0.067256249 0.10743824 -0.0014842317 -0.054158982 -0.043639686 0.051339597 0.0087284893 -0.045246199 0.0017427657 0.077257484 -0.062597215 0.035698377 -0.12443726 0.023389068 -0.035249814 0.028508173 -0.055034034 0.067082152 -0.072169684 0.021360818 0.044952802 -0.085664168 0.034953192 0.11934847 -0.028678359 0.036596365 0.011000901 0.12135563 0.033336557 -0.080606513 -0.056169342 0.042504624 -0.10382074 0.033863097 0.036154527 0.049324796 0.0068388227 0.096769556 0.074802928 0.010249116 -0.036769569 0.01300079 -0.0070021315 0.082608946 0.039722711 -0.097413413 -0.01919865 -0.09235622 0.11196625 0.005315409 -0.12018951 0.040840186 -0.057558537 -0.02669484 0.0429511 0.008950226 0.084833801 0.0035947324 -0.0019094002 -0.028821716 0.020882312 0.027527835 -0.012549536 0.048095282 -0.083177172 0.050258059 0.027086191 -0.063889414 -0.059456561 0.0088421376 -0.088324487 0.023431549 0.021860017 -0.083414175 0.063307159 0.067133196 -0.079991281 0.046254344 0.014282028 -0.088899665 0.041438088 0.077317126 -0.081156328 0.078820437 -0.042529427 -0.021923885 0.005737205 -0.030563271 -0.098098189 0.032876767 -0.13133132 -0.029326074 -0.022478998 0.0031499676 0.034367416 -0.07143943 -0.074387498 0.086094044 0.08113125 0.021553585 0.11504277 -0.05556 0.04799509 0.039500717 -0.064613499 0.06516999 -0.12938797 0.024332156 -0.10796186 0.050238173 -0.1221757 0.081624955 -0.0670406 0.034143448 -0.10895266 -0.12004197 -0.078441761 -0.033672746 -0.060165949 -0.06440752 0.074763529 0.004709221 0.059136931 -0.05668157 0.0035768964 -0.06500499 0.14149602 -0.036451519 0.12475241 -0.045866851 -0.032386646 -0.091324337 0.040139187 -0.028976457 0.045359749 -0.006461889 0.048724461 0.089466453 0.044153661 -0.013100557 0.1111303 0.0051336088 0.13086757 -0.13305815 -0.015401341 -0.12538645 0.10665556 0.02817452 0.074386075 -0.015719492 0.12529388 0.057290591 -0.064131454 0.089262664 -0.0021026628 -0.10912449 -0.027906215 -0.088286094 -0.0087734563 -0.074053623 -0.060379755 -0.0089660017 -0.085917056 -0.0033124953 0.030014494 0.040212441 0.089692138 -0.077176042 0.087980404 0.018594231 0.088570856 0.080919102 0.045845445 0.046362471 -0.01997254 -0.07216201 -0.087220356 -0.021127997 0.080725789 0.12024709 -0.023752576 -0.0037446802 0.014425091 0.033784144 0.036275171 -0.097823128 -0.088416547 0.050221093 -0.0013996862 -0.010852613 -0.051825974 -0.084819078 -0.091910109 0.11103842 -0.030935654 0.11659969 0.089816526 -0.07588838 0.0058026742 0.070949957 -0.090417936 0.045848809 -0.06766697 0.034384575 -0.0094463322 -0.019518578 -0.03886335 -0.092688113 -0.081404045 -0.066719145 -0.11289949 -0.087079957 -0.042405155 0.02180394 0.10467868 0.017470269 0.092808127 -0.026825581 -0.049010467 0.055467166 0.052090254 0.08645419 -0.0015630068 0.092083648 -0.071600385 0.11182538 0.0073811463 0.0015382955 0.045713507 -0.01455463 0.023658743 0.084619217 0.070457108 0.042580009 -0.10006968 0.0004433016 -0.10142078 -0.0042427569 -0.10814312 -0.083031125 -0.0031282834 0.064962752 -0.033314113 -0.040106446 -0.077110969 0.074890271 -0.085290723 0.017102534 0.042705439 0.031959526 0.0018229025 -0.082873605 -0.096368179 0.052229378 0.048346102 0.040036373 -0.091912419 0.031532578 0.091111973 0.062392045 0.063870303 -0.097375974 0.0067221751 -0.037670001 0.068642996 -0.071974918 0.0070749843 0.018170096 0.038731452 0.015207875 -0.029536525 -0.10480944 0.011525727 0.055060398 0.075455621 0.075796068 0.032160468 -0.059058513 0.084196836 0.06985341 0.068322368 0.0036893599 -0.098279588 -0.060320828 0.028799133 -0.012361798 0.037598617 -0.023968913 -0.043697812 0.013898761 -0.052067805 -0.08240553 0.081097767 -0.023062963 0.0095196227 0.064482346 0.054716647 0.088119209 0.042241741 0.0029993586 -0.10599378 -0.038785744 -0.062422734 -0.094793722 0.037227273 -0.033327099 -0.024117893 0.0053983051 -0.073309705 0.044020679 0.081749953 -0.0085394159 0.081433147 -0.055022165 -0.043026201 0.013205979 0.058068708 -0.068444833 0.060437255 0.0081552565 0.10733083 0.086401917 0.038650889 0.039246373 0.043134086 -0.10235025 0.035572771 0.021222256 0.060473647 -0.12092101 -0.050225489 -0.055527352 0.037499651 0.070324294 -0.057003677 0.073296025 0.040477622 0.020560037 0.0059710299 0.071138196 0.087068439 0.025285551 0.057282791 0.098944381 -0.1062158 0.025547894 0.072596595 0.051222082 -0.042425636 -0.0073820674 -0.047485068 -0.01870428 0.040930063 0.03052571 0.055690031 -0.016916253 0.053331837 0.089128785 0.080425628 0.083682097 0.063577041 0.064404406 0.076668344 0.02443051 -0.017102072 -0.056736175 0.052135911 0.028969184 -0.088770047 -0.10284972 0.013151142 0.036537156 -0.090800069 0.026367363 0.0049772183 0.061176192 -0.05419055 0.039654333 -0.003425783 0.041823026 0.036465511 -0.012441137 0.041495208 -0.037841819 -0.001138885 0.011310981 0.097347543 -0.02958128 -0.016415309 -0.0017289766 -0.060637932 0.048960771 0.039958395 -0.017784033 0.00057568512 -0.081114247 0.017684769 0.034544349 -0.084075093 0.090696275 -0.032622837 0.00092101214 -0.021543246 0.022160862 -0.11114457 0.01206054 -0.050532654 -0.084653459 0.03851987 -0.082862765 -0.023562599 -0.058133643 0.036170386 -0.056084082 -0.086676948 0.077020541 0.047853559 0.095478736 -0.053291772 -0.0080146864 0.049402028 -0.0026239736 -0.098681442 0.1123059 -0.079118855 -0.091510952 0.069936693 0.0057137171 -0.034241848 0.034556415 -0.088129707 -0.03882613 0.078369446 -0.026992247 0.0099509889 0.051088747 0.03297754 0.017342553 -0.062794723 0.045656338 0.0082739694 0.01571231 0.083987534 0.054200266 -0.085254215 -0.079075694 -0.11444803 -0.062453825 -0.045962211 -0.031469885 0.071055651 -0.040476773 -0.019756978 -0.0078511285 0.042798363 -0.12104054 -0.072990097 -0.0087090982 0.060905714 0.013497763 -0.068842635 -0.038259845 -0.072555251 -0.071673892 -0.072978385 0.050192077 0.095455147 0.083214201 -0.046220947 -0.11481661 -0.050523952 -0.041296568 0.086359493 -0.0017803841 -0.051930714 0.080886349 0.017791918 0.051630683 -0.097972199 -0.014624166 0.10929941 -0.095826603 0.0059545026 -0.028001614 0.067697063 -0.056612931 -0.063711576 -0.012452653 0.052345295 -0.080037944 -0.042058367 0.015722614 0.047818407 0.06321495 0.042242244 -0.040575698 -0.10082004 0.09243542 -0.086819604 -0.046909597 0.0011425652 0.051015764 -0.040889394 -0.042995099 -0.068510726 0.054953203 0.059191033 0.093201786 0.10830802 0.027365208 -0.028281106 0.011299548 -0.097313687 0.048048474 0.080462098 0.052101072 -0.010963133 -0.11978001 0.045405194 -0.082561642 0.06652423 -0.06506411 -0.042585433 -0.064607836 0.01943367 0.075944461 -0.048624322 -0.06886676 -0.082858913 0.017004421 -0.01477124 -0.011042845 0.075391792 -0.063793279 -0.012782595 0.00079904555 -0.067251138 -0.081535801 -0.0062014507 0.094907157 -0.032658551 0.053968843 0.085256062 -0.042783286 -0.049280435 -0.05675124 -0.11102481 -0.093373939 -0.021193851 -0.099778712 0.095021762 -0.059244517 0.013669116 -0.013960524 -0.0062521482 0.078256607 0.0016847576 -0.050984602 0.013329082 0.026612189 -0.055108164 0.051876973 0.032251436 0.031096265 0.071996666 0.040672731 -0.098777711 0.044941068 0.084615685 -0.10862362 0.094690569 0.10088109 0.088875487 0.079761423 0.070315704 0.11121472 -0.10027502 -0.092517301 -0.097812705 0.096497647 -0.055471566 -0.044621341 -0.041718587 -0.075468235 0.041080154 -0.060941111 -0.080201298 -0.015523142 0.0023607626 -0.048888896 -0.033338103 0.039528586 0.013919864 -0.098828338 0.050492115 0.040010098 0.052242078 0.06857384 0.082291566 0.054380536 0.0042120474 0.038983993 0.035206527 0.027765114 0.047246631 0.0068623018 0.0029073674 0.02033221 0.096744813 -0.010492183 0.036086246 -0.049463309 -0.015167063 0.029843273 0.041583911 -0.016950632 0.037848134 0.0086018657 0.055762451 0.0065075583 -0.095296353 0.027342185 9.7386976e-05 -0.069436066 -0.04735899 -0.032574132 -0.034779262 -0.057470772 -0.1068701 -0.0095150247 -0.070608988 -0.088121749 -0.031283636 0.038092006 -0.041502357 0.024211831 0.012442227 -0.090656504 -0.070419312 -0.097462356 -0.030893231 -0.019688535 0.020276545 0.043256178 0.064641185 -0.055852406 0.035467803 0.024693022 -0.04923857 0.070757315 -0.014750015 0.08333537 0.028799796 0.072883561 -0.052556567 0.063100919 -0.091927074 0.049184367 -0.08697737 0.079926632 0.082125753 -0.02915366 -0.027296005 0.075585149 0.045301434 0.011332655 -0.099895313 -0.060959026 0.078767382 0.10334817 0.033450413 -0.025606882 -0.073744059 -0.093174577 0.043313183 -0.10532529 0.035902143 0.036388528 0.0099578435 0.016449975 0.096339524 -0.061999094 -0.10004228 0.021433007 -0.077093571 -0.063160107 0.055817232 0.0020998863 0.0065851416 0.091621175 -0.028035222 -0.022133416 -0.089184634 -0.027453836 0.042953264 -0.0040458706 0.08972919 0.035881199 -0.025725968 -0.060875513 0.11336722 -0.013032425 0.083114207 -0.065916404 -0.026752356 0.10169542 0.086415462 -0.0093822405 0.073993936 -0.087738469 0.059480883 0.087531962 0.014018665 -0.11188366 -0.022381824 0.080630787 -0.07261306 0.035717148 -0.019649105 0.037124068 -0.082662269 0.038319968 0.082635745 0.075627089 -0.053648844 -0.085445955 0.069878571 0.069574617 0.093041368 -0.040069986 -0.090271734 -0.070017532 -0.044074025 0.078698888 0.036667679 -0.095532991 -0.034499273 0.030071953 -0.12368814 0.06183809 0.051598042 -0.077637017 -0.10254207 -0.092076637 0.0585698 0.10123839 -0.015305375 0.074698195 -0.029115135 -0.061514646 0.036403533 -0.024008431 0.020376686 0.036366738 0.041087449 0.092288285 -0.039512347 0.061768956 0.026992038 0.001888767 0.030272018 0.078394249 -0.032426797 0.036497325 0.036024332 0.085286066 0.025214277 -0.023000311 0.092859894 -0.0078617102 -0.0086954944 0.018220576 -0.12002418 -0.034931798 0.043394227 0.046052307 0.019220499 0.0024950139 0.049964249 0.058301095 -0.056911733 0.050149292 -0.040940549 -0.061048262 0.008694781 -0.067254886 -0.050392542 0.052355446 0.069555588 -0.098797552 0.068513781 0.029451726 0.068911389 0.090655223 -0.10000911 -0.013437182 0.0086143455 0.045358792 -0.018895995 -0.042282127 -0.03134843 -0.0033351406 -0.063835718 -0.046964012 0.05780068 0.053777769 -0.05737016 -0.0373303 -0.11702586 0.035472281 -0.061405603 0.077296667 0.017210864 0.036876149 -0.045216776 -0.017573487 0.0032354947 0.088779137 0.041351855 -0.076044858 -0.043376729 -0.0051589459 0.048635628 0.024612242 -0.033986349 0.1042944 0.08991649 0.023229176 0.05600724 -0.065781713 -0.086478636 -0.052918099 -0.095855489 -0.076639131 -0.062424332 0.01542597 -0.087655969 -0.054992635 0.0747886 -0.083610147 0.050176498 0.082658634 -0.038723715 -0.10264884 0.064025946 -0.033721626 -0.072608821 -0.026138442 -0.067212768 0.032925893 -0.10035613 -0.007073876 -0.043411385 0.040011633 -0.071177229 0.074376024 -0.019724613 -0.10179646 0.0051184306 -0.10083651 -0.062229026 0.092057042 0.097504593 0.032666862 -0.084356703 0.0083718086 0.021069622 -0.024076384 0.11334569 0.07569541 -0.0078334035 -0.11688165 -0.079413891 0.065458164 -0.045257177 -0.043459181 0.053053096 0.06531322 -0.0819299 0.02780832 0.062166754 0.058381639 0.063578367 -0.095392041 0.014967948 0.027788591 -0.0032515863 0.054483365 0.10818502 -0.04538564 0.031666245 0.11266373 0.032311127 0.014018327 0.018456144 -0.052020606 -0.07170739 0.0254726 0.055590965 -0.078742646 -0.11805699 -0.051522769 -0.0086652413 0.094531819 -0.093710415 0.076083548 0.049694411 -0.082044952 -0.056714326 -0.073839866 -0.10904364 -0.066072434 0.025552459 -0.083336577 0.035497975 -0.083485946 0.11949491 0.015452124 0.11580677 -0.088812448 -0.11520053 -0.081027187 0.034724493 -0.058217905 0.07937701 0.017502235 0.075391494 -0.074923433 0.011520005 -0.10551871 0.021877747 0.10177912 0.07891272 -0.061911162 -0.013237912 -0.050858073 -0.07615228 -0.069366291 0.039686196 0.025661379 -0.025574498 0.055029556 -0.039267041 -0.006549086 0.10871275 0.068451971 -0.00035385729 -0.069459565 -0.062946215 0.045618303 -0.0072757103 0.086642623 -0.023786133 -0.0056198593 -0.079241805 0.0029080762 -0.068478599 0.12452585 0.085196055 0.077573009 0.018506102 -0.060601357 -0.022199024 -0.059507608 0.022270162 -0.040039737 0.06348303 -0.0064726919 -0.049044792 -0.014051107 0.090253681 0.0059996182 -0.087178588 -0.08462178 0.094772421 0.00067149883 -0.03689165 0.039984412 -0.028630223 0.00085542665 -0.12394477 -0.055099919 0.10262416 -0.087793276 0.087025821 -0.068538778 -0.030867454 -0.098980233 0.029239556 -0.03411229 0.059105799 0.095313564 0.01133886 0.08781568 -0.10965624 0.096222818 0.091430478 0.064227432 0.083364718 -0.040506121 0.029301288 0.07097061 0.071475416 0.043274362 -0.065925963 0.043976992 0.1010321 0.11297402 0.1007096 -0.099685982 -0.097640611 -0.068466023 -0.042143956 0.039080098 -0.039190929 0.0346848 -0.052807193 0.01266069 0.037420757 -0.01526821 -0.0088615017 -0.045368783 -0.076267898 -0.035749707 0.044354621 0.094712347 -0.068921514 0.048124082 -0.051016632 -0.082086489 0.093833067 0.098546833 -0.06354811 -0.093541592 -0.033304278 -0.076826714 0.089786701 0.0046673319 -0.11411274 0.0062524769 -0.11703962 0.019774918 0.049145963 0.051043086 -0.041142981 0.065730385 -0.097912371 0.038967278 -0.0045739529 -0.047128756 0.049052004 0.1134922 0.027237181 0.048519731 0.086692117 -0.088870533 -0.06429296 -0.057599284 -0.088193789 -0.039191961 0.035437051 -0.047449127 -0.018613489 -0.011753944 -0.025085494 -0.096281029 0.040135797 0.027088637 0.051771529 -0.036856726 0.028337793 -0.081539817 -0.097054116 0.098207951 0.049138233 0.011923112 0.061977949 0.041892022 -0.10678257 -0.073470786 -0.089978807 0.057894301 0.021604856 -0.056326162 0.062231764 -0.059137452 0.013244812 -0.098086506 0.015354174 0.0790217 -0.048854556 -0.024542306 0.11197101 -0.10777542 0.090409882 0.111564 0.024661897 0.029331138 0.04906505 -0.0069796122 0.031775296 -0.065114871 -0.0431397 -0.093185715 0.0068538631 -0.068239719 0.084399514 -0.033935841 0.056899425 -0.060431246 -0.050014574 -0.09396632 0.058450166 -0.057031266 -0.065140724 -0.0022245497 0.11276579 0.052952521 0.0229213 -0.0027857542 -0.078833692 -0.00030926659 0.034408368 -0.085366316 -0.06441424 -0.10655076 0.094263121 0.069273993 -0.010144766 -0.062254231 0.026909746 0.0028212841 0.072506398 -0.089655951 -0.027038226 -0.052577805 -0.032815371 -0.11894719 0.020238314 -0.01911268 0.012075884 -0.053212665 -0.0014951206 -0.0015309498 0.051694777 0.090980418 0.0072915405 -0.053559419 -0.085730284 -0.10897841 0.064439327 0.035819422 -0.056635793 0.053123966 0.046818294 0.056700785 0.088453002 -0.038736276 -0.055140674 0.028684543 0.038884696 -0.047812942 -0.016372986 -0.047478203 -8.5881766e-06 0.0392313 0.015731379 0.078212962 0.018874079 -0.03646452 0.052222207 0.027358526 0.068626896 -0.026590858 0.046232633 0.12531386 0.046863779 -0.081120715 0.022521738 0.0058974288 -0.088682018 0.080268987 -0.011377585 -0.047348965 0.055447161 0.078151919 0.0057234759 -0.079903498 -0.081568204 0.060705829 -0.11767316 -0.052305724 -0.028028088 -0.055870201 -0.075380787 -0.03716052 0.098792695 -0.013350585 0.047866147 0.037010603 0.080801703 -0.040756613 0.042690035 -0.12161096 0.0066369209 0.024101721 0.063786052 -0.086973555 0.097002402 -0.086560406 -0.10914508 0.003269864 -0.00037876813 -0.058742404 -0.072600447 0.077014439 0.096284874 0.10515811 -0.0027678395 0.11745949 0.075337827 0.059395727 -0.10939706 -0.10720691 0.083999351 -0.065756977 0.096673213 0.10776788 0.077824041 0.10221281 -0.035163485 -0.038162451 -0.1183859 -0.11580193 -0.10798664 -0.019394588 -0.10441814 0.099417195 -0.063844807 -0.046769824 -0.043298095 0.090285279 -0.075937174 -0.020369235 0.034197148 -0.063107289 0.024673106 -0.078385137 0.031716339 0.010604117 -0.04878854 0.12422018 -0.091000259 -0.049231295 0.080080442 0.081814915 -0.035265476 -0.10077359 0.039610293 0.053459547 -0.046439927 -0.024394883 0.01997499 0.0023707564 -0.092040703 -0.083498493 0.023467278 0.032761905 0.011407405 0.026664628 -0.088398799 0.043109864 0.046334118 -0.076429747 -0.10375687 -0.047226075 -0.074403815 0.028629279 0.0034819306 0.016885489 0.0056009316 -0.079892769 0.047296569 -0.058685191 0.057328373 0.073234089 -0.08883144 0.041777883 -0.035679128 -0.021051109 0.022870161 -0.007404217 -0.088837132 -0.062843673 -0.095048122 -0.04663492 -0.067131139 -0.099446185 0.10404023 -0.029641297 0.078349277 -0.045194436 0.075751081 0.022595426 0.05787842 0.059749424 -0.021822808 -0.10020169 0.071056001 0.10127929 -0.042086948 -0.007206514 -0.096021883 0.020624472 -0.046736717 -0.063950323 -0.039850622 0.10064801 0.021100823 0.035705555 -0.01966121 -0.091381855 -0.046571039 0.054706648 -0.068557851 -0.066091016 -0.033699673 -0.023358809 0.048129842 -0.029584019 0.010377888 -0.060790785 0.018160712 -0.046671711 -0.024725256 0.05098559 0.095644772 -0.1017058 -0.0094722565 0.038598292 -0.084054403 -0.084769234 0.10004954 0.042992588 -0.073243164 -0.059580095 0.094071314 0.088264003 -0.063505366 0.0030528808 -0.065664902 -0.078762054 0.0099079097 -0.10426901 0.053281989 0.10149894 0.0002207386 -0.075356789 -0.065411225 -0.049948718 -0.03277399 -0.038342215 0.027290557 0.10398309 -0.058697637 0.092805125 0.0065463898 -0.071854472 0.092541397 -0.08585982 -0.01190275 -0.04456922 0.012790171 -0.051842552 -0.081285767 -0.066774495 -0.048626009 -0.025879843 0.041540239 -0.1020251 0.073402837 -0.01133399 -0.071365088 -0.016523011 -0.068284422 -0.084411956 0.038958147 0.055759355 0.054003239 -0.08628273 -0.046630755 -0.10163588 -0.061222862 0.02982294 -0.086765751 0.050187215 0.077052183 0.070097767 -0.052306242 -0.0079925377 0.046550695 0.047742598 -0.086888641 0.047396678 0.026047904 0.094785675 -0.047811329 -0.033175156 -0.016315559 0.020306755 -0.0039583449 0.031887561 0.064736664 -0.054687358 0.021256238 -0.024684571 0.031538516 0.050979286 -0.026807645 0.024155259 -0.0099262279 0.016164975 0.036121219 0.044100169 0.033519723 0.048355967 -0.0042447727 -0.054415599 0.0020442368 -0.043386314 0.049866721 0.094726384 -0.075485885 0.065243542 -0.017002368 -0.010621111 0.034096025 0.023063894 0.029176105 -0.046675324 -0.0027727508 -0.010073701 0.036956076 0.09214282 -0.093572587 0.029132823 -0.0013344085 -0.038163304 0.010871507 0.088988066 0.10018399 -0.082036287 -0.045495849 0.0070077148 0.076063536 -0.022085791 -0.047653429 -0.080179714 -0.091324449 -0.057401326 0.1060279 0.098334365 0.062510066 -0.028763292 -0.050548006 -0.032829139 -0.020621574 0.046719149 0.040759016 0.098853745 0.027131321 0.077983819 -0.094359897 0.095019229 -0.08749561 -0.048735775 0.033005267 0.023629146 -0.040996674 0.067277245 0.029359022 -0.02740426 0.092944749 -0.010184213 0.051130876 -0.074166521 0.034750499 -0.077260368 -0.015072718 0.054552577 0.10861188 0.059554286 0.0070058689 0.09263131 0.036033809 -0.0220863 0.075925186 0.091041133 -0.053701352 0.046896983 0.080646396 0.098475128 0.061918281 -0.11909678 -0.060289744 0.01892822 0.086289018 -0.081752278 -0.02062057 -0.083844326 -0.067803867 0.051146995 0.099971242 -0.071827643 -0.077975057 -0.04571883 -0.044989772 0.083024405 -0.018557042 0.071804412 -0.015221314 0.047259822 0.0062240539 0.02035928 0.025040906 -0.050157025 -0.071807511 -0.027474245 -0.068981059 0.071282916 0.061788663 -0.042261042 -0.027919598 -0.11338306 -0.029313793 -0.084368467 -0.027129296 0.087029785 0.067292556 0.084138006 0.033465818 0.0084226513 0.11097751 0.042572077 0.066489339 -0.056241751 0.093231276 0.10430866 -0.052112244 0.098232388 0.071997359 0.070125975 -0.027262777 -0.039367575 -0.047238734 0.068573639 0.039044987 -0.072767235 -0.027662061 0.10536943 0.096754812 -0.019519733 -0.059469607 0.094076402 0.042911805 0.081504211 -0.082818352 0.079487316 0.049357969 0.038221672 0.081583388 -0.091955781 0.048972741 -0.078912392 -0.0034528142 -0.044164822 -0.086928032 -0.0056513627 -0.062099472 -0.078690819 0.085379578 -0.00030256758 -0.041528106 -0.0070567247 0.032595333 0.01174208 0.11252305 0.026755802 -0.021247756 -0.003075995 0.067178726 0.033141069 -0.0098397993 -0.076998398 0.036089715 -0.083521269 -0.041860674 -0.087419651 0.027819952 -0.039320648 -0.060553264 0.0076154801 -0.095523968 0.021577623 0.013903851 -0.074626677 0.065175697 0.077338621 -0.058675088 0.030455157 -0.029567789 -0.029496031 -0.038935404 -0.00040919526 -0.089353345 0.055347145 0.020737771 0.071702294 -0.010969177 -0.095537506 -0.080317572 0.084564641 0.011355276 -0.01877863 0.064396791 -0.071317375 -0.082051665 -0.064525828 -0.083370902 0.028577495 0.022976059 0.094890729 -0.075242557 -0.0098779714 0.029413408 -0.02050695 -0.014514131 0.037531033 0.068562783 0.033871915 0.00087639113 0.018037057 -0.066475555 -0.077011682 -0.043788865 0.073978461 0.068190008 -0.073128477 -0.086488172 0.030293072 0.012687463 0.049472138 0.017850874 0.044845141 0.04238987 0.06332884 0.078060821 -0.082237594 0.062629588 0.10085177 0.072780095 0.07651227 -0.012594589 -0.011364277 0.02798002 -0.072021045 0.077182658 -0.083244011 -0.080744319 -0.088259518 0.10558271 -0.013987049 -0.034737762 0.035363764 0.08149562 0.016427189 0.017176682 0.013389688 -0.058783278 0.034807216 0.067120135 -0.0076646982 -0.017665554 0.079963624 -0.018790778 -0.11356378 0.11324821 -0.028270721 -0.078863271 -0.015017221 0.03806572 0.035284132 -0.026477 0.039072976 0.014750449 0.11299431 0.037075315 0.099597462 0.090540558 0.060331725 -0.032862443 0.0057117096 0.094686739 -0.079026423 0.045891479 0.030338591 -0.053561445 -0.01381206 -0.099589303 0.08277119 0.034600303 -0.019774657 0.025817221 0.011635881 -0.04538228 0.05640877 -0.035130043 -0.0088255135 0.032909255 0.088050909 0.054656737 0.096262954 -0.078024544 -0.05847425 -0.036245279 -0.063948654 -0.02064177 -0.0030272442 -0.044294812 -0.04479951 -0.028212151 0.081843548 0.0605468 0.05639039 -0.10559058 -0.023854356 -0.071558498 -0.070111603 0.10967366 0.078192957 0.024455346 -0.089146875 0.0057416609 0.045798056 0.079901613 0.063393064 0.062250525 0.082132928 -0.08726941 0.026163677 0.021121815 -0.04744827 -0.046465598 -0.027889179 -0.079533987 -0.017319424 -0.024091847 0.033574376 -0.060943909 -0.032606062 -0.047293369 -0.080834113 -0.06701728 -0.053720713 -0.0030422667 0.038369741 -0.040035903 0.064264469 0.016405292 -0.085731104 0.091994263 0.0050868448 0.00035692664 0.051744953 0.0077803116 -0.055212852 -0.073489927 -0.028007446 -0.062907815 -0.045385908 -0.059991259 0.070374325 -0.052975509 -0.015143463 0.0021150636 -0.088493407 -0.019514196 -0.077752963 -0.012657732 -0.092121981 -0.049228992 0.033038691 -0.0031126321 -0.039592441 -0.074055769 -0.0043399017 -0.062203489 0.055103686 0.010511428 -0.02077006 -0.037403312 -0.087555408 0.020641964 0.043677311 -0.096311495 -0.09972351 -0.024647456 -0.061159912 0.011023697 0.017298015 -0.093604721 0.04416877 0.048480783 -0.065478392 0.044248227 0.060128331 0.0064131441 0.013697944 -0.024015179 -0.09226273 0.019633491 0.071509697 -0.03158531 0.039187137 0.094488874 0.066525772 0.023703804 0.017813025 0.027670814 -0.024647113 0.016618166 0.11058033 0.026815366 0.024276588 0.03385748 0.018074732 0.069681697 0.097052045 -0.038191076 -0.021073483 0.0065606222 -0.092693217 0.076614685 0.080787264 0.071608946 0.055497047 -0.10145769 -0.048111659 -0.010050307 -0.056093615 0.043071978 -0.05507496 -0.038987756 0.068499416 0.044414282 -0.1109454 0.093199544 -0.032201048 0.073202722 0.035526212 -0.010898181 0.058778405 0.063287035 -0.0299407 0.052980747 -0.086054094 -0.059379894 -0.050792202 -0.04018626 0.02779757 0.025927151 0.073412783 0.073477179 -0.093092673 0.0041499636 -0.049574818 0.071513072 -0.018985759 -0.0033845655 0.04860381 0.0097424686 0.056116011 0.037085649 0.1097854 -0.065335333 0.064121425 0.10301641 0.052061576 0.091455691 0.078175865 -0.096450336 -0.017641736 -0.08891955 0.065632947 0.019715367 0.056523956 -0.085184477 -0.079964675 0.023942001 -0.051413879 0.083683841 -0.096007265 0.014000012 -0.035177626 -0.027019173 0.01280296 -0.030971784 0.059151318 0.071154878 -0.051375415 -0.0026450797 0.022076633 -0.078287125 -0.083146282 0.067801751 0.042140074 -0.023084892 -0.025373066 0.028270746 -0.022533407 0.022944849 -0.050319135 -0.070473373 -0.097979754 -0.022778817 0.0014421331 0.065430686 0.086371787 0.030470099 0.037709232 -0.065934636 -0.08294262 0.0083197337 0.046418414 -0.0060492391 -0.053278338 0.04803516 -0.095294423 0.04176661 0.060575813 -0.053258728 0.094243176 0.078556463 0.0066986778 -0.011647692 0.0011322312 -0.08417625 -0.079218812 -0.019516731 0.065244921 -0.054631233 -0.030372433 0.099582858 0.0798015 -0.078124173 0.04665314 -0.066328391 -0.061437223 0.059911251 0.028227953 0.02575352 0.0033143426 0.01036817 0.018785216 -0.032817509 -0.050636675 0.057079107 0.036240418 -0.037603561 -0.05989065 -0.039767079 0.02231379 0.046934053 -0.039683037 0.0048739109 0.019045375 -0.079790212 0.0023593346 -0.017932924 0.093328409 0.074737586 0.075469613 -0.082297906 0.021143308 0.1017616 -0.096457005 0.041691545 0.049889848 -0.044460766 -0.026641587 0.025878858 -0.063979879 -0.015405881 -0.078341305 0.10962974 -0.023186054 0.03001602 -0.093059063 -0.05646307 0.065742925 -0.073389135 -0.067678109 0.047197714 0.059424248 -0.058052827 0.086781189 -0.059984382 0.086471125 -0.064724036 -0.014551291 0.022977985 -0.07240013 -0.036809184 0.0032742643 0.031313594 -0.037722707 -0.091292329 -0.10372306 -0.099665932 -0.042013895 0.084588714 0.083509684 0.1077495 0.041924503 -0.021202208 -0.073598616 -0.023196917 -0.092615739 0.052773107 0.083287925 -0.04286585 -0.07234785 0.10976627 -0.067336693 -0.088493854 -0.066021957 0.022565406 -0.0094691599 -0.015577135 0.037611831 -0.061718144 0.031017626 0.039231557 -0.10216887 0.050503753 -0.090549044 0.026103035 -0.038868695 -0.080819786 0.0015799042 0.069404021 -0.040551987 -0.06051207 0.075056434 -0.099885643 -0.060491353 0.0037518204 -0.019357644 0.038357954 -0.063792437 -0.083272979 -0.049749877 0.067172095 0.0075146323 0.083684675 -0.080270514 -0.092821799 0.028815985 0.02928967 0.017664829 -0.040572096 0.033385061 -0.057361763 0.041061107 -0.028708933 0.055763707 -0.074184164 0.030185945 -0.070126101 -0.0093819052 -0.071650423 -0.044179216 0.090545483 0.095756955 -0.012498422 -3.8242884e-05 0.099664621 0.075240031 0.053270619 0.068518445 -0.0028507377 -0.016580313 -0.026892887 -0.030709324 0.043955505 0.082314141 -0.093432158 -0.064592265 -0.051858798 -0.040398385 0.061232928 0.057037923 0.052643005 0.059665639 -0.056837983 0.0066600288 -0.055940382 -0.11245206 -0.077636681 0.036266319 -0.027128063 0.049480706 -0.06148418 0.093907796 0.0208419 -0.083037026 0.054892372 -0.055855945 -0.076477952 -0.088956356 -0.048373304 -0.074476056 0.075511426 0.055771917 -0.088816322 -0.024219334 0.031563088 -0.031107262 0.07720264 -0.033336166 0.017828254 -0.0053775948 0.058961403 0.071635991 0.023664115 0.014732525 -0.083502471 0.076632313 0.036771059 0.081729077 -0.089397945 -0.079716608 -0.028231453 -0.019431014 -0.069821395 0.048110206 0.084289558 -0.014852603 0.057279199 0.046058461 0.02696174 0.021260524 0.061353017 0.0065341443 -0.0023293288 0.011141874 0.02627538 0.010500669 0.021440487 0.024941005 0.071059085 -0.043447558 0.075711936 -0.060794044 0.093607329 -0.081853889 -0.07943403 -0.0589252 0.0044584102 -0.015743794 -0.097193196 -0.038677402 -0.045466453 0.079573438 0.074899033 0.042695932 -0.11047523 0.080809109 0.042392403 -0.050244428 0.0054522138 0.014250673 0.02127927 -0.084084816 0.097933643 0.027673889 0.058307629 0.030501394 0.0088376319 -0.081615344 0.013833361 -0.097067393 -0.060543455 -0.01411221 -0.025833167 0.092958093 -0.019923555 -0.012163887 0.095033936 0.048860755 0.065487392 0.047261201 -0.048263881 0.081669971 -0.082505062 0.073172383 -0.079037532 -0.043679416 0.060002256 0.030494096 -0.031674534 0.076342054 0.045660883 -0.080273218 0.049742736 2.8113653e-05 0.084567301 0.0024703518 0.0080357883 -0.027032718 0.050275054 0.075045243 0.065669715 -0.057009891 0.078814119 0.057895008 -0.035127696 -0.077438638 -0.063851178 0.09316238 0.082724258 0.054331902 -0.057465561 -0.040213659 -0.065118149 0.051010571 -0.073927887 -0.036519095 -0.03398481 0.048656739 0.09588939 -0.070523575 0.059541974 0.093849316 0.0048816428 0.10088553 -0.057299718 -0.071141399 -0.047289345 -0.081672035 0.04339971 -0.056626599 0.077278338 -0.076012246 0.067244753 -0.023864869 -0.088247672 0.025536278 0.018454673 0.017342756 0.018249976 0.10523865 -0.018501502 0.083717965 -0.039339837 0.023702871 -0.051081598 -0.088178441 0.029728221 0.027105497 0.022595404 0.0002779456 -0.070470497 -0.06383241 0.0093269367 0.098990515 -0.04385262 0.063329667 -0.076485008 0.014211898 0.074666709 0.072121955 -0.077899233 0.056533597 0.0048265927 -0.0058204448 -0.089595199 -0.10055368 0.065450728 -0.081254914 0.023485785 0.033731818 0.093968637 0.026989019 0.08208093 0.015416406 0.024201034 0.059180811 -0.059655998 0.041360311 -0.057351802 0.11022873 -0.041785177 0.10855465 -0.038255461 0.079201423 -0.053413656 -0.029554809 0.08390037 -0.03792949 0.077775285 -0.0082015507 -0.11079817 0.1065122 0.0070353546 -0.089498162 0.050818436 0.0356749 -0.076125868 0.10038386 0.0068332721 0.029536905 0.019336192 0.027415795 -0.071605928 -0.069049634 -0.099246286 -0.077140003 -0.012707475 -0.060836747 0.038744532 -0.056374211 0.011053029 0.070114195 -0.062140118 0.026399026 0.074301578 0.079338685 -0.079397552 -0.035466809 -0.05238267 -0.10663842 0.082374714 -0.046509951 -0.069040932 0.042451493 0.048630647 -0.10567196 -0.081178926 -0.050704528 -0.054532435 -0.10947124 -0.082704656 0.057307664 0.042419516 0.073054783 -0.014589837 0.066927291 0.025304293 -0.052021444 0.048521791 -0.0575836 0.00093969889 -0.091028839 -0.025357325 -0.050246093 0.066909425 -0.046519231 0.085544661 0.08733847 -0.041268684 -0.048875809 -0.0035318446 0.019320009 -0.11785243 0.047873158 -2.9245017e-05 -0.0033519852 0.082046255 -0.019189164 -0.0091505535 0.080904126 0.0084959203 0.059947725 0.060982507 -0.057822615 -0.09917257 0.052740484 -0.060910385 0.057226881 0.026895801 0.007595656 -0.015133664 0.003032624 -0.022895359 -0.012494104 -0.032447889 -0.061862022 0.082410969 0.0098382989 -0.051483363 0.083663002 0.06686265 0.076286539 -0.021276921 -0.11675292 0.080218673 -0.10912599 -0.067971282 0.077728979 0.060275007 -0.034311108 0.089487173 0.0078962501 -0.0023468637 -0.054833323 -0.014561356 0.0034372071 -0.071149036 -0.10441829 0.057548091 -0.11383218 0.10176858 -0.087400414 -0.01168125 0.069400288 -0.026680831 0.082827345 0.026720133 0.010972417 -0.037511874 0.014178782 0.052157011 -0.097179241 0.015588798 -0.048903935 -0.041332345 -0.020313444 -0.011313615 0.094025873 0.014822656 0.086692601 -0.078422725 -0.09541335 0.032897968 -0.070485473 -0.016140459 0.029493544 0.012886236 -0.050446764 -0.071845204 -0.021330405 0.016939742 -0.077923365 0.097978517 -0.0028120803 -0.03309511 0.0083660912 -0.0082144756 0.0023853933 0.059321858 0.070017457 0.037571121 -0.026264485 -0.10712732 0.027918691 -0.080178946 -0.005663116 0.08304964 -0.065628529 -0.063261144 -0.043152653 0.090534493 0.019683043 -0.0048477273 0.021120841 0.03013587 -0.088790476 -0.024406226 0.022420654 0.097765163 0.0087930448 0.0034676187 0.05051098 0.041394353 -0.072586596 -0.099373125 0.079228729 0.030583454 0.13147573 0.025497526 -0.099272154 -0.021177208 -0.060268752 0.045903087 0.012266225 0.047460295 0.021956682 -0.017657133 0.10165302 0.0058028032 -0.046570554 -0.019404287 0.082131751 -0.046358597 -0.06313698 -0.0097514465 0.028887602 0.07822378 0.019754462 0.051579844 -0.048987042 -0.054495197 0.076191932 0.020347919 -0.030218251 0.092864856 0.010956071 -0.018373236 -0.032569796 0.047786865 0.0094257044 -0.018933633 0.018040329 -0.017873943 0.031587355 0.06537085 -0.019576881 -0.087609835 0.048989926 -0.056571085 -0.049384683 0.043525368 0.065552004 0.02517527 0.015657935 -0.025115216 0.022632662 -0.066446029 0.025058858 -0.064036608 -0.10013795 0.02212091 0.00083104568 0.098473892 0.067267187 0.023119578 -0.045941342 -0.030221298 -0.026230453 -0.033862218 -0.099115603 -0.049985353 0.0077374433 0.10572445 -0.081342973 -0.075888008 -0.043154974 -0.05776865 0.093486905 0.090926871 0.034362268 -0.042961352 0.0052186083 0.077932663 0.029920196 0.0021705732 -0.036259428 -0.032671776 0.033068687 -0.023003032 0.032459121 -0.067276783 -0.087168314 -0.071206369 0.083412722 -0.022219149 -0.046284292 0.009693413 0.04514144 -0.069924779 0.093793988 0.0032534259 0.071442716 0.10462431 0.066376284 0.028829174 -0.049351301 -0.054887459 -0.037870232 -0.094174102 0.02988123 0.045588344 0.041407295 -0.072648451 -0.094978765 -0.030084923 0.073100634 0.056527521 -0.10563899 -0.088424802 -0.08219602 0.092658117 0.044955898 0.029441403 -0.053881805 -0.086842149 -0.051995967 0.049259923 -0.024250358 0.062849872 -0.051581401 -0.046596412 0.074489221 -0.036762986 0.024008617 -0.010723867 0.020764537 0.069374427 -0.030517265 -0.083725683 -0.09745875 -0.079462193 -0.047059227 -0.079834312 -0.051823888 0.046803735 0.04602699 -0.020161817 -0.085013539 -0.050107323 0.073215626 -0.071200922 0.094423428 -0.063278839 -0.082955204 -0.035479996 -0.011205005 -0.028265027 0.06523519 0.013795199 -0.056609191 0.054083958 -0.073329605 -0.018671876 0.096991383 0.025896247 -0.031325322 -0.034351569 0.11080527 0.067705631 0.075323492 -0.056963284 0.031811122 0.040481463 -0.022144552 -0.071063511 -0.0010554002 -0.075552739 -0.03539646 0.078426354 -0.037993204 -0.091978453 0.077058017 0.09619455 -0.074011363 -0.064993232 -0.012522586 0.024826415 0.0052743116 -0.0073686661 0.067588784 -0.04801676 -0.099173695 -0.086715437 -0.020437656 0.064496532 -0.028949622 0.030321671 -0.0025090813 -0.067924194 -0.079112992 -0.065033399 -0.068114564 -0.0017044427 0.075889252 -0.035619032 -0.013762182 0.04572827 -0.10087703 -0.048690714 0.015791215 -0.050109129 -0.024491014 -0.022110198 -0.014590745 -0.016783746 -0.078733042 0.029421983 -0.10265029 -0.014787262 -0.082972713 0.058374617 0.11137906 0.048096944 -0.084971182 -0.0064980765 -0.096110418 -0.018284958 -0.050630223 0.04964317 0.034426924 0.085661687 0.094573744 -0.089877248 0.10562794 0.050953407 0.016903078 0.066936269 -0.072415538 -0.036468022 0.071706258 -0.026992824 0.057175137 -0.077204101 -0.034450341 0.042676393 0.0065670889 0.019781699 -0.093184821 -0.058570061 -0.05899553 0.091054969 -0.09983474 -0.0023549749 0.096721753 0.010656598 -0.043063775 -0.033227988 0.023695929 -0.038694598 -0.068231203 -0.012216283 0.038053509 0.032722104 0.038114231 -0.026694719 -0.10457319 0.048705548 0.11321595 -0.044557407 -0.0094965333 0.094975919 -0.062823497 0.047708757 0.060683332 0.079019554 -0.046541065 0.019747697 0.029827222 -0.014084691 0.016484864 0.05956395 -0.0054103392 0.016532635 0.084141634 -0.049681988 -0.0037289064 0.02911968 0.007669636 0.00040795142 -0.075631179 0.08630009 0.016648738 -0.009279279 -0.06008875 0.067541555 0.012118988 -0.028936036 -0.036382884 0.062563755 0.060231715 0.079278171 0.073721245 0.071463041 -0.10840096 0.021824736 -0.03096563 -0.10200207 -0.032990623 0.027194574 0.072732411 -0.060950704 0.094775222 0.056716762 0.04793667 -0.050897952 0.085488662 0.081976809 -0.11139612 0.03779801 0.096916698 -0.0088464152 -0.0085126404 -0.10159556 0.067232303 -0.11395282 -0.079629533 0.035555679 -0.036254074 -0.0041048843 0.086887531 0.076501369 0.09326677 -0.085324556 -0.012025179 0.085488223 0.014941964 -0.012127846 -0.026361709 0.085499436 0.044622708 0.043795653 -0.016794128 -0.078576863 -0.042711422 0.09089449 -0.059540618 -0.029141968 0.025563993 -0.058901094 0.045675293 0.00033332995 0.041895084 0.010300622 -0.079628646 0.034234401 -0.07414183 -0.044470761 0.11460695 -0.079625994 0.0062015262 0.084023453 -0.0010111043 0.093141258 0.091391355 0.10434961 -0.10083587 0.031485062 0.1151567 -0.090345077 0.046239551 0.01158211 -0.10899878 -0.050955355 -0.081441224 -0.025652541 -0.074266382 -0.0047237901 0.062079251 0.063461974 0.043124516 0.035727642 -0.037606679 -0.041650116 0.0089622391 0.10740938 0.043319792 0.074197903 -0.0037112469 -0.053548057 -0.049292132 -0.017357698 0.0077223531 -0.069188684 0.031936456 -0.050007295 -0.041556779 0.024710551 0.069954477 0.024324417 0.024271768 0.063985057 0.043107271 0.084685139 -0.043399341 -0.068787433 -0.066074833 -0.074798822 -0.086309463 0.07943216 -0.042558506 -0.094351493 -0.070126474 -0.020129925 0.10054384 0.094966404 0.096271828 0.085005015 0.053674158 -0.0578239 -0.04803624 -0.085563868 0.010499383 -0.040000714 -0.081298664 0.0036975248 -0.004321489 -0.034429993 -0.074795589 0.091501288 0.067342237 0.086231068 0.054006789 0.092795171 -0.079011634 -0.055640198 -0.02796107 -0.050434802 -0.040449694 0.009334567 0.0073644845 -0.06263496 -0.043974966 -0.076129101 0.013789147 -0.033102527 0.096712627 0.0160609 0.07454206 -0.07780014 0.0057926644 0.032099891 0.071440786 0.09076605 0.052517459 0.0356941 -0.0059687467 0.034020111 -0.052592505 0.0076896721 0.02318809 0.023083081 -0.0067141172 0.079904929 0.063449994 -0.024695458 -0.030747483 0.017535072 0.0065800003 -0.033050492 -0.099814557 -0.099755131 -0.09243238 0.030553577 -0.020711726 0.10519208 0.036548778 -0.043547042 -0.00032580979 0.10436417 -0.044450954 0.054010432 0.0064289304 0.028974462 0.042947024 -0.076284491 -0.022642149 -0.04095554 0.11315074 -0.090764992 -0.067723945 0.087143838 -0.084646784 0.038562741 0.049530957 -0.089285836 0.016212584 0.10379038 0.070269354 -0.06769523 0.011458111 0.065000489 -0.029786212 0.090128206 -0.04771623 -0.041286208 -0.073041596 -0.06516432 0.076883815 -0.072378375 0.088062465 0.00032340686 0.032807864 0.12053994 -0.084688812 0.070585594 0.035098683 0.070055701 0.082017668 -0.025041001 -0.088826925 -0.071777351 -0.076766632 -0.030483728 0.080823347 -0.022445442 0.012516398 -0.008595638 -0.059838545 -0.035946716 0.10180315 -0.012928807 -0.070523627 0.10320245 -0.068004116 -0.023234081 -0.017914394 -0.037513234 0.050195888 -0.022063239 -0.095344022 -0.078594737 -0.088150769 0.084636159 0.036103453 0.096253753 -0.080257319 -0.023522712 -0.0016891673 0.0153029 0.050490931 -0.010025297 0.061531212 0.028844675 -0.08064425 0.0043917354 -0.067977242 -0.0125281 -0.085326724 -0.068590902 -0.040968422 0.033209294 0.054455888 -0.023021605 0.0039529749 -0.019009126 -0.012210273 -0.061728399 0.023588635 -0.08505518 0.078454331 0.006545668 0.099361047 -0.0059810453 0.08555866 0.069605142 -0.023964472 0.016847845 0.10676947 -0.039841536 -0.10073593 0.061184812 -0.077571757 0.094976395 0.024783487 -0.06027459 -0.043545302 -0.039872609 -0.063532904 0.082671106 0.022295702 0.0081880195 0.05004666 0.11024522 -0.014115332 -0.0063594342 -0.06178448 0.1046709 0.047013655 -0.079365283 -0.050870042 0.046264157 0.010845254 0.078683436 -0.036524754 0.045792714 -0.072508283 0.0590147 -0.094095983 0.043181475 0.070219643 0.08076448 0.041850109 -0.018500423 0.020859508 0.087579258 -0.026751621 0.0318329 0.043287843 0.04788404 -0.019876648 -0.09429086 -0.071028382 0.056339718 0.024072293 0.085873164 0.089997679 -0.038765881 0.041310769 -0.085209258 -0.069504127 0.00084585795 0.015108836 -0.083717719 -0.02265417 0.083623983 -0.092176318 -0.12040093 0.065160006 -0.040840719 -0.0036010067 -0.02998914 0.045519907 -0.026675699 0.074471459 -0.0034757103 -0.041750517 -0.026171215 0.081956945 0.059587188 0.067224853 0.053625256 -0.049322024 0.052728955 0.024924815 -0.095379457 0.074380323 0.0014598885 -0.025474112 0.013569413 -0.06074803 0.012668693 -0.038129441 -0.09567254 0.12318394 0.050612964 0.11758832 -0.014049046 0.08307308 -0.098432742 -0.0090812203 -0.068054646 -0.058072452 0.092149466 -0.0079779727 0.026266843 -0.049365509 -0.052963782 -0.051797763 -0.051498264 -0.034339726 -0.0055046612 0.047405001 0.007670491 0.077035703 0.03462654 0.0034074008 -0.038145553 -0.10916888 -0.0095876493 0.064879954 -0.10295036 -0.052785892 0.026810057 -0.035516273 0.088097639 0.00021694115 0.053743612 -0.062862985 0.039510924 -0.057619512 -0.088145867 0.10076851 -0.010014169 0.065216832 0.04480578 0.039125375 -0.054339461 0.093546607 -0.10332652 0.050884243 0.029512912 -0.063814707 -0.1116091 0.0025764995 0.045392685 0.10555312 -0.089023024 -0.066203602 -0.063458845 0.07573653 0.10749248 -0.080294847 -0.0047099707 0.069785334 0.020522529 -0.096844755 0.1005908 0.02674582 0.027033279 -0.042616673 0.063472822 -0.014616918 0.022591326 0.05116944 0.063602552 0.016498445 -0.030802405 0.089101024 -0.066785082 0.074422516 -0.016969785 -0.035922721 0.040832888 -0.094458327 -0.086877331 0.015405033 0.095381632 -0.084669337 -0.068206616 0.026710508 0.084208474 -0.074764535 0.088000126 -0.0050084796 0.012434505 -0.031101339 0.080498159 0.058553498 -0.042438135 -0.011324018 0.0051811566 0.063526295 -0.027433498 0.072623812 -0.037535883 0.045473944 0.012796069 -0.070698075 -0.1077356 0.072291188 -0.056384906 -0.098945372 -0.053491626 0.062153362 -0.055962991 -0.04582262 -0.070756622 -0.052948702 0.069367968 0.058410529 0.087599494 -0.099070296 -0.099457629 0.02639124 0.031669442 0.086528122 0.084351994 -0.060247649 -0.057949271 -0.0053563011 -0.066001438 -0.044701166 -0.075771257 -0.098465055 -0.068295829 -0.022810603 -0.079858251 -0.01083456 -0.065314278 -0.019374035 0.076389126 -0.02053711 -0.050716709 -0.037964717 0.067123398 0.075506054 -0.072799452 0.083333835 -0.04737705 0.090605557 -0.057548855 0.0013905861 -0.11113111 0.10021271 -0.018673815 0.063155316 0.094587401 -0.063600458 -0.063306674 -0.055174958 -0.079890907 0.098752797 0.0075615933 0.081141964 0.10961348 0.039433628 -0.024574911 -0.017985629 0.019490816 0.016591359 0.021280443 -0.063364871 -0.01537264 -0.020424819 0.038273863 0.067333534 0.042299684 0.0067880657 -0.021030437 0.089560963 0.072433583 -0.043032702 0.0032943755 0.021878213 0.033010509 0.027663359 0.091617301 -0.064017192 0.088026024 0.054551143 -0.019772567 0.12508604 0.092646495 0.063079178 0.10485215 0.046780419 0.016334616 0.076287925 -0.064928353 -0.06248109 -0.021510694 0.044833556 -0.014487431 0.03903025 0.078593917 0.061259154 0.030324668 0.06828282 0.03822178 -0.027435677 -0.098951079 -0.0052639931 -0.099539466 0.025665605 0.020922305 0.09871202 -0.0051904367 0.061104462 0.047020286 -0.020912362 -0.011104638 0.027798291 0.10714152 -0.086790912 0.015816132 0.081039898 0.061810285 0.056619667 -0.0066928817 0.046186667 0.047077212 -0.063810371 0.097524114 -0.045422412 -0.066484019 -0.002468009 0.077488862 -0.021773558 0.086318895 -0.056273032 0.044722486 0.091732137 0.10776821 0.039027046 0.11207876 0.017890986 -0.066251822 0.0024688193 -0.098386399 