#Parameter# /_2 {370,198} 911032 ZERO_GRAD
-0.013423138 -0.012879275 0.083235063 0.025320563 0.059727289 0.085054755 0.063250795 0.0014965658 0.065930985 0.039491039 0.071617149 0.076480754 0.012576981 -0.087055176 -0.029231979 -0.078338653 0.034378629 -0.044178944 0.098301701 0.055509929 -0.0033183016 0.086825967 -0.10555782 0.062503435 -0.020719118 -0.017886199 -0.0068386453 0.016278284 -0.035183255 0.025650691 0.057864621 -0.084621936 -0.086999372 -0.038866844 0.0077759055 -0.097403429 0.043365464 0.072166376 -0.043093201 0.01807059 -0.087666899 0.084561907 -0.047105972 0.045032527 0.089326277 -0.074985974 0.008011505 0.096661553 0.00067774393 -0.028917277 0.049537852 -0.01512673 -0.095687144 0.080976158 -0.089932516 0.077414326 0.054041814 -0.10451309 -0.024362937 0.045447614 0.044187732 0.0034726209 -0.022126019 0.10191041 -0.057290949 0.099457286 0.11020871 0.024171151 0.055674445 0.10094328 -0.011945684 -0.054340165 -0.074946649 -0.048852663 -0.11452115 0.0074422411 -0.078535303 -0.064935349 0.022398289 -0.098489419 0.098557375 -0.082776859 -0.10874978 -0.070870422 -0.075153723 -0.0049494281 -0.07017038 0.065497518 -0.023916656 -0.051688749 -0.075064853 0.035794474 0.046001166 -0.034006096 0.081066556 -0.04185243 0.014355271 -0.086673409 0.016219892 -0.034321371 0.066603929 -0.0064569353 0.10372635 -0.049934246 -0.080329061 0.042124797 0.013531451 -0.028356982 0.069176123 -0.078483842 0.084445365 0.039585155 0.037364889 -0.057983957 -0.099188566 0.075090818 -0.076181613 0.10324967 0.064482056 0.030086743 -0.037103873 -0.090925373 0.0018259072 0.089208081 0.061646912 0.087994993 -0.095392436 0.056178689 0.039714325 0.034479987 0.027100516 -0.088670507 -0.10273531 0.030160826 -0.099380501 0.068465345 0.084927663 0.075686105 -0.032088928 -0.045554299 -0.025274416 -0.10794254 0.085822113 -0.058213849 -0.026642952 -0.006794564 0.065222219 -0.10240202 -0.092651583 -0.046231452 0.050855022 -0.10359937 0.056026302 -0.031427708 0.089312129 0.0041873213 0.053937536 -0.050063781 0.084004566 0.025645806 -0.048011366 0.038503084 0.0078655137 -0.019942867 0.0019395666 0.068729945 0.086733937 0.047950704 -0.018998068 -0.047470637 0.064975552 0.0059510185 0.069803461 0.0012476575 -0.037517667 -0.052215043 0.1106894 0.061178859 0.058661487 -0.016655114 0.10175024 0.097212702 -0.025851024 -0.016951308 0.058923513 0.048402295 -0.040274661 0.0023834342 -0.072453991 -0.057576399 -0.0040029199 0.064503498 0.051418744 -0.0025750457 -0.099551961 0.025183747 -0.080565147 0.056048106 0.064258091 0.012939923 -0.025988223 0.031114837 0.088830851 0.04997411 -0.035624348 -0.01054385 -0.035065789 -0.09895581 -0.063370697 0.051828153 -0.028097862 0.043362208 0.034617513 0.051508848 -0.016956247 0.035775762 -0.090510681 -0.0044141472 0.089591399 0.048047192 0.089015074 -0.092391461 -0.093846187 0.1055987 -0.012134064 -0.017064527 -0.077402376 -0.057571404 0.072368048 -0.01674458 -0.043900508 0.095615089 0.051007431 -0.0083294483 -0.084685288 -0.068366632 0.065605193 -0.057547759 0.093400717 0.023612151 -0.092730269 0.022729078 0.064913459 -0.078065887 -0.044171274 -0.029376106 0.017234134 0.1152325 0.071899123 -0.09208823 -0.022507014 -0.087155186 -0.053690843 0.075398043 -0.030290056 -0.043031443 -0.023027129 0.032374799 0.093801312 0.10325991 -0.078444861 0.049709119 -0.073085316 -0.021483162 0.022063904 0.066285573 -0.049440555 0.035475999 0.016450832 -0.097915739 -0.077105358 0.041385639 -0.09301997 0.039223656 0.040370733 0.058509473 0.029322727 0.092545539 0.0089659374 -0.069887236 0.073735379 -0.05432098 0.062553078 0.065452673 0.037664868 -0.093375407 0.073405065 0.084583782 -0.017460831 -0.034575388 0.044730615 -0.028975783 -0.063843176 0.027576484 0.044486959 0.06592761 0.040028103 0.016737437 0.0054627247 -0.072627008 -0.040558126 -0.091574311 -0.081230357 0.033817343 0.041940305 0.011186725 -0.085279852 0.04326966 -0.065350413 0.081926338 0.0069643874 0.0032762629 0.061925862 0.082617827 0.03411974 0.079567462 -0.031126399 0.015290604 -0.071472675 -0.10645124 0.083213195 0.081936069 -0.074767232 0.04596163 -0.064096816 -0.08022891 -0.016516089 0.09618704 0.069549374 -0.031508971 -0.074925587 -0.042945921 0.11344747 0.079924665 -0.0066848928 0.072913699 0.083384767 -0.093665682 0.022555327 0.09212216 -0.10483931 0.089971326 -0.041734379 0.052137259 -0.056687087 -0.04386349 0.041272815 0.079988882 0.041731831 0.017171662 0.016355673 -0.079841644 0.086766809 0.036594756 -0.031310897 0.099734545 0.043012042 -0.06401933 0.023938615 -0.10937319 -0.044180553 0.059966516 0.019531682 -0.068971246 0.0083830971 -0.11441484 -0.0678977 -0.038045608 0.011554075 0.045858201 0.013767047 0.017199537 -0.074684232 0.036528431 0.055646915 -0.0038017905 0.047632493 0.04986988 -0.0080710985 0.050939739 -0.050437264 -0.011885417 -0.11260492 -0.026724873 -0.046136774 0.0061135623 -0.067150153 -0.083054863 0.037158173 0.014357166 0.026249707 -0.072693147 -0.073238634 -0.026448283 0.05566743 -0.077027015 0.090642013 -0.1026485 -0.083473474 -0.022863099 -0.053801924 0.077610128 0.099209577 -0.06633091 0.080118336 -0.05673831 0.059745792 -0.072877474 -0.034033846 0.023869388 -0.075868636 -0.045720104 -0.030587995 -0.073455781 0.090921372 0.022230251 -0.099429905 0.028209927 0.10129775 -0.064954735 -0.057213034 0.062745169 -0.028017899 -0.10014257 0.068267301 -0.01194548 0.016628241 0.033688769 -0.0041725044 0.09117759 -0.06064944 -0.025351768 -0.022498481 0.059321046 -0.083252862 0.069115572 0.085628971 0.082527049 0.051676799 0.072902925 0.050635278 -0.01388145 -0.040075254 0.051254611 -0.074675255 -0.089669593 0.069826484 0.037080664 0.087127469 -0.019961601 -0.0070771044 0.065824643 0.051278383 -0.032373525 -0.0052661365 -0.0046911417 0.01467327 -0.098558575 -0.089970954 0.087697782 0.090243854 -0.095985092 -0.014414072 0.053718623 0.043916974 0.0252921 0.030289924 -0.061487507 0.064483918 0.069088385 -0.095929042 -0.078253485 0.093559913 0.080154076 -0.014832973 -0.069351673 0.017742537 -0.08395835 -0.097594298 0.082621589 0.057775777 0.055292919 -0.067711405 -0.030835092 0.10105192 0.016063314 0.01415402 0.050771814 -0.087846436 -0.09066169 -0.080889337 0.036375463 -0.079721481 0.024737835 0.074672841 0.013955411 -0.043007441 -0.0055684461 0.10131458 -0.04817041 -0.092104107 -0.056297794 -0.09325137 0.040481016 -0.064446136 -0.075395495 -0.096822463 -0.068664864 -0.0027294056 0.081003733 -0.024153352 0.048087325 -0.073083527 0.025037354 -0.099801712 0.098569922 -0.07648918 0.080088012 0.038520999 -0.089675412 0.084756814 0.052154176 -0.00095696346 -0.035241824 -0.049900278 -0.063930176 0.030617442 0.048401393 0.10610174 0.042524301 0.022452174 0.077679113 0.013107547 -0.096336715 0.038674191 0.086237587 -0.043258395 -0.025880009 0.055657942 -0.10168725 0.056319866 -0.071285814 0.058541838 0.033370864 -0.073888034 -0.012918531 0.040697254 0.047677051 0.0014246827 -0.046700161 -0.03211857 0.078045845 -0.056087997 -0.042419393 0.044275317 0.049653146 0.056981552 -0.036716282 0.092981227 -0.0042249085 0.03940019 -0.01101039 -0.064929992 0.035019133 0.053080633 -0.0027673736 -0.10269311 0.073947318 0.020553689 -0.060809717 0.021735588 -0.083628818 -0.063221149 0.048155341 0.035541724 0.054752022 -0.057458621 -0.090992659 0.054336842 -0.0012807519 0.083063543 -0.072184101 -0.03856143 0.047526024 -0.022687355 -0.064680122 -0.073588111 -0.085174687 0.041814692 -0.09565296 -0.073572747 0.070012301 -0.032449041 -0.056909569 0.070964769 -0.030588353 -0.019883178 0.03968145 -0.10288553 -0.066933833 -0.006948506 0.093880661 0.0040653637 0.0042506047 0.04400108 0.027548231 0.078603216 0.033757765 0.013341515 0.056041572 -0.073381096 0.032772046 0.012733202 -0.011150111 -0.062839873 -0.059140664 -0.012838549 0.032055881 0.069557264 0.012707734 0.073771514 -0.073203743 -0.020426797 0.094395839 0.081202902 -0.068914771 -0.04104412 0.038512863 0.07209608 -0.00068301882 -0.040927939 0.017177517 -0.0023188039 0.052099399 0.045676947 -0.012930524 0.061652273 -0.09905111 0.0098663373 -0.037283354 0.085949726 -0.025548201 0.068698794 0.070225254 0.064930916 -0.040548358 -0.0079845553 0.009734273 -0.025025504 0.088356681 -0.083874092 0.079792991 -0.074094258 -0.09636239 -0.056629602 -0.083053529 -0.076528393 0.0014515207 -0.049257781 -0.051514126 0.019799689 0.093625687 0.050362788 0.027887 0.017641455 -0.005600051 0.057494901 -0.079316065 0.017796608 -0.087225445 -0.074923567 0.089954361 0.022482537 -0.0023964602 0.080832191 -0.085265554 -0.086140484 -0.075920954 0.09511257 -0.063137814 0.083530702 0.095170051 0.014076205 -0.080961235 0.02353256 0.016885486 -0.056631815 0.021189267 0.021260632 0.10271975 0.035045091 0.090822436 -0.048448808 -0.049746204 -0.0096630873 0.011539539 0.048974723 0.041252568 -0.023735471 0.0052302657 0.0094036749 -0.03883199 0.073971145 0.053631406 -0.052363828 -0.053395469 0.050497066 0.023419561 -0.080552071 -0.020296466 -0.0065695439 -0.002316454 0.026967006 0.064815976 -0.019079948 0.0082037216 0.04255002 0.026645387 0.054593138 0.059288621 -0.02254094 -0.025143169 -0.0645115 0.038428858 0.032259379 0.017126679 -0.01996045 0.071426995 -0.0062081963 0.055625845 0.015310948 -0.064376436 0.04038975 -0.05201453 -0.052722204 0.065190375 0.086779706 0.086039469 -0.059138279 -0.036005117 0.0039707953 0.022546016 -0.052228414 0.091470748 -0.083415702 -0.098352663 -0.056217063 0.061905343 -0.11561887 -0.0028126806 0.11011324 0.067046754 0.084157795 0.019469528 0.019016733 0.052517511 0.064386837 -0.078054629 -0.029351536 0.034724198 0.007034814 -0.070587449 -0.088466555 0.061565701 -0.070126683 -0.065270871 0.07803762 -0.039663166 -0.00011837669 -0.086472109 -0.073581733 0.048997957 -0.08573883 0.035748899 -0.018823389 0.055417389 0.049421962 0.055178873 0.057624381 -0.0018666121 -0.037557848 0.11803814 -0.060028642 0.06247472 -0.055959914 -0.030902291 0.035419032 -0.10509466 -0.038108468 0.046274945 -0.065835409 -0.081273429 -0.06746836 0.053645883 0.075503044 -0.057240278 -0.017442873 -0.042264089 -0.019735508 0.11032935 -0.076492891 0.046915956 -0.053932611 -0.054334074 0.054006029 0.058418036 0.041222885 0.074515253 0.027209384 0.059578776 -0.056764141 -0.089515299 0.0074189911 -0.03318359 -0.03322069 0.032925352 0.050786078 -0.10103896 0.074268825 -0.074769571 0.099772111 0.02246128 0.083678946 -0.049504243 0.016252179 0.028307196 0.045533434 0.063144214 0.085688546 -0.11014648 0.0096230693 0.011428308 -0.06951651 -0.054684445 0.052190151 0.083043911 -0.10275729 0.025930347 0.032140061 0.032339569 0.062968187 -0.084241413 -0.051256984 0.085492045 0.064618126 0.0461291 0.077734865 0.086930543 0.076309279 -0.087845147 0.072779067 0.078456745 0.036663294 -0.10973233 0.046653237 0.047308818 0.079489894 -0.096114896 -6.1568979e-05 0.070908703 -0.052316885 0.078127705 0.10437697 -0.049642947 -0.064926378 -0.086119294 -0.076975711 0.013972497 0.052423891 0.073100753 -0.059110619 0.062951505 0.08911062 -0.037440196 -0.032417595 -0.034377653 -0.047572646 -0.090678945 0.041558389 -0.040435594 -0.05998848 0.0018162574 0.020495741 -0.0029534034 0.00056098105 0.04762432 -0.023498578 -0.07244534 -0.063867144 0.056882318 -0.058925945 0.051169194 -0.037666392 -0.070037365 -0.065040663 0.043642111 -0.021168577 -0.054030586 0.08479365 -0.096389659 -0.037367545 0.0046347766 -0.077367634 -0.078232922 0.0061827037 -0.011365977 0.058875047 0.050356511 -0.043177523 -0.017913766 0.046934862 -0.046600834 -0.010972294 0.021121092 0.0032300695 -0.065341622 -0.02541757 -0.094883956 -0.030697482 -0.12123479 -0.055633172 0.015794931 0.026384698 0.067493923 0.11337121 -0.040316377 0.10080749 0.035991482 0.085891902 0.068385392 0.051519096 -0.066338673 0.037126899 0.0046452712 -0.082391746 -0.00054866553 -0.072986327 0.010391903 0.020524574 0.071600638 0.089500219 -0.10162146 -0.069526762 -0.017632717 0.04606083 -0.070585936 0.0068065259 -0.067425676 0.082430892 0.060252845 0.030656029 -0.003623642 0.037005279 0.059077606 0.059852108 0.044235013 0.04459941 0.10885303 -0.045555077 0.055079464 -0.048361897 0.078050561 0.081183903 -0.0066547622 0.017325172 0.10034204 -0.017770112 0.096072391 0.087710589 -0.046164401 -0.055776183 0.014218932 -0.096830659 0.077047437 0.047901157 -0.093172058 0.031853121 0.055512529 0.089556403 -0.044221237 0.0096086524 0.05902721 -0.0722422 0.060413927 -0.041049242 -0.10752296 -0.011484279 0.071206942 -0.028371345 -0.00081928476 0.097827695 -0.08599326 -0.04935129 0.043100268 0.083071366 0.022192078 -0.044128042 0.025378762 0.0010500816 0.0363364 -0.0084153246 -0.044140521 -0.035608076 0.052715845 0.063596129 0.071289644 0.027593413 -0.025166059 0.047579195 0.089672953 -0.059031632 -0.027051812 -0.010333908 0.090814672 -0.00018413551 0.021428967 -0.093758203 -0.034781367 -0.07476683 -0.027785854 -0.065680809 0.061160106 -0.10642982 0.043243658 -0.059985586 0.059251282 0.047758248 0.10994664 0.026774578 -0.00025675443 -0.11209039 0.046325818 -0.056491718 -0.062833428 -0.0075347968 0.0075832196 -0.025004344 0.028048601 0.019538466 -0.063613988 0.017261855 -0.072015077 -0.019937525 -0.086916126 -0.053115316 -4.3764026e-05 0.013930751 -0.082672819 -0.047895472 -0.038430553 0.082605757 -0.0099677527 -0.0033270235 0.041465532 0.072073512 -0.060294937 0.048236139 -0.035450693 -0.021637633 -0.043305241 -0.021291191 0.017141562 -0.03331304 0.0045427447 0.028941868 -0.057320528 -0.0025737691 -0.086142369 -0.043422021 -0.105836 -0.0023822254 0.002666381 0.051694088 -0.054875493 0.038174234 0.04962115 0.066435106 -0.085586138 -0.06647943 -0.072276175 -0.083060965 -0.01973783 0.057214547 0.065646879 0.057166994 -0.029539045 -0.066376872 -0.012988238 0.086525865 0.085039452 -0.0042072181 -0.11955802 0.036880329 -0.083741441 -0.043248568 0.0091820508 0.074989766 0.041733686 0.023461051 -0.036358468 0.065917023 -0.10309225 -0.074267857 -0.032411736 0.095030427 -0.089484259 -0.070705146 -0.056721859 0.040622313 -0.027650561 0.090006933 0.029770274 0.01094462 -0.096266024 -0.02525856 0.0207652 -0.032623887 0.060885739 -0.096729018 -0.044116221 -0.041466244 -0.10665654 0.10987172 -0.10772482 0.031469278 -0.0049801553 0.0033955397 0.012485418 -0.014200027 -0.090241998 -0.038935862 -0.066049218 -0.11113031 0.044377055 0.085469157 -0.013368709 -0.030231792 0.04478658 -0.075352311 -0.082319275 0.07060127 -0.002025537 -0.10223964 -0.032143898 0.093007945 -0.032394294 0.0040613213 0.052172568 -0.035080213 -0.0078943018 0.079372205 -0.00029974984 0.026986344 -0.066674121 0.023029305 -0.076621749 0.089897633 0.10684375 0.089482531 0.028896654 0.075520642 -0.062618971 0.09479592 -0.097593799 0.055135965 0.11465794 -0.050724126 -0.044679374 -0.064104803 -0.027056286 -0.0098289056 -0.10618761 -0.096572287 0.029235646 -0.02121792 -0.073152274 0.058381889 -0.06028134 -0.0425856 0.0083892532 -0.074388534 -0.050536104 0.088770352 -0.083226345 -0.054014515 0.084193207 -0.057576686 -0.069301039 -0.023283321 0.080553241 0.076452583 -0.067071803 0.10667465 -0.062070124 0.0056721354 -0.046042491 -0.077376589 -0.051221129 0.026449762 -0.0054262918 -0.11186269 0.052807383 -0.058443978 0.086097725 0.030799685 0.083556391 -0.093184963 0.028953195 -0.018138664 -0.0051676431 -0.027248973 -0.10265087 0.059385691 0.075351447 -0.030121094 0.089729756 -0.006033957 -0.10261334 0.06505245 0.02089702 0.020609945 0.054489978 0.075704932 -0.080710135 -0.046350468 0.019319385 -0.010258399 -0.089782894 0.10989998 -0.071715578 -0.099028803 0.00041361389 0.091183014 0.021580767 0.10703962 -0.049641792 0.069179356 0.065176696 0.10263547 -0.074268699 -0.059538562 -0.11167184 0.089365169 -0.030377965 -0.013596514 -0.047446828 0.00076600193 -0.033756513 -0.024773598 0.03665521 0.086998269 -0.090556465 -0.1019556 0.090566486 0.08157938 0.034216039 0.063721217 0.11275378 -0.079661563 0.10765893 0.084416144 -0.031500559 -0.1027054 -0.033833645 -0.0024485399 0.049938999 0.025688849 0.0093596401 0.049300864 0.063406445 -0.07676778 -0.081579842 0.0012794221 0.094116785 -0.061540134 -0.087754399 0.10121477 0.1109442 -0.045721676 0.037468705 -0.096435986 -0.029697115 0.054856963 0.05353285 0.021477483 0.062320728 -0.013472631 0.002440708 -0.040579893 -0.059116013 0.068030924 -0.018796839 0.017047724 0.075018734 0.039593354 -0.082129598 0.054101009 0.019585891 0.0058237608 -0.04664946 -0.003651263 -0.034901842 -0.082869962 0.0013118589 0.11242751 0.036951162 -0.053048845 0.015350759 -0.081288412 0.063487478 0.033657242 0.041373208 -0.025542205 -0.053338222 0.0014585892 0.060376722 -0.086785831 -0.097597748 0.053776182 -0.025775926 -0.095905684 -0.028334863 0.0014152729 0.030285893 0.085442238 0.0038624944 -0.037904963 0.090576679 0.0538675 0.066422649 0.034640737 0.048610926 -0.025578605 0.045757115 0.044545136 0.01970513 0.04583301 -0.036206666 0.07442715 0.062895641 -0.092436872 -0.079578042 0.0097604198 -0.077763677 0.030175064 0.072802708 0.10752486 -0.015642419 0.074909568 -0.029018486 -0.072772227 0.099943757 -0.011113912 -0.087476991 -0.044741325 -0.091061503 0.031576212 0.043204758 -0.0085638789 0.022989139 -0.073345624 0.087826394 0.0071887956 0.0032471856 0.039068628 0.09205088 -0.028311785 -0.087253898 0.092395067 0.050159283 0.0424245 0.11189887 -0.032247704 -0.090143539 0.094106488 0.021379765 0.063332178 -0.039239716 -0.11613635 -0.052266482 -0.066376589 0.045054011 0.042561941 0.0099395383 0.036107935 -0.047177818 0.0043836208 0.068339154 0.050621465 0.021556417 -0.082130894 -0.017396132 0.10854936 0.0088606095 -0.05222366 0.085399114 -0.0030377195 -0.09692625 0.0050859088 -0.069230705 0.021458894 -0.00086620846 0.085615009 -0.073168382 0.0330869 -0.055187937 0.078864157 -0.012806845 -0.028791042 -0.077449024 0.032303911 -0.083289012 0.0023957104 -0.070183471 0.085930102 0.03236204 -0.07716462 0.088207848 -0.074049123 -0.0072326171 0.0611047 -0.10208058 -0.10258113 -0.031701885 -0.1119324 0.027408231 0.027720444 -0.068812214 -0.085108943 -0.079601392 0.0071261055 -0.033830248 -0.046795767 0.065750048 -0.021077942 -0.11650188 0.071870521 0.0055828393 -0.011070991 0.079239085 0.044557154 0.078900695 0.081706174 -0.080003589 0.049446464 -0.0543091 -0.016400825 0.0052189184 0.086288974 0.011933644 0.10120915 -0.061271537 -0.058015808 -0.020213554 -0.10571882 -0.092078656 -0.02916047 -0.046395242 -0.020229222 -0.1002941 0.0055133807 0.0082691843 -0.10902111 0.083798163 -0.0039421599 0.041812405 0.010909749 0.01664944 -0.091694094 -0.017073203 0.012579379 0.032831393 -0.079394154 0.060894828 0.090129197 0.054261338 0.017699214 -0.10325391 0.048841782 0.010893842 -0.024362082 0.040904246 0.021340484 -0.027279869 -0.095412463 0.023648765 -0.020752214 0.0036696536 0.0051467274 0.0053667692 0.062144384 0.047598869 -0.047412626 -0.026407639 -0.057118107 -0.010816626 0.010039423 0.031855483 -0.075205065 -0.024840254 0.031851679 0.059761513 -0.055084627 -0.073027246 -0.0017094089 -0.040580574 0.092759266 0.030873224 -0.017561849 -0.084547751 0.0062600742 0.00646252 -0.010179171 -0.021379054 -0.083796397 -0.05843005 0.0083632153 0.029665908 0.0075219031 -0.10633857 -0.054628231 0.088485792 -0.064883828 0.087984294 -0.0888329 0.067175299 -0.019399108 -0.023435786 0.10322497 0.11048742 0.02535907 -0.076596051 0.096455529 -0.046160046 0.029364867 -0.097119272 -0.018958734 -0.016884258 -0.082903355 0.0080010789 -0.05768558 -0.07087592 0.079421178 -0.098282069 0.094585113 -0.0099478709 -0.00069985678 -0.064256012 0.072667412 -0.045544684 0.015197895 -0.03289682 0.027773123 0.071230873 0.064587839 -0.084448777 0.057218701 0.045970052 -0.039485358 -0.037834659 -0.01945539 -0.062455442 0.04419544 0.066791013 -0.046286464 -0.095509827 0.063818321 -0.038130507 -0.086152427 0.052007277 -0.0081323758 -0.008460734 -0.08292146 -0.042572882 -0.02720619 -0.10821067 -0.041153524 -0.032682061 -0.021450309 -0.0077852481 -0.053359348 0.041102897 0.066845328 0.038564585 0.062552437 -0.028746823 0.09174373 -0.07268133 -0.043145619 -0.040600799 -0.082410067 0.038903423 0.090946518 -0.0027997068 -0.088538893 0.10074966 0.061715074 -0.03852516 -0.1120793 0.10955589 0.051827911 0.057188626 -0.064041734 0.094534941 -0.017000189 -0.079201259 -0.10264277 0.065520845 0.079738759 -0.10280409 0.09846735 0.030970547 -0.026682749 -0.049205601 -0.028633025 0.0017875056 -0.086162813 0.087306425 0.079592206 -0.061345477 0.079751462 0.084593788 -0.082703628 -0.040751748 0.065027818 -0.031834401 0.069304325 -0.093256645 0.014430963 0.016204223 0.01036123 -0.030231182 0.0057355976 -0.087159947 -0.091355294 -0.085825711 -0.068806581 -0.069953702 0.056644809 0.0115768 0.085523322 0.048807193 0.075213037 0.055618417 -0.04550381 0.00097036565 0.060010377 0.0058770911 -0.060435303 -0.097420149 -0.096490234 -0.089726783 -0.085103899 0.016688349 -0.050798882 -0.0621606 -0.041366253 0.076943286 -0.065559745 -0.0074570524 0.068263099 -0.019526221 -0.026665829 -0.096975543 0.053069063 0.10818225 -0.067717999 0.049437329 -0.012891167 0.043706004 -0.07647714 0.039904281 0.099539146 0.095249899 0.064793676 0.0093336711 -0.032709036 0.095731869 -0.08450336 -0.06310305 -0.042957228 0.095414154 0.073869668 -0.05329822 0.02731448 0.0054816608 0.027786804 0.049365111 -0.0085545257 -0.076167472 -0.11476874 -0.041403558 -0.1020629 -0.029688381 -0.058241311 0.072141387 0.089403816 0.10520858 -0.023736026 0.046277273 -0.0055449102 -0.0073371464 -0.099291578 -0.033216693 0.071415864 -0.077126101 0.098444149 0.06332133 0.08231961 0.099707633 0.096664168 -0.041116245 0.013736602 0.098780617 -0.071617618 -0.068360373 0.0063379859 -0.05008601 -0.098228648 -0.0074651428 -0.097647458 -0.067018248 0.041721255 -0.036650747 0.028126219 -0.11839758 0.049933642 -0.054799281 -0.0084510678 0.066694692 0.054992247 -0.014394098 -0.065820225 -0.085797161 -0.063566431 -0.055979129 0.067445427 0.050118711 0.021008959 -0.0040826173 -0.051931478 -0.04973409 0.039859723 -0.018164841 -0.080373257 -0.001830832 -0.082223669 0.014563029 -0.050561108 0.083271548 0.025112091 -0.026151242 -0.033756185 -0.0007193918 -0.050247356 -0.028123859 0.094879054 -0.095869184 -0.013955656 -0.053387802 -0.072951637 -0.046492521 -0.057111148 -0.062796228 -0.0073393243 0.058902238 0.068848096 0.11054066 0.049852684 -0.027530238 -0.011761273 -0.0083818072 -0.062260892 0.062849067 0.00023638697 0.045842823 0.012062145 0.046689011 -0.067733511 -0.091812924 0.095045052 -0.061531879 -0.052379631 0.010680608 0.049915921 -0.071262062 0.083490193 -0.10157854 -0.03927106 0.062252048 -0.0002398928 0.1026955 -0.045800395 0.02750418 -0.053102482 0.078015983 -0.095188513 -0.069930479 -0.058662884 -0.015836472 -0.090391003 0.084234148 -0.046434574 0.025098355 0.08338277 -0.021854891 0.059950612 0.077493377 0.0066571413 -0.10906362 0.059609868 -0.073833309 0.0620193 0.022486521 0.0640129 -0.038829356 -0.053950984 -0.082277223 0.098124214 -0.029511444 -0.036921158 -0.06275595 0.091512948 0.049750917 0.092227519 0.063340858 0.053931151 -0.010495283 -0.021070335 0.048958737 0.08681871 -0.031247344 -0.068356104 0.040333401 7.5003081e-06 -0.080998436 0.075587675 -0.058501996 0.073910013 -0.070794508 0.096070446 -0.092918135 -0.050298322 0.087314278 0.1078719 -0.012779 0.078647375 0.0077244514 -0.015193201 -0.040011272 -0.029720766 0.076733135 0.089262582 0.078478709 0.077398255 0.014461637 0.027832421 0.024746856 0.10237113 0.0090795606 -0.046140119 -0.10478359 -0.075515985 -0.053519867 -0.077363387 0.10361063 0.070378922 -0.038286421 -0.012083509 0.054971822 0.038612694 0.056047797 -0.076796785 -0.038947802 -0.077657945 0.042889185 0.01249263 0.0075321607 -0.013920728 0.054311946 -0.070226848 -0.040360041 -0.047768913 0.045576286 0.049167477 0.029732047 0.037776615 0.060744513 0.05699876 -0.0050980188 -0.044043049 0.068304054 -0.065626569 -0.044610832 -0.077863984 -0.078147717 -0.076938555 0.043628063 0.080501817 0.068133317 -0.082725473 0.0056036822 0.040530898 0.064004593 0.094663441 0.005580808 -0.0023704204 -0.069502257 -0.016836073 -0.084810957 0.063391604 -0.030597968 0.078049503 -0.069855079 -0.0079630259 -0.010337939 -0.039525304 -0.0076918388 -0.035503376 0.010369914 -6.544128e-05 0.010471783 -0.0087771807 0.0090679629 -0.031250138 0.021894041 0.0053549372 -0.021145293 0.015308079 0.01387859 -0.075385183 -0.043589752 0.078095168 0.09783715 0.035398815 0.067599274 -0.091632441 0.10153095 -0.026931614 -0.013853588 0.021909758 -0.033748381 -0.050585054 -0.045037765 -0.087319829 -0.089551449 -0.097444728 -0.028393263 0.035854977 0.054159392 0.025399938 -0.052320629 0.011414312 0.070797451 0.059760306 0.093277827 0.035189077 0.022625558 -0.076398343 0.040955696 -0.061555073 0.10378361 0.041237433 -0.061841402 -0.087435246 0.044145193 0.089293204 0.014562634 0.060100399 -0.02329213 0.028496016 -0.04880698 -0.046363849 -0.056779534 0.046182591 0.034409836 -0.0055730678 0.012921705 0.084189616 -0.091036811 -0.087771885 0.067939937 -0.056123856 -0.087756887 0.10444751 0.024403123 -0.035594221 -0.032439265 -0.040260389 0.010897791 0.0041107675 -0.063218869 -0.087972477 0.093973674 -0.065798163 0.010304609 -0.10800614 0.012900707 0.010250594 0.02161324 -0.040640257 0.059740525 -0.051735394 -0.015768731 0.075319469 -0.096920021 0.037220318 0.012568732 -0.082985997 0.018707866 -0.063495673 0.044909872 -0.0044470881 -0.05007866 -0.093169376 0.060881648 -0.054862007 0.099114768 -0.074266136 0.078255832 0.01571402 0.087134935 0.0043665492 -0.012943015 0.078983583 -0.086231507 -0.049431827 0.014068631 -0.0024158983 0.02457737 0.076802634 0.048031785 0.081446849 0.05152189 -0.066618331 -0.063624665 -0.03577017 0.0077448045 -0.032134343 0.08677578 -0.035828367 -0.0036053469 -0.073691785 -0.036292177 -0.012220008 -0.013153749 0.076182447 0.019431813 0.082499512 0.043911289 0.066937059 -0.029897576 -0.085520767 0.069397904 0.082312912 0.094676413 -0.077631094 0.012013588 -0.080799051 -0.00060948567 0.036679812 -0.025431745 0.045483787 -0.086971879 0.051685933 0.074651681 0.043119445 -0.001418694 -0.055164937 0.049926724 -0.031969715 -0.0052944883 0.016323479 -0.0019070939 0.090377755 -0.071245432 -0.080674246 0.072161853 -0.080631889 -0.052435879 -0.053786766 -0.053936295 -0.027279418 0.080584936 0.01283255 -0.025879811 0.069535986 0.02269984 -0.040566362 0.018015055 0.012458294 -0.031689797 -0.059881009 -0.018424237 -0.07956852 0.073801726 -0.023823401 -0.10227575 0.053372297 0.031629361 0.017028414 -0.05095154 0.062085446 -0.01358357 -0.053228844 -0.011203353 0.074308358 -0.06380038 0.074652806 -0.065170586 0.024090033 0.092871867 -0.09231846 -0.062488791 -0.10078068 -0.08636146 0.049111288 0.09196461 -0.081272103 0.060386982 0.065574251 0.069577657 0.0028886769 0.0074087423 -0.10923918 -0.075065635 0.072183333 -0.10542347 -0.06199367 -0.035528243 -0.043786585 -0.072643317 -0.080906607 0.053455256 -0.042019062 -0.067133591 -0.10457247 -0.10136102 -0.083471186 -0.028312914 0.037866525 0.030153077 -0.044531919 -0.095592551 -0.0023718211 0.029423157 -0.038897503 -0.08668033 0.078168593 -0.080547407 0.017551364 -0.10270494 0.021841668 0.022796892 -0.053800609 0.067823991 -0.018337289 0.082776248 -0.056027569 -0.051862169 0.069236025 -0.036746569 -0.05346011 -0.048910752 0.060517095 0.049149498 -0.006127133 -0.10794847 -0.097485945 0.08409524 -0.042908408 -0.096952073 0.04151018 0.023323443 -0.04415147 -0.10072696 0.011277962 0.051791139 -0.0057797381 -0.049072657 0.026493767 0.06555514 0.0045621749 0.0073745106 -0.047982439 0.030213403 0.01408021 0.037219904 0.086713284 0.07125394 0.050495826 -0.099831492 0.039287351 0.067088366 0.060951132 -0.074901536 0.01195044 -0.023965197 -0.01826795 0.028235521 -0.097716607 -0.078059107 -0.030069642 0.070226789 0.048516084 -0.091580838 0.1139069 -0.040922523 0.010817303 0.10914293 0.059155975 -0.040219169 0.098024607 -0.1005605 0.018045835 0.11111798 0.10634493 0.075039372 0.029131146 0.089802109 -0.048251931 -0.093246631 -0.090102129 0.034551393 0.0045786891 -0.10732513 0.022600945 -0.025881164 -0.0023027619 0.085845597 -0.034098405 -0.10573583 -0.07084664 0.085462771 0.032580584 -0.091948651 0.0034095303 -0.096017316 -0.019229533 0.048687592 -0.058706488 0.087433167 0.059883125 0.066478215 -0.064063229 -0.047760691 -0.022121232 0.087615661 -0.0027516715 -0.056266785 -0.02425275 -0.057064541 -0.11739627 0.098425955 0.069947191 -0.065354824 0.072574206 0.033917792 -0.068971328 0.024628127 0.0082568275 0.04177266 0.061754428 0.00041959962 -0.030789208 -0.086753167 0.063285917 -0.014497817 -0.092490532 0.087202072 0.097886518 -0.066306256 0.089039549 -0.042134825 -0.028235441 -0.036552124 0.01388283 -0.077276558 0.065547228 -0.094979659 -0.02208863 0.015053818 0.0094744675 -0.092522591 -0.007328582 0.054901522 0.089801677 0.03825704 0.040894073 -0.11038761 -0.047318224 0.057153895 -0.10243081 -0.041122682 0.063624687 0.061780579 0.032130856 0.036478136 0.00081670348 0.0078502754 -0.098287851 -0.012715712 0.019113749 -0.079023682 -0.084217794 -0.021745663 -0.0080751618 -0.075356819 -0.017812861 0.069479555 -0.056526203 -0.064799458 -0.021750722 -0.068505943 0.085137732 0.0053032828 -0.055209387 0.0099686384 -0.027375041 0.0033858514 0.089077458 0.082558192 0.0061043082 0.017511796 0.073628776 0.058226317 0.046257939 0.027006891 0.062320523 0.0041292408 -0.05465246 0.041814927 0.066516042 -0.0958459 0.077641509 0.034037907 -0.074925132 -0.077389553 0.055496324 -0.02355158 -0.074816182 -0.089466386 0.036137596 -0.020530501 0.032398485 -0.078718908 0.093139507 0.023876958 -0.064749599 -0.10148076 0.040878303 0.083610803 0.076469436 0.079948239 -0.09662997 -0.04949927 0.054201063 0.084758669 0.034954753 -0.029267652 0.022613052 -0.030673383 -0.082790107 0.0059411433 0.09305162 -0.016013514 -0.0051253629 0.024657983 0.07998275 -0.0031797674 0.081421055 0.039969154 -0.060225271 0.056932401 0.0896217 0.081855394 0.045564245 0.080111705 0.029992253 0.045028731 -0.021389153 0.0020815362 -0.073814198 -0.027826265 -0.10673402 0.0076919016 0.071518756 0.0072738794 0.088557601 -0.059042815 -0.041170731 0.00060254888 0.031733353 -0.089118436 0.060023196 -0.026082693 -0.026509771 0.082191557 0.032954894 0.017341001 0.0055622812 0.06134465 0.098314323 0.058877435 0.096020803 -0.021055117 0.044202387 -0.076310098 -0.047673561 0.035919875 -0.092713118 0.041014068 0.033695091 -0.012005659 -0.038497251 0.029132316 -0.047969487 0.051889125 -0.036097921 0.020925988 -0.049195394 0.033991184 -0.029905424 -0.050169919 -0.039567638 -0.011745881 0.074201457 0.0053760558 -0.098028466 -0.058882482 -0.025446553 0.044217337 0.007601724 0.077138983 -0.0093756439 -0.053719949 -0.10022558 0.078093596 0.0138422 0.082355432 -0.018302275 0.018081695 -0.086616196 -0.033771273 0.088995956 -0.044156093 -0.080809385 -0.019527864 0.019924805 0.074978694 0.059323441 -0.0089651775 -0.094125681 -0.044870444 -0.017386517 -0.07605195 -0.061487567 -0.025896873 0.083524927 -0.038850021 0.021106327 -0.04049968 -0.081260048 -0.086372986 -0.095834889 0.092750371 0.0032375467 0.096534662 -0.063596621 0.049051654 0.032199297 -0.098745771 0.030644519 0.0028480496 -0.0024097865 0.092696264 -0.087118484 -0.10239119 -0.097514614 0.068778984 0.029982153 0.077535585 0.070359558 0.010555868 0.08281336 0.020463027 0.061595611 -0.032399334 -0.017679129 -0.0079996306 -0.0095788734 -0.07227125 -0.029224871 0.0092201438 0.038423102 -0.078418382 0.060376775 -0.017479744 0.020788895 -0.0039086854 0.051939245 0.018405821 -0.029304244 -0.081910841 -0.029525597 -0.031273767 0.0051211161 -0.030079724 0.086683162 -0.082868285 -0.10175662 0.075259984 0.059617847 -0.0077813384 0.079745352 -0.036504656 0.04986155 -0.060305323 0.088368855 0.099316098 -0.087082848 0.015193455 -0.0094491085 -0.097295843 -0.050821133 -0.056657113 -0.0024349266 -0.0017126957 -0.011930513 0.021444844 0.0086444821 -0.079576224 0.062964179 0.04250038 0.093728364 0.045633342 -0.037121143 0.041396435 0.064236462 -0.053450152 0.059499364 -0.012996487 -0.010373035 0.036736079 -0.045805313 0.0099682417 0.014019244 -0.081807151 0.047842659 -0.07871373 -0.026136003 0.056608759 0.064722799 -0.084472023 -0.061622962 0.014942911 -0.05402039 -0.094979145 -0.036653448 -0.091440395 -0.050382461 0.021370783 0.09354569 -0.093931012 -0.073110685 -0.041585568 0.038757425 0.052204452 -0.056204211 0.031179719 -0.011510987 0.040501464 0.043098103 -0.086487696 0.023666313 -0.098190404 -0.072642669 0.048311699 0.092179976 0.050309062 0.059759554 -0.0066414401 0.040534511 -0.064809449 0.050537143 0.082447022 -0.063541785 0.050666783 0.098346591 -0.011547673 0.098158389 -0.061167207 0.10033365 -0.090965174 -0.012772098 0.028217027 0.067542918 0.097565219 -0.097271353 0.013603131 0.088118032 0.1046137 0.027201012 0.018582961 -0.042673275 0.063798174 0.058684699 -0.040629413 0.083800964 -0.060207691 0.0082209716 -0.094535597 -0.091803618 0.10715706 -0.038580637 0.02080431 -0.012408607 -0.033780705 -0.07379166 -0.046893053 0.077183343 -0.083995521 -0.037099533 -0.014140196 0.087294474 -0.06748309 -0.049968429 -0.046919003 0.029386152 0.032664917 -0.017455224 -0.018762423 -0.029191958 0.083836205 0.038083822 -0.025144666 -0.070186526 0.030130396 -0.022113573 0.086080633 -0.099953175 0.02116712 -0.045679517 0.020012951 -0.037942991 0.027793871 0.061704505 -0.074743569 -0.10376932 0.015034962 -0.099450015 0.0026402276 -0.080205597 0.080880098 0.030151915 0.076444343 0.04496621 -0.071494341 -0.04821438 0.089215413 0.015445799 -0.070622645 0.030628571 0.031078715 -0.078349799 -0.027109964 -0.072243743 0.064679086 0.028742323 -0.0057486109 0.043336228 -0.018826513 0.037423097 -0.056225162 -0.085021801 0.030449562 0.0086156437 -0.028169047 -0.057884734 -0.095092081 0.084835254 -0.0058969315 -0.09571097 -0.056401443 -0.014615547 -0.018540876 -0.061144833 -0.025583299 0.031686828 -0.064875565 -0.069665499 -0.065159433 -0.0354774 0.038755931 0.073757358 -0.020667253 0.023714542 0.076995485 -0.077863321 -0.015029657 0.0095842453 0.011427945 -0.0060014958 0.023297459 0.028920857 0.079309575 0.077943236 -0.07837674 -0.048892997 0.017860884 0.037997186 0.089386761 -0.045241397 0.034346186 -0.041455638 0.038048185 0.0023639197 -0.073497534 -0.074812286 -0.05932362 0.046471059 0.094665006 -0.078480527 0.089826092 0.014318866 0.0060266135 -0.022312654 -0.075243995 0.091633826 0.00017425996 -0.097654529 0.007793006 -0.079979166 0.041636914 0.014126258 0.01493205 0.10004664 0.03257291 0.02566074 -0.04987989 -0.070869841 0.027994933 -0.010754009 0.014130361 0.069748558 0.089736432 0.014438551 -0.067590535 -0.016343651 0.011499474 0.096461535 0.10572064 0.10145995 0.078245915 -0.078853495 -0.08110977 0.009482977 -0.038318664 0.065031178 0.0071017146 0.051593367 0.079988852 -0.092612147 0.042099286 0.025142116 0.053497247 -0.021715505 -0.077253759 -0.019809367 0.056354187 -0.028401652 0.10189639 0.040620521 -0.019391391 -0.074574932 -0.091129363 0.053339824 -0.070869453 0.045140214 0.086034782 -0.066497065 0.057836235 -0.074153624 -0.072815411 0.050095879 -0.035579741 -0.062700674 -0.0041574137 0.0021677609 -0.047142815 0.059421085 -0.11425564 0.018523289 0.0045064809 0.042095676 -0.01997548 -0.041255057 -0.093929015 -0.023553954 -0.10018576 0.086677216 -0.010342404 0.10664604 -0.033333208 -0.0077454401 0.00073513249 -0.059611343 0.0082531543 0.087420642 0.041915104 -0.048832577 0.034829486 0.035900012 0.092056863 0.022433039 -0.081017762 -0.01883794 0.0023802218 0.013126514 -0.055231068 -0.090709433 0.098587863 -0.03844336 -0.098052785 0.012568938 -0.026688347 0.0070063304 0.073543876 -0.0073936856 -0.041474953 -0.045777425 0.040886395 0.047001295 0.036004655 0.012088248 -0.0072107962 -0.047080278 0.084006511 -0.056597285 0.10206366 0.038938411 0.052630693 -0.09138681 -0.042843711 0.0010887454 0.091130637 -0.077823982 -0.019951047 0.067899883 0.068896346 -0.081786059 0.089138195 -0.0096694902 0.027605547 0.0038318823 -0.031771362 0.028073469 0.036025736 0.098269649 0.049498536 0.032604843 -0.014032165 -0.016100455 0.067687877 0.083347537 0.10184091 0.063397668 0.11003685 0.040216617 -0.061196778 0.091359571 0.074024215 0.05855114 -0.069113553 -0.067635 -0.031466771 -0.080971852 -0.081826776 0.0020518429 0.01489277 -0.083900884 0.089632221 -0.042398673 0.10455094 0.028644003 -0.0047250348 -0.082018279 0.0095222928 -0.063919231 0.057319984 -0.095967256 0.061106078 0.053990453 -0.064302824 0.07072255 -0.035643924 0.047281742 -0.10478683 0.018710965 0.039146196 0.071296223 0.10164885 0.10486156 0.091751456 0.080358744 -0.035480849 -0.090564243 0.029219311 -0.07249745 -0.041166063 0.064498156 -0.014243846 0.079910062 -0.10467623 -0.09951558 -0.041212656 0.085487314 0.028824195 0.081207506 0.060900938 0.021386037 -0.018266058 -0.040398948 0.093374357 0.074280977 -0.066523716 -0.042625159 -0.01628913 0.021351242 -0.073113486 0.026654897 0.047871307 0.059738114 -0.0361211 -0.032839961 -0.011166984 0.051822968 0.10675503 0.092244171 -0.091433696 0.028999534 0.048055079 0.065627985 -0.090920798 -0.06504266 -0.094224282 -0.036872737 0.0008207403 -0.0038817148 -0.06523031 0.074588463 -0.091252066 -0.034679763 -0.04398337 0.032300223 -0.082642987 -0.064837374 0.024422908 -0.034488447 0.085070953 -0.053010717 0.00096239056 -0.015096322 -0.011747585 0.071479239 -0.043837223 -0.051153447 0.075599819 0.083053067 -0.072729357 0.017073195 0.056280617 0.019790104 -0.077344388 -0.092389077 0.026420336 -0.013391531 -0.062297955 -0.066975936 -0.011539931 -0.08900667 0.037097286 0.1089682 -0.090737596 0.062813491 0.022065001 0.03139101 -0.041203469 -0.073454678 -0.029864043 -0.097003922 -0.066862464 0.0075597791 -0.01032853 0.063409805 -0.056648336 0.042425331 0.080541663 -0.055249669 -0.086252898 -0.049223661 -0.0029735225 -0.018675083 0.016875377 0.036895428 0.045534477 -0.011907157 -0.01750225 -0.090981998 -0.023931392 -0.0016274417 -0.00038992579 -0.069802254 -0.028591918 0.038559165 0.087188661 -0.089499734 -0.087892458 0.013815167 0.057845633 -0.013427021 -0.10403536 -0.056191556 -0.086750127 0.0048325956 -0.011044007 -0.094053484 0.032749344 -0.076251529 -0.020782217 -0.017074773 -0.029545909 -0.090475731 0.070299931 0.030571159 -0.062950745 -0.10620348 0.061487302 0.10043265 -0.018153733 0.0041034156 -0.068123721 0.044996772 0.0074950974 0.085290886 0.065815322 -0.061158817 -0.045380443 -0.018971397 0.11050265 0.078971304 -0.083640873 0.044688404 0.078384891 0.036379706 0.029152809 0.050018236 0.094032072 -0.012618496 0.0049229395 -0.01364632 0.023786256 0.038755484 0.011290629 0.070029996 0.040633261 -0.046384279 0.040963322 -0.021227807 0.02681662 -0.095124565 0.093515687 -0.043468826 0.0055572297 -0.032228939 0.0672094 -0.076831356 -0.098125435 -0.0035546732 0.021374952 -0.08513619 0.027083477 0.046562448 0.019716688 -0.092590399 -0.0024148347 -0.040304627 0.057516981 -0.06719932 0.064488851 -0.076584324 0.011800274 -0.0021739956 -0.10408118 -0.047610737 0.077041961 0.021036875 -0.077675983 -0.033793941 0.056068067 0.10318246 0.095315963 -0.028758997 -0.029566856 -0.054520059 -0.091619305 0.032892559 -0.092541218 0.050530698 -0.0035013023 0.015834752 0.04659266 0.090503111 0.010342655 -0.037620261 -0.083262891 0.089231253 -0.056847915 -0.02592249 -0.058294084 -0.0038576776 -0.070174128 0.033332214 -0.018846015 0.081087843 0.048138186 0.059125844 -0.012110715 -0.094574347 -0.036824025 -0.070168018 0.050209515 0.032956913 0.062869586 0.045996446 0.1083533 -0.081200421 0.085500136 0.033673286 -0.031427413 0.0068219407 0.04870259 -0.092425689 -0.059700761 -0.0047720298 -0.010541364 0.046609823 0.024265714 -0.052183174 0.071285576 0.074918024 -0.018750152 0.077108599 -0.019972866 -0.033177141 -0.064483196 -0.066839844 0.029557068 -0.076969363 -0.087332621 -0.0479527 -0.053040672 -0.035688706 0.025400829 0.073813893 -0.028884044 0.068774775 0.072468311 0.056773141 0.10746974 0.08386302 -0.069810063 -0.03034823 -0.053743292 0.055075638 -0.019589446 -0.044786468 -0.073974401 -0.014517997 0.03534282 0.029090179 -0.0057725864 -0.0018273433 0.08135359 -0.058731664 0.023910699 -0.059216324 -0.049126823 -0.097439677 0.058663435 -0.019638747 0.050478414 0.081266686 0.010323802 -0.010977902 0.10370043 -0.0091175186 0.099873297 0.049722392 0.0663931 0.085259423 -0.10468629 -0.013303332 -0.013810908 -0.087016977 0.053347304 0.073016942 -0.091378629 0.092195153 -0.062062304 -0.028068125 0.011761753 0.06173303 0.02948907 -0.062783182 0.07941021 0.045473494 0.068578772 -0.0085715083 -0.015334614 0.062620446 0.076540954 0.090994701 -0.045314893 -0.016728338 0.079035945 -0.087967321 -0.05555319 -0.076820396 0.021391843 -0.031388912 -0.076189317 -0.080234379 -0.092245884 0.047500413 -0.016051101 0.059673246 0.0049203373 -0.041416582 -0.036289092 -0.056879159 -0.027890267 0.022384007 0.024294864 0.023841079 -0.0730092 -0.056122698 -0.10782141 -0.0052219341 0.01065745 -0.058996152 0.028522503 -0.073265351 0.00013893498 -0.017100129 -0.008936136 0.013629668 0.046387665 0.043888345 -0.060183432 -0.0017585201 -0.053645611 -0.020508902 0.061116807 -0.025607685 -0.019784659 0.0036334351 0.056457512 0.087400466 0.0093112737 -0.050670832 0.052387059 0.069271691 0.068579778 -0.088893145 0.022851743 0.05978699 -0.060889125 -0.031009486 -0.054812852 0.06541796 -0.049478117 -0.074756265 -0.013380729 0.086703755 0.089205615 -0.10170582 -0.075334132 -0.063533157 -0.094089642 -0.043198541 0.10687607 -0.11040909 -0.040152151 -0.082705095 0.0082465503 0.088340849 0.074233323 0.0066676652 0.08284121 0.060854062 0.076375484 -0.048412956 -0.054087747 -0.051169246 -0.041283369 0.019705988 -0.049084831 0.044420455 0.025505489 -0.041842364 0.10256133 0.016187442 0.072546273 -0.066243745 -0.012177861 -0.016553029 -0.10963531 -0.074607939 0.055933405 0.10362602 0.037898604 0.061201427 -0.00034781336 -0.026410088 0.096038349 0.02145707 0.094515517 0.010058157 -0.051543128 -0.077742599 0.055029977 -0.063559696 0.04968584 0.086795308 -0.068247169 0.085591875 0.099763937 0.033401899 -0.028670907 0.028115707 -0.0095379222 -0.068112805 -0.057760943 -0.021263774 0.098066784 -0.048738513 -0.098209254 -0.08175724 -0.074113362 -0.036757316 -0.02285024 -0.08078558 -0.072718285 -0.079774097 -0.074328065 0.11164325 0.085424736 0.0126825 0.081686549 -0.052205313 0.10025633 0.11247195 0.11374459 0.092410766 -0.087330893 -0.0097095612 0.052529067 -0.04660989 0.0020490142 -0.072853982 0.067073263 -0.073752344 -0.016323792 -0.085764788 -0.0093442369 -0.014301163 -0.049316321 -0.06526269 0.022727815 0.018335529 0.084133051 -0.016229635 -0.021096306 0.021281412 0.065427266 -0.033621505 0.052945808 0.082214639 0.094128281 -0.091010466 -0.076728091 -0.0064941943 0.083650656 0.031422373 -0.03454433 0.048197757 -0.095194206 -0.005044831 -0.086361617 -0.06335935 -0.0019429354 0.020110253 -0.056536332 0.016042165 0.0068157408 0.07082101 0.0076005352 0.070517354 -0.094908781 -0.070808925 0.044498112 0.085770912 -0.041214608 -0.038996957 -0.06828022 0.10110876 0.075112976 0.042654589 -0.1048623 0.064508721 -0.0097411517 0.10774706 0.0096637262 -0.075462565 -0.072242953 0.10413296 0.014598596 0.0090065571 0.035575293 -0.03643883 0.043211516 0.043593809 -0.069018647 -0.040766142 0.0053508873 -0.071976185 -0.024902062 -0.086501554 -0.059577093 0.097122803 0.042445216 -0.058856826 -0.035242002 -0.059502535 -0.092390075 -0.011139037 0.047471203 -0.083612472 0.054281157 0.04831088 -0.025648814 -0.047572225 -0.11635925 -0.075675622 -0.074401699 -0.0047393255 -0.022757882 0.040124066 0.084920846 -0.045198955 0.030945377 -0.082663946 0.096612871 -0.067326918 0.0051569524 0.023352414 0.10939746 0.020177325 -0.0033218923 -0.031206705 -0.01711298 0.054220289 -0.095741354 -0.0018337618 0.012285598 0.068165854 0.02977168 0.026282338 0.002171122 -0.0072089313 -0.10534536 -0.052807398 0.055340223 -0.063163653 0.071604654 0.081222244 -0.012800545 -0.084832795 -0.073045753 0.086328007 0.044682667 0.042401917 0.085522868 0.0076818252 0.071344569 -0.084230915 0.027972979 -0.004036441 0.0076669576 0.0068825809 -0.01659416 0.040623818 -0.0083558224 0.035392217 -0.037508909 -0.040792562 -0.031510282 0.036705118 -0.025257396 0.038514841 0.051856659 -0.078077465 -0.10981585 0.050873689 0.10562254 -0.054241769 0.035839226 0.091896713 -0.060425401 -0.046485353 -0.072943047 0.078535423 -0.077200972 -0.015009436 -0.062031846 -0.018129367 -0.01212635 -0.031214444 -0.057245918 0.080490753 0.0623479 -0.020101629 -0.058411114 0.074558578 -0.080966771 0.0016056777 0.018493364 -0.066564135 -0.097060919 0.017496858 0.0529132 -0.0065133492 -0.025361981 -0.047958095 -0.089710549 -0.095631525 -0.043397013 0.05627314 0.063149393 0.032804672 0.04029787 -0.084799767 0.11115547 -0.091222063 0.099534683 -0.08378204 -0.061599329 -0.060951222 -0.078247629 -0.019625127 0.10297831 -0.025495458 0.035873622 0.061475921 0.033078644 0.025836285 0.044697635 0.080379754 -0.073888518 -0.027813263 -0.01417744 0.088657297 -0.037905376 0.019698819 0.019380836 -0.063287154 -0.045373928 -0.071088001 0.076919064 -0.057663556 0.064039737 0.037442457 0.042191893 -0.013383754 -0.06106757 -0.033320498 -0.080132298 -0.011101936 0.1058392 -0.034110293 0.058090847 0.032289408 -0.076662414 -0.069243565 -0.064046495 0.054471418 0.08286503 -0.095952742 -0.059647322 -0.086904325 0.087298773 0.074706979 -0.095618211 -0.00791883 -0.073628113 -0.0080030868 -0.047831692 -0.035580218 0.089436032 0.076013222 0.083511598 -0.019449933 -0.050110728 0.090212636 0.075516626 -0.092188105 0.025639271 -0.10530227 -0.038847294 -0.061305821 0.07855735 -0.068690524 -0.09082225 -0.0998092 0.092414491 -0.080786973 -0.019152936 0.063413814 -0.010856792 -0.0046334276 -0.079697028 -0.08087074 0.0099902004 0.07568007 -0.07170023 -0.095333114 -0.10152385 -0.04744672 0.061893415 0.0077875224 -0.083373897 -0.063251555 -0.058676027 0.099987246 0.035799529 0.085629836 -0.025772549 0.086615346 0.089099541 -0.025831008 -0.073811531 -0.051072098 0.05918166 -0.095016599 -0.080237307 -0.013107191 0.046922706 -0.0067513455 -0.042145662 0.041608606 0.0027240666 0.021840347 0.071491338 0.041174788 0.057933871 0.044071212 -0.097390488 -0.0093211709 0.002981253 -0.1158611 0.10805521 0.079351701 0.028975748 -0.033401873 -0.018204711 0.075541027 0.072546244 0.052046534 0.050242204 -0.072481483 0.02715564 0.041857135 0.032439541 -0.09057942 0.016879361 -0.024346819 -0.094516292 0.081017166 -0.10053627 -0.087056875 0.021187598 -0.070229575 0.093577258 -0.057187807 -0.052408539 -0.020216901 -0.034678608 0.023943521 0.058586996 0.086397834 -0.072629035 0.048660092 -0.076287679 -0.085767239 -0.056384884 0.094907969 -0.019658936 -0.10273363 -0.11804332 0.03652906 -0.018477289 -0.0067431298 0.073898733 0.042799678 0.095863715 0.084315658 -0.054589573 -0.02025524 0.026562165 0.070478 0.079163395 0.058404841 -0.067061685 -0.026613383 -0.055395361 0.077173233 -0.038083542 -0.034148593 -0.021564143 0.050559383 -0.069907315 0.0051240958 -0.066544786 -0.017291965 0.010813115 0.020799918 0.0029261482 0.053138066 0.022863563 -0.03275685 0.014667366 0.017668711 -0.046473391 -0.039467812 -0.064539835 -0.079723217 0.11098828 -0.064977266 -0.0034543853 0.042778526 0.046101376 -0.10357045 0.086782739 0.065361679 0.030154767 0.04344165 0.049875796 -0.018224685 -0.055395897 0.10589133 0.035490297 0.055943444 -0.053347237 0.085420214 -0.081237808 0.069689848 0.079631761 0.044689525 0.0011714477 -0.071683824 -0.0066180141 0.011130864 0.07146357 0.01188641 -0.085821047 -0.078743018 0.12077311 0.05585378 0.082106084 0.012578196 0.0015954709 -0.029533938 0.087653816 -0.036152504 -0.11979298 -0.11010142 0.089218639 -0.11264621 -0.021803109 0.0071839662 0.044831198 -0.025004258 -0.10611968 0.05350529 -0.11992263 0.00080530974 0.025980616 -0.076341324 -0.044441681 0.047289446 0.042836148 -0.07460247 0.017132541 0.072113559 -0.013564154 -0.03044554 0.010002785 0.047590736 -0.075294212 -0.012404298 -0.063485377 -0.031086955 -0.039100777 -0.10283185 0.080420762 -0.052537777 0.077348053 -0.018764323 0.11176823 -0.079391845 -0.11463847 -0.071645044 -0.039245244 0.071879014 0.091915481 -0.08807797 -0.0783384 -0.06275969 0.03648654 0.0069629434 -0.039044194 0.07508947 0.081986837 -0.060843803 0.10080756 0.026266588 0.014714353 -0.10588171 -0.053113997 -0.072236232 0.019428857 -0.11584888 0.0078069917 -0.02102728 0.081418142 -0.033913463 0.094344892 0.041617453 0.011005872 -0.028812736 0.026350558 -0.0097440295 0.07235714 0.10308598 0.0081300912 -0.046035919 0.015000674 0.0082722437 -0.083866484 -0.01805057 0.0020329396 -0.005585799 -0.0074314903 0.10160067 0.048442852 -0.081229217 0.097325079 -0.053927504 -0.054537017 -0.0064410754 -0.060484089 0.027813205 0.025761131 -0.031840079 -0.071056493 0.10948095 0.047024209 -0.023615884 -0.11127225 -0.093044356 -0.088563807 0.10156053 0.076502979 0.063345842 -0.0062453821 0.095459737 0.10456206 -0.0041715796 -0.055716373 -0.070875973 -0.054675475 0.04398533 -0.017197201 0.040357236 -0.017533511 0.035288639 0.012584083 0.086012937 0.074695095 0.010493873 -0.018274564 -0.068179563 -0.06031153 -0.042182438 -0.046669442 0.016592847 0.070752963 -0.071478397 -0.010747042 -0.001795862 0.036663011 -0.031965584 -0.052358471 -0.056211285 -0.085049286 0.08891467 0.05816488 0.10882775 -0.0043415329 0.07330662 0.046784282 -0.0057655377 0.0016238781 -0.075299211 -0.046550259 -0.038584385 0.053686433 0.079534948 -0.034447685 -0.10357138 -0.008221955 -0.083464645 -0.034359626 0.0018622326 0.019647811 0.0059205233 0.071855135 -0.053892236 0.072058722 0.091431372 0.036091812 0.082898006 -0.10146903 -0.048324462 0.054920539 -0.022420757 0.00027081097 0.037585851 0.087046884 -0.1088632 0.059373874 -0.016733075 -0.06815058 -0.089598335 -0.071450554 0.098934442 0.01733358 -0.031762093 -0.074080177 -0.071434997 0.047740575 -0.028602779 -0.085379735 -0.07545346 0.072903767 0.05403655 0.071604148 -0.064141154 -0.017573476 0.076931573 -0.079264469 0.0025508171 -0.046235017 -0.041904841 0.082022831 0.058560275 0.0030530337 0.011664812 0.068984024 -0.039854594 -0.031963363 0.0836071 0.053966533 -0.028560992 0.10103797 -0.03765266 -0.077319622 -0.017396249 -0.015316488 -0.063551478 -0.013005934 -0.061651029 0.029993793 -0.066192597 0.089960702 0.11068206 -0.052307434 -0.015345418 -0.077195711 -0.025949469 -0.092248194 -0.01620836 0.014235858 -0.090306669 0.028043626 0.07544478 0.078833476 -0.031156983 -0.046938047 0.095480211 -0.015267893 -0.059039041 -0.060631748 -0.062083658 -0.084782034 0.059596546 -0.033349987 -0.067518264 -0.021662654 0.085152976 -0.094325416 0.0036676342 0.066208288 0.098519124 -0.066323295 -0.0070908349 0.059405938 -0.018014761 -0.063970231 -0.11042157 0.028838869 0.08072415 0.088053666 0.031985182 0.065083787 0.034204826 0.011429509 -0.0059998771 0.064974703 0.022028858 -0.028388178 -0.038720671 -0.047888637 0.0030194945 -0.10152169 0.087107807 0.062069271 -0.083690852 -0.019607479 0.0049371687 -0.0072047175 0.047333766 0.00011141827 0.079378456 0.084418543 -0.070579626 0.020843277 0.068601601 0.048903011 0.082115434 0.078553587 0.056186523 0.012089069 0.0059992066 0.08795616 0.05187434 0.04439174 0.01782218 -0.061297361 -0.013747075 -0.057716139 0.071531713 -0.022085324 -0.059351303 0.003376618 0.0099784732 -0.028541522 0.087427303 0.043635905 -0.063493423 -0.015393668 0.092635959 0.1068356 -0.020413104 -0.038255356 -0.10773893 0.043239672 -4.1929772e-05 0.043073002 -0.068645932 -0.096359894 0.0020432374 0.071742646 0.0083840108 -0.024246322 0.043391179 0.069967307 -0.085973457 0.067183428 0.018188247 0.03497386 -0.027183143 0.030810639 0.063086435 -0.1088016 -0.1081381 -0.03133709 -0.058061875 -0.046714369 0.0033499387 -0.030596644 -0.049279649 -0.042748272 0.0057051335 -0.060946189 -0.082744427 0.033829849 -0.061865382 0.072033539 -0.057831161 0.05504217 -0.010958496 0.078818195 -0.043063309 0.11360244 0.072623156 -0.072897211 -0.045467097 -0.042900376 -0.064248137 -0.08777526 -0.095142983 -0.047408108 0.069984064 -0.095872805 -0.03005838 0.11825217 -0.086203769 0.021001726 -0.089187324 0.032784954 -0.050323606 0.047848903 0.057702225 -0.072826631 0.064702541 0.10685635 0.04063499 -0.01046495 0.053565457 0.021852197 -0.0033011059 0.0024646753 -0.081115924 0.032849181 -0.058353666 0.054658625 0.013318636 -0.067146279 0.021995809 0.01356924 0.015726669 0.083853841 -0.014267243 -0.075607456 -0.089409113 -0.090166792 -0.040189862 -0.045034468 -0.0051720692 -0.032647781 0.034057729 0.027436033 0.032496437 -0.068993531 0.067321107 -0.065705314 -0.086691789 -0.00022140953 0.044411793 -0.014404234 -0.034005277 0.088557564 -0.074362352 -0.10507778 -0.0023640911 -0.037808679 0.066173419 -0.07925804 0.038895804 -0.028151287 0.074272312 -0.024238257 0.034876615 -0.027224878 0.041296765 0.011693363 -0.08436323 -0.044083375 0.061933275 -0.093021043 -0.001991254 0.034934741 0.11480115 -0.035918944 -0.07128825 0.046368305 0.039657097 0.09054435 -0.056130908 0.01126237 -0.020999487 -0.044175941 -0.025922401 0.071359597 -0.087993585 0.06830404 -0.087686136 -0.042184278 -0.063739762 0.055267069 -0.029747896 -0.094435975 0.083385624 0.0095101623 0.073907949 0.0045484272 -0.092304565 0.003406733 -0.041198511 -0.015184049 -0.01884108 -0.079153717 -0.041511536 -0.0090053258 0.026118891 0.034949306 -0.061511133 -0.084596641 0.020195402 -0.071649835 0.067406312 -0.10735576 0.050517425 -0.01455583 0.022448756 0.084848613 -0.030330546 -0.019508809 -0.1050491 0.091784924 -0.10334621 -0.021758424 -0.037212551 -0.017367156 0.041517168 0.03714988 -0.066180207 0.034314357 -0.0093299914 -0.053576142 -0.10807513 0.043301083 0.095993906 -0.05798582 -0.014331069 -0.036715116 -0.049427468 0.054623425 0.086251684 0.013123194 0.089091137 -0.071022622 0.072528265 0.10308061 0.064201437 0.010363347 0.039982338 0.014210582 0.049999721 0.026044752 -0.080825642 0.06604971 -0.012462485 -0.069059119 -0.079339594 -0.09480615 0.091636442 0.042521838 0.064018518 0.08175163 -0.083193786 -0.03803166 0.0060303523 -0.020068191 -0.079248451 0.068405151 0.0084991101 0.012808658 -0.1214707 0.013035735 0.077974126 0.032660611 -0.073656835 0.054061826 -0.024695301 0.040133845 -0.048164729 -0.022464229 0.092766091 0.0096485261 0.065136246 -0.0076391711 -0.073134974 -0.0025384619 -0.033587508 -0.088954195 -0.042452924 0.014148517 0.066699743 0.015634313 -0.023088321 -0.055374004 0.032166645 -0.02134759 -0.080746315 -0.017476493 0.11123012 0.055028822 -0.082320847 0.040240221 0.068967842 0.05243836 -0.060041614 0.092168637 0.053275913 0.02496312 -0.096782811 0.040578857 0.11654209 0.0030928224 0.066584021 0.046605185 0.0073657553 0.021016303 0.07802023 -0.017816143 0.097427271 -0.032085165 0.063398592 -0.011748677 -0.010077627 0.10240962 -0.078115873 -0.066515222 -0.0033614242 0.056675795 0.037301213 0.040398266 -0.045407396 0.021168932 -0.012474881 0.054781608 0.014362567 0.014657415 0.056468483 0.051096663 -0.087137304 -0.013248506 0.091595568 -0.015656535 0.038702074 -0.089206949 0.11014291 -0.061591554 -0.071276009 -0.078095302 -0.066570684 -0.03565472 -0.039121937 -0.093926385 0.061410967 0.085341774 0.067356765 -0.042781044 -0.066119395 0.015537548 0.0092580682 0.060582407 0.12000817 0.0088619031 -0.032197904 0.082139187 0.070838965 0.068150565 -0.047477964 -0.045137677 -0.06472984 -0.031103669 0.083289094 0.039724227 -0.047182743 0.058383163 0.075645186 0.0038437205 -0.10608145 -0.04199481 -0.089866698 -0.033883162 -0.048746832 -0.015964748 -0.10707606 -0.032104116 -0.1074285 0.032348406 0.036682807 -0.09258014 0.032752413 -0.050555196 0.08037471 0.065239549 -0.091509178 0.010784303 -0.073639318 -0.055170886 0.0044427994 0.016729368 0.074029766 0.045059651 -0.015912833 0.10847049 0.021591628 0.025397675 -0.0056372494 0.013002175 0.03151745 0.044153884 0.0095537128 -0.094632514 0.0032449488 0.096173309 -0.034047022 -0.032388601 0.0141747 0.037853513 0.02091283 0.066180453 0.040735312 -0.047785539 0.1038826 -0.030974191 -0.01175543 0.098345555 -0.027502527 -0.055954862 0.079444788 0.057894293 -0.061108042 0.016160412 0.073440045 0.0049261102 0.083678402 0.059610896 0.068837553 0.10887139 -0.079064496 -0.061366469 0.030771166 0.074096479 0.054524396 0.0046723881 0.083329678 -0.023764715 -0.03825869 0.024410916 -0.0090114782 -0.0091303177 0.033724688 -0.0075541819 0.037882078 -0.00024663727 -0.098764472 -0.00047328498 0.0077125058 -0.0096670724 0.0794513 -0.033242438 0.10047594 -0.091736987 0.059044436 0.038334969 -0.048543822 0.10754816 -0.061471857 0.057129353 -0.06809561 0.076884888 0.060429949 0.077640735 -0.091154784 -0.04650674 -0.030967493 0.0093251849 0.080870062 0.064260334 0.063720889 -0.076436579 -0.058927618 0.077933103 0.099373966 -0.063323937 0.019823331 0.0043527377 -0.0094884625 -0.018588563 -0.098385923 -0.075848795 -0.050592113 -0.012210275 -0.050780345 0.0075214654 0.076660857 0.028478386 -0.091726266 0.02561185 0.077006541 0.083673894 -0.039819639 0.0057855751 -0.097258724 -0.034091085 -0.073224634 -0.035941284 0.018727476 -0.012007923 0.088148899 0.086459361 0.042980999 -0.043336339 -0.028910471 0.071059316 -0.077432156 -0.034337461 0.001288905 0.01367548 0.026576024 0.055543024 -0.077325903 -0.096219428 -0.052783929 -0.015858555 0.095795676 -0.038552102 -0.099041119 -0.062407512 -0.10717564 0.013374784 -0.073530897 -0.049446926 -0.060919236 -0.064974897 0.061828777 -0.11066519 0.012143279 0.076482221 -0.090538748 -0.076142967 -0.0082560154 0.051591862 0.08389999 0.083222345 -0.024132079 0.083064497 0.075588427 -0.05878292 0.017925 0.040938679 -0.079041451 -0.09597975 -0.062290035 -0.080493413 0.043227568 0.063430518 -0.089812085 -0.043980885 -0.10364012 0.10899798 -0.063612476 -0.059537638 -0.045008495 -0.053744715 0.09104944 -0.059571136 0.05810621 0.049167752 0.06758263 -0.09762045 0.037413854 0.10321186 0.06861116 0.081952415 -0.063632146 0.042805567 -0.070952989 -0.10468696 0.10097339 -0.058839988 -0.021696419 -0.055333238 -0.011959077 -0.019238774 -0.0070180646 -0.081632487 -0.037809301 0.089608848 -0.01043102 -0.086320736 -0.0054445169 -0.013508053 -0.047376569 0.086266577 0.00034823874 -0.01874169 0.057114579 -0.074989982 -0.080933526 -0.020205194 0.058394048 -0.068786256 0.0074961409 0.021667765 -0.063792095 -0.015713096 0.015193387 -0.10263274 -0.053763069 -0.042490393 0.064204879 0.084844597 -0.00083611475 0.022035357 0.08665701 0.10595597 0.063949645 0.019842135 -0.066542752 -0.10463856 -0.020036651 0.053316601 0.040891077 -0.08046028 -0.088279739 -0.055978358 -0.022148877 -0.046839435 -0.0070997342 -0.038710888 0.036409825 -0.039662685 0.064868852 0.072140843 0.095507897 0.079599194 0.10328138 -0.047374796 0.0054466068 0.053920731 -0.078690581 -0.094247133 -0.043401625 -0.08255446 0.055876475 -0.094853744 -0.022284456 0.10622207 -0.0052745393 -0.045624305 -0.011715018 0.049195543 -0.012895815 -0.089949146 -0.0022534004 0.0048673642 -0.052972298 0.075126171 -0.045574073 -0.00098628365 0.021570543 -0.097413398 0.0062689641 -0.047115065 -0.052510221 -0.054242652 -0.034593865 0.070875011 -0.047286928 -0.008759805 -0.01541895 -0.070998378 0.020198254 0.018748 -0.0888445 -0.028467078 -0.091622837 -0.029280936 -0.035954356 0.061082769 -0.049170878 0.0045714141 -0.055189628 -0.071216777 0.083798178 -0.046663031 -0.10348684 0.028471896 -0.050230674 -0.0023103335 0.005864413 0.051767245 0.091048181 -0.081222765 -0.062003605 0.10724496 -0.092726685 0.078487039 -0.069287911 0.1006114 0.045747936 -0.053384796 -0.025273992 -0.011573834 0.0023170661 0.076655284 -0.060684487 0.087234505 0.021847134 0.057840284 -0.095339015 0.053521506 0.015456497 0.091776393 0.076415867 -0.093779087 0.016862594 -0.031983051 -0.027581068 0.082256041 0.088906251 -0.014542031 -0.087134585 -0.027883384 0.095179364 0.066971593 -0.04332377 0.085654706 -0.092347965 0.0050863829 0.065819599 -0.056919452 0.10276379 -0.0080069322 0.092328742 -0.0044893101 -0.050346654 0.049153607 0.063190438 0.025841871 0.11044932 -0.019350931 -0.011935513 -0.097664595 -0.090134263 0.056918159 0.037232775 -0.094358996 0.026330395 0.0024502636 -0.0039434307 -0.051801525 0.072621174 0.0095109604 0.061631788 0.098039351 0.034681652 -0.020460878 0.03827345 0.0062969062 0.021323452 0.075562306 0.035855763 0.086325616 -0.05424149 -0.0759167 -0.0076870178 0.088000074 -0.036860369 0.058360662 0.047301769 -0.0058484492 -0.06100636 0.038100634 0.067298554 0.041043729 -0.047553435 0.020703781 0.083824731 -0.096324012 0.042162936 0.022941343 0.059156112 0.03732086 0.022838173 -0.02381696 -0.023127338 0.028036587 0.0082110763 0.11268666 -0.064060614 0.082131878 0.070816688 0.05759887 0.04831396 -0.0094414605 0.0317997 0.041212525 -0.035771545 0.057322193 -0.090043433 0.043130681 0.074338838 -0.077892229 -0.050622363 -0.027252788 0.065832384 -0.042313371 0.012039674 0.11566826 0.071648821 -0.030482352 -0.02138965 -0.066482067 -0.0055139838 0.060855966 0.11655382 -0.015286059 0.051007301 -0.098393194 0.016553411 -0.0046348218 -0.032996014 0.017319573 0.0063565695 -0.09493956 0.082729198 -0.068545625 0.042992748 0.015110545 -0.10255557 0.092943296 -0.053398352 0.080241941 -0.10257814 0.038788743 0.017908728 0.042941283 0.042414665 0.072871037 0.1166579 -0.037080672 0.074319005 -0.10353636 -0.085702337 0.094214141 -0.099000379 -0.088617317 -0.093544647 0.062108174 -0.047539938 -0.026931206 -0.046261597 0.087672196 -0.075532407 0.011369256 0.073278829 0.013986092 0.0043101064 0.020711299 0.062052581 -0.02926532 0.059664048 0.025499834 -0.071276441 -0.019367663 -0.11727197 0.009126544 -0.10944585 0.036079876 0.056744333 -0.02793131 -0.097242571 -0.025467021 -0.068852194 -0.082483679 0.081985041 -0.017865917 -0.12040652 0.016782716 0.094321445 -0.0046496009 -0.073525913 -0.075798057 0.022657204 -0.020290075 -0.0085620489 0.015677702 -0.027128756 0.087396197 -0.067716442 -0.0047779605 -0.049625851 -0.00048187992 0.049565122 -0.055064328 -0.0038092763 0.062477943 0.060392808 -0.0026477859 0.021119209 -0.038222354 0.037318215 -0.015559197 0.062386297 0.093730561 0.03441897 -0.020267313 -0.025573717 -0.054016497 -0.090723716 -0.10564242 -0.0324152 0.044296641 0.01965132 0.10916796 0.12021913 0.053164814 0.056063876 -0.087876149 0.07967975 0.059077527 -0.0040064286 0.038804438 0.0084982682 0.031894606 0.017794633 -0.10111035 -0.11563433 0.11611038 -0.11605201 -0.016945735 0.041115634 0.076747209 -0.036427617 0.016630532 -0.01281073 -0.0035127713 -0.065370224 0.071161546 0.065118559 0.032689899 -0.10556808 0.054751009 0.10831214 0.00060957845 0.03591235 -0.10659189 0.03304553 -0.055191364 0.028033534 -0.03616963 -0.095638722 0.10300353 0.034620058 -0.0094628986 -0.03533709 0.063411318 -0.0051436708 -0.085329846 0.023706947 -0.035237942 0.082433678 -0.057744123 0.074503608 -0.07033696 -0.061592817 -0.10385204 0.10192779 0.024723388 -0.0011437701 -0.092816308 0.085542195 -0.074114189 0.0069462438 -0.024145236 0.10402159 -0.098282441 -0.10246855 0.094234467 -0.031357415 -0.042874355 -0.019615527 0.050037604 0.07799603 0.0094460826 0.037901975 0.093651198 0.092589281 0.042775534 0.020905998 0.0091477269 0.039439812 0.026544811 -0.099984892 -0.1191413 0.0001643296 0.02672668 -0.033057988 -0.0003683416 0.10936175 0.082703277 -0.023125021 -0.00058218662 0.0012961485 -0.097332582 -0.074116975 -0.028127776 0.10777196 0.061824936 -0.029596256 0.063422054 0.040815257 -0.013744966 0.074448794 -0.074659005 -0.031913482 -0.019724984 -0.035692282 0.0097476244 -0.057456747 0.04203935 0.021754134 -0.0081861978 -0.053454176 0.099279098 -0.0023237146 -0.07842496 -0.012362179 -0.033669483 0.043769002 0.0027971494 0.0058946265 -0.042958543 0.029397987 0.0089441026 -0.028859288 0.12207095 -0.062967598 0.035027437 0.078875162 0.074445076 0.025293641 0.041341502 -0.058381807 -0.046379499 -0.013698744 -0.019270018 -0.07812915 -0.043844942 0.018056925 -0.023852432 0.00066395762 0.052722137 -0.040056419 -0.041544434 -0.062056772 -0.0050169574 -0.10571552 -0.10715257 -0.076620959 0.010695034 -0.059164051 0.053401496 0.053229928 -0.003866531 0.077263743 0.029482387 -0.074877597 -0.018904578 -0.055032101 -0.011623891 -0.096185938 0.015176005 -0.060450654 -0.09833397 -0.050933652 0.12154973 -0.074917622 -0.031806335 0.035057493 0.011761447 -0.070825204 0.01165021 -0.064035326 0.0041846298 0.041233633 0.093581393 0.10444295 -0.062510766 -0.076506048 -0.078802593 0.11556709 -0.0066371299 0.018613307 -0.053158216 -0.014266482 -0.097324431 -0.00057002157 -0.08476685 -0.1059753 -0.08940354 0.10595249 -0.082871996 -0.056109693 -0.021695994 -0.033508159 -0.013938292 0.051269684 0.015078385 0.035833914 0.019377077 0.017236844 0.06815125 -0.091775641 -0.020923611 0.07641656 0.084729664 0.099761799 0.096465088 0.018870719 0.075118877 0.023632484 0.021125814 -0.082051329 -0.0042595183 0.07067854 -0.11016773 -0.058898751 -0.061555039 -0.022966132 0.026102915 0.00048833975 -0.11073551 0.082750849 0.077200688 0.029454501 -0.082224652 0.073731996 0.09614864 -0.077255964 -0.07412371 -0.020888902 -0.049624726 0.047696829 -0.050770625 -0.066040479 0.058169961 -0.071420737 -0.019775122 -0.1125063 -0.0017947903 0.0019576314 -0.07510227 -0.052902322 -0.017501578 -0.0068777115 -0.029995603 0.028288605 0.039456967 -0.024023505 -0.048410907 0.0041942513 0.030350966 0.029033871 -0.060708895 0.046592429 -0.017265655 -0.063337848 -0.069610089 0.083554938 0.052231118 -0.043431047 0.087136529 0.083438314 0.0063380888 -0.085516736 0.047755409 -0.075536542 0.084523194 -0.0010565079 0.065891303 0.040914163 -0.075000659 -0.034298871 0.045415811 -0.00060393312 -0.0072895763 -0.078562461 0.010821118 -0.050022516 -0.060872227 0.079161555 0.041041698 -0.066828288 0.091280743 -0.029435407 0.013337122 -0.098070145 0.070621051 -0.05719015 -0.029658809 0.074320138 0.087539256 0.037599977 0.005609245 -0.041318625 0.086976863 0.035517558 0.06976302 -0.044594299 0.083772793 0.013334109 0.083264932 0.044760153 0.027082501 -0.083374836 0.01430093 -0.040424671 0.041032381 0.044880275 0.086731635 0.069521323 -0.056030132 0.081941701 -0.048026402 0.023283051 0.076701716 -0.064712457 -0.033284079 -0.049336504 0.058999915 0.056536064 -0.063194491 0.043985955 0.016861765 -0.028151123 -0.063950911 0.030491354 0.023799224 -0.026341762 0.05545713 0.024021424 -0.053826254 -0.0026301697 0.055485047 0.046339739 0.098456651 -0.077422336 -0.042580526 -0.10439172 -0.072206259 -0.0096021444 -0.071715832 -0.11122654 0.015268638 0.046532158 0.084084049 0.045971885 -0.072306581 -0.10080339 -0.082842551 -0.031419557 -0.07888107 0.060568254 -0.082862526 0.085834123 0.086099908 -0.021251122 -0.0033550109 0.098257348 0.017253745 0.020276502 -0.0029383618 -0.02102869 0.0022502197 -0.046046134 0.047893587 -0.063959613 -0.038125195 -0.056123819 -0.02314939 0.049477417 0.014556392 0.0048566032 -0.05688943 0.0040023928 0.059158418 0.0014431386 -0.024159987 -0.0020109965 0.074123435 0.068735443 -0.019207928 -0.074043594 0.071047276 0.0043568038 -0.016758973 -0.011907393 -0.059157565 -0.097411238 -0.035503149 0.085005216 -0.045812517 0.048530415 -0.029190959 0.06706693 0.089896202 0.08226867 -0.063014619 -0.030228989 0.045627221 -0.077107824 0.011519796 0.086869918 0.036839996 -0.065011427 -0.02066692 -0.033457391 -0.068745501 0.086557686 0.098715313 -0.045228213 -0.071135275 -0.009242068 0.036834769 -0.089416444 0.088888958 -0.025643088 0.098460011 -0.044337995 -0.023640202 -0.056681905 0.055830769 0.073606431 -0.0092049288 0.029302003 0.038214266 0.02780281 0.080020979 0.084397025 -0.021878164 -0.10837546 0.024355443 0.049414255 -0.015080683 -0.096366175 -0.031795017 0.053787753 0.092884675 -0.059043609 0.0057447217 0.087632887 0.05303644 0.085281357 -0.088221408 -0.083214365 -0.056254715 -0.035454348 0.032700721 -0.015270343 0.10463452 0.083775289 0.091885768 0.0093886899 0.00419395 0.022811687 -0.067628823 -0.0056359624 -0.10169584 -0.062078033 -0.077792861 0.017395198 -0.050933834 0.018573629 -0.092021719 0.01389965 -0.03805586 -0.044705987 -0.0063825897 -0.10187428 0.091823213 -0.04349171 -0.048270304 -0.050788466 0.0034645288 0.049721226 0.02653265 0.032376237 0.013141375 -0.023078622 0.043960895 -0.026381098 -0.075147651 0.013742282 0.088482633 -0.076746181 0.069054134 0.067336753 -0.091003805 0.061242491 0.08403606 0.081112541 0.043680109 -0.024116082 0.037404027 0.098976403 -0.08680898 -0.066150755 0.070227623 0.086400382 -0.0884059 -0.074269652 0.028403658 0.078163713 0.028659059 -0.10744473 -0.051101744 -0.061386485 0.016046531 0.059398249 -0.050052993 0.022601277 -0.015486171 0.067603238 -0.050483797 0.069996677 0.040787756 0.097910732 -0.092434905 0.063550897 -0.031187242 0.064966701 0.069107749 -0.059572008 0.082702182 0.08554928 0.067018889 0.050002281 -0.0085239355 0.0696119 -0.066090189 0.07353957 -0.047623012 -0.060673926 0.043039426 0.054862842 0.021425391 0.015121457 -0.0056708595 -0.0070253788 -0.098589443 0.0069287452 -0.03198326 -0.07879331 0.0047554085 0.081363171 0.0046945713 -0.075509466 -0.0096603381 0.071348697 0.015063845 -0.089409634 -0.055853836 0.020656563 0.011188245 -0.03987344 0.078697681 -0.041009981 0.08020331 -0.0078465175 0.10640462 0.08208774 -0.085161425 0.042001013 0.062185951 -0.079591878 -0.08356446 -0.063803189 0.10486062 0.080950312 -0.088880338 0.056467913 0.048296321 -0.038776506 -0.03000579 0.022765841 -0.072930716 -0.0087469118 -0.0057222471 -0.053634282 -0.041886255 -0.025974968 0.02148179 0.02328594 0.03586014 0.08066868 -0.085347675 0.089653008 -0.033385132 -0.081106611 -0.10147111 0.081574462 -0.026031751 0.093228042 0.029155692 -0.015467661 -0.082433969 0.014294874 -0.093295597 0.017878728 0.11218854 0.074490525 0.087150872 0.079013817 -0.013856992 -0.0031184838 0.11329117 0.059140097 0.021621561 -0.097364843 -0.019213941 0.0040217051 -0.079936184 0.065992646 0.05338072 0.0359747 0.036466856 0.068297088 -0.0097482475 0.011425094 -0.042260986 0.065070868 0.058874324 -0.022561356 -0.029502429 0.04444693 -0.10867438 -0.034473862 0.039386041 0.089327745 -0.050950367 -0.022133181 -0.042059891 -0.10940779 0.061538044 0.00018768974 0.041692782 0.057389062 -0.016172491 0.05562852 -0.059234317 0.058434058 -0.078782029 0.051692788 0.017656568 0.080994457 0.030919917 0.0032922674 0.0075948886 0.1035163 -0.026584085 -0.047969427 0.10594415 0.080205813 -0.057824373 -0.073351726 0.0025720731 0.04067719 -0.068105564 -0.0080227498 0.0071274079 0.097605884 -0.049528904 -0.075101621 -0.023578864 -0.080960222 -0.03646367 -0.062496629 -0.035110347 -0.067091823 0.068435878 0.0064017675 -0.0017406769 0.084785864 0.068332218 0.042137273 0.04535998 -0.043698631 0.012493543 0.076330774 -0.091259003 0.026024794 -0.085664101 -0.012324243 0.00033449742 0.013775934 0.071758524 -0.008559918 -0.022693751 0.10001321 0.10255498 -0.033714633 -0.079583652 0.03314393 -0.0094603915 -0.1012024 -0.070677675 -0.0085647162 -0.04246984 -0.072957918 0.012298862 -0.045069277 0.092126563 -0.0826625 -0.07582707 0.0021805894 -0.070400298 0.040896911 0.067239575 -0.028248962 -0.058854863 0.016741786 -0.02650178 0.074767157 -0.046284974 0.032542933 0.023304986 0.037852403 -0.084331803 0.04965454 -0.037822049 -0.068267427 0.028744003 0.036184948 0.0071058525 -0.11346654 0.012798771 -0.10931065 -0.043456152 -0.021662913 0.025494134 0.10326085 0.044954412 0.028811788 0.045109548 0.048343543 -0.042301029 -0.089709178 0.027047189 0.057365019 0.036730818 0.032525025 0.073632613 -0.07454218 -0.020236824 0.079705596 -0.07647299 -0.098123044 -0.039480887 0.026877906 0.005999757 0.028918337 0.06882339 -0.019758243 0.007975623 0.068522908 -0.068833239 -0.10215271 0.0061606532 -0.10012755 0.049619712 -0.010127182 -0.018932071 0.079962268 -0.10713141 0.064191751 -0.075144932 -0.088165298 0.1071653 -0.061282173 0.058121238 0.024104968 -0.05179961 0.02827948 -0.022362767 -0.086511746 -0.050570559 0.029422427 -0.08987949 0.059028473 0.057950247 0.026817534 -0.071902178 0.060591817 0.099658571 -0.094477743 0.015208708 -0.049241513 -0.035004221 -0.069608778 0.032613594 0.065691188 0.090106256 0.030476801 0.052432448 -0.085423522 -0.062321343 -0.048192792 -0.065944545 -0.010973621 0.081808917 0.080947675 0.019545259 -0.030395959 0.10960266 0.064320423 -0.10289475 0.074739888 0.0047148084 -0.093007594 0.017900292 -0.027969869 0.030891549 -0.085454434 0.01725849 -0.10531543 -0.027960984 0.11241717 -0.11108241 0.065834112 -0.0030026142 0.034371436 0.0066477233 -0.038728375 0.013625884 -0.016309803 0.017174026 0.011853092 0.0048562079 0.11231519 -0.017221278 0.019248912 -0.002930118 -0.014866129 -0.0041417312 -0.053344186 0.084028073 -0.044957884 0.090376638 -0.094908275 -0.02563663 0.016002227 -0.038532984 0.01278722 -0.04576277 0.035312574 -0.064428456 0.096931688 -0.041194096 -0.081676312 -0.0090911807 0.074026749 -0.059160516 0.087100312 -0.0035607517 -0.037067175 0.017359024 0.021955494 0.088090435 0.053840626 0.048361007 -0.058507271 -0.091153242 0.078622058 -0.035886128 0.1055688 -0.093119487 0.013107059 0.01921423 0.0030013309 -0.054867454 -0.089238502 -0.084785141 0.0034722295 -0.0094045606 0.05631787 -0.018820781 0.079329595 0.10172036 -0.054856684 0.095752716 -0.019041389 0.037652336 0.0088363579 -0.029112995 0.034689229 -0.0050007426 -0.10045002 -0.06873969 0.094038337 -0.082357153 0.027768632 0.023685556 0.06869179 0.0070260135 -0.11886209 -0.0177413 -0.098491408 0.022518571 -0.05525161 -0.050355628 -0.051600721 -0.00047067821 0.039164096 0.053727724 -0.035112366 -0.03648866 -0.050911129 -0.064327836 0.071653053 0.096610986 -0.041503385 -0.034170318 0.08727657 -0.037593007 -0.032807741 -0.017093841 -0.068516217 -0.035174072 -0.081001669 0.085197382 0.10300446 0.059554044 0.016151899 0.054841004 -0.040188942 -0.052137606 -0.04047282 -0.022928029 -0.10388312 -0.09138871 0.10398147 0.07682129 0.095176876 0.014085384 0.059247155 0.052931279 0.085989557 -0.03041557 -0.053554557 0.035657484 0.082711145 -0.056576956 -0.063113861 -0.037740365 0.0055108103 0.03239974 0.1053183 0.08026924 0.047868598 0.089987874 0.090091154 0.055426314 -0.10884323 -0.09655308 -0.013070295 -0.064833052 -0.095840625 -0.02497025 0.0094650714 0.10861202 0.012076144 0.038878758 -0.066185117 0.051002651 -0.036105834 0.013113045 -0.064923532 0.044996601 -0.021000475 0.021171564 -0.012134189 0.063110173 -0.0020909777 -0.11627961 -0.020571122 -0.017336687 0.084968224 0.020348018 -0.02709874 -0.098956384 -0.071355164 -0.096476428 -0.11190604 -0.073541999 0.026458584 0.027996425 -0.092735566 -0.020920757 0.065921023 0.022501441 0.075846255 -0.038982101 -0.082223609 0.0056965686 -0.045511786 0.092908897 0.055995688 0.087392308 0.023688864 -0.038930353 0.096235611 0.039689668 -0.06933137 -0.010745248 0.061522651 0.10445818 -0.067709506 -0.015456591 0.021602167 -0.05461292 0.07702025 0.045016147 0.070328921 -0.014420754 -0.0052197771 -0.083953291 0.080984689 -0.065788396 -0.025568239 -0.10393949 0.018331537 -0.036380477 -0.023376709 0.015398351 -0.054724984 -0.0709837 0.097863957 -0.023100557 -0.046668857 0.023226757 -0.045049246 -0.0023408008 0.0041890298 0.049189229 0.044915874 0.075517051 -0.0041217562 -0.078817956 0.050565626 -0.041311856 0.008288689 -0.039787073 0.0548946 -0.091672972 0.0431353 -0.093160614 0.023710947 0.03796953 0.041609313 -0.018847339 -0.052155435 0.0383019 0.032378975 -0.026248684 -0.089097239 -0.058396485 0.046127889 0.0094800452 0.096495152 0.029721942 0.089848109 -0.095041305 -0.013777155 0.037779998 0.00099734229 0.0060816249 -0.076868057 0.062741406 -0.0093095284 -0.09231507 -0.079691343 -0.10697471 0.0059043416 -0.1050095 -0.063865647 0.045679301 -0.095332958 0.053655088 0.051325515 0.029971194 0.021599695 0.080576807 0.010973024 0.096242063 -0.071975432 -0.017749863 -0.055466935 0.087317854 0.076351255 -0.054747578 -0.040273372 -0.024562407 0.1064885 -0.05195995 -0.021601126 -0.037960704 -0.034242194 0.029536942 -0.015070585 0.053801946 -0.03090271 -0.024613246 -0.015336366 0.083121039 -0.036176994 0.087132782 0.018875821 -0.099270649 0.017514065 -0.053474501 0.028642002 0.026824884 -0.090301052 0.035791703 -0.047686752 -0.013813644 0.1024216 -0.067630559 0.0037414022 0.053300552 -0.00077991642 0.078482546 -0.020173013 -0.062394761 -0.055163167 0.022342455 -0.070808917 -0.028859606 0.070289448 -0.026401402 0.059773292 -0.017779987 -0.096774116 -0.066308334 -0.06440711 0.0064976886 0.073691897 -0.047834992 0.0037202255 -0.08369977 0.0020543216 -0.088849247 0.017556895 0.058441594 0.037165746 0.020706225 0.10143074 0.082521796 -0.0074260868 -0.061615739 -0.057299517 0.0098569253 -0.046112016 -0.041821893 -0.082795866 -0.039372034 0.073422477 -0.093830042 -0.06196202 -0.014109331 -0.091995962 0.0058250218 0.060086761 0.03202625 0.02375748 0.059078407 -0.059500981 -0.0013790411 -0.074672103 0.026139613 0.06588465 -0.066653818 0.060554881 0.052629612 0.077902906 0.029206267 0.025869126 0.0070939111 0.010885683 -0.078653581 0.05934402 -0.049584389 -0.10030841 0.014002725 0.0067523611 0.054977454 -0.071953513 -0.042574011 0.070157975 0.056780025 -0.11019615 -0.028958203 -0.061538834 0.084942296 0.065134741 0.051500373 0.064783432 -0.045683522 0.069793276 -0.10584031 0.094389081 -0.086206526 -0.10067113 0.023185888 0.05090427 0.076598898 0.053767059 -0.042208504 0.095128439 -0.08725591 0.01819985 -0.013536805 0.064411618 -0.0045977081 0.041416746 -0.047389694 0.0017256269 0.015648222 0.051670756 0.015831038 -0.014104997 0.034659173 -0.047879249 -0.043298785 0.07787811 0.0051595983 0.10451936 0.019360663 0.0046325112 -0.11129655 0.018322496 -0.00069109781 0.056955777 -0.09221112 0.0188054 0.065322079 -0.028340671 0.024256917 0.032222841 0.061768435 -0.0029720257 0.091907069 -0.037919786 -0.039722029 0.020356445 0.00034073176 0.0073153353 0.0178078 0.050417393 -0.041772418 -0.05997514 0.038509853 0.076906458 -0.017393988 0.080213845 0.015607867 0.082260139 0.046767525 -0.023039823 -0.07903447 -0.076879099 -0.052102569 0.046200741 -0.095068805 0.030748513 0.0042435043 -0.097504102 0.038432535 -0.050921999 -0.097852141 -0.019147739 0.031689931 0.010823216 -0.052136056 -0.029031126 0.086105481 0.047734886 -0.029343048 -0.072982684 0.04564606 0.013776961 -0.032959968 0.077478178 0.016691776 0.085981324 0.10104517 0.071152389 0.083482511 -0.03576706 0.052240249 -0.043634765 0.059027519 0.057826687 0.072786957 0.076606944 -0.066820562 -0.080052152 -0.10616303 0.026642229 -0.11664642 -0.095984325 -0.093766183 0.06255015 -0.06256263 -0.071785815 0.076069504 0.056696672 0.058224551 0.079257116 0.030599108 0.035168897 -0.11319853 0.089752845 -0.002137135 -0.093488321 -0.075242065 -0.065324485 -0.028747218 0.058851935 0.061381787 -0.095135294 0.1021779 -0.094964504 0.029754769 -0.081793129 -0.022056492 -0.085865602 0.009870111 -0.061676309 0.083578154 0.046880521 -0.077803262 -0.03539547 0.080931157 -0.020178484 0.010186967 -0.086570196 0.10838794 0.016458942 -0.10337931 -0.07082095 0.049743686 0.050867982 0.022645425 0.013844132 -0.053056344 0.030316183 -0.028257784 0.07116285 0.087729208 -0.084583655 -0.063992515 -0.0021868439 -6.7255896e-05 -0.028319992 -0.080529921 0.052190926 0.011037698 0.032593649 0.057439845 -0.0349769 0.09840294 0.02006959 -0.058754142 -0.069534697 -0.064512379 0.047579207 -0.10312883 -0.090324588 -0.1028068 0.061513286 -0.0032158382 0.051825482 0.052974436 0.097390532 -0.042793494 -0.024242379 0.046824135 0.010909612 -0.050563503 -0.016011503 -0.045456573 -0.061802745 -0.043562636 0.076279335 0.083134048 0.052531961 -0.051733479 0.0081907464 0.082134664 -0.071123093 -0.082301237 -0.032677632 -0.057791039 0.036273867 0.031856056 -0.087635748 -0.085295372 -0.031080958 0.095253535 0.012433733 0.027731875 0.10052104 0.0791329 0.071478181 -0.098690771 0.069376059 0.046555348 0.084504671 0.054166075 0.090757526 -0.022229016 0.08384154 -0.06968119 0.020147007 -0.030752987 -0.0069262404 -0.011316136 0.070972256 0.014839727 -0.049704526 0.092491649 0.0075677829 0.028406369 -0.0089792078 0.097764313 -0.018125812 -0.048482448 -0.0081231492 -0.066551805 0.027945146 0.041284204 0.04315865 -0.10393409 0.041551419 0.095514715 0.049884688 0.085989267 -0.057600945 -0.086183488 -0.090614155 0.030216476 0.095880531 0.02988114 0.011875222 0.041863028 0.046978295 -0.059325796 -0.04338225 -0.094905384 -0.034221511 -0.074320361 -0.051765393 0.029045574 0.039539274 -0.046122052 0.028979277 -0.065654494 -0.068972118 0.068023384 -0.013775568 0.029215772 0.091184363 0.012119792 -0.098445237 0.011208762 0.022492297 -0.0034306103 -0.037339818 -0.0078555504 -0.014309213 0.10051225 -0.041279282 -0.026412813 -0.086634412 0.1002538 0.049298815 0.093048491 0.046957716 0.050997876 0.073056705 0.06758517 -0.030077673 -0.10879556 0.021293379 -0.069217995 -0.085194603 -0.039146181 0.059476264 -0.09051086 0.080657773 -0.045870546 -0.063962132 -0.055258568 0.048086915 0.022455946 -0.0026252228 0.093369789 -0.040563416 0.088326216 -0.029111633 -0.10116243 -0.049712665 0.074018486 -0.070946351 0.04302422 -0.054909378 -0.063835561 -0.039884895 -0.10947711 -0.026164372 0.024991635 0.066444546 0.082996942 -0.038595166 -0.035599612 -0.044407006 -0.035983592 -0.072344273 0.033101734 0.089134909 -0.055541079 -0.065232947 0.095586434 0.010376739 -0.042761665 0.023981428 -0.0089557255 0.035301648 -0.041067597 -0.010416095 0.065315291 0.0012211287 -0.034854159 0.09293852 -0.047144577 -0.022871461 0.027723169 -0.024145303 0.0029858155 0.083726257 -0.012257604 0.097611666 0.056277111 -0.044352401 0.040194552 -0.025033105 -0.021299571 0.10438827 0.064054258 -0.076599047 0.036608353 0.035621591 -0.10812562 0.019896515 0.040975634 -0.10284287 0.012114985 -0.00073859969 -0.040290844 -0.099950589 0.042678427 -0.096243232 0.093814783 -0.039561786 -0.012681581 -0.061292551 0.098957382 -0.10489964 0.068997242 0.059554499 0.066867046 -0.036052246 0.062768377 -0.0090924213 0.095711596 0.085283197 -0.10016742 0.083488487 -0.076900102 0.0032922886 -0.075651884 -0.059980135 -0.047588166 -0.020964837 0.045292754 -0.073761053 -0.058558844 0.011896554 0.035299167 -0.093569048 -0.09967231 -0.053806491 0.077911995 0.090893187 0.046362996 -0.07089144 0.005131261 0.0012142371 0.031144103 0.09983208 0.091342434 0.04673763 -0.027230989 0.060983587 -0.054926079 -0.088830836 -0.047502808 -0.046221495 -0.05643253 0.060889885 0.0012498826 0.10084825 0.048300922 -0.029253857 0.055020567 -0.054880023 0.0048720976 0.044057645 -0.086808339 0.011341028 0.05306809 0.075508982 0.083513886 -0.070202783 0.041665729 -0.0083262408 0.015542716 0.085444763 -0.073761448 -0.10251182 0.0039923773 -0.011897271 0.092240505 -0.0784823 0.07813023 -0.077954821 -0.056202147 0.094124518 0.081709631 -0.095066726 -0.01711126 -0.063074633 0.083218865 -0.058642935 -0.073972352 0.005858718 -0.07275673 -0.0040818602 -0.043286819 0.026284188 -0.0052946964 -0.051228788 -0.075078435 -0.036617521 0.10243149 0.038457103 -0.019741526 -0.025661375 -0.091059774 -0.077577882 0.041494008 -0.087148242 0.050292715 -0.094819382 -0.023740718 0.060431797 -0.09802416 0.083677806 0.090645105 -0.027973441 0.041905839 0.082403094 0.068547927 -0.073722467 -0.013966751 -0.056806136 -0.039998543 -0.016143965 -0.080105968 -0.09086331 -0.088353634 0.042790119 -0.022132821 -0.10377454 0.011116106 0.058032155 0.013098651 0.045309015 0.021626431 -0.050743785 -0.054370295 -0.080778666 0.023210345 0.096964471 0.078826018 0.018953515 -0.084995277 0.090949774 0.062361408 -0.050568268 -0.035492282 -0.028744588 -0.071128584 0.043377299 0.076475196 0.038424466 -0.050258126 0.031331461 0.090557337 -0.079942338 0.0070362194 0.092977762 -0.030521601 -0.02953681 0.075268365 -0.044157065 -0.051601175 0.079760619 -0.058375575 0.069231175 0.018455707 0.052693564 -0.050877996 -0.041113064 -0.025464661 -0.071438037 -0.028867299 0.034712736 0.064931422 0.042120881 0.097567059 -0.0017925209 0.022816988 -0.018837957 -0.06714794 -0.098164491 -0.086820535 -0.062684797 0.035118781 -0.028872916 -0.073693581 -0.080559671 0.071608908 0.074726924 -0.010938765 0.045817364 -0.098665021 0.084855348 -0.0096688801 0.02296209 -0.063479133 -0.038623966 -0.010710391 -0.1085225 -0.035654053 0.013814286 -0.060431615 0.092327036 -0.065273702 0.0038557891 0.10293015 -0.00055941485 0.086922869 0.033158202 0.039099075 -0.077514492 0.052548759 0.070284054 0.097629257 0.10282788 0.050448228 -0.096350707 0.041044444 0.0099049034 0.0074619642 -0.097560793 -0.058893736 -0.033791587 0.10769773 0.09268073 0.027662411 0.019135602 -0.079115689 0.00090466399 -0.044898294 -0.050009195 -0.079591736 0.038085938 0.003105534 0.070388317 0.0093255118 0.080387719 -0.045643669 -0.032281291 0.084594682 -0.033947751 -0.047667205 -0.035936896 0.065325633 -0.077475511 0.0068579447 -0.073990472 -0.012968195 -0.063045293 -0.057178542 0.077205829 -0.0050265617 -0.084622085 -0.036940325 -0.020279614 0.039591197 -0.014904725 -0.0092140902 0.077289343 -0.010130716 0.057811771 -0.0073735225 0.049703714 -0.050891843 -0.099518128 -0.099713907 -0.073124669 0.020598674 0.084130742 -0.062850542 -0.0062978999 0.040706154 -0.058711875 0.059451118 -0.033039603 -0.10423911 0.028214248 -0.035044406 0.036171321 -0.013021011 -0.080940217 -0.022805979 -0.06189641 -0.062481392 -0.078492664 -0.081745699 0.012077264 -0.024933185 -0.055089515 0.019546743 -0.10406554 -0.0013029475 -0.079181544 -0.021947894 -0.025060477 -0.049498614 0.038030423 0.012197509 0.074854828 -0.047979429 -0.028452456 -0.012356235 0.035111275 -0.04742866 -0.010237452 0.089916408 -0.097821981 0.056096196 -0.033499256 0.054099742 0.03055061 -0.033122104 0.092932016 -0.013847603 -0.034602199 -0.042567506 -0.027727824 0.056824394 0.029562671 -0.064951487 0.095282093 0.089606613 -0.10986499 -0.084626585 0.09504205 0.022455728 0.036154985 -0.078017764 -0.051448528 -0.091117062 0.081249133 0.011372054 0.084629931 0.076890983 -0.037001994 0.084826656 0.075872883 0.084129617 -0.042266421 0.03994631 0.014817158 -0.025812667 0.10575994 -0.015895732 -0.076340847 0.10123539 0.06006448 0.097838871 -0.025989478 -0.079010502 0.07190799 0.01817549 0.028608706 0.090112589 0.02232256 -0.047407884 0.026663229 -0.014405872 -0.064266577 -0.096353017 0.05562444 0.023409443 0.05788618 -0.083045594 0.090930566 -0.016243635 0.090214275 0.095265552 -0.073382095 0.072730199 -0.069939286 -0.028159974 0.065954275 0.084526472 -0.061787598 -0.072758324 0.10012672 0.09040571 -0.088072993 0.088445649 -0.043819912 0.073836267 0.042928033 -0.098126277 -0.065403156 -0.00057828252 0.051772408 0.025794202 -0.028516259 0.045949034 -0.0093553197 0.016129166 0.059757732 0.069148056 0.025748927 -0.024294548 -0.10277573 0.051810779 -0.019652121 0.031412281 0.010371576 -0.036949787 0.073615573 -0.026812978 0.053281639 -0.0084513426 0.03230365 -0.0036110687 -0.015586436 0.072644033 0.036146175 0.029809078 0.094974674 -0.042606797 -0.062914498 0.09523087 0.066069894 -0.077999078 0.013074508 -0.071433499 -0.062607773 -0.09825585 -0.082634956 0.086036593 -0.077860147 -0.093441114 0.0055924319 0.011115091 -0.018547695 0.070148766 0.10751753 -0.056517627 -0.053976472 -0.093832865 -0.069681317 0.068434656 -0.0064577688 0.040719531 0.071701594 0.085044205 -0.023688326 0.01906229 -0.058614563 -0.099868305 -0.07277707 -0.099575341 0.07816983 -0.10072235 -0.078591377 -0.040750142 -0.02576465 0.034456387 -0.0028900527 -0.045325145 -0.06609764 0.10051218 -0.058450777 0.087542392 -0.0098752994 -0.076831356 -0.010883647 0.058034249 0.096284479 -0.080141515 0.10062303 -0.047448911 0.071235098 -0.099154979 -0.051676035 -0.0030520507 0.056654338 0.042531312 0.014672996 0.056089871 0.0061162016 -0.029967362 0.012417869 0.021329816 0.067205094 0.0480511 0.0084351962 0.042673931 0.058521274 -0.03332179 0.038578395 0.048366461 -0.086206429 0.022016458 0.0045989924 0.076522119 0.017779643 -0.053932123 -0.068612069 0.070532002 0.07862436 -0.10444499 0.007151044 -0.09488491 -0.00742146 0.063528664 0.09214925 -0.10897663 -0.07556276 -0.058474042 0.076156802 0.089789264 -0.058857284 -0.007411771 -0.04214124 0.034097143 0.094071805 -0.036583532 0.07400658 0.059811745 0.017737262 -0.064821638 -0.077530622 0.042057399 0.071763314 0.027188163 0.050079558 0.089292154 0.022590144 -0.10232256 0.069251977 0.021488393 -0.01734782 0.027152596 -0.07246726 -0.063477829 0.037047103 0.073206946 0.02452198 0.055131752 0.029630687 -0.024250392 -0.0080169663 -0.040538479 -0.017604023 -0.033326905 -0.047071587 -0.033753455 -0.057650916 0.040281124 0.040872142 0.066556692 -0.027467918 0.093139306 -0.023569331 0.048602562 0.053671915 0.005984351 -0.044033777 -0.032067332 0.0065152389 0.034766801 0.083004721 0.037763242 -0.0051685539 -0.0011515785 0.10239208 -0.081097268 0.072170429 0.096439131 0.09142492 0.044221364 -0.053464629 0.01401736 -0.065336376 0.025910005 -0.0029826046 -0.014140468 -0.016752496 0.011307281 0.058456119 0.076040305 0.01790479 -0.097849153 0.046992671 -0.063326441 0.029744327 0.00031047489 0.069322422 0.10332362 0.046210449 0.072321698 -0.055957288 -0.0028752033 -0.056501854 -0.035808906 -0.070193671 0.01867706 -0.081095383 -0.039276924 -0.031949002 0.023277147 -0.012811537 -0.058587857 0.013828119 0.058794502 0.018322578 -0.024790471 -0.021587057 0.11595134 -0.011511894 -0.069428675 0.076206326 -0.067052327 -0.087968089 -0.042130049 -0.049762633 -0.029956644 0.063485555 0.028562106 0.078264832 0.010131528 -0.069845252 0.025699966 -0.088312805 -0.012479556 -0.015973663 -0.045815971 0.028296877 -0.096109882 -0.022621538 0.07978674 -0.075752676 -0.039552066 -0.0074718134 0.014096402 -0.015969777 0.068922393 0.099895947 -0.11174998 -0.066921994 -0.08807075 -0.012915522 -0.015097275 -0.09527982 0.013731013 -0.028294502 -0.0015551237 -0.067172296 -0.079528242 0.093032084 -0.036946055 0.092491224 0.059193604 0.067467928 0.060817532 -0.0034566899 0.0047706133 -0.10698813 0.093041264 -0.024413642 -0.040784087 0.04057369 -0.026612708 -0.039683755 0.041034199 -0.0014929192 0.018421227 0.077171557 0.06327489 0.061586268 -0.088836119 -0.11328965 0.098255165 0.050679073 -0.049740739 -0.014567677 -0.0029055155 -0.024478108 -0.063589908 -0.10598214 -0.045713566 -0.012473144 0.037224062 -0.013201286 0.012888969 -0.038999025 -0.07322973 -0.076876864 0.052297372 0.040553432 -0.097981654 0.073768638 0.01746757 0.046880346 0.067631684 -0.0012297676 -0.10255216 -0.097106628 0.067293689 -0.032204524 -0.00058028265 -0.04267877 -0.013085855 -0.017546173 -0.02147858 -0.039333601 -0.014158488 -0.015406747 0.084596746 -0.070768856 -0.1024679 0.08097741 0.023544403 -0.033825703 0.029602276 -0.048052195 -0.042992707 0.084941797 -0.073669881 0.10056292 0.10207361 0.083538145 -0.067129739 0.096013553 -0.088907719 0.076142043 0.063961662 0.061364934 0.11769227 0.090859279 0.10125905 -0.053881131 -0.060041726 -0.02224632 -0.02777415 0.069956303 0.085131653 -0.11634942 0.044434544 0.0070944666 0.053415187 0.015966754 0.092084549 -0.019586623 -0.097170852 0.097504213 -0.078466289 -0.038466658 -0.068453431 -0.0077520283 0.064862244 -0.021311676 0.083556458 -0.11786018 -0.10229218 0.046034828 -0.087361641 -0.014636085 -0.070707612 -0.016937004 -0.083633006 0.07910914 0.018491752 0.072459146 -0.017274981 0.026037002 -0.014888905 -0.074999355 -0.032283615 0.0011857715 -0.023316454 -0.10619011 -0.058968179 0.072417878 -0.015494023 -0.11231571 -0.059516367 -0.05349135 0.056348875 0.015734663 -0.046798415 -0.088515498 0.026117682 0.10368372 -0.01632506 -0.099741995 -0.044744462 0.067182295 0.068212256 0.11545874 0.017068693 -0.06899675 -0.082125597 0.084873416 -0.092504621 0.10079735 0.092859417 0.047463678 -0.061371319 0.025266068 -0.067730114 -0.038844515 -0.079215206 0.087990619 0.093155697 -0.017766202 -0.050233703 -0.096990176 -0.013066762 0.073512904 0.0083729448 0.018487835 -0.026458533 0.092508473 -0.0038958089 0.0018232075 0.08869639 -0.029099528 0.049420305 0.055467736 0.059198156 0.025221456 0.029058268 -0.014678868 0.078065015 -0.038330823 -0.0070778681 0.053720683 0.028081007 0.057777457 0.082045518 0.0059039034 0.01327393 0.071923301 -0.0043848548 0.0074678049 0.012290944 -0.028239738 0.070086814 0.0060645198 -0.0077124014 -0.05756731 0.052849185 -0.050822232 -0.079954125 -0.059100442 -0.11745167 0.084779523 0.044800017 0.016304022 -0.019553972 -0.023144916 -0.067202821 -0.024648305 -0.08213193 0.099625282 0.017413624 0.0025192951 0.056287494 0.06504523 0.1022509 -0.06776803 -0.09767478 0.065946057 0.048198245 -0.044560838 0.066149846 0.08588738 0.016004469 0.0262869 0.044627964 -0.036157563 -0.0035166852 -0.077409282 -0.065707311 -0.0162709 -0.11209974 -0.0026596517 0.0062709809 0.075210966 -0.034783851 0.019492485 0.0090725664 0.0447791 -0.038686771 -0.048722263 -0.018461317 -0.049905878 0.10705452 0.012417991 0.0054575219 0.0035401438 -0.067098342 0.11552799 0.010638352 0.075387008 0.073337585 0.047978487 0.032520801 -0.04588908 -0.079846397 0.0044365171 0.068166062 0.010928263 -0.027088022 0.027699286 0.087042369 0.091227494 0.10531712 -0.028452173 -0.08112251 -0.035261273 0.083167642 0.034609817 -0.044920947 0.0073516746 0.0564343 0.0038624117 0.035493188 -0.008373403 -0.045770694 -0.060948487 -0.077981211 -0.092833899 0.080742218 -0.099809244 -0.0099196704 0.051515892 0.024538159 0.036432117 -0.060574047 0.058303833 -0.076331548 0.024206821 0.081672505 -0.082438156 -0.018924858 -0.057794094 0.086065203 -0.083890498 0.11019436 -0.081077151 -0.10497954 0.082392283 -0.006639339 -0.025811929 0.039017603 -0.076916233 -0.041689362 0.070051245 0.087228172 -0.0046265209 0.040183816 -0.024064958 -0.021483928 0.078087658 0.010796782 -0.023357648 -0.085791729 -0.020282144 0.052568536 0.074285664 0.068802923 -0.048390511 0.090336122 0.02851465 0.07085216 -0.010120561 -0.093978226 0.065816909 0.047644071 0.046846829 0.0158037 -0.10075874 0.029466985 -0.089829206 0.091883361 -0.072711647 -0.073085174 -0.090050347 -0.0006470182 0.09434627 0.080883257 0.058045235 0.035682973 -0.10560685 0.028895557 0.10353074 0.06214948 0.073891588 0.054365527 -0.085346885 0.054683808 -0.059326552 -0.035256702 -0.075665034 -0.062612787 0.060031187 0.0050295005 0.072412446 -0.055013251 0.0013939367 -0.020290151 0.080470286 0.077796556 -0.03799998 -0.030560482 -0.019689709 0.016898897 0.095496155 -0.023936747 -0.046658304 0.067806192 0.088026926 -0.019283554 0.067970529 -0.078067467 -0.035129964 -0.091134645 -0.022502005 0.052978631 -0.037579171 0.041798677 -0.074626587 0.080406085 0.084741913 0.045449946 0.011110111 0.030678503 -0.0053746738 -0.011506822 -0.082832806 0.021080179 -0.062184636 -0.055381298 -0.076244436 -0.094751127 -0.046151284 0.011754424 0.070185848 0.068002395 0.11189246 0.01043715 -0.069781564 -0.029297499 0.085089639 -0.06198154 -0.0067833723 -0.029302703 -0.011070074 0.047854036 -0.041551713 -0.054826606 0.077458002 0.049742561 -0.086012617 0.07757663 -0.10756271 -0.097530015 -0.059105475 0.066802107 0.038693633 0.035353821 -0.057253037 -0.035144549 0.028126691 0.0077166529 -0.028970463 0.033186596 0.031251371 0.06289088 0.10206701 0.090344667 -0.093527272 0.081238128 -0.025578283 -0.054461893 0.043185204 0.050346274 0.025413206 -0.035421252 0.073201425 0.058803581 0.11545532 0.079855368 0.046158988 0.0070061823 0.068382747 0.04793223 -0.02335519 -0.035014238 -0.092185736 -0.061623219 -0.0051074927 -0.054731928 0.05586154 -0.055790409 0.041293442 -0.078594178 -0.020499261 -0.082879893 -0.083742663 -0.093012691 -0.05508716 0.020165557 0.0010196466 -0.007384324 -0.085031398 -0.070873469 0.036491111 0.09388794 0.019833185 -0.068518639 0.014859269 0.054016419 0.052985705 0.041413646 -0.094604284 0.019785788 -0.10195584 -0.058260616 -0.11160444 -0.019472886 0.060067751 -0.025869122 0.0069694505 -0.042734548 0.09378615 0.03022887 -0.040953856 0.046062104 0.022532301 -0.11274809 0.0987451 -0.099394366 0.021456728 0.05821383 -0.020704858 0.034190893 -0.0074475235 0.03526834 -0.018350197 -0.0168765 0.065153599 0.059667319 0.067540959 0.080166832 0.053956632 -0.10715316 -0.013288546 0.04326041 -0.034840889 -0.070291631 0.034045741 0.035591647 0.11128098 -0.018796798 -0.059858173 0.072642803 0.029845333 -0.08633589 -0.023420963 -0.086920664 0.10292901 -0.020354364 0.031580266 -0.010833206 -0.054440256 -0.026637562 -0.057623245 0.086282916 0.019215036 0.086160727 0.092822149 -0.063020527 0.071452282 -0.015602619 -0.075414963 -0.053535212 0.06961263 0.081677608 0.010320992 0.028879823 -0.092451647 -0.037695598 -0.00017218158 0.031788986 -0.073980965 -0.096540041 -0.0092138648 0.044362243 0.056736909 -0.08550185 -0.030949496 0.094480343 -0.017158259 0.066410601 0.055918369 -0.024392957 0.087056667 0.039322183 0.097427204 0.012308934 0.044383697 0.11426286 -0.048869472 0.058194429 0.061770108 -0.068969995 -0.043156739 0.067598037 -0.096814021 -0.11447112 -0.013793222 0.10576322 0.082638346 -0.074453235 -0.045188684 -0.017027495 -0.027756261 -0.037864756 0.067541465 -0.058524519 -0.052459091 -0.078657061 0.042877659 -0.086749241 -0.050978296 0.055503692 0.055422429 -0.058112498 0.049011372 0.055743489 -0.025508309 -0.056745231 -0.063970245 0.033754323 0.001056485 -0.025778349 -0.012771305 -0.09280666 0.03343058 0.070743322 0.078055009 -0.087454483 -0.097713575 0.0081521198 -0.016424246 -0.02216851 0.017486643 -0.0086767618 -0.11102341 0.012122777 -0.057844613 -0.030379141 -0.082291931 0.019321071 -0.071873717 0.06917125 -0.039107647 -0.043417133 -0.022459732 -0.076372519 0.06638024 -0.087687992 0.062236343 0.018916668 -0.10832857 -0.09019006 -0.046621311 0.07675761 0.087668709 0.010175273 -0.075480513 0.11383848 -0.059187703 -0.089969479 -0.092582993 -0.051208723 -0.069479644 -0.056158554 0.090435699 -0.094970718 -0.02101849 0.062030826 0.098986931 -0.061201099 0.11616943 -0.056350064 0.024293086 -0.06455341 0.044794876 0.026686613 -0.055928063 0.0026763836 0.040254258 0.060625888 -0.079988979 0.088275284 -0.082734525 0.076461092 -0.04401803 -0.06268324 0.035478212 0.048182815 0.024785228 0.067985594 0.043529302 -0.066424966 -0.0201062 -0.066477604 0.023467822 -0.10985207 -0.030304661 0.032525185 -0.027445083 -0.08912994 -0.085342571 -0.0811809 0.0089247245 -0.086005911 -0.067442447 -0.045906145 -0.083818346 -0.047645349 -0.092010044 0.016795376 -0.10596382 -0.068987519 -0.098774813 0.064298928 -0.012614014 -0.050844867 -0.018994465 0.090497591 0.049923785 -0.026032582 0.022898678 -0.11919835 -0.0051135956 -0.037331354 0.093490779 -0.011908394 0.055586781 -0.031122003 0.060058843 0.04107251 0.013350908 -0.08087527 0.062942058 0.027509354 -0.083351515 -0.073410526 0.059296966 0.018212158 0.081357881 -0.0017805581 -0.060190685 0.072400995 -0.096222505 -0.027680192 -0.073932096 -0.045672212 0.0034695696 -0.043077845 -0.08058235 0.082475029 -0.0077490606 -0.0046515898 -0.042663664 0.094098181 0.030164912 -0.085472137 0.02036199 -0.036981281 -0.061559547 0.050693505 -0.12417094 0.057762273 -0.086564995 -0.08589457 0.01121252 -0.041876998 0.00050688954 -0.10502149 -0.051697787 -0.10810946 0.044626173 0.0027944534 -0.090983838 -0.016868608 -0.0062051765 0.043697804 -0.093814075 -0.098660707 -0.045274977 0.031515632 0.042986412 -0.077865005 -0.021460395 0.069900297 -0.067811295 -0.03122244 -0.072460666 0.011818499 0.042751059 -0.059696406 0.013930562 0.067403428 0.0088072363 -0.043601524 -0.018146941 -0.016683817 0.10828783 -0.023180099 -0.0041110017 0.022005297 0.089251205 0.096184343 0.017333185 0.022579802 0.11001296 0.0077351169 0.10773107 -0.034537572 0.072955571 0.090829544 -0.014556364 0.069416128 -0.034746334 -0.052031569 0.056867778 -0.10427559 0.018597675 -0.11015952 0.066935644 -0.074251041 0.051461171 -0.076380022 -0.051468275 0.095098913 -0.068961367 -0.063494846 -0.069375038 -0.023560166 0.056486472 -0.060970213 -0.028185558 -0.090655535 -0.051014539 -0.024911208 -0.081540458 -0.10280979 0.03973341 0.0092566004 -0.097487278 0.037194356 -0.057825711 0.03793592 -0.054676738 -0.1020968 0.08585041 0.038135 0.07134892 0.044320416 0.011188474 0.097515151 0.10405933 -0.0053218398 -0.080210432 -0.062167689 0.064481243 -0.079414017 0.0067122504 -0.070248216 0.072459809 -0.10722364 0.029715994 0.0088114226 -0.057791624 0.077712677 0.05353076 -0.069984883 -0.030991092 0.0049404958 -0.023801068 0.05584044 0.015727978 0.039179143 0.072943166 -0.003012575 -0.056084808 -0.06510891 0.013772951 0.059728682 -0.016544884 -0.095072947 -0.016456597 -0.077063024 0.044382479 0.009755292 0.01254162 0.00057751162 0.096308477 0.017371668 -0.06443011 -0.039883867 0.06749814 -0.054827686 -0.002962983 -0.044899907 0.076051779 -0.066349946 -0.055524506 0.038284656 0.034859136 0.10312174 -0.057476006 0.085957095 0.098071538 0.0014599103 -0.058117036 0.017735012 0.046517238 0.096238151 0.0027934806 0.021949904 0.024141461 -0.030486867 -0.064129435 0.078078605 -0.065881774 0.015243829 0.062552959 -0.058550786 -0.035037432 0.036950629 0.024236076 -0.021135118 -0.037146803 -0.052332625 0.078479983 -0.081093818 0.0069877971 -0.067192845 -0.063539505 -0.086560726 0.047208466 -0.094865918 