#Parameter# /_2 {370,198} 910090 ZERO_GRAD
-0.099095494 0.0650388 -0.016906323 -0.10295439 -0.12077302 0.065311596 0.024203861 0.11200208 -0.115464 0.11030175 0.1108915 0.043069936 -0.10577572 0.023379287 -0.032685652 0.007199056 -0.056537576 0.0083995722 0.012715756 -0.0043703066 -0.10617444 0.072844751 -0.12425838 0.024196921 -0.04084678 0.011252479 0.11551592 0.054143306 -0.059929986 0.10154074 0.10003633 -0.083296351 -0.068530262 -0.017274514 -0.10185295 -0.077966534 -0.041957024 0.063595004 0.036754977 -0.029090619 0.051300634 -0.007937599 -0.033166923 -0.066847809 0.02468315 -0.072910391 -0.11710928 -0.055182759 -0.1122423 -0.038255312 0.039061356 -0.056406707 -0.018500995 0.033139709 -0.083856881 0.017228816 0.0078917695 0.10274141 -0.10039607 0.053756982 -0.061909728 -0.043186806 0.072151154 0.063655324 0.030245874 0.059635378 0.063175254 0.078397237 -0.011710596 0.074245676 -0.0043993774 0.045669071 -0.031871907 0.0087597584 -0.056159548 0.041349743 -0.041863486 -0.0031487087 -0.065406643 0.018305181 0.11915918 0.0094877332 0.043090824 -0.01458542 0.018776923 -0.097463235 0.0087328339 0.045236651 0.01824791 0.0037702902 0.015578259 -0.045405924 0.051843073 -0.093987048 0.073163904 0.0066488278 -0.1192359 0.069862396 -0.077835307 -0.10079781 -0.089652427 -0.033711929 -0.10246934 -0.029323466 -0.016004456 -0.060734648 -0.067775406 -0.11235405 -0.089038797 -0.0043767085 0.10765463 0.0067273369 0.097920291 -0.12816535 -0.10820293 0.071819894 -0.095221072 0.015543974 0.062914506 0.048175905 0.10254333 -0.073683418 -0.080404639 -0.02801897 -0.013824066 0.028918374 -0.025803234 -0.060043324 0.021156769 -0.0080882106 0.067230098 -0.090743899 0.032450579 -0.00045284422 -0.079799905 -0.038101103 -0.03224441 0.045189459 0.005534179 -0.045332663 0.0085793147 0.043800183 0.019239003 0.00040083416 0.071851343 0.018142151 -0.026122322 0.0082550878 -0.071468264 -0.0037902491 -0.067981884 -0.047137432 0.03148748 0.11826856 0.055081211 0.067822732 -0.05245189 0.081639037 -0.032561049 0.050691869 -0.073101237 0.099550761 -0.040689006 0.09212748 -0.092110939 -0.057977002 -0.03997672 -0.072726734 0.0074941758 0.026392145 -0.021556435 -0.020230653 -0.046336595 -0.035122331 -0.036117595 -0.047321796 0.035516761 0.032198928 0.080014795 0.0043423623 0.075450771 0.07708852 -0.069363087 0.10475617 0.01547813 0.052108217 0.12902147 -0.11094591 0.031579658 0.079666205 -0.037764717 0.016845463 0.013911311 -0.037719719 -0.02667189 -0.012688635 0.025113109 -0.077660553 -0.012945466 -0.067553096 0.11417837 0.027791489 -0.0074245487 -0.041204657 0.063715331 0.075206779 -0.10003068 -0.024683196 -0.034703586 0.056464359 0.068909891 0.0099743987 -0.10240457 0.058931656 -0.035588898 -0.013769379 -0.12851748 -0.03386597 0.033626139 -0.073179968 -0.054124702 0.081012778 0.045759976 -0.056637403 0.045539912 -0.011860097 -0.00013922197 -0.034372002 -0.080134079 -0.075480871 -0.035821348 0.048234899 -0.0034238393 0.0051509058 -0.080040678 -0.07555116 -0.026343394 0.103058 0.075187258 -0.04844464 0.063464664 -0.023717428 0.01476851 -0.059537623 -0.054801866 -0.054350913 0.070204154 -0.10003878 -0.068086557 0.006717002 -0.074774064 -0.019388378 -0.065143794 -0.045658167 0.044033263 0.10016152 -0.11656249 0.076909527 0.094840966 -0.057258423 0.042774502 0.01922684 -0.02763542 0.05911627 -0.096305475 -0.064415053 0.017121594 0.045583833 -0.08434809 -0.077380218 -0.036491696 -0.11450383 -0.088780686 0.024119748 0.029700976 0.073521025 0.043318506 -0.097520567 0.068656065 0.019459406 0.020330051 -0.060024444 -0.081822984 -0.032879405 -0.066518299 0.041699965 -0.026001997 0.05475169 0.10708279 0.024003757 0.077229775 0.10659945 0.040987067 -0.10762072 0.071942329 0.003725748 -0.061207373 -0.059975721 0.071977019 0.034148764 -0.027097885 0.025540181 -0.10097113 -0.060860716 -0.11045109 0.0074052312 -0.020246232 -0.043816376 -0.039678209 -0.016732603 -0.055647444 -0.096684605 0.0048982501 -0.06506855 0.077359609 0.051828545 0.062714607 -0.11615884 -0.093039781 0.02629832 -0.11793116 0.071679272 0.0077390363 -0.082819238 0.0073847044 0.12036185 -0.076726615 -0.020189846 -0.019595275 0.096907608 -0.064757124 0.061285503 -0.024911301 -0.069534205 0.01586383 -0.0060735457 -0.0041392078 0.036017444 0.047608882 0.03999541 0.039853662 0.086309552 -0.050364546 0.010489316 0.066896915 0.065631397 -0.015689641 -0.070549317 0.036039669 0.074933887 0.077376366 0.07658685 -0.021802343 0.032792695 -0.06522432 0.053951059 -0.052056957 0.051830713 -0.0045663156 0.033093117 0.0086210491 0.038380291 0.098490775 -0.11148597 -0.067442678 0.099791534 -0.053587291 0.064438812 0.096287593 0.090095453 -0.027872084 0.048772968 -0.022025887 -0.10132541 -0.010489454 -0.023218004 -0.039173011 -0.056706119 -0.071374208 -0.060447633 0.011184889 0.073357224 -0.037838653 0.087990306 0.0719705 -0.005623254 -0.083081588 -0.028342066 0.1053023 0.052383523 -0.00083168945 -0.013762739 -0.0066399877 -0.092313401 -0.057466302 0.029217822 -0.065114111 0.0060392576 0.0067761894 -0.043463666 0.099813804 -0.061493494 0.021531023 0.0055363025 0.043343015 -0.052650899 0.088423193 0.017842917 -0.071755908 -0.049054675 0.048241232 -0.015497143 0.091532998 0.0063045523 -0.058301449 0.032924503 0.02673037 -0.0013921678 0.065527618 0.080783926 -0.032303032 0.065892205 0.039476294 -0.046967983 -0.047831096 -0.042177934 -0.033759966 -0.090991065 -0.063171886 0.018521382 -0.039158769 -0.060516816 -0.073890835 -0.096015185 0.078024365 0.05448091 -0.070624486 -0.0022685472 -0.082540996 0.0065534199 0.052541677 0.021038901 -0.027629765 0.034843478 0.11103655 -0.037238296 0.037865423 -0.034993425 0.066019274 -0.030091494 0.085863538 -0.08978077 0.020831505 0.045381196 0.015948277 0.010887253 0.084746793 -0.069916584 -0.04048235 0.048950594 -0.082991026 -0.068484247 0.036158267 0.082769893 -0.050297111 0.012235056 0.084365398 0.070944279 -0.08756946 -0.079007581 0.10952649 0.08756505 0.072676294 -0.055890705 0.085097723 -0.014425188 0.068401448 -0.084203131 0.043731034 -0.057023749 -0.091676459 -0.036419377 -0.0077268039 -0.077889681 0.053967595 0.10634527 0.039743699 0.069397338 0.023963597 0.019249773 -0.041007202 0.035888739 0.059610195 -0.032250319 0.069448687 0.094115138 -0.0097308718 -0.057885505 -0.021849966 -0.094193973 -0.030679977 -0.0038774286 0.086923584 -0.046899743 -0.078001671 -0.061820056 0.01083083 -0.095065519 0.0015830487 -0.0011374737 0.075804494 -0.0051861615 -0.022628345 -0.074904233 -0.086126782 0.017661078 -0.069412731 0.099696577 0.0010692031 0.076716825 0.087821148 -0.063948065 -0.077179611 -0.055594027 0.072230004 -0.0053905449 -0.019736264 -0.086335331 -0.080703206 -0.077070795 0.043017514 -0.0034538002 -0.06405507 -0.05052783 -0.059198454 -0.053578727 0.1074651 -0.032554384 0.024931569 -0.021039756 -0.090511493 0.034092523 -0.016199432 0.10305174 0.06432239 0.035211489 0.097426191 -0.067163341 0.06963148 -0.010227683 0.056697417 0.012037629 0.041792933 0.020126577 0.087412782 -0.090523981 0.038380437 0.030783791 0.080030732 0.037770294 -0.075861759 0.0069309026 0.015982848 -0.0068698768 0.097404957 0.02977092 0.062968917 0.02878763 0.08436656 0.052436791 0.018018642 -0.038718164 -0.093061067 0.090057127 0.039816361 -0.069496833 0.10509256 -0.0246039 0.08345931 -0.076632649 0.022652686 0.10309757 0.086215302 0.091207437 0.049239445 0.08547309 -0.023562022 -0.063437849 0.081315517 -0.021476347 0.10199154 0.00039478077 -0.09731748 -0.051282857 0.010147437 -0.060956988 -0.029453341 -0.089219056 -0.030841788 0.0096668405 0.043221992 -0.058850039 -0.037055608 0.10792265 0.041306872 -0.08367455 -0.065885089 0.038506597 0.076131947 0.076153018 -0.087636665 0.088096537 0.0210086 0.098623976 -0.068725683 -0.076909602 -0.10057868 0.0036135849 0.033196598 -0.10629299 0.057116434 -0.072222866 0.079049744 -0.078883268 0.040294077 -0.01302648 0.087164357 -0.097484365 -0.085381143 0.012074644 0.073624454 0.015489231 -0.0006860299 0.035694908 -0.0055316053 -0.07037431 0.10439944 0.057015602 -0.0035426568 0.059848305 0.06367325 0.049225394 -0.066925973 0.0095974905 -0.041310403 -0.0037144276 0.0063093659 -0.1075921 -0.03331992 -0.054062441 0.075129561 -0.076605439 -0.011445597 -0.027442213 -0.056868326 -0.07718353 0.062561952 -0.025015319 -0.072362155 0.039224431 0.033511408 0.054169297 0.034258965 -0.032147057 -0.040912479 0.052091777 0.09704227 -0.072998084 0.022565702 -0.1142416 -0.076326214 0.083019756 -0.04644658 -0.0021849193 0.079476863 0.074049629 -0.013091317 0.042978708 -0.076643765 -0.0516259 0.063592307 -0.069316052 -0.0090268534 -0.072524123 0.05817854 0.047256563 0.057520725 0.062322821 -0.021948062 0.038374506 0.0084517486 -0.021796912 -0.072735436 -0.0038641396 -0.081135519 -0.073315375 0.041868355 0.095220946 -0.037106078 -0.021292837 -0.054193772 0.089942701 0.03051425 -0.083729953 0.023992071 0.0091910157 0.10389853 0.0060351109 0.066290908 0.087677598 0.020921458 0.012401346 0.060085814 -0.0095009608 -0.063394673 -0.054011475 -0.098409534 -0.025534984 -0.092662133 -0.039483104 -0.097511597 0.064933926 0.092308827 -0.099689417 -0.092234701 0.025747761 -0.035781551 -0.028774712 -0.099855945 -0.034210674 0.058210533 0.068416387 -0.054400813 -0.028728062 -0.077972807 0.04120991 0.068504341 0.027647175 0.033204515 0.070847094 0.09375675 0.011903193 -0.081321977 -0.071677133 0.048140779 0.12444689 -0.037995029 -0.073674783 -0.047729567 0.052206703 -0.091504037 -0.083838575 0.060519148 -0.068875641 -0.050235331 -0.052561283 -0.10890599 -0.048717394 -0.096005008 0.050291058 -0.052654471 -0.027167087 -0.07140094 0.060412429 -0.0035724617 0.030029757 -0.013459304 -0.050556228 -0.088006586 0.0088111842 -0.011051129 -0.06693656 0.053815529 -0.096154019 -0.10662806 0.033147722 -0.072725609 -0.020916903 0.074231617 -0.051396616 -0.043983594 0.082025811 0.067793004 0.055438407 -0.02489426 -0.11634482 0.012531864 0.12150625 0.017010486 -0.017434375 0.026606558 0.036077607 -0.081092037 0.045349471 0.081261486 -0.092587769 0.032439206 -0.089346237 -0.123695 -0.058425024 -0.033589091 0.086477019 -0.016815435 -0.01077428 0.024237962 -0.023949359 0.079560325 -0.037640113 -0.091294259 -0.036896285 -0.022741424 -0.11093626 0.025344802 -0.03859308 -0.053954892 0.047769621 -0.063761756 0.073498145 0.13205421 -0.082100943 0.027710021 -0.012768091 0.039607018 -0.069661319 -0.010708595 -0.059644151 -0.091502577 -0.036183897 -0.076236159 0.1221837 0.06804654 0.053585991 0.055202778 -0.094822191 -0.088217966 0.069247916 -0.042740278 -0.055017859 -0.10366802 -0.07489185 0.030269595 0.053347256 0.015411516 -0.084913395 -0.038793754 -0.027945234 0.030442696 0.053463921 0.073050193 -0.044592138 0.069110163 -0.10170276 -0.083261974 -0.098846018 0.0042032441 -0.037082069 -0.06136822 0.039724827 -0.011684625 0.048180409 -0.04007351 0.005485821 -0.060664084 -0.049252942 0.021889476 -0.039829906 0.077808179 0.093442097 -0.013541928 0.070117436 -0.069421262 -0.0025612211 -0.041703217 -0.017170958 0.0056554945 0.0094341766 -0.086800426 0.068152122 -0.023773702 0.08198557 -0.00036483133 -0.054265074 -0.075880907 0.044226032 0.016757883 -0.062277406 0.059913043 -0.028251197 0.037567217 0.032228306 0.028426265 0.0083178235 -0.039537527 0.075411886 -0.095447868 -0.027466247 -0.079775997 0.024911154 0.077731699 0.085362501 -0.00028217505 0.029047227 -0.060503881 -0.069666371 0.072754838 -0.077715181 0.038720619 0.12477501 0.075044945 -0.057164382 0.043682724 0.011557682 0.018333014 -0.11277925 -0.11817327 0.0006734546 0.046705101 0.016715664 0.047850806 0.091634609 0.0025767607 -0.00061449874 -0.072297752 -0.015640648 0.096996911 0.11072059 0.013038618 -0.011803065 -0.040947065 -0.068830252 0.094112977 -0.050319184 -0.018211147 -0.033921417 0.028150959 -0.087110579 -0.0069023408 -0.070927419 -0.049279209 0.022373939 -0.070585951 0.058972873 0.007006791 0.095296368 -0.030192129 0.032400645 -0.03673774 -0.071001261 0.061171625 0.0029678326 0.03865106 0.012621129 -0.079391636 0.0060357535 0.071209691 0.05340182 -0.055819985 -0.024041431 -0.016777406 -0.024951572 0.019898621 0.049044553 0.055728491 0.059431709 0.027568011 -0.07337033 0.0458542 0.0058884285 0.10621101 0.037388969 0.095765188 0.013943865 0.10773725 -0.12217843 0.072418146 0.023187183 0.083269127 -0.078266643 -0.067123398 -0.010693026 -0.026859546 0.084154963 -0.055315048 -0.058858231 0.07638818 -0.050470982 -0.0034017607 -0.070580184 -0.072536163 -0.056427021 0.057136897 -0.093564294 -0.019169267 -0.062374596 -0.12575535 -0.067475826 -0.039901026 0.011826316 -0.024956167 0.031267267 -0.021138541 0.046609916 0.028453086 0.023293348 0.089151308 -0.072255298 0.019912282 0.0049846056 -0.030622398 -0.11649659 0.083295815 -0.019136833 0.081027292 -0.096331932 -0.074575447 -0.052187689 -0.10032899 0.064146467 -0.10751291 -0.010791625 -0.058006898 0.019686101 0.041843012 0.0075432207 0.013355464 0.03507366 0.033644158 -0.049698867 0.039261483 -0.028252739 0.072464548 -0.088398039 -0.0091089867 -0.027131982 -0.099403061 0.058990102 -0.09097968 -0.095387995 0.018233044 0.0039383774 0.046881087 0.087220751 -0.029836943 0.061445426 0.077783488 -0.065250702 -0.028329112 0.055508662 -0.0018577068 0.046790306 0.067287467 0.079444028 -0.073521048 -0.097134337 -0.088238522 0.049243711 -0.022805888 0.06155834 -0.095752805 0.07680057 0.049105696 0.06320525 -0.058276128 0.056744218 -0.049885761 -0.026941247 0.057336122 0.072522499 0.0066792737 0.029882252 0.070844352 -0.0022362254 -0.045454573 -0.00075196923 -0.052930061 -0.093157344 0.11708239 0.051493626 -0.073514253 -0.0072627165 -0.11468856 0.039581563 0.00099175866 0.11228894 0.055412754 0.08224503 0.016372541 0.13802578 -0.0058841724 0.034255367 0.084373616 0.028307965 -0.03594245 -0.014171573 0.053834226 0.019390672 -0.079743937 0.059581395 0.021550665 0.012713572 -0.024132691 0.064143613 -0.047826935 -0.025243897 0.10123236 -0.03178817 0.061792959 0.029692141 0.038413629 0.072578773 -0.015674789 0.017588422 -0.019551469 -0.099244297 0.047951791 -0.054151323 0.0093467254 0.01775353 0.1058153 0.075088575 0.019682206 0.10775689 0.0079664951 0.029516032 -0.046298094 -0.090647072 0.010101194 -0.051661808 0.03656682 -0.027051844 -0.077058218 -0.023011532 0.11188518 0.063982978 -0.079506576 0.014870494 -0.027878888 0.074536212 -0.027376957 0.11317483 -0.0019935209 0.037250187 -0.0563072 -0.052553266 0.081647284 -0.079253823 0.11775538 0.092470057 0.020312231 0.045291327 0.09532325 0.045037623 -0.058223251 0.046618607 0.0051700938 -0.0064061023 0.03769723 -0.055491261 -0.0063095712 0.10747465 -0.0051231454 0.082230188 0.062416963 0.054952733 -0.033556283 -0.084529422 -0.036667328 -0.084835641 0.0230843 -0.028430151 0.012697637 -0.03498159 -0.00017051183 -0.095716894 0.026674856 0.010379332 -0.052714851 0.050008576 0.033935118 0.077201456 0.12406204 -0.027179498 0.0051207286 -0.086575814 0.028305594 -0.091660351 0.070812814 0.040953759 0.03811264 -0.055180915 -0.070286408 0.06927608 -0.079482734 0.10008635 0.011483075 0.037461806 -0.020323917 -0.088140167 -0.015499507 0.0037559555 -0.081310868 0.12445596 0.070473976 -0.0055062608 0.092542492 -0.12914681 0.093172446 -0.10658468 -0.0093775205 -0.051486064 0.068343148 0.12767988 0.12963219 0.03829433 0.093615435 -0.027585151 0.047697954 0.09914317 0.075184532 0.052932546 0.020463906 0.00022743551 -0.083024167 -0.049824424 0.043687932 0.065303095 0.14978901 0.036623951 -0.062478717 0.033015259 0.024086243 0.035121024 0.057901625 -0.078162506 -0.045848478 0.01122056 0.07370761 0.050673116 -0.059297435 -0.029346151 0.089280002 -0.0536783 0.012543939 -0.08040534 -0.12725627 0.11335664 -0.0087419897 -0.1130553 0.1207399 0.11675039 -0.099206209 0.087245561 -0.049003381 -0.073788829 -0.0095609613 0.048815116 -0.059738211 0.07689102 -0.1268777 0.094705664 0.069348015 -0.066040732 -0.088040888 -0.076393455 0.1275305 -0.0085754758 -0.0046250029 0.036830131 -0.04561729 0.097746417 0.014273884 -0.012416058 -0.018570507 0.0070331302 0.02838042 0.0167608 0.083778523 -0.065637544 -0.052363269 0.078510031 0.01985414 0.03555974 0.091427177 -0.06256254 -0.050759055 0.0056030536 0.0048865601 0.049143776 -0.10293023 -0.070252933 -0.004594123 0.070361458 0.012198768 0.074359611 0.004756412 0.024731304 -0.056024265 -0.0036718117 0.12022498 0.070900284 -0.046917703 -0.011935756 0.028974595 -0.050714549 0.03407196 -0.072061069 0.036976069 -0.029914111 -0.10032659 0.016684677 -0.089565381 -0.049932297 0.075332016 -0.096706301 -0.09165436 0.099885382 0.10738388 0.012977024 -0.036248181 0.050196696 0.11383586 -0.004298036 -0.04894967 0.075523108 -0.00073848502 0.058332223 0.13576871 0.071661919 -0.053856578 -0.054421633 0.086451076 -0.017079143 0.0095840963 -0.033930901 0.024702804 0.039082889 -0.00035717827 0.11608407 -0.026335426 -0.010639085 0.027953248 0.015164454 -0.098695874 0.082155384 0.026689438 -0.027409794 -0.080515414 0.062451564 0.0082588596 0.023591964 -0.023251649 -0.033789385 0.096465349 -0.040835537 0.048413612 0.0729082 0.04509116 0.098768614 -0.086899564 -0.10981714 -0.084067941 -0.021018961 0.021760844 0.05445791 0.094388202 -0.094884992 0.11780365 -0.032513779 0.10850601 0.021306584 0.037674677 0.051108439 0.0013824463 0.083988145 -0.0043702377 0.084738694 -0.022344539 -0.039920367 -0.034961272 0.1278796 -0.010400717 0.05995274 0.042748425 0.058637723 -0.055058267 0.034929778 0.0068755704 -0.012309209 0.10760809 0.088878803 0.044766426 -0.063807227 0.0469172 -0.11969996 0.036011316 0.066442266 -0.0057006059 -0.076902658 0.054027531 0.044618025 -0.022216739 -0.088028327 -0.10358923 0.10588547 0.014443441 0.022196073 -0.072644033 -0.044341926 -0.038491242 -0.017786002 0.094465405 0.065186732 0.026862748 0.027425939 0.019217044 -0.02062091 -0.0012186144 0.0087267663 -0.067080885 -0.0072790715 0.023511544 -0.080858044 0.028972745 0.014488638 -0.0905421 -0.10122804 0.11603236 -0.033893529 0.017589105 -0.05966451 -0.026021507 -0.087249562 -0.013118523 -0.031125091 0.02264069 0.023387266 0.071695425 -0.067676969 0.026371738 0.082073778 -0.059736013 -0.041659605 -0.01660775 -0.01607202 -0.054568652 0.020905316 0.10341846 -0.048118912 0.12222239 0.02838899 0.045986477 -0.087118492 -0.057853349 -0.031555172 -0.024353718 0.054377653 0.016289828 -0.091358423 -0.025018724 0.071750917 0.027094495 0.074536942 -0.03222977 -0.0729011 0.037061676 0.091920719 -0.057465728 0.0025787074 -0.091883846 0.066440932 0.062875479 0.10306143 0.10332528 -0.044545308 -0.064618483 -0.063734412 0.075867474 0.083091967 -0.020342086 -0.053674221 0.090039976 -0.080112189 -0.083823636 -0.034510162 -0.045327242 0.026939949 0.017555486 0.011124487 -0.072936252 -0.048619181 0.0084107555 -0.042548474 -0.096990764 0.025737885 0.069877841 -0.077634253 -0.05033996 -0.036600661 -0.024524409 0.028657068 0.030719995 -0.050335087 -0.05738461 0.044975188 0.02821615 0.037777454 0.062949538 -0.10388875 -0.081873588 0.083729498 0.0052936701 -0.057962853 -0.027567569 0.080458358 0.11056003 0.066007517 0.034947637 0.067446299 -0.014933133 -0.0050184419 -0.034374528 0.10849833 -0.033281296 0.016801953 -0.027441617 -0.028409535 -0.10567336 0.010322374 -0.058758911 0.094177991 0.032836996 -0.08145424 0.01370899 -0.09118592 -0.029496472 -0.048682392 0.01641033 -0.070613123 0.092752069 -0.05788077 -0.045035079 -0.054223612 -0.045109909 -0.031411462 0.0048499829 0.026284812 -0.041904848 -0.081048779 0.071277738 -0.041390628 0.023771834 0.089842089 -0.046273176 0.061455935 0.068404935 -0.048294935 0.095412672 0.013365134 -0.084981889 -0.081549115 -0.021595594 0.01996007 0.097075775 0.0012247631 -0.07093028 -0.035251699 -0.042085052 0.089818113 0.073973 0.049157184 -0.0040855007 -0.023057085 0.064818583 0.10316757 -0.061865926 -0.067360684 -0.0051799039 -0.11070875 0.011083246 -0.10805117 -0.071243629 0.058761477 0.065511607 0.024597717 0.020263383 0.057498232 0.025133794 -0.028918933 0.099195413 0.088806994 0.037665155 -0.086908393 0.067225449 0.045118671 -0.045121502 0.095312409 0.08618769 0.0667184 0.07414864 0.071525715 0.0089087337 -0.037218466 -0.10535967 -0.1020915 0.017430134 -0.082905464 -0.032544088 0.0080065466 -0.055746242 0.082226433 0.034802455 0.0055810553 -0.026986493 -0.072790191 0.055128209 -0.042200714 0.044189986 -0.012800334 0.02090087 -0.080020398 0.011716512 0.011956363 0.062745556 0.076146193 0.010025698 0.089547642 0.020206816 0.096522823 -0.1170561 0.042449065 -0.038986247 0.039736416 0.062431809 -0.02610288 -0.051707473 0.08830338 0.045934275 -0.088585295 -0.00093100755 0.045052368 -0.094735757 0.046113659 -0.11101881 0.035328176 -0.018674765 0.050534029 0.10554363 -0.074841999 -0.05456233 -0.063633852 -0.074747905 0.065477408 -0.10639221 -0.058106381 0.0010739713 -0.095353425 -0.094839446 0.058685243 0.043675814 0.084164001 0.081902541 0.034758806 0.11136024 0.065155655 -0.052688748 0.043174934 0.030944349 0.04177814 0.076408073 -0.0063848151 0.0091261845 -0.0951913 0.04232629 -0.0015502194 -0.029338747 0.0013113091 -0.10981044 -0.020433484 0.1209166 0.026211416 0.10541134 0.017348884 0.12099338 -0.037930362 0.040586989 0.040376905 -0.071299605 -0.071057126 -0.051772237 0.080700576 -0.0052844561 -0.01181727 -0.064060919 0.076748401 -0.025758337 -0.0082409205 -0.023995822 0.057868756 -0.10099015 -0.044385262 -0.061214063 0.021038489 -0.0050693778 -0.02693918 -0.025182985 0.078232951 -0.092345804 0.013696423 -0.0034326017 0.10210049 0.087759033 0.11384361 -0.033726323 0.027202338 -0.079924881 -0.019044982 -0.088504285 -0.012737389 0.020486873 -0.08818832 0.025604418 -0.007322588 0.072934672 -0.00064890244 0.016523276 -0.048804916 0.03841804 -0.041387312 -0.014388581 0.096410163 0.057659958 0.02401237 0.022259505 0.028892308 0.032373328 -0.027867865 -0.068807855 0.077417754 -0.027156834 0.049390003 0.029444486 -0.097984448 0.0062929327 0.072095424 -0.1161816 0.04625855 -0.080985852 0.048870213 -0.08730524 -0.018714802 0.009622328 -0.069014095 -0.059502866 -0.0089197457 0.00029629623 -0.00033517252 -0.032154296 0.084867001 0.048803009 -0.10270443 -0.087305106 0.0038194843 0.0036214148 -0.034724783 -0.072020836 0.010924507 -0.010989255 0.02063386 -0.025333339 0.0049199602 0.022561926 0.075954638 0.033369754 -0.084356479 0.070662908 -0.037294704 -0.075778209 -0.00086515211 0.1047976 -0.072271451 0.044679008 -0.07283178 -0.0072447546 0.00050227006 -0.059120826 -0.024625953 0.062237162 0.074103914 0.010829789 -0.074493431 -0.031041192 -0.093248352 0.076734848 -0.059730962 0.07139907 -0.022022663 -0.064244218 -0.054039892 0.020063151 -0.072567873 0.081309088 0.04836997 0.062777415 0.061387431 0.013668735 -0.0017658711 0.095652871 0.042828374 0.059178967 -0.0059507145 -0.016952164 -0.082161263 -0.03197949 0.10152804 0.018257407 0.094062842 -0.097702406 0.016327173 0.018526966 0.076429188 0.10447913 0.062541321 -0.081655279 -0.07210806 0.052446894 0.0032428314 -0.070594519 -0.058279913 0.016315682 0.090038806 -0.095781818 0.025534725 -0.061114788 -0.060757514 -0.063639857 0.044189412 0.090403408 0.075834602 -0.081183903 -0.063470609 0.08231362 0.0069290246 0.035916351 0.072585501 -0.068479136 0.020615324 0.045479253 -0.09688253 -0.099151097 -0.049989466 0.103981 -0.0086455084 0.032621015 0.050365821 0.096970186 0.055417236 -0.07197991 -0.11446927 -0.0064009326 0.089409813 0.052466895 -0.065886922 -0.013680795 0.072047725 0.07969173 -0.040359821 -0.029682003 -0.010296866 -0.071480058 0.038984377 0.089796633 0.026892083 0.07825096 -0.11172602 0.081422836 -0.069568604 0.014311335 -0.0083744461 -0.01737622 0.030380743 0.09893021 -0.036770608 0.1044355 -0.0069742892 -0.049833577 0.10186509 -0.016590564 0.067044668 -0.012008127 0.039130297 -0.022626566 0.088775106 0.074012287 0.092044413 0.043429077 0.02297253 0.011802262 -0.00488882 -0.067156203 0.046737984 0.046017755 0.029395239 -0.0039728265 0.070665017 0.077418737 -0.012235435 -0.041395608 -0.054252263 -0.030360315 -0.049273681 -0.030739754 0.054797422 -0.011110607 -0.029937733 0.077855483 0.086102307 -0.016646918 0.065718547 -0.049683813 -0.05493388 0.064067855 -0.022531565 0.067990907 -0.0011003403 0.049026471 0.016888898 0.088576123 -0.045373943 0.023022462 0.051837947 0.059402853 -0.1045057 0.006772541 0.05034291 0.094268665 0.088885128 -0.047773879 -0.017427485 0.032732472 0.05098946 0.059494972 -0.003574871 -0.063538946 0.0158334 0.010667256 0.051563054 -0.081583746 0.099439584 -0.075616322 0.075541802 -0.052215856 0.063997097 0.089389957 -0.069807515 0.0929958 0.076999076 -0.033585694 -0.039280765 -0.051616874 0.099185273 -0.080867313 -0.065989636 0.094676174 -0.048766363 0.068826959 -0.029827628 0.02298397 -0.081335686 0.064561322 -0.077078305 0.075045072 -0.067929015 -0.023701949 0.063352361 0.098849222 0.03937028 0.075012065 0.055396885 0.012325378 0.06048917 -0.032595523 -0.022783138 -0.067027278 0.027176199 0.071501717 0.017588027 -0.019086307 -0.0098988712 0.025714036 0.072213314 -0.042863607 -0.098317161 -0.017411297 -0.045523897 0.0079152854 -0.10447423 0.0016872536 0.083284169 -0.0027052988 -0.030443771 0.038471378 0.086157829 0.05438029 -0.026194852 -0.066928238 -0.096828714 -0.10751304 -0.061090548 -0.035470411 -0.091958821 -0.017488152 -0.08844772 0.097460642 -0.056697562 0.10538463 -0.06639602 0.047347412 -0.077795371 -0.081983812 0.083435051 -0.013131612 -0.011584014 -0.021878565 0.013675302 -0.061406069 0.037751757 0.078320108 -0.054588765 0.074598432 0.013973905 -0.021107577 0.086930916 -0.0050257603 -0.085320413 0.014878802 -0.032150555 0.019236738 0.07306391 -0.043606572 0.043205284 0.021299601 -0.087533303 -0.051113166 0.1039447 0.070089333 0.022843361 -0.01769031 -0.052152205 -0.077733599 -0.00093478791 0.035045698 0.057151068 -0.10119873 0.043437462 0.080155723 0.073639534 0.068428829 -0.047490414 0.088923067 -0.06177409 0.014402544 -0.077837467 -0.0031313691 -0.0092473682 -0.012624026 0.054864407 -0.028821748 -0.0037462721 0.10182071 0.032727551 0.013527633 -0.077443741 -0.032953355 0.0029772108 -0.11721841 -0.08718957 -0.034815479 0.025954092 0.10580564 -0.070659034 -0.039616384 -0.067111164 -0.01866235 0.0090522012 0.077164106 -0.092861615 -0.063710116 -0.033306006 -0.024881564 -0.024918303 -0.084451266 0.0021685218 0.0040213927 0.053706303 -0.0029406957 0.064644337 0.059980284 0.067425713 0.064326711 0.074327305 0.072152294 -0.0074218214 -0.035768233 0.073906548 -0.015135116 0.0053178812 0.0024240499 0.04154605 0.064515553 0.022872712 0.088804059 -0.030186137 0.019100027 0.088402167 -0.080648266 -0.034136601 0.02716993 0.022775266 -0.080359563 0.063066773 0.068029143 -0.062950574 -0.041410703 0.032194722 0.067320332 0.029737094 0.053819414 0.068214796 -0.0638965 -0.037700653 -0.056216832 -0.013279234 -0.069768287 0.019460686 -0.027195806 0.061833147 -0.058275778 0.030421404 -0.024295416 0.096894667 0.050243709 -0.052783627 -0.081475869 0.10755748 -0.020288019 0.06531176 0.088018671 0.011893591 0.010027755 0.039430086 -0.012679986 0.0086094495 -0.034980457 0.023257187 0.015211219 0.0027691787 0.065904282 -0.0022505543 -0.0598961 -0.061664935 -0.084897168 0.025592761 0.020955054 -0.048061274 -0.056233499 0.036633819 -0.043550882 0.10047758 -0.076745778 -0.046529323 -0.061264455 -0.050417803 0.1071138 -0.0032634989 -0.08042188 -0.095134683 -0.083931096 0.055470344 -0.09778823 0.066153474 -0.082597502 -0.085458644 0.070549466 0.045757417 0.022023886 0.093030885 0.12983511 0.026902396 -0.08045426 -0.037672833 -0.094013192 -0.047160592 0.082603768 -0.092674345 -0.064388886 0.075967573 0.016654067 0.098307803 -0.042483866 -0.023895817 0.096570179 -0.052318919 -0.10272262 0.06241041 0.0095951315 -0.099037886 -0.016397497 0.094649158 0.10140762 0.10768222 -0.026919411 0.011309354 0.078182571 -0.083075427 0.0073754815 -0.0091220075 0.050128829 -0.052146152 0.031651031 0.047703296 -0.029207425 0.086995952 -0.052948222 -0.055744238 0.082468621 -0.0010564413 -0.07991042 -0.11501861 -0.017079834 -0.079365186 0.038083412 0.018761432 -0.057900615 -0.039623275 0.058676723 0.094812661 0.044512976 0.048669685 0.0095935762 0.0071977857 -0.0061093234 -0.013048286 0.078268901 0.056171279 0.058598984 -0.083421536 0.063839823 0.021026067 0.038334828 0.078867637 0.08186654 -0.016589476 0.10891798 -0.080514133 -0.087627783 -0.00015072792 -0.095789067 0.090446755 -0.010789961 0.05260722 0.035108123 -0.040138964 -0.072175503 0.10152377 0.10099292 0.066520363 0.073477663 -0.025563177 -0.076045565 0.059742618 0.075109698 -0.034988619 -0.031477381 -0.034736942 0.046757188 0.05583366 -0.044077519 -0.048146904 -0.095138736 0.063684456 -0.076690987 0.073385157 -0.049412359 -0.055055365 -0.062350582 -0.094301358 0.022268821 -0.091122456 -0.036406908 0.030508433 0.021720579 -0.030872811 0.084387444 0.0047932011 -0.10490842 0.087190531 -0.048561502 0.00045175559 -0.039655861 -0.078248307 -0.047081936 -0.038469475 0.033476304 0.084674008 -0.059094392 0.083558559 0.069012359 0.054462474 -0.074503765 0.0061538098 0.033070933 -0.077840395 0.11162992 -0.087454595 -0.024986289 -0.073766708 0.093051434 0.065431036 -0.098096497 -0.0713773 0.0055969204 -0.045846678 -0.011112223 -0.091989964 -0.099798478 0.065511107 0.041445628 -0.040329691 0.098569609 0.09529455 -0.066801384 -0.082989894 0.049488608 0.010010284 0.050289474 -0.089118481 -0.0052148886 -0.0039193663 -0.061363764 -0.069877446 -0.064271145 -0.029376067 0.027061658 0.085157692 0.0042269342 -0.084695436 0.084837683 0.012481722 0.075238407 0.036937542 -0.045688011 -0.054562345 0.028511457 0.061204061 0.025687972 0.052937597 0.033578597 0.038692053 0.0811335 0.029114034 0.039584976 -0.080027826 -0.078065284 0.081656791 -0.017353293 -0.013910209 -0.074724503 -0.071497455 0.0089893891 0.0092172232 0.0092537273 -0.03336411 0.0052166586 -0.027331127 0.051175825 -0.049174491 -0.11348718 -0.061806481 0.076137155 0.06670659 -0.028833829 -0.085739128 -0.07986977 -0.035018787 -0.038256414 0.089817934 -0.068664603 0.0024271992 0.056687526 0.09742415 0.0029474865 0.055821598 0.03290417 0.059217375 0.08472956 -0.093846232 0.05423912 0.070812069 0.001400708 0.0022109372 -0.043900054 0.0017357775 0.061266579 0.010811384 0.0039417646 0.095825426 0.050489482 -0.0066868174 -0.071794137 -0.032732725 0.067197919 0.018587667 0.018374518 0.053602729 -0.0058946447 -0.050708454 0.10472967 0.075771324 -0.096069783 0.00198581 0.020040711 0.055079378 -0.068332426 0.030882256 0.059373681 -0.0053646057 -0.062050976 0.047997169 -0.0086957878 0.076319218 -0.087530218 0.041012429 0.099884272 0.07273344 -0.025965679 0.062148895 -0.018742258 0.065118209 -0.018192301 0.1037585 -0.074701205 0.025452029 0.04181068 -0.056764968 0.075946793 0.088317551 0.0862782 -0.0066985129 -0.04626061 0.079945244 0.025937924 -0.066830985 -0.0027181052 -0.067781381 0.042741798 0.093442962 -0.017677516 -0.095454887 0.091492765 0.0069227815 0.03441019 0.024696767 -0.093920022 -0.014118642 0.0015182022 -0.057420343 -0.029909 0.0091799637 0.029790891 0.022846855 0.0035634644 0.080199786 -0.10992134 0.078964002 -0.020751275 -0.017782973 -0.06556996 0.01540202 -0.071010813 -0.02780701 -0.031302951 0.071999252 0.10675035 0.024890076 -0.071928062 -0.0082550757 0.049120564 -0.038259558 0.034145754 -0.079028554 0.062924199 -0.059384551 -0.012578286 0.054929912 0.011364312 -0.01909185 0.052538309 0.085033275 -0.053171817 -0.013747701 -0.013424532 0.043554839 0.08122199 -0.026175205 -0.0046474221 0.094495513 -0.029387269 -0.025890237 0.10496097 -0.075582564 0.026441419 -0.093099795 0.053301483 0.10728563 -0.062819958 -0.024411879 -0.025636161 0.066942215 0.0030514922 0.084197097 -0.018257884 0.056813307 0.076046199 -0.036703493 0.1000836 0.090332046 -0.024584793 0.066899762 -0.053685617 -0.070164375 0.04764821 0.088702887 -0.10754084 -0.0476758 0.043960236 -0.046112895 -0.044521544 0.079078749 -0.072001539 -0.087042376 -0.0035500482 0.090503514 0.068430722 0.095298432 0.067019254 0.074948184 -0.083185077 -0.09656769 -0.1009613 -0.012527918 -0.038261406 -0.058391325 0.0080922693 0.020756803 0.078048922 -0.10118983 0.09092018 -0.097145587 -0.018942688 0.044206016 -0.096716136 -0.062778629 -0.003197609 0.029405873 0.020641841 -0.044550292 -0.014786439 0.072957985 0.059717536 0.060760166 0.070064984 -0.023688544 -0.094242044 -0.04999534 -0.031166576 0.04217251 -0.077752233 0.054609738 -0.033750247 -0.04673323 0.038635746 0.078738883 -0.067041636 -0.077957191 -0.025618207 -0.056572422 0.0095587829 -0.049286135 -0.047340997 -0.018811513 0.0799127 -0.053794499 -0.097504981 0.03894357 -0.005981334 -0.068703651 0.062682755 -0.042249363 0.076340348 -0.085810043 0.031558186 -0.081374303 -0.024802623 0.0024923489 0.0032633364 0.083517134 0.008389716 -0.001777051 -0.015058028 0.064704284 -0.062541977 -0.079138465 -0.10840479 -0.039410751 -0.078305408 -0.0024804887 -0.022472991 -0.04455955 0.0080232006 0.056167111 0.013361715 0.044992074 -0.055067971 -0.045949008 0.076739319 0.0053460929 0.023773072 -0.098411381 0.035371915 0.04797237 0.025231477 0.037363101 0.08181189 0.089625247 0.083563469 -0.015580977 0.013724715 -0.037358344 -0.081391536 0.038206127 -0.061049588 -0.050707992 0.093195751 -0.066146374 0.073856771 -0.052297164 0.050801467 0.007405661 -0.11768247 -0.011995954 0.011984485 0.06734933 0.069679655 -0.042919777 -0.11807719 0.028845305 -0.066616178 -0.054557737 -0.089448489 -0.046455856 -0.092334569 0.030488813 -0.0097614871 -0.0272783 -0.058619842 0.0067544677 -0.071587361 -0.0050631654 0.12546447 -0.10289642 0.07381057 -0.027887626 0.073856473 0.02131509 0.08173576 -0.08525262 0.061093073 -0.025918715 0.017734772 0.11418848 -0.031755514 0.064197958 0.048575256 -0.11506458 -0.076642565 0.041876603 -0.03910251 0.070002869 0.042409658 0.032027654 -0.082397752 0.022118013 -0.091527939 0.048036091 0.021446498 -0.017896282 0.11889992 0.010288365 -0.0022897685 0.10376468 -0.058835283 0.077315576 -0.098043665 -0.11013833 -0.037765592 -0.090425327 0.071784064 0.024632294 -0.045042738 0.059844524 0.051228754 -0.0063746176 -0.042075224 -0.043193616 -0.011485532 -0.019229015 0.097030349 0.086814977 0.11234112 -0.059403751 0.041739378 -0.090702631 -0.024664992 0.071725436 0.087472148 -0.094413206 0.011650967 0.091791488 0.078080826 0.0071570808 -0.017903537 -0.089174487 -0.080643371 -0.04054416 -0.019538321 -0.015667381 -0.033043597 -0.0087047871 0.12865454 -0.087765016 0.068649434 -0.024932001 0.023326293 -0.084970094 0.0088760993 0.029807001 -0.056413896 -0.044394024 0.073174313 0.010971491 0.062091775 -0.076187089 -0.0039242506 -0.079318136 0.060400445 0.020548904 0.071111821 -0.041553173 0.063935161 0.0047845691 0.06512703 0.011735812 -0.045690779 -0.064421974 -0.026643626 -0.00089528126 -0.021664746 0.11332784 0.095655009 0.11963974 0.014017391 -0.025692573 0.071146399 0.084529258 -0.017905103 -0.015159182 -0.027138326 -0.056023084 0.051674601 0.044210352 0.029234173 0.028849335 0.078941837 -0.072920993 0.026431264 -0.097316213 0.10516017 0.015060459 0.037573867 -0.058353454 -0.039369371 -0.085950755 0.088032268 0.020710256 0.0067376243 -0.07951989 -0.09745083 0.049032796 -0.055529404 -0.0057961345 -0.059642255 -0.078453436 -0.03294421 -0.017373269 0.020387519 -0.042765398 -0.067729086 -0.0013283973 0.09005671 0.062337056 0.069903031 0.017086044 -0.054218307 -0.035826944 0.048294101 0.090492874 -0.061255589 -0.031045221 0.10279252 -0.10438691 -0.041720293 0.098573215 -0.0059220991 -0.1113128 0.033428021 0.059354488 -0.079656206 -0.082381442 0.066676646 0.031849056 -0.040313534 -0.070190243 0.011482606 0.017672924 0.046837132 -0.040704336 0.015001443 0.037547737 0.021154907 -0.037947278 0.017454596 -0.02701864 0.043047365 -0.077535309 0.05208458 0.039207801 -0.042004887 -0.0016508937 -0.11293706 0.064800695 -0.0080696084 0.066811495 0.022835616 0.010229097 0.010052217 -0.11176094 -0.053416196 -0.020699507 0.051894885 -0.029029999 0.022057913 -0.03241159 -0.015010753 0.0524639 0.048268899 -0.059230004 -0.020470744 -0.017626712 -0.034215827 0.02101803 -0.054449003 0.065382794 0.080105893 0.024945319 -0.015860565 0.054176278 -0.020707177 -0.054032497 0.057164114 0.00092690752 -0.012017797 0.10418802 -0.001835205 0.0090303952 -0.081333831 -0.035726879 0.088192984 -0.03752235 -0.0047779717 0.054346655 -0.055975653 0.019144941 -0.030989969 0.071898654 0.018281085 -0.09670864 -0.081697211 0.053268682 0.03923256 0.071503252 -0.071760096 0.078442521 -0.018572133 0.089927852 0.056896243 0.10750343 0.062021986 -0.075413264 0.027434912 -0.082702577 0.041577406 0.05774273 -0.099728137 -0.029049318 -0.087944627 -0.050414037 -0.093270406 -0.0058054333 0.034434505 0.053861063 0.084812187 0.090262413 0.10642833 0.016975988 0.048414089 -0.062485248 0.03803771 0.028214788 -0.063392892 0.073859736 0.081823498 0.04409036 0.071888514 -0.047142621 -0.04319074 -0.06879878 0.074820355 -0.066122912 -0.0073752915 -0.022057684 -0.016717218 -0.088978231 0.034520362 0.018241344 0.040598143 0.027465371 -0.040280621 0.10441475 -0.019225877 -0.057008274 -0.088540323 0.031466246 -0.08224649 -0.040096357 0.090549529 0.018386403 0.0091594215 -0.0035736877 0.061760373 0.11908447 0.070131913 -0.021492621 -0.060803432 0.061697461 -0.084004149 0.02554146 0.069054037 -0.086933985 0.037252922 0.064638324 0.07624989 0.010776201 -0.066025533 0.085396148 -0.028951162 -0.053213693 -0.085126773 0.030914124 -0.0092896838 -0.06585937 0.0033347344 0.10687751 -0.044473086 -0.10156456 -0.023195965 -0.10007624 -0.0019249119 0.037975531 0.079465836 -0.0029541657 0.024890363 0.073738307 0.095878027 0.027375696 -0.10372849 0.10107169 -0.058969662 0.047453325 -0.029197659 -0.066754825 -0.011952362 -0.049617093 0.063431948 -0.032834668 0.089670122 0.046823367 0.030153643 0.082897857 0.093403965 -0.026557693 0.0085279979 -0.017960276 0.073530942 0.082145013 0.043271378 0.052074075 -0.0065272991 -0.10745496 0.017359486 -0.070735529 -0.084216364 0.060367711 -0.076619595 0.012924332 0.030688902 0.041432731 -0.014477359 -0.088636771 -0.013825972 -0.07267949 -0.031359483 0.012032448 -0.018647479 -0.040314663 -0.0048285918 0.039391708 -0.007626568 -0.04119755 -0.09070123 -0.050851453 0.011881157 -0.0053748614 -0.0036227994 0.049093105 0.021860763 0.035891794 0.0031849926 0.064731769 -0.021034459 -0.016377473 0.0014195867 -0.02965273 -0.015513794 0.06312 0.066723786 -0.0025639217 0.02716819 -0.082404412 -0.039469082 -0.01564876 0.056708269 -0.076681815 0.044053372 0.045551687 -0.052905872 -0.03057678 0.040707082 0.072232947 -0.077256396 -0.0091625154 -0.051409293 0.031440105 0.075850129 -0.069958478 0.099961504 -0.010557748 -0.053679179 0.078223877 -0.091616631 -0.077217981 -0.079290949 0.055682879 0.10080776 -0.0074409451 -0.090462662 0.074221253 -0.080506749 0.068322144 0.097779185 -0.054184061 0.10599247 0.095544286 -0.047238644 -0.024822028 -0.014250309 -0.066139594 0.021672916 -0.10330196 0.02972883 -0.029719757 -0.064269647 0.052751683 0.046454202 -0.076788805 0.0098106172 0.0061986423 0.0030180393 0.016483525 0.050705869 -0.083295062 0.077226222 0.042460606 0.0062355422 0.0021217414 -0.0057565859 0.06464193 -0.0044422159 -0.025262328 0.072029307 -0.088062942 0.095245659 0.078770034 -0.060812775 0.067050897 0.056530677 -0.091798745 -0.0045955325 -0.053576417 0.073971212 0.088110588 -0.089150742 -0.062047742 -0.040711906 0.057787653 -0.056342069 -0.066492781 0.021549517 0.10724119 -0.033257924 0.084030263 0.02121705 0.029524192 -0.0013009026 0.005711922 0.087579854 -0.070762709 0.093318693 -0.053805493 0.070331834 0.055523086 -0.082033664 -0.049813759 0.025423368 0.030994233 -0.071297638 0.082386576 0.030957837 0.067563035 -0.092621133 0.073806971 -0.069319747 0.017987562 -0.046521232 -0.075756416 -0.041053962 0.019947538 0.037445802 0.0025203228 -0.022158777 -0.00087817817 0.092354484 -0.041124865 0.026655061 -0.032580998 -0.015350185 -0.046379615 0.053329952 -0.091284856 -0.090277374 -0.063820958 0.045989349 0.013596813 0.046056591 0.097065136 0.034324091 0.05830602 0.089455031 0.024197657 0.070273533 0.041887604 -0.063708261 -0.096604176 0.080837078 0.091277227 -0.030056857 -0.10058015 -0.033405751 -0.046990991 0.052796036 -0.066809244 -0.062934801 0.031108066 -0.026810246 0.031409498 -0.0081671989 -0.085793614 0.088433534 0.084642783 0.038083952 -0.027259042 0.1099434 -0.0083743166 0.042323563 0.00086729048 0.074415252 0.035240494 -0.088579968 -0.024575165 -0.11589538 0.091911532 -0.044021979 -0.078768723 0.044317488 0.021764435 0.044216268 0.029849531 0.002314768 0.041602675 -0.082778081 -0.00087086984 -0.015145715 -0.095375694 0.090779789 -0.04021709 -0.0041870475 0.078252532 -0.02395894 0.051236019 0.020370904 -0.032901242 -0.004877856 0.043625075 0.011937187 0.017970845 0.054777965 -0.11262724 -0.0579376 -0.092625879 0.07850115 -0.0029732604 0.0077256793 0.029149253 -0.058678649 0.051996108 0.025799226 -0.057780731 -0.077137373 -0.032719627 0.09072423 -0.063339218 -0.019819926 -0.052226886 0.037529744 -0.027525136 0.098405614 -0.045408107 -0.069220111 0.030557154 0.001218808 0.06947723 -0.072667822 -0.027842095 -0.031925146 0.051456954 0.037021954 -0.01515906 -0.09587571 0.028147172 -0.044222325 0.033411007 0.037958138 -0.088093922 0.071783133 0.066049442 -0.036721397 0.031567082 -0.076556765 0.08681903 0.054878701 -0.065856218 -0.019386021 0.065622874 -0.10659378 0.086840048 -0.036272932 -0.085582659 -0.082395345 -0.11110746 -0.054030329 -0.040504109 0.092292048 0.074221306 0.080041125 -0.014805146 0.042611275 -0.089576602 0.023665721 -0.0077309976 0.086724266 -0.096829176 0.0013785857 -0.059516877 0.062025942 0.063353546 -0.010679595 0.033041753 -0.029821074 0.090552025 -0.059960052 -0.060215723 0.088076733 0.050834611 -0.0018253356 0.050310459 -0.077779949 -0.069329843 -0.077692568 0.063608587 -0.058571626 -0.0042845309 0.0030533515 -0.10168557 0.065685973 0.071774721 -0.050278768 -0.074788943 -0.087387621 0.073393121 0.065382488 0.07694748 -0.0038399724 0.0063043376 -0.11415503 -0.1123272 -0.035188552 -0.12031423 -0.066385657 -0.051696513 0.13197993 0.0690163 0.10847404 -0.10286056 0.10851604 0.061724804 -0.020929957 -0.013900343 0.047162589 0.035659444 0.10448373 0.017331701 -0.029938675 0.12887655 -0.040837184 -0.025580762 0.13143449 0.10285136 -0.028444052 0.0023382225 -0.080192044 -0.035010397 0.090496913 0.076226093 -0.0041817855 -0.05691804 0.012602786 -0.0074149934 0.030180169 -0.088619731 0.12350568 -0.049124021 0.053421866 -0.057214204 -0.026087778 -0.095502488 -0.060465906 -0.063550226 0.13580902 -0.065842927 0.016338311 0.089736022 0.088440977 -0.033973787 0.052946746 0.010995594 0.065444611 -0.013393168 0.064279027 -0.064060926 0.10474387 0.024224224 0.1068915 0.069192573 -0.022455024 -0.081501372 0.059683688 0.044466224 -0.0042984039 -0.034378782 -0.12565444 0.099604145 -0.00063457259 -0.023978373 0.042025883 0.011340954 -0.041506767 0.035472985 -0.10163151 0.068728581 0.025056856 0.017353818 0.029294409 0.065728851 0.082960963 0.12153347 -0.013084592 -0.028113008 -0.047468908 0.071699813 -0.065797701 0.028168814 -0.070516221 -0.027602671 -0.025139961 -0.058232184 -0.042554926 0.010712415 -0.097121276 0.020892266 0.053237606 -0.088802733 -0.07777109 0.094942465 0.074105039 0.080439202 -0.048720002 0.0097118393 0.088241041 0.042360958 0.045890808 0.068796121 -0.098487541 0.046229776 -0.046305634 -0.06161746 -0.10117893 0.067250974 -0.026339963 -0.067108221 0.0080574071 0.012629873 -0.090167165 0.077277943 0.030197486 -0.021108672 -0.015527735 -0.032936208 -0.0355598 -0.11863212 -0.021000963 -0.055411924 -0.071249552 0.090458587 -0.020618463 0.05444558 0.064557306 0.05583692 -0.090431176 -0.022961564 -0.1265603 -0.035638887 0.063929744 -0.050517794 -0.039792828 0.01394451 0.10870633 0.033949718 0.060151123 0.020978648 -0.047483962 -0.03175655 -0.053647228 0.0088704173 -0.028747177 0.064597294 0.053908765 0.0023437864 -0.043498419 0.053560074 -0.11741196 0.085365884 -0.12396245 0.11421031 0.010426422 0.07589478 0.034926753 0.096054994 0.039712928 -0.070312805 -0.025558969 0.053002927 0.063241385 0.14300866 0.0093285507 -0.10304061 0.032669697 -0.092288695 -0.0063580759 0.042585038 -0.010705678 -0.060091779 -0.010318181 0.0063619413 0.041406896 -0.021165665 -0.055171818 -0.0092357974 -0.10302721 -0.015950028 -0.08516974 0.083851941 -0.0092043802 0.099122621 -0.019451058 0.094317667 0.10097292 -0.032501116 -0.028518444 0.0056258463 -0.0246488 0.043995317 0.046291031 0.021848068 0.041747332 -0.0691173 -0.053627063 0.059765417 0.021743786 -0.093279727 -0.063666306 0.098812722 -0.028114619 -0.076030299 0.085279539 -0.072412744 0.031180387 -0.10759607 -0.055037402 0.033761881 -0.11400995 0.069101304 0.039643604 0.009553534 0.010903364 0.077155739 -0.070911579 -0.01197111 0.034343891 -0.07766778 0.085415311 -0.041357815 0.045203615 -0.020845938 -0.039822679 0.06243404 0.04169118 -0.065904386 0.083443597 -0.08214131 -0.12897624 0.069739759 0.023738841 0.076247342 0.038107477 -0.11900518 -0.019829182 -0.023966823 -0.075507127 -0.060853895 0.080659673 -0.13493952 -0.1177865 -0.058006875 -0.091838114 -0.073603615 -0.10231771 0.076919228 0.060476001 -0.11222621 0.10297007 0.076044172 -0.010808893 0.060082305 0.0036153016 -0.029315431 0.041961513 -0.0057777469 0.042096067 -0.014930203 0.08393611 0.010025479 -0.0024912797 -0.015051142 0.10182918 -0.12580557 0.049984705 0.11527526 0.024909671 0.01862143 -0.082767412 0.052993357 0.099771351 0.035152938 0.0031124377 -0.033053651 -0.064493254 0.10290045 -0.073122539 -0.035709552 0.062906131 0.018479543 0.11235139 0.067659333 0.020089358 0.02281129 0.064416662 -0.050366569 -0.067349561 0.079094969 0.094555914 0.04051974 0.00081076089 -0.055775456 0.11533568 0.044045422 0.028547177 0.061565198 0.12839378 0.067991927 0.097470686 -0.10422074 0.086448625 0.0057861018 0.093245715 -0.065617837 -0.004287499 -0.034083325 0.088468395 0.053650316 -0.015005318 0.010716491 -0.028528566 0.017317321 0.082098678 -0.0019655656 0.085582376 -0.0057106684 -0.086120866 0.0802463 0.020968962 -0.033797584 -0.014520029 0.0037105158 0.011976441 -0.047921892 -0.028023191 0.06167753 -0.057249285 -0.052981727 -0.0048343348 0.0034473641 -0.016289609 -0.064719796 -0.071161442 0.093580596 0.037981577 0.0535395 0.09795282 0.088896789 0.012759112 -0.069796443 0.13323733 -0.0025862507 -0.051826354 0.025931753 -0.1355309 0.075817235 0.069586605 0.081424937 -0.027378311 -0.07463868 0.053347807 -0.11170772 -0.07217475 0.064924516 -0.0021126813 0.016055185 -0.032551114 0.11096405 -0.012762318 -0.09597002 -0.10086641 0.013798826 -0.096604481 -0.046644606 -0.050144333 -0.055611987 0.023337541 0.054477453 0.064591199 0.040798917 -0.021325972 -0.06423106 0.024606643 0.030644063 -0.062051874 0.085557587 0.090287559 -0.050657395 0.038667928 -0.0087055089 0.004693496 0.028107082 -0.00029541185 -0.015542093 0.096718527 -0.082285084 -0.070681207 -0.064618573 0.02256598 -0.039534342 -0.032825898 0.098797634 -0.040765405 0.017930973 0.044856932 0.042874508 0.023051061 -0.026938917 0.080792494 -0.0043365797 -0.008870258 -0.070189014 -0.025235856 -0.045211446 -0.067059383 0.051186521 0.079203695 0.11388099 -0.096326984 0.012022485 0.072478488 0.060912233 -0.050963379 -0.056782514 -0.064127803 0.046854019 -0.025921963 -0.0089780232 -0.01738476 0.044641633 -0.074466646 0.082670324 0.033105515 0.082957968 -0.05397648 0.087481655 -0.1014405 -0.0042370255 -0.037047919 0.05925034 -0.0044372003 0.072408378 0.013453414 -0.11157489 0.04420514 -0.083131224 0.047841676 0.085338354 0.088180192 0.044514235 -0.032732282 -0.065128759 -0.11197262 0.064093202 0.056256358 -0.070824295 -0.069026992 0.01401124 0.06042425 -0.0036657057 -0.038904671 -0.10343694 -0.027748691 0.058517415 -0.060397569 -0.034723446 -0.032554086 -0.012886826 0.0036328582 0.0014339257 -0.083311126 -0.057151616 0.10401075 -0.044985186 0.020238888 -0.090228714 0.025549697 -0.10051842 0.05181589 0.066437759 0.0020504904 0.080699414 -0.08366555 -0.026120791 -0.037923601 0.067341827 -0.041964594 -0.0074097011 -0.0020274485 0.015941737 0.025907626 0.11395427 -0.078751869 0.08200518 -0.050607644 -0.028606784 0.039939757 0.0082790656 -0.034369033 0.010926113 0.018383536 0.07334628 -0.032331422 0.044492211 0.049735546 -0.029592961 0.039034124 -0.10077976 -0.091585189 0.023305042 0.0023196556 0.064178362 -0.05574381 -0.049634211 0.086934946 -0.037743513 -0.078042962 -0.01674266 0.044356633 0.063036457 -0.077078059 -0.069516465 -0.088677384 -0.063209534 -0.023240153 -0.091371112 0.078151196 -0.10663685 -0.12494362 0.0029167982 0.028976003 -0.04756885 -0.08836244 0.083328575 -0.067265756 -0.058248058 0.014320243 0.011277044 0.10242545 -0.10409717 -0.067407869 0.0079972679 -0.073603861 -0.062928811 0.047018457 -0.041186731 0.027554188 0.10476559 -0.020441186 -0.015680466 0.0088381618 0.019642763 0.067947842 -0.041659877 -0.094630569 -0.053681541 0.033423722 -0.10202485 0.047033299 -0.058057934 0.098966449 -0.06791877 -0.075323179 -0.073875062 -0.055212252 0.044775128 -0.055958178 0.096512176 0.099667981 0.099724159 0.014238399 -0.064657614 -0.00027207675 0.061041724 0.033853624 -0.090960205 -0.00071944442 0.036921795 -0.015138444 -0.0025451996 0.010694349 -0.012605547 -0.026886746 -0.063713796 0.079440244 0.035182938 -0.080112055 0.0785942 0.062856801 -0.036304627 -0.035567313 0.098355494 0.075385273 0.059911001 0.077001452 -0.074300021 0.021964839 0.049548723 -0.027719693 0.093364991 -0.0825174 0.0042339591 0.089886166 0.082786895 0.067376405 -0.0027980208 -0.016281066 0.0295968 0.0076873582 0.099785551 -0.063416414 -0.090334415 0.044769 -0.022533948 -0.083971426 -0.079793252 0.068146214 -0.032109991 0.092877299 -0.11235975 0.0570159 -0.052200545 0.045713849 -0.033523597 -0.062194172 0.043497879 0.080639847 -0.022988683 0.0029294891 -0.030306946 -0.0040267948 -0.0045169564 0.01835721 -0.017891124 -0.045824505 -0.055583671 -0.025271259 -0.07256899 0.031244155 0.090870596 -0.069453023 0.017142761 -0.071785577 0.062211748 -0.0090785064 -0.087069437 0.028941078 0.0027964353 -0.10016918 -0.071457498 0.1025321 -0.017062685 0.08456181 -0.1097088 0.078928739 0.04413911 0.050563421 0.048515096 0.09808559 0.02602998 0.077614084 0.023944277 -0.059926018 -0.022566723 0.072397575 0.088009529 -0.0026243459 0.017723415 0.088293023 -0.0023695966 -0.0023352618 0.060264513 -0.0024600972 0.031689361 0.082555063 -0.03086864 0.085376933 0.050953589 -0.095636524 0.04189194 0.036162443 0.044917263 -0.04712715 -0.02291026 -0.049577121 -0.037607584 0.09596055 -0.022798838 0.093493871 0.10526535 -0.067437075 -0.046680015 -0.079812005 0.037712727 0.011592087 0.030745283 -0.040418286 -0.088158712 -0.079214089 -0.022462239 -0.0078314291 -0.080451429 -0.0952994 -0.039733764 -0.089341074 0.084747769 -0.062499944 -0.012618662 0.06955225 0.074555285 0.054115452 0.074652709 -0.056950666 -0.088718511 -0.021299547 0.015378206 0.0063177957 -0.015415112 -0.022983955 -0.082742304 0.0026251874 -0.0060011456 -0.013882292 -0.04509164 -0.050831921 -0.042624749 -0.024769714 -0.087456197 -0.070948802 -0.080735639 0.017480437 0.08462172 -0.09172938 0.036296584 -0.03825679 -0.046258539 0.071712568 0.034077968 -0.025339639 0.11254338 -0.0018994202 -0.031157644 -0.020911027 0.089943804 0.099546559 0.073991321 -0.020378755 -0.06141457 0.050820164 0.017553138 0.0061237449 0.019021044 0.034523267 -0.0052125915 -0.10252598 0.027442819 -0.031817511 0.075340889 -0.044920128 0.053405214 -0.0057599922 -0.10774213 -0.039832707 -0.11131728 0.06741716 -0.083898768 -0.054523855 -0.025764639 0.064301617 -0.080994718 -0.073516473 0.013773107 -0.065043673 -0.087064445 -0.10515966 0.039706275 0.024016323 -0.066639833 -0.035157729 0.028788775 0.072275139 -0.065255724 -0.034645204 0.1086553 -0.0093629612 0.055800267 0.043833211 -0.054336816 -0.042977743 -0.0682697 -0.086516574 0.019579407 -0.055638954 -0.0054765074 -0.10106776 0.059033871 -0.034995653 -0.028445428 0.007219431 -0.082806855 -0.03647102 -0.031381778 0.060580697 -0.079057679 0.08166492 -0.049769789 -0.12869386 0.041236423 0.010812783 0.058788165 0.0042018024 -0.023038873 0.050789226 0.010755786 0.0072966255 0.07421682 0.022089038 0.082222253 -0.038475655 -0.043855406 0.0020543225 0.053552769 -0.063960239 -0.065063454 -0.071858615 0.010214608 -0.013710548 0.063499965 0.11441228 -0.048262548 -0.018953288 0.039177015 0.050771903 0.0071642883 0.028524727 0.062133696 -0.093266927 0.025866974 -0.12444514 0.08564344 0.09919773 0.024263337 -0.077547856 -0.09811049 -0.084808432 0.00077914289 -0.10654016 0.09459877 0.01232502 -0.017188074 -0.045867346 -0.082865193 -0.032812662 -0.1028432 -0.056069065 -0.10837031 -0.072499014 0.028548431 -0.045579337 -0.03938004 -0.091015927 0.0031264052 -0.041736387 -0.031437967 0.046631813 -0.00041788231 -0.09450262 0.025023472 -0.00059354288 0.007590842 -0.094721608 0.032539532 0.012657218 -0.067567952 -0.073390938 -0.0046778205 0.055406649 -0.049985182 0.0062619811 0.036062919 0.036966849 -0.05125761 -0.035723351 -0.078205422 -0.084254563 0.040166169 0.057032924 0.019413162 0.057530686 -0.055958316 -0.044142112 0.0877252 -0.099389531 -0.043026701 -0.016313134 0.02057169 -0.05363879 0.056999996 -0.040721532 -0.043348402 -0.094583638 0.067917027 0.086160846 0.073964961 -0.065953389 0.046422031 0.077490158 0.047497869 -0.042744171 0.11656321 -0.082604446 -0.021145457 0.070627451 0.070160925 0.10500959 -0.044864967 0.10070825 -0.042470258 -0.059452999 -0.06030621 0.065108947 -0.012015831 -0.06924805 0.02153706 0.065903664 -0.030544061 -0.058219019 0.033640467 0.066170715 -0.016406208 0.010306342 -0.082153782 0.095334336 0.10474706 -0.047831666 0.069783136 0.064923756 0.018669738 -0.030106297 0.087291636 -0.035161827 0.015573994 -0.029259657 0.060017005 -0.10705025 0.084012762 0.028555201 0.026454549 -0.0029097793 -0.052827504 -0.036541689 -0.030249242 0.056083869 -0.077461079 -0.049347114 0.043899618 -0.087430932 -0.072173752 0.02315836 0.046750464 -0.00070034264 -0.084129587 -0.08527115 -9.8849399e-05 -0.011514612 -0.089315034 -0.011816581 0.056973293 0.028295239 0.095984362 -0.06905479 0.076397665 0.0024987487 0.013840236 -0.061046448 -0.0181878 0.071222119 -0.017042847 -0.095741607 -0.010327945 -0.024536408 0.034229409 -0.024492495 0.023362381 0.074522182 -0.025876006 0.085615277 -0.023613555 0.044398811 0.082762808 -0.045139387 -0.095625378 0.031313404 -0.070180282 -0.011195263 0.0242304 0.056394719 0.036703467 -0.060605817 -0.13298474 0.041469455 -0.054764584 0.019006032 0.095576935 0.056502838 -0.031138651 -0.12963818 -0.065789811 0.068491124 -0.048908219 -0.051788647 0.067563899 0.06682694 0.030415526 -0.075901493 -0.093939207 0.011704327 0.025552193 0.057507515 0.012450266 0.0023292226 -0.053427309 -0.015060846 -0.10787002 -0.045169722 0.011532888 0.098153085 0.09888009 0.10277636 0.0072040744 -0.051499855 -0.010025248 -0.1192367 -0.0031806144 -0.10350673 -0.041349512 0.082125753 -0.086949483 -0.045174457 0.069069028 -0.049223863 -0.06380979 0.070653223 -0.059253301 -0.004939015 -0.0045799869 -0.052069157 0.023844799 0.00063229515 0.088547133 0.077886812 0.10927472 0.023654213 0.013113989 0.0076876259 0.056476727 -0.077928789 -0.04200552 -0.057495285 0.096317381 0.078878306 0.073618904 0.055562127 0.036640987 -0.10407627 0.083556496 -0.11159506 0.044803564 -0.047105048 -0.038519558 0.10089742 -0.029311178 0.045327865 0.013586835 -0.01669262 -0.092574172 0.09641289 0.081061102 0.091366082 0.033428021 0.057183094 -0.11239345 -0.027965041 -0.02846157 0.074641138 -0.041177426 -0.09194389 -0.0044599902 0.065008037 -0.10975916 -0.069883078 -0.033162307 -0.0063189543 -0.020652752 -0.083637059 -0.039410181 -0.1161544 -0.10653193 -0.1033856 0.048981838 0.035453081 0.064389378 0.079203486 0.08074756 -0.048022594 -0.014920083 0.055895742 -0.07850273 -0.041736424 -0.088321492 -0.08105582 -0.081615172 0.0053386516 0.065777756 -0.014020124 -0.026570249 0.033484459 -0.073343016 0.035485946 0.051979549 0.071798049 -0.065079726 0.037392609 0.065260001 0.10413408 0.042636141 0.0015180763 0.047083873 0.03888746 0.0060863392 -0.032079257 -0.039021421 0.026233394 0.07328584 -0.041242748 0.076138318 -0.057141535 -0.03772774 0.069829091 -0.084007099 0.072267771 0.065310135 -0.055868667 -0.048012167 0.070865251 0.074150532 0.090354018 0.10423977 -0.087347537 0.072773896 -0.097142264 0.016428079 0.001460802 0.039975826 0.017512305 0.044640444 0.043210257 0.027036371 -0.075429857 0.031405766 -0.065212317 0.051221538 -0.028515957 -0.034008712 -0.027519045 0.081150137 -0.033165984 -0.083647631 -0.079035491 0.00034853624 0.012573975 -0.0086940452 -0.091377303 -0.017087994 -0.098548889 -0.016919032 -0.00079021137 0.031417426 0.0082845148 0.025342202 -0.10358395 -0.0022607022 -0.035348248 -0.040686496 0.060610961 0.086189583 0.059547387 -0.016209351 0.065288723 -0.031054771 0.071702518 -0.081601195 0.043611452 0.027596466 -0.05725247 -0.10783099 -0.033064988 0.059931461 0.10381213 -0.019202726 0.069279827 0.038369756 -0.015737427 -0.052548788 0.072702892 0.051860798 -0.058972415 0.012151346 -0.0035431376 -0.09344025 -0.046055283 0.0073865694 -0.014282856 0.002338256 -0.022148171 0.031836063 0.070792034 0.061965268 -0.095083438 0.077953324 0.0565794 0.036017939 0.04977598 0.016898412 0.088783666 0.021712312 -0.052679796 -0.025763215 -0.024903135 -0.072141722 -0.011543173 0.033594083 0.086025454 -0.016007503 -0.0039708256 -0.049967382 -0.012315146 0.015916139 -0.051774345 0.016130622 -0.072319895 -0.0077166306 -0.0039870623 -0.09538725 -0.049098551 -0.073607579 -0.11356959 0.0031642753 0.088911556 0.077476047 -0.040393602 0.017604677 -0.027206184 0.013478138 -0.021299049 -0.090335958 -0.033972245 -0.049453307 -0.10354806 -0.044983331 -0.013300297 0.0060649547 0.083766669 -0.097660005 -0.011600176 0.031793416 0.059545543 0.063327916 -0.042127863 -0.053080853 0.033457831 0.084661298 -0.076889366 -0.024246417 0.022102606 0.064067312 0.082919136 0.078141019 -0.074396744 -0.022765463 -0.045955863 -0.00010725168 0.036658496 -0.099262506 0.020814244 0.056778505 -0.058168855 0.035827108 0.10853095 -0.0021534124 0.0069084927 0.076105848 -0.063735552 -0.076951481 -0.052040376 0.00078284519 -0.052796319 -0.09209159 -0.10849576 -0.037592299 0.010773611 0.045891881 -0.095287383 0.036472786 0.023985615 0.0042310967 -0.0047532679 0.086538762 0.098247893 -0.035149753 -0.050350506 0.03496151 0.091267556 -0.10122661 0.0082016494 0.051776852 0.017697453 0.074702822 -0.02134848 -0.030445537 -0.017829105 -0.029891752 0.073081516 0.065891653 -0.060570691 -0.079593591 0.08921203 -0.012022557 0.075120844 -0.011665053 0.029927159 -0.092348345 -0.09351296 -0.045280218 -0.092967279 0.10208026 0.070828512 0.045706291 -0.035859257 0.033355225 -0.016496139 -0.031317733 0.04651425 0.050166242 0.06168925 -0.071735241 0.027548511 -0.091888502 0.076211147 0.045686934 -0.060314596 -0.041651871 -0.10096259 -0.0024827824 -0.055167925 -0.09006308 0.10016673 -0.029431036 -0.02686967 0.090396196 -0.087143451 -0.066901945 0.084970154 0.06006353 -0.053575888 0.077160656 -0.058499798 -0.014633331 0.014986091 -0.068124801 -0.099478923 0.099083602 -0.10128841 0.031563565 -0.095147386 -0.0068251244 0.071222521 -0.041321989 0.050616942 -0.086537346 -0.017488049 -0.085692756 0.07133279 0.055884458 -0.016477469 -0.040591355 -0.1036124 0.098807193 0.014372767 -0.018461039 0.02801566 -0.0027158202 -0.045751054 -0.0031743976 0.012980281 -0.090971224 0.056484316 -0.071813032 -0.10151877 0.02578729 -0.023767378 -0.068328343 -0.095946826 -0.09531229 -0.043914977 0.096830018 -0.088102967 -0.0043689846 -0.046502139 0.086324222 0.10298242 0.032389067 0.078666843 -0.073703721 -0.027795808 0.091900758 0.087410785 0.0027629964 0.053214386 0.012804714 0.073485635 -0.063527994 0.089567527 -0.021755382 -0.080085784 0.046755474 0.055945076 0.064177483 0.024277156 -0.03041961 -0.047477528 -0.09311343 -0.0078376895 0.021600218 -0.033292394 0.032168489 0.055181701 0.031912021 0.032025807 -0.066353403 0.071330711 -0.035344481 0.043007471 -0.020084215 -0.022126105 0.046920292 0.0026003066 0.054783072 -0.056509655 -0.042507205 0.034390822 -0.035939727 -0.06479238 0.061930727 -0.03586087 0.0085272277 0.076225542 -0.029925739 0.05336969 -0.10138537 -0.043914199 -0.092312321 -0.028088363 0.014551907 -0.067712918 -0.048309136 -0.033230048 -0.029545141 -0.079255842 -0.027045391 0.061307862 -0.031057335 -0.040981591 0.036886726 -0.0032847472 -0.016106881 0.075126685 -0.065855183 0.065065958 0.010358757 0.001833943 -0.013385629 0.018748721 0.061313022 0.11037327 -0.035483453 -0.060689334 0.091994673 0.079858735 -0.029804081 -0.073215768 -0.056835819 0.0097849425 0.014514667 0.037866745 0.091759399 0.0048194746 0.088587448 -0.035234749 0.020318776 0.055933591 0.061745454 0.0065401257 -0.10100683 0.027780008 -0.039374754 -0.063019037 0.027917981 -0.02398343 -0.086907633 -0.037307199 0.10771883 -0.071220949 -0.045793299 -0.052849747 0.060077641 -0.0045123259 -0.0236385 0.025425561 0.016432451 -0.043267149 0.0074240505 -0.10368758 -0.063838676 -0.072135918 0.079136781 -0.075419992 0.0059303404 0.020914517 -0.023674214 -0.10724866 0.08689177 0.0085606016 0.016088238 -0.024460772 -0.11545824 0.040862996 0.0086365137 -0.089152291 -0.04551002 -0.04869666 -0.080649756 0.062062543 -0.018127412 -0.020028902 0.026884126 0.011263806 -0.072733216 0.081073247 0.078211948 -0.072561681 -0.032809138 0.093717188 -0.072065428 0.091070712 -0.12808613 0.017876318 0.044601139 0.018456399 0.044243131 -0.030717783 0.040183485 -0.060595579 -0.10047808 -0.076775454 0.037328579 -0.067820728 0.091030486 0.12591237 0.064038575 -0.091927618 0.033406824 -0.071659446 0.055733446 -0.021953275 0.11190087 0.10345615 -0.096395805 -0.072328612 0.016103825 0.044323608 -0.059945658 -0.04227813 -0.033955883 -0.12334281 0.11895521 0.030015433 0.056415755 0.022347748 0.034887265 0.024587529 -0.069667183 -0.071295664 -0.055222906 -0.0074165617 -0.1098856 0.070725456 0.047005195 -0.021270869 -0.083715431 -0.083282381 0.071122564 0.033549622 -0.013925354 -0.040239293 -0.088867538 -0.063308366 0.068293028 -0.11065067 0.039200548 -0.062881902 0.10543433 -0.00058735494 0.0073791803 -0.013109564 0.059191562 0.019151121 0.12390695 0.00092078227 0.023635371 0.015211336 -0.041074768 -0.050849192 0.093576089 -0.016237777 0.027893238 -0.062681444 0.015018466 -0.040566627 -0.014183367 -0.12257329 -0.003254124 0.059611682 -0.092324339 -0.049306568 0.031768661 0.11942913 0.093560122 0.10883612 0.073723003 -0.10710982 -0.095937207 0.036642499 0.028655969 -0.08162646 0.012295573 0.050602417 0.012545424 -0.065797478 -0.0082775913 0.0067626559 0.068782419 0.061364166 0.013009318 -0.0014291774 -0.1012392 0.12638676 -0.11054476 -0.092584796 -0.089016609 0.020280322 0.066805296 0.0071474114 0.058611032 0.040476579 -0.084957905 -0.077382632 -0.061577942 -0.0024145169 -0.070540361 -0.012189687 0.078840978 -0.086538002 0.035908297 0.017120048 -0.084063195 -0.10343099 -0.05336545 0.0092597073 -0.0080468236 -0.046241205 -0.086984269 -0.091031194 0.096464656 0.0421381 -0.03573636 -0.082661889 0.015578276 -0.048419438 -0.053472772 -0.0056227003 0.099585243 0.077493846 0.080192216 -0.052114367 0.099482588 -0.0075248564 0.033081245 0.0080134524 -0.10876872 -0.05495673 0.035810072 -0.0030672289 -0.073302507 0.051701769 -0.066785455 -0.080173522 -0.077863187 0.11189348 0.018093796 -0.0053468649 0.07772512 0.058789782 0.11142847 0.01138012 -0.067840397 0.065482549 -0.044604942 -0.040052079 -0.006509325 -0.10479486 -0.020238122 0.046140667 0.037697617 0.057101518 0.029334754 -0.017568531 -0.07732445 0.015928438 -0.040833466 0.023997035 0.018278114 0.05459103 0.054852642 0.017561356 -0.047929078 -0.092265606 0.10876583 -0.041658938 -0.11697984 -0.059541117 0.041315049 -0.076068901 -0.0041680317 -0.0094401259 -0.041495103 -0.10232694 -0.050068963 -0.12872979 -0.018682277 0.064717837 -0.089535274 -0.036213573 -0.033623725 0.063164942 0.032614078 -0.040957507 -0.04355222 -0.013676218 -0.070257388 -0.10154039 0.10534119 -0.075913422 -0.011384764 -0.011100788 0.072705775 -0.057999793 -0.0019281097 0.0024938118 -0.056782849 0.025875464 0.10861851 -0.030697253 0.069532678 -0.043057948 -0.077467628 0.083532192 -0.01884833 -0.064603627 0.10169804 -0.10551917 -0.053349778 -0.099413767 -0.12012836 0.058084764 0.014473859 -0.10936435 -0.070208669 0.010319349 0.05629411 -0.035496645 0.066419832 -0.12174948 0.062868066 0.031419229 -0.024734106 -0.019653792 -0.031894628 0.0017239078 -0.026734574 0.099952735 -0.042676769 -0.045705296 -0.026463281 -0.10520244 -0.021009643 0.068239212 0.048726879 -0.0085965907 -0.032137316 0.010058501 0.028176038 0.0094081182 -0.0026863376 -0.0034094756 0.057308327 0.12375564 0.10270231 0.0053448309 -0.047855735 0.077070162 -0.030360956 -0.030855812 0.012425219 -0.075162955 0.0050721942 -0.072522536 0.053391699 -0.10189197 -0.086460471 -0.015019139 0.12312759 -0.05670207 -0.0023983223 -0.026946802 0.012650172 0.061654296 -0.092541918 0.047877882 0.0091583999 0.031593006 -0.11247266 0.034329098 -0.020271655 0.024746489 -0.031349361 -0.041844677 0.020176169 -0.010500287 -0.075953387 -0.044875897 -0.055519529 0.0033937597 -0.093994476 -0.07188873 -0.071322478 -0.011967149 -0.062924415 0.083009951 -0.018038228 0.021379841 0.054956231 0.12372009 -0.034960546 -0.012224277 -0.022787424 0.0086184414 0.08863733 -0.055734769 -0.042854864 0.045630246 0.012852653 -0.037308205 0.1458904 -0.005534207 0.035994388 -0.060521703 -0.01993827 -0.0096885981 -0.12468603 0.087385923 -0.080626614 0.044225007 -0.022851979 0.099872388 0.067515716 0.028396344 -0.048159465 0.038187109 0.021007216 0.0063879215 -0.040911075 0.15027854 -0.026304606 0.033757232 -0.02271514 -0.0040767104 -0.046066351 0.032478388 -0.10457674 0.032027233 -0.093649611 0.049382757 -0.020706486 0.10705165 -0.06273289 0.040698223 -0.092502765 -0.009558172 0.083577909 0.033739988 -0.024916474 -0.0070238472 -0.0078022713 -0.060910232 -0.083033167 0.09907148 -0.061891403 0.0070939274 0.014741655 -0.094856881 -0.14363359 -0.079393223 0.04303747 -0.058225632 -0.043825697 -0.058321875 -0.084370524 -0.041882552 0.045902129 -0.12892789 -0.055614371 0.024775049 0.0017708014 0.027896998 -0.038518243 -0.033070069 -0.012859858 -0.10610512 0.012862946 -0.028735276 -0.03547189 0.13682026 -0.062358525 0.025047857 -0.075553134 0.030927695 0.043675132 -0.064816803 -0.10434731 -0.028826648 -0.0095210196 -0.099738412 0.038206402 0.0022957241 -0.12212337 0.080958657 0.086733863 0.061283249 -0.03307816 -0.043785673 0.085917145 -0.074668229 -0.031997979 -0.070351437 0.1221694 -0.11756914 0.028010873 0.021430407 0.060828738 0.10048647 -0.054523274 0.098046422 -0.056223776 0.022382436 0.10578547 8.9293651e-05 -0.036677077 0.11164985 0.022660458 -0.050601851 -0.03056187 -0.10275151 0.040805314 -0.013011324 0.039697289 -0.10789787 0.025308529 -0.051842801 -0.0086553078 0.037637487 0.043711916 -0.017179767 -0.037525214 0.014311372 -0.033685781 0.041404903 0.082681693 0.037041906 0.082295559 0.050659884 0.049853895 0.035536248 0.079951629 -0.064469822 -0.078327268 0.038167547 0.040073153 0.052466098 -0.048428241 -0.0082948729 0.004821491 0.070732445 0.044968221 -0.089783542 0.041687991 -0.12625884 -0.11958995 -0.039067667 -0.082315609 -0.0050023673 -0.018644553 -0.034385502 0.0030478791 -0.057514213 0.0009387958 -0.11686697 0.13795602 -0.021583816 -0.023696829 -0.063627377 0.00062778086 0.058481503 -0.094856538 -0.00068174064 0.085497238 0.014555501 -0.031626403 0.022377444 0.10978173 -0.043876305 0.066063792 0.098725498 0.0631155 -0.088009588 -0.054138608 0.022095893 0.0043594372 -0.027242048 0.0335229 0.064121485 -0.1200838 0.12316202 0.012764723 -0.047055036 -0.083446205 -0.03294263 -0.078487083 0.070223488 0.045397498 -0.010946901 0.078734376 -0.05776694 0.07006266 -0.086672403 -0.13731398 -0.012841739 -0.04993758 -0.10478287 0.083244391 0.052231487 0.053672273 0.031236703 -0.0043069869 0.063304164 -0.022923741 -0.054779585 -0.08283104 -0.11391125 -0.020939941 0.10503057 0.02990278 -0.0050728163 -0.095777117 -0.12746033 0.085542381 0.038786303 0.034659602 -0.062403344 0.0071796766 0.11722776 0.070236526 0.054945182 0.017366165 0.086933561 -0.093082227 0.026311804 0.0015012936 0.040788434 -0.0066579273 -0.039116405 0.11736282 -0.12369052 -0.073563479 -0.11455988 0.13491565 -0.053272251 -0.060578682 -0.073872544 -0.012411589 0.05072907 0.024605101 0.017766606 -0.049227551 0.085135639 0.050154518 0.071312495 0.11143038 -0.032525804 0.040938504 0.052954182 -0.00029722846 -0.040826935 -0.13246751 0.12992552 -0.036306854 -0.017167296 -0.13270685 0.041722719 -0.0029616829 -0.052774239 0.027833734 -0.069737092 0.014357035 -0.095828652 0.010257998 -0.057010561 -0.11395498 0.050604727 -0.0028695466 0.094288953 0.0067130122 0.085813016 -0.039720558 0.0014553979 0.014239871 -0.076314919 0.067999445 0.083583184 0.048886269 -0.065304466 0.12669383 -0.012894182 0.018046724 -0.071073562 -0.11056308 -0.0060272687 -0.03563714 0.076493755 -0.12890665 0.072620668 0.020346563 0.014670594 -0.086199127 -0.039517328 0.025751231 0.0077034989 -0.082965478 0.13687557 -0.062806875 0.033358164 -0.088711858 -0.014169214 -0.0074074501 0.0067954604 -0.098903507 0.031925347 -0.0015874371 -0.065256558 -0.093661569 0.057284672 0.010341543 -0.026633205 -0.066012524 -0.068888776 -0.007478653 -0.10556713 0.037021626 -0.067979723 -0.0031973112 -0.099850461 0.049522139 -0.0073677506 0.11366037 -0.10786497 0.080426641 0.076563708 -0.10204574 -0.03322028 -0.042177983 0.055199176 -0.10366111 -0.072317362 -0.076232702 -0.078025579 -0.033452358 0.12717684 0.088111237 -0.024900654 -0.066940337 0.050560333 0.11390577 -0.087428592 0.066206738 -0.09325932 0.10633071 -0.095913202 0.090696879 0.013506743 0.010333696 0.086116128 -0.10816208 -0.024907054 0.082487352 0.022528015 0.057321046 -0.071986742 -0.017643968 -0.13022141 0.013064357 0.05929482 0.06828288 -0.025094677 -0.102636 -0.098187409 -0.082408369 0.014037672 0.082496524 -0.055155989 0.010443225 -0.054771576 -0.072273485 -0.023777571 -0.030206027 0.02808992 0.011303756 0.053895537 -0.0059653604 0.045327984 0.026798032 0.0024891247 0.027652243 0.045576356 0.079887703 0.079550393 -0.083953589 0.014535172 -0.039259929 0.080021679 -0.096687302 -0.045141362 -0.011414126 -0.1256634 -0.034090847 0.045095682 0.049805991 -0.028203402 -0.0059198053 0.02780473 0.014180814 0.086263828 0.0073212995 -0.043098971 -0.072391644 -0.014657892 0.057051282 0.085690901 0.11075317 0.0015095464 -0.030442404 0.038400285 -0.063916363 0.026439594 0.056138404 0.020875752 -0.084865309 -0.10859926 -0.0075452444 0.034634572 0.0057528191 0.10143489 0.091059029 -0.023716012 -0.0040850793 0.071008421 -0.0024459311 -0.062125649 0.09803129 -0.047136981 -0.071777552 0.038913894 0.070252977 0.012920982 -0.071916677 0.032854557 -0.054620612 0.026414448 -0.052107859 0.072458863 0.00073479593 -0.0084416522 0.033176616 -0.1112438 -0.073921584 -0.088283069 0.073836446 0.010303718 0.0052471235 -0.0010220245 0.07632792 0.096924022 0.027611034 -0.012077899 0.077535316 -0.11153661 -0.036315013 -0.055460799 -0.014161731 -0.096930683 -0.010108644 -0.051974647 -0.069895014 -0.030040193 0.040664397 0.030863136 0.091652006 -0.077704571 0.059275914 0.066467658 -0.016175607 0.020863745 -0.11321899 -0.099736482 0.038406476 -0.0084649352 -0.083245195 -0.070897549 -0.071540467 -0.0044283066 -0.008370949 0.048377689 0.094033383 0.05918486 -0.079007648 0.10902057 -0.045287754 0.030986797 0.034449443 0.10850073 0.0065645627 -0.11955962 0.039030813 -0.09527193 0.011142685 -0.073008478 0.045969516 -0.025580145 -0.065875113 0.037809931 0.030727711 -0.027217112 0.051442057 0.031214919 -0.017730776 0.045940671 0.057946093 -0.093179114 0.05892545 -0.023536639 -0.049659677 0.020734206 -0.0062295697 -0.049237341 0.0041466872 0.019105211 -0.033253763 -0.0023049507 -0.05489881 0.089996442 -0.070040517 -0.071446091 -0.093495369 -0.070022151 -0.090737276 -0.018067217 -0.068224393 -0.041828152 0.072936013 -0.015998738 0.0017942579 -0.067905389 0.031376909 -0.069371291 0.092201039 -0.0029603229 0.057457533 0.088760614 0.087780267 0.053241003 -0.10533404 -0.033393748 -0.019624034 -0.056291185 0.08439102 0.089743368 -0.029673383 -0.09599822 -0.052600201 -0.026549278 0.017189698 0.073746406 0.098935001 0.0019937935 0.090531819 0.059427015 -0.032395139 -0.1085417 0.048525449 -0.03354628 0.041946378 -0.019938942 0.024105802 0.024830019 -0.019887062 -0.059433673 -0.023709936 -0.027517196 0.048288483 0.12746949 -0.1157828 0.0098820813 0.076303124 0.023267586 0.034016058 -0.00139838 0.013285921 -0.051866133 0.018016964 0.019031854 -0.067163981 0.012340697 0.042920202 -0.098736927 0.046626959 0.074637957 0.080918305 0.030580055 -0.02734437 0.024527851 -0.043510765 -0.051863138 0.040503494 -0.071381964 0.043344885 -0.10089608 0.10204046 -0.029719833 0.079647847 -0.035523199 0.10018402 -0.07355205 -0.083468676 0.1111685 0.0086775934 0.0044802912 -0.11091615 0.043027617 0.054503664 0.070172049 -0.023828685 0.0061730873 -0.096014179 0.041977543 -0.0014523413 0.03061297 0.013620823 -0.10233139 0.085752577 -0.086056896 -0.085979268 -0.0082780709 -0.08885704 0.028720403 0.0047127595 -0.026025554 -0.0755665 -0.081466973 0.021473328 0.068991996 -0.061568387 -0.040835083 0.09311413 -0.020968506 0.0044611264 0.065124594 0.037370373 -0.039836913 -0.02535891 -0.059447825 -0.049552772 0.064849906 0.033220112 0.062544614 -0.057614367 0.054526988 -0.068432502 0.047183476 -0.0095675914 0.047688104 -0.0073036682 -0.037787113 0.038571674 0.018672183 -0.025739431 -0.0014975746 -0.07965441 -0.10028519 0.0062089255 -0.10121237 0.01957476 0.038258173 0.061846361 -0.069198132 -0.078298181 -0.049087025 0.0070773391 0.012729988 -0.042299733 0.058492292 -0.016624115 0.053518668 0.073520422 -0.040898815 -0.068820216 -0.066621192 0.070424475 0.053900305 -0.033574712 -0.076113261 0.00072343636 -0.013294747 0.1098448 -0.10134049 0.094408534 0.094721004 -0.068453565 -0.070497096 -0.014781589 -0.059384942 -0.065998264 -0.033757858 -0.088319309 0.067454912 -0.038468994 -0.064229406 0.015919032 -0.12045633 0.10170725 0.078156613 -0.10200431 -0.063694604 0.054867953 0.063357063 -0.005003572 0.10492231 -0.037566382 -0.08574003 0.031343456 0.065918952 0.089945406 0.060489513 0.0080137709 -0.042646006 -0.013089675 0.086199835 0.070856564 0.04072788 -0.049396355 -0.004401681 -0.016332539 -0.037387781 -0.012118341 -0.041692942 -0.048987135 0.043802723 -0.036443461 0.03560131 0.0098312758 -0.0005082509 0.044998553 -0.03442435 -0.033015046 -0.063359059 0.013056216 0.064548247 0.0060223434 -0.0035375173 -0.0053704781 -0.048017208 0.0770078 0.063332222 0.036380101 -0.079428874 -0.0072832732 0.016302006 -0.079880752 -0.065988041 0.043590803 -0.00029424543 -0.094341196 0.092307255 -0.038453214 -0.043255769 0.047369201 -0.066648155 -0.0085032973 0.028966654 -0.0061156591 0.01998191 -0.036291391 0.057335928 0.035652351 0.091340184 -0.084142581 -0.03479379 -0.016956206 -0.052813534 -0.10900172 -0.038633738 -0.1052146 -0.077936605 0.046489332 -0.061287705 0.0014381564 -0.015967766 0.09982793 -0.073868491 0.050755013 0.098129794 -0.049846187 0.0090820016 -0.09877149 -0.038208984 -0.016401766 -0.007634833 -0.020083258 -0.024039289 0.032179706 -0.064193681 -0.085626528 0.038842827 -0.08001031 0.021294307 -0.035356898 -0.089699037 0.079425566 -0.086731024 0.094982512 -0.074006245 -0.032199357 0.040077038 0.076913126 0.060501162 0.012121757 -0.069495022 0.027852526 -0.096502088 0.086670689 0.029707348 -0.064142331 0.085238151 0.059369635 0.028536936 -0.0093238223 0.018044733 -0.032482959 0.080808476 -0.089803912 0.0016780443 0.061092522 -0.093985394 0.1025985 0.051745821 0.084331378 0.095322542 -0.04959859 0.056634631 -0.052556604 0.0048014149 0.081588417 0.00684025 0.082631469 -0.013187119 0.031451866 -0.075585745 -0.013122905 0.070185021 -0.0088801552 -0.021241883 0.012223458 0.052200969 0.088219523 -0.098423533 -0.10404575 -0.05629899 0.065776847 -0.021298777 0.10614137 0.045739848 0.042136289 0.10159801 -0.091221578 0.060982097 -0.022471542 0.027295096 0.077399217 -0.031183746 0.05610659 0.090382338 -0.084196471 -0.03538486 -0.051651739 -0.07291244 0.08490742 0.10451548 0.084415004 -0.080044784 -0.058396522 -0.042941317 0.051145788 -0.044213459 0.072328635 -0.0044093705 -0.0025122636 0.0097884312 0.099513039 -4.3540131e-05 -0.10414948 0.039884862 0.0076252199 0.089478917 0.067777485 -0.085528083 -0.032080211 0.099303655 0.10135873 -0.046011809 0.055239413 0.068058185 -0.050305698 -0.098703332 -0.089013763 0.098482214 0.023840431 0.029002234 -0.032821491 0.030871324 0.081439942 0.057743125 -0.038686022 0.072958179 0.087272584 0.080251142 0.082954548 -0.0089608552 -0.034595169 0.022688249 0.010144496 -0.012382096 -0.047572665 -0.043338224 -0.0252028 -0.092551112 0.046675373 0.019618185 0.0090240585 0.014460586 0.068419769 0.0075496687 0.012896216 0.058947343 0.089679584 -0.028867882 -0.029572029 0.086991049 -0.024665074 -0.086734436 0.069443211 -0.051569011 0.053429849 0.075810686 0.033711951 -0.079793081 0.0067586927 0.031363718 0.075351067 0.08504685 0.058176327 -0.026849516 0.10253996 -0.012266614 0.086806931 -0.082993492 0.069529817 -0.0092773167 0.013001214 0.10082366 0.0097491192 0.086016536 0.063217551 0.065461911 0.026929596 -0.081278987 -0.015539475 0.037952174 0.047203694 0.07591784 0.010771217 -0.035573237 -0.08825247 0.042328861 -0.088334434 0.078324139 -0.058611639 -0.056280755 0.065917276 -0.095946588 -0.024818722 0.088704012 -0.051305681 -0.074954428 -0.0024869116 0.094774976 -0.0064948895 -0.11310162 0.034782887 -0.019638911 -0.012254342 0.055738166 0.0040489603 0.062919103 0.091266587 0.0039283279 -0.025955759 -0.037246924 0.014270646 0.10870186 -0.01281383 -0.078218892 0.088507928 -0.023248112 0.06777671 -0.020087909 -2.2374232e-05 0.10330994 -0.018419821 0.07128872 0.058119062 0.042755153 0.033087663 0.047700156 0.013705594 0.034883991 -0.051282831 -0.024378086 -0.069819294 -0.059003048 0.039760444 -0.035310794 0.058005504 0.094476581 -0.070143536 -0.049856316 0.052409027 -0.031399131 -0.037795845 0.004358233 -0.048342217 -0.083544098 0.042558901 0.040528633 0.081867225 -0.069238484 -0.041157141 0.0074251229 0.061490774 0.035459206 0.082822353 0.03275343 -0.034740102 0.042970508 0.030728303 0.094399519 0.013633727 -0.012988542 0.015650854 -0.088154867 0.08376538 -0.073444508 0.086407349 0.098522022 0.10188034 0.019947339 0.056127138 -0.047248948 -0.019560331 0.11714286 0.00058856385 -0.062268108 0.035393711 0.036232818 0.083416641 0.0080656027 0.057057187 -0.012326844 -0.0022152264 -0.09493234 0.0067896005 -0.028376527 0.076208614 0.068960592 -0.053969931 -0.0055098878 -0.032662865 0.016913641 -0.011930021 0.023548909 -0.10215316 -0.05507857 0.0055278013 -0.027337912 0.028438715 0.021528807 0.088330202 -0.075267129 0.080267616 -0.077597842 0.084927641 -0.018184597 -0.026132606 0.043817494 0.016420703 -0.016865229 -0.036515038 0.07319545 -0.13085988 0.068023741 -0.00096894475 0.090392001 0.0082408991 -0.049621202 0.079755463 -0.051033661 0.028074883 0.05000354 -0.044163205 -0.03379577 -0.045818843 -0.014256759 -0.036367536 -0.072604001 -0.11686007 -0.053643458 0.019737797 0.082227513 0.083389603 -0.034059934 0.066763453 0.0084580136 0.0022057025 -0.054908719 0.046685554 0.011578196 0.069642611 -0.0039708507 0.023434695 -0.036305051 0.054393049 0.015943032 0.029715093 -0.0056828009 0.083598711 -0.098013408 -0.054336891 0.07215625 0.0047232662 0.10339239 -0.0071725831 0.034201588 0.05450543 -0.056502521 0.10036024 -0.025342375 -0.09968733 0.0029020023 -0.023538303 0.078573518 0.050500315 0.10777047 -0.063891843 0.035620514 -0.063838296 0.05354622 0.017930254 -0.023952523 -0.036012415 -0.033035137 -0.10300311 -0.070237599 0.00044525057 -0.061343592 0.082865559 0.024926407 -0.061649755 -0.0040211449 0.060739323 -0.017265009 -0.081721589 -0.13930801 0.059975196 -0.10608333 -0.013848191 -0.059579611 0.022038564 -0.10588499 -0.015459934 -0.052582536 -0.042935818 0.055223323 -0.0604035 0.043909237 0.022388114 0.021152284 0.027478926 0.0027881034 -0.067398004 0.077295281 -0.0044167549 -0.095776051 -0.098526843 0.10666448 0.073140346 0.034774713 0.0079725301 -0.037108444 0.076786675 -0.076787248 -0.073919319 0.069306687 0.073876582 -0.034210313 -0.0019746488 -0.078109719 0.092601299 0.10448004 -0.0081805568 -0.004579857 -0.014205514 -0.026697561 0.060315907 -0.06075 -0.025038568 -0.053138465 -0.0256884 0.010728138 0.072682709 0.024779631 -0.068891525 -0.024128607 -0.044760771 0.015596618 0.085664921 0.0080405772 -0.004217735 0.010704763 0.077169038 -0.077360719 0.034322262 0.020014198 -0.04473884 0.026558688 -0.05194319 0.047522962 -0.11487985 0.052508838 -0.07642521 -0.13187681 -0.095392764 -0.018344523 0.0071410853 -0.0770863 0.066004328 0.072505288 -0.028285885 -0.0451928 -0.029313492 0.059275027 0.057077263 -0.036995735 -0.029842811 0.059746686 -0.0060317535 0.04622044 0.037220709 -0.083904535 0.026753737 -0.058502045 0.020800395 -0.08458975 0.050183177 -0.092563942 -0.081241935 -0.042655323 0.030654594 0.074902028 0.048204344 0.062622249 0.023471994 0.028817816 -0.01184248 -0.046396654 0.0099952724 0.031240063 -0.04967881 0.016372623 -0.040923119 -0.058819145 0.024552546 -0.026948007 0.082493261 -0.046322558 0.075287215 -0.026016464 -0.079656444 -0.10530247 0.098219834 0.0007609115 0.036312912 -0.053553157 0.0016277661 0.072010897 -0.019715918 0.040490374 0.030405825 0.087160274 -0.0054927636 0.072446659 0.077452883 0.006804591 -0.11417036 0.082215898 0.079838976 -0.029858714 -0.038024176 -0.05033759 0.0096891932 -0.032831728 0.041034669 -0.011024486 -0.089332439 -0.087800577 0.087360196 0.10342018 0.00071016391 -0.033675831 -0.0027719531 -0.008395467 0.12654062 -0.038199894 0.028010577 0.06307853 -0.093499593 0.038409796 -0.029302333 -0.062131867 -0.067264296 -0.086697578 -0.058308624 -0.012204978 -0.048543379 -0.064280897 -0.0021146317 -0.013072944 -0.011014553 -0.045662008 0.04342252 -0.047473691 0.050297804 -0.10753551 0.024670251 -0.020556949 -0.084382161 -0.024172178 -0.10441533 -0.013760747 -0.038799401 -0.092324667 -0.026281737 0.089904204 0.00061591074 -0.10771389 0.0081347171 0.03238181 -0.077651426 -0.041960888 -0.02351003 0.048242848 -0.0093518458 -0.047390174 -0.051410235 0.010113345 0.10230946 0.057634257 0.006687745 -0.088624373 -0.050501961 -0.082247704 -0.093279928 0.11236002 -0.0065351091 0.068506427 0.089258529 0.030880362 -0.085339718 -0.038492158 -0.056920942 0.075358383 -0.10782396 -0.094498761 0.067409173 -0.045038674 0.037863027 -0.057428285 -0.032447077 -0.031707231 0.071310706 -0.037186492 -0.11203074 -0.11245299 -0.016128978 0.018528692 -0.088771142 0.08920262 0.016882336 0.12598954 -0.078307427 0.049602866 -0.092553534 0.11198466 -0.024549929 0.055891111 0.065601088 0.032473754 0.043255694 0.10187595 -0.086281389 -0.034866836 0.041744761 0.00076821429 -0.1040622 0.034655411 0.0050157467 -0.069771715 -0.014299395 0.016547455 0.053505063 -0.008788378 -0.060521055 0.048036598 -0.0074097747 -0.086168684 -0.080281138 -0.03464061 -0.045582924 -0.07809972 -0.007343384 -0.079809442 0.020359157 0.09893468 -0.085858129 0.019669335 -0.090837538 0.071844339 0.058454569 -0.0063542891 0.076306351 0.084715463 -0.035867374 0.027907979 0.016763691 -0.020405829 -0.039093234 -0.026440237 -0.074603945 0.020780547 0.058122445 0.056059752 -0.014842822 0.070570216 -0.069398247 0.081343062 -0.058238838 -0.091802083 -0.081146352 -0.0039334805 -0.083587334 0.0048086755 0.13661107 -0.061698787 -0.059160985 0.10149495 0.0063562659 0.11903443 -0.019669209 -0.013986787 0.084815577 0.085745603 0.029504756 0.019581201 0.072165594 0.0030565565 0.095029816 -0.0065423474 -0.064769343 -0.060024988 -0.087089658 -0.015262651 -0.049139481 -0.0092601236 0.088847212 -0.062621318 0.12370944 0.10182322 -0.036005609 0.064702064 -0.023901755 -0.064091057 0.063761555 0.043931551 -0.0093881125 -0.083391853 0.055194117 -0.012584021 0.07211788 -0.022325397 -0.056357745 0.0066494122 0.029318284 -0.02907799 0.086455874 0.029749889 -0.040792335 -0.038966931 0.040044017 0.055076286 0.013927471 0.095149443 0.095408283 0.069007121 0.061209213 0.03758055 -0.069008939 -0.0015919256 0.032746326 -0.074159384 -0.044237513 0.0086586764 0.0013394465 -0.062910579 -0.02305801 -0.015297445 -0.067302562 -0.094446369 0.071304388 0.12490527 -0.016899955 -0.079005785 -0.033686325 -0.031403881 0.063321441 0.077073328 0.079958737 -0.0013736729 -0.0070738466 0.014727487 0.084126592 0.021268446 0.010268914 0.12707025 0.10313594 -0.00039845984 0.05334501 -0.021349184 -0.034659866 -0.055312254 -0.035505496 0.065653808 -0.054094929 0.034704573 0.0049977791 -0.029930608 -0.076391272 0.0064317016 0.075283282 -0.060022332 -0.043956615 0.068828419 0.092934586 -0.070199043 0.11417634 -0.070937075 -0.035375215 0.031961605 -0.072150961 -0.090390645 0.058489911 0.080926344 0.029621106 0.0076160189 -0.024088133 -0.021388149 0.071979433 -0.057784062 0.076668657 -0.03987062 0.021576576 0.0170916 0.11372382 -0.027599238 -0.030353205 0.075413369 0.020353474 -0.043051638 0.12337945 0.055410035 0.11414672 -0.024249649 0.082135379 0.088232614 0.068452157 -0.00092203036 0.05952869 0.097927354 0.019364519 -0.012738462 0.017690806 -0.0026780926 -0.025803484 -0.057235707 0.062520184 0.030940875 0.080998197 0.048827462 0.022612119 -0.015513548 -0.070620701 -0.025364347 -0.018851263 -0.028798353 -0.0012123957 0.04510254 0.019817565 0.04612115 -0.0015920172 0.031997938 0.059148286 -0.0099973259 -0.05122298 -0.015422447 0.057236578 0.051320173 0.020810572 0.12076449 0.085320555 0.11026495 0.088816091 0.047689669 0.061290242 0.0096254097 -0.082059562 0.073016323 -0.071974002 0.0016224685 0.0044917651 -0.096015051 0.086091898 0.037707139 -0.032811683 -0.023580588 0.021854227 0.035095222 0.033871122 -0.013394283 -0.025195912 -0.016079124 0.09671887 -0.09027648 -0.063058339 0.0027365505 0.063329361 0.035789907 -0.058759447 -0.10843413 -0.057463787 0.022832321 0.0040847627 0.017757339 -0.082614556 -0.11667797 0.021514764 -0.079114683 -0.010351074 0.037585124 -0.033629015 -0.055474892 0.052726593 0.042884994 -0.050606385 0.055752575 0.038390007 0.050235521 -0.018992392 -0.015369697 0.048731152 -0.064563528 -0.11581387 0.025726011 0.040218562 0.065808721 0.13675457 0.019570384 -0.048276078 -0.069167182 0.12715036 -0.14082634 -0.011825051 -0.035419278 -0.027167249 0.1019325 -0.019955957 -0.095584221 0.02233294 0.10811513 -0.053899135 0.038952082 0.003858879 0.13552587 -0.038367324 0.080326453 0.074349843 0.068075813 -0.039400887 0.055038732 0.038091324 0.13171014 0.031513099 0.06920898 0.11934076 0.038889911 -0.040846303 0.067100175 0.059235621 -0.068522811 0.073220797 -0.071300104 0.06640704 0.099621117 0.07788147 0.018159455 0.11341476 0.026556341 -0.037722066 0.1247054 -0.04735088 -0.078496203 0.041252896 0.037264317 -0.04812612 0.06464766 0.075320043 0.076455303 0.12868023 -0.0044285888 -0.046994451 -0.050169613 0.11831011 -0.095855244 -0.045385081 -0.024581339 -0.062149767 -0.01929264 -0.0075393701 -0.089390866 0.077606224 -0.0066849496 0.068292856 -0.012903417 0.022466497 0.010863991 -0.018323436 -0.057943415 -0.0021936737 0.025781645 0.045208029 0.039211463 -0.095012791 0.053624347 -0.053424686 -0.083207011 0.10429842 0.030888606 0.005767087 0.046778478 -0.082762942 0.071037263 -0.013222754 -0.069415472 0.0010942094 0.012664105 -0.048244469 0.015974248 0.11481772 0.056035593 0.034568265 -0.0094393753 -0.085494682 0.097458825 -0.06288562 0.021087293 0.024742585 -0.038645025 -0.0088339662 0.10648187 -0.067784294 -0.0018844758 -0.12069787 -0.083043285 -0.10156983 0.050340902 0.04416566 0.0097004743 -0.016744006 -0.086013027 -0.074001312 0.030528374 0.012905471 0.10000651 0.032208838 0.018645545 -0.083516255 -0.081625707 0.023677181 -0.077747785 -0.077415854 -0.0053740968 0.033548966 -0.086869128 0.062767163 0.025428701 -0.0058151642 -0.044705998 0.097462386 -0.10939432 -0.030279668 -0.11838621 -0.097677112 -0.13508089 0.057235595 -0.06043148 -0.064851537 -0.051327519 -0.076824814 0.021888306 -0.056164499 -0.041604389 -0.045366637 -0.046059974 0.053725813 -0.07989645 -0.003074524 0.097271606 -0.0067692734 -0.040860366 0.045221452 0.052771315 0.036367472 0.033436678 0.010406617 -0.046300448 0.091626219 -0.092127867 -0.062369075 0.077031992 0.015011648 -0.0082345381 0.0048930519 -0.0057614022 0.026103077 0.027254945 0.041069653 0.020158391 -0.041642051 -0.090889163 -0.081424735 -0.092267446 0.039500523 0.027967991 -0.079896465 -0.074913777 0.0021395138 -0.027654193 -0.071992971 -0.069679767 0.029387133 -0.0071795247 -0.00052745239 -0.0084656682 0.04717955 0.02673308 0.038551413 0.059914086 0.046292208 -0.045437425 0.019555816 -0.037428562 -0.042050365 0.0045138472 -0.045575187 -0.021413434 -0.060421113 0.044611525 -0.016632939 -0.0048585436 0.046607371 0.043048605 -0.011500779 0.016084833 -0.008962919 0.0076166824 0.10537373 0.052125618 0.011622642 0.045758847 0.013119944 0.01121805 -0.044727199 -0.059345126 -0.00096425612 0.00980308 0.05584326 0.043126497 -0.047659993 -0.002772918 0.058162548 0.0083736284 0.057604052 -0.027350411 0.027248101 -0.092239827 0.051774058 -0.085406773 0.083773568 0.011121333 -0.081182033 -0.035460014 0.091979973 0.034339096 0.029510858 -0.020926343 -0.049213283 0.053092044 0.053721756 -0.048081458 0.048610233 0.059016049 0.07906872 0.092852548 0.036070876 0.079298317 -0.0037940587 0.083897769 0.073966071 0.041592862 -0.014439202 0.087924957 -0.045016434 -0.080367751 0.011433763 0.10491813 0.044442289 0.088918418 -0.021543646 0.072467051 0.029839076 -0.024691164 0.018407529 0.088041723 0.059157167 -0.080676518 0.072540402 -0.059477199 -0.0072598411 -0.091691434 0.09462674 0.019499402 0.10345185 -0.060039539 -0.0078424374 0.043063771 -0.062899008 0.012053207 -0.086392395 0.0031295074 0.07107871 -0.0011719184 0.052084707 -0.022782473 -0.050425466 -0.013131253 0.038238097 0.092803724 0.053781275 -0.085168727 0.075547896 -0.047408979 0.08452078 -0.059045818 -0.051646542 0.075171627 -0.039888721 -0.032085653 -0.090244345 0.058327563 -0.069612473 -0.10484068 0.0036761225 -0.0020338669 -0.033513535 0.095276967 0.096468188 -0.074556708 -0.045724791 -0.056404371 -0.070319027 -0.087834738 0.022218043 -0.037512287 0.014976819 0.055713002 0.068564959 0.090820052 0.11213739 0.082276642 0.016487328 0.015907519 0.0016348483 -0.071941867 0.042223122 0.085654378 -0.10165371 -0.054017533 0.043979127 -0.090976849 -0.08819741 -0.093135685 0.08114396 0.037059575 0.069201633 -0.031436913 0.021712726 -0.10619704 -0.053774856 0.015192424 0.042447031 0.051213026 -0.032839064 -0.089774929 0.070578843 -0.079976104 -0.0052934736 0.039986003 -0.019129932 -0.052715257 -0.068688571 0.027708845 -0.033658307 0.0017737908 0.04686442 -0.068721138 -0.10306703 0.063336723 -0.10433886 0.098488033 -0.055138279 0.032673273 0.038913049 -0.088386081 -0.076463953 0.06043097 -0.0056420215 -0.065402977 -0.053288508 -0.041215885 0.092986822 0.082171284 -0.036962956 0.025520895 0.040525459 0.065477096 -0.034646846 0.047890071 0.085644715 -0.086837724 -0.079140969 -0.024191473 0.027049568 -0.051940836 0.010263151 0.071893685 -0.023852346 -0.086414538 -0.076814674 -0.056393787 0.052439008 -0.048758298 -0.081718318 -0.047554564 0.080704115 0.094125703 -0.016917389 0.067476086 0.020607255 -0.038830277 -0.044969041 -0.067572728 0.0074694869 -0.074371956 -0.08962626 -0.081941113 0.095898844 0.099352807 -0.086209714 0.0085621206 -0.08417964 -0.071143143 -0.014311244 0.023773694 0.063387685 0.059443228 -0.055139251 0.075172372 0.011121686 0.086728282 -0.073180243 -0.028239084 0.07154198 -0.071664698 0.041916713 0.036467511 -0.0081743859 0.050268598 -0.077883109 0.076856464 -0.070345886 0.091574363 -0.025161985 -0.054719154 -0.0556424 0.00039238168 -0.04684867 -0.033899672 -0.056482796 -0.099565521 -0.079809815 -0.080582045 -0.064905204 -0.068099469 0.077726349 -0.014046669 -0.084965244 -0.0076010367 0.022810763 -0.037387706 0.063062094 -0.048642181 0.030753927 0.097495712 0.0073689916 0.068846904 -0.097431749 -0.082300439 0.052184921 -0.0089401845 -0.045302201 -0.028542887 -0.082139321 -0.0062167095 -0.092768647 0.042391129 -0.023941988 0.10593054 -0.039901815 -0.02850817 -0.0008776497 0.0071292338 0.034180023 -0.071206376 -0.02145043 0.092394419 -0.063681535 0.055729967 0.014783015 0.06622386 0.061113086 0.016403129 -0.073183589 -0.094603352 0.0009975275 -0.087022662 -0.012941603 -0.0038117575 -0.065691829 0.012498295 0.100068 0.0065701501 -0.032968521 -0.038764246 0.084676437 -0.09768682 0.069391854 -0.093656786 -0.098005682 -0.0066763717 -0.092365623 0.085958041 0.040084224 -0.052893933 -0.043601718 -0.07490737 -0.011775136 0.071435645 0.041364014 -0.0032566192 0.010823705 0.054583952 0.073691115 -0.02317914 -0.04056504 0.022961684 -0.038088638 -0.075692832 -0.080354162 0.0046719145 -0.079896778 0.020762809 0.090343751 0.068583742 0.095133133 -0.10480463 0.10819146 -0.054098375 0.023971196 -0.085985735 0.017742196 -0.073484384 -0.090390809 -0.046124555 0.068266466 -0.034334704 -0.015192751 0.027676446 0.074165724 -0.082670398 0.081034839 0.0937021 0.030776184 0.013876877 0.094970547 0.096914396 0.077717863 -0.032190867 -0.024855018 0.0095034903 0.042326849 0.043599006 0.017695121 0.0094062686 0.057307616 0.067515597 -0.052434057 -0.085967511 0.04313127 -0.052544042 -0.022475854 -0.083527498 -0.0023726155 0.091504835 -0.011796318 -0.052696969 0.0024402321 0.032434057 0.028140975 0.083922364 -0.018760514 -0.021836944 0.096091487 -0.016102824 0.10335983 0.090629064 -0.050473344 0.019081697 0.044904217 0.042629797 0.075764023 -0.014612944 -0.054031525 -0.030216798 0.078973323 0.0074131428 -0.019648992 -0.07900624 0.072851174 0.056782447 -0.015552556 0.075761057 0.098550603 0.075851865 0.10803184 -0.036135759 0.073059678 0.047861729 0.027569095 -2.5736956e-05 -0.063059151 0.11307348 -0.048877541 0.025134049 -0.033790287 0.074031875 -0.018697664 -0.04193626 0.056173094 -0.011260526 -0.029426984 0.033080593 0.081753924 -0.028882373 0.039898172 0.071181893 -0.039633654 -0.091505148 -0.00014366522 -0.029880593 -0.093484268 -0.091724925 -0.06582579 -0.02663042 0.084212422 0.062815785 -0.083819352 0.065389939 -0.020445144 -0.075790316 -0.057442442 0.013243181 0.03851879 0.067758784 -0.024806835 0.015149589 -0.0018147423 0.089179322 -0.053630196 -0.086345471 -0.027774895 -0.038070127 -0.10151419 0.058976848 -0.058730226 0.039783213 -0.082538314 -0.051522452 -0.013476372 0.067195691 0.081777968 0.0096248947 -0.050874759 -0.024075704 -0.044767432 0.076601587 0.089367338 -0.053481456 -0.079614453 0.043851651 0.0040681171 0.053742927 0.086180508 0.034382831 -0.083456084 -0.095690764 -0.10528597 -0.074831113 0.058777835 -0.093471169 -0.024242289 0.028896051 0.058466069 0.014998178 0.058324646 -0.097322546 0.05350405 0.02901724 0.05113972 -0.052770138 0.07776197 -0.053676076 0.10708793 -0.015454896 -0.020610869 0.087693818 0.018806109 0.032964054 0.063603021 -0.059759807 -0.078489594 -0.058490716 -0.0001782287 0.098630093 -0.03437769 0.036676951 0.018141996 0.053380772 -0.061592918 0.10795647 0.0085838987 -0.040805742 0.0020351661 0.10973896 -0.065120488 0.059473686 -0.045747925 -0.094894715 0.05692675 -0.078351259 -0.066175908 -0.084098138 -0.0052503264 0.0010967628 0.0091292309 -0.038549922 -0.098344192 0.040053569 -0.10476577 0.0057439497 -0.047333144 0.02785873 -0.029141275 -0.087979622 -0.027673103 -0.028527645 0.035366762 0.087685041 0.076171599 -0.0024985473 -0.02289941 -0.071513101 -0.0011815549 -0.091565996 0.0071600331 -0.11479817 0.042606194 -0.066611506 -0.046223599 -0.080336608 -0.098410144 -0.036505911 -0.087999918 -0.044980165 0.0041155289 0.026316799 0.064053446 0.04337237 -0.064669594 -0.048126575 0.024193063 -0.043009788 -0.066273354 0.077479094 0.068720125 0.026004409 0.050970152 0.052185193 -0.092186116 0.089589998 0.098053344 -0.10727565 -0.10424975 -0.0043072635 -0.022474647 -0.024629377 -0.025677131 -0.098820843 -0.08871147 0.047806282 -0.025650628 0.044659525 0.098892204 -0.074696317 -0.067003354 -0.073037326 0.013570856 -0.031242069 -0.10143715 0.037208952 -0.045666046 0.018246954 -0.084989794 0.0874447 0.070742339 0.061734222 0.010221645 0.062672302 -0.10473004 -0.0077679008 0.015492371 -0.047288038 -0.02777556 -0.092273086 -0.040585276 -0.09762571 0.0013034481 -0.063459262 0.069820262 -0.038008213 -0.042574726 0.068449289 -0.041686837 0.069146499 0.019748136 0.034242053 -0.09510342 0.018205689 0.10062449 0.018216111 -0.034554251 0.05012092 0.09472046 0.058174171 -0.014703605 0.034530677 -0.04250766 0.0091857575 0.035816874 0.0053056595 0.01677319 -0.056521621 0.069850631 0.023806678 -0.0935608 -0.074741639 -0.076232865 -0.11273661 -0.11296318 -0.046994369 0.064324088 -0.074332766 0.046388924 -0.047322623 -0.033588313 0.043776281 -0.040971331 0.053219516 -0.095980018 0.016090751 0.096987717 -0.046046652 -0.065298051 -0.0031686826 0.012948066 0.029069522 0.010593611 0.015463338 -0.013655933 0.10992267 -0.048707925 0.070759915 0.057648607 -0.092250779 0.068950176 -0.090583101 -0.025996065 0.10684133 0.075900212 0.028783754 0.084170051 0.091806725 -0.058325619 0.062038142 -0.02947484 0.015856151 0.045723502 0.096505471 -0.059321824 -0.089701764 0.032733683 -0.036535844 0.10082578 -0.062569775 0.010376755 0.04742685 0.081680484 -0.084422454 -0.061925694 0.054745138 -0.014905419 0.050673272 0.10008471 0.013479439 -0.023534518 0.030079549 0.060900718 0.01970144 0.063536853 0.054772809 0.0097167213 0.090035632 -0.036227874 0.029114844 -0.098258294 0.029290887 0.065926999 0.064356774 -0.065200821 -0.078655042 0.019471135 0.030114077 -0.016944148 -0.0081761489 0.020213163 -0.026084872 -0.10144345 -0.020753819 0.10844771 0.06111373 -0.094746612 0.073428907 0.043784056 0.0162051 -0.0053794058 -0.030788876 -0.056426074 -0.057163499 0.086143777 -0.059448935 -0.045437492 0.075146973 -0.0086467676 0.013537166 0.086620234 -0.093546249 0.046296041 -0.059599172 0.09062849 0.018698888 -0.047413688 -0.07090541 -0.017249957 -0.052862812 -0.03803141 -0.018624084 0.0098520406 0.071824349 -0.066194624 -0.01627936 -0.014808918 -0.073864177 -0.046170522 0.081590541 -0.095092483 0.074285865 0.049642552 0.07542903 0.091069199 0.012431552 0.065950021 -0.023094073 0.047467742 -0.022512984 0.016174318 0.061112773 -0.070308641 0.052939866 -0.030701926 -0.049057607 0.070778243 0.0071136942 -0.042566344 -0.027094109 -0.085103251 0.054594863 0.043065403 -0.085399047 0.055558905 -0.017850734 -0.025762666 0.03522633 0.024967922 0.011195363 -0.010333539 -0.080975592 -0.02023644 0.038431417 -0.097300358 -0.11256994 0.096189886 -0.012873906 -0.047190309 -0.037805311 -0.062120598 -0.0015784709 0.0021061222 -0.013910085 0.082204051 0.055817463 -0.042266678 0.040224578 -0.035518307 0.004744729 -0.0027029647 -0.078858763 0.094872467 -0.087797813 0.046451308 0.077642277 0.05602764 0.070563108 0.088848002 -0.072132215 -0.017158303 0.014778198 0.073181897 0.096323691 -0.081259221 0.10012985 -0.037138715 0.04477733 -0.062574431 -0.078986712 0.055585694 -0.082303621 -0.083944269 0.024039298 0.080875359 -0.003317866 -0.083186395 0.022454334 0.085307717 -0.02787229 0.012648925 0.075511537 0.074456155 -0.088567808 -0.075547792 0.046340205 -0.081586137 -0.06278035 -0.031543031 0.012027931 -0.010362136 -0.090518482 -0.012125071 -0.082442343 0.0082912752 0.058781456 0.050888311 0.044916946 0.059203286 0.070290841 0.098161407 0.088268705 -0.044598818 0.065918893 0.0042481595 -0.013586277 0.067611843 -0.043217868 0.0456638 -0.029052032 0.063668825 0.0051708836 -0.022306927 0.052829575 -0.037615597 -0.02622604 -0.028360242 -0.10216513 0.10593607 -0.0070141754 -0.09140978 -0.086727798 -0.080219641 -0.063636035 -0.0067712921 -0.0066008349 -0.054182719 -0.090033501 0.038295861 0.001359127 -0.014517261 -0.097566761 0.080455951 0.093140453 -0.093695179 -0.10999407 0.030276623 0.079929933 -0.096993797 -0.056837715 -0.035039283 0.037224408 -0.042970955 -0.084334068 0.00061251438 0.032593589 0.087629989 -0.0062940777 0.058962781 0.040708087 0.058535051 0.013319887 0.081241377 -0.028642677 0.040684089 0.071915425 -0.013148073 0.076987833 0.076272197 0.023102099 0.041577842 -0.034789573 0.0018592429 -0.0041006063 -0.067751095 -0.047662217 -0.017002726 0.02990026 -0.046730299 -0.0082854014 -0.083400093 0.043718152 -0.069312021 -0.021945208 0.061335713 -0.049947686 -0.084473945 -0.014686908 -0.078002304 0.095767878 0.093187891 -0.014814945 -0.068646371 0.0092687095 0.073699377 -0.04180092 0.0062218271 0.00063287135 0.092974022 0.069939643 -0.021486046 0.099590711 0.082649246 0.096972071 0.061254218 -0.076106623 0.033858132 0.010981423 0.061623193 0.029801337 -0.020495394 -0.0024940961 0.094259672 -0.058848303 0.099075399 -0.027642358 0.097147644 -0.021377752 -0.013900639 -0.077280968 -0.095614292 0.034641698 -0.06032639 0.034056026 0.079564266 -0.011115297 