#Parameter# /_2 {370,198} 909421 ZERO_GRAD
0.067233808 -0.06057959 -0.077091843 -0.10683182 0.077200837 -0.043191671 0.037267435 -0.061049335 -0.10998969 0.094394267 0.019423472 -0.0093118362 -0.08556208 -0.095771626 0.07272622 -0.028631527 -0.033413704 -0.098280609 -0.098536044 0.068298131 0.071822993 -0.029028436 -0.068404719 -0.045738049 -0.030644769 0.014818385 -0.067480549 0.061235052 -0.053608987 0.069413826 0.091842405 -0.0091326637 0.079988651 -0.013765207 0.041917384 -0.089050017 -0.01060176 -0.018676149 0.054064352 -0.019662162 0.094490737 -0.0042236494 0.095243819 0.089716934 -0.0057705715 -0.072743349 0.040212385 -0.047360085 0.08300516 -0.051671833 -0.047017772 -0.053912543 -0.018277196 -0.031447917 0.046663862 0.10576101 0.052040171 0.068350434 -0.06223492 -0.079192229 -0.019855099 0.088275135 -0.064276889 -0.077121489 -0.067433685 0.0029020265 -0.024896305 -0.021115335 -0.011850998 -0.091136202 0.089519888 -0.0018199659 0.1047956 0.0099406056 -0.089939885 -0.077540934 0.085975319 0.06610585 0.080979623 -0.0022424245 -0.037833814 -0.027037565 -0.04780823 -0.10494154 -0.034942012 0.03329324 0.016129078 0.020496186 -0.023852903 0.058115017 -0.03213302 -0.033231836 0.049470697 -0.021051681 0.075776786 0.088240527 0.0014036547 -0.0208105 -0.0025027422 -0.018546877 0.020707628 0.089878112 0.001390275 0.066598959 -0.066625193 -0.094592758 -0.030547608 -0.071041428 0.014476635 -0.01920351 -0.062386718 -0.046715815 0.089344062 -0.041607704 -0.043306764 -0.075769424 -0.020962825 0.0031716279 0.077562325 -0.043661099 -0.0025514183 0.010923941 0.10094274 0.089651421 -0.0088501154 0.021813413 0.02743776 -0.08290334 0.056397665 0.048065539 -0.089877114 0.058656462 -0.064113043 0.026998926 0.077099621 -0.082548887 -0.044301104 0.027475933 0.06701161 -0.036828991 -0.010722554 -0.069829397 0.089780338 0.080314875 0.10371347 0.092812233 -0.036546722 -0.032385953 0.044034857 0.081297018 0.082491681 -0.014962412 -0.0036734976 -0.087695405 -0.10388606 -0.025412098 0.063149065 -0.026532581 -0.042222708 0.065750599 -0.03758087 -0.030005813 0.10337934 0.05174318 0.097577691 0.0042999163 0.014513993 0.075059906 0.018939978 -0.077570342 -0.011983729 -0.030339153 0.041305248 -0.0086188959 0.035329882 0.020200875 0.037288696 -0.071198508 -0.053394482 -0.087378465 -0.058111627 -0.099896111 0.0022416131 -0.036033604 -0.078171059 0.035534054 -0.061185375 0.10562548 -0.082682073 0.009804016 -0.044757891 -0.077122264 0.060780834 0.06719894 0.098710321 0.037622314 0.028948773 0.035261553 -0.021869993 0.029471576 0.029803742 0.069524743 -0.00487812 -0.077104092 -0.039831538 0.00036539475 -0.07998433 0.013001837 0.056889359 -0.059124138 0.075015277 0.07281635 -0.041789904 0.048934508 0.089445688 0.058973413 -0.04947241 0.077198066 -0.096661702 0.028864764 -0.018773271 0.053863119 -0.021565322 -0.082431778 -0.064932354 0.0099790217 -0.10468306 0.093882822 -0.05360679 -0.017558103 -0.10121477 0.072042286 0.096270569 -0.030182494 -0.05517225 -0.10087691 0.074476317 -0.0091805151 0.042647257 0.005380942 -0.058318894 -0.041482333 -0.081022397 -0.0009231955 0.022641964 -0.045269858 0.087119468 -0.038099337 0.10005423 0.037772063 -0.088298038 0.058170736 -0.048803713 0.025585212 -0.012894209 -0.084690943 0.050603803 0.0696247 0.027141644 0.022231573 0.079902813 -0.10209628 -0.035998344 0.024166543 0.043539539 -0.041322123 0.078240655 -0.064141937 0.050420869 0.034993965 0.029202506 -0.0030408599 0.023129633 -0.026428016 -0.092322744 -0.056138515 -0.050943326 -0.021535503 -0.11752672 -0.038505197 -0.10235703 0.061709072 -0.074846543 -0.034717415 -0.088841736 -0.043055732 0.031390317 -0.058737155 0.033418033 -0.11211916 0.03320469 -0.052305691 -0.05812313 0.014833963 0.10036046 -0.099047728 -0.031243581 -0.0097168898 0.081171662 0.03988241 0.031685807 0.092860974 -0.027202114 -0.089158207 0.0046640541 -0.097007662 0.064082026 0.081264831 -0.051101875 -0.019707466 0.06053111 -0.0054026889 0.051835887 0.068293855 -0.0082938448 -0.045948852 0.044977445 -0.11321085 0.094407119 -0.087127358 0.00017072441 0.097914562 -0.087392174 0.0083069177 -0.0016635463 -0.010956747 0.013107102 -0.021389171 -0.042700369 -0.039573442 0.070539296 0.026029926 -0.080939092 -0.072113402 0.060611628 -0.021172283 -0.10412449 0.10327521 -0.071860343 -0.032396235 -0.0059449938 0.064467743 -0.10996825 -0.057543453 0.022442354 0.033007905 -0.08122351 -0.046725523 -0.06144676 -0.046996642 0.099525593 -0.06046427 -0.040538877 -0.036568824 0.037428003 0.011966375 0.069802716 -0.009968671 0.024960751 -0.079993539 -0.010288237 -0.028231466 -0.10194663 0.045207176 -0.088635713 -0.031962279 0.058490854 0.074906155 -0.08148367 0.060168345 0.052688871 0.037924856 0.019803861 0.070789166 0.1172289 -0.00058635755 -0.097670645 0.04767634 0.079806738 -0.10013366 0.055680979 -0.079957195 0.0060998481 -0.042225119 0.10286211 0.032451089 -0.045017209 0.032328323 -0.00050485431 -0.027198713 -0.051734172 0.012353907 0.086997375 -0.083109178 0.049898252 -0.02231878 0.071015507 0.036445666 0.13797319 -0.0086773457 -0.042091995 0.031845678 0.089368418 0.021363309 -0.074943177 0.072233543 -0.087033592 -0.014892457 0.0065148366 0.0051775086 -0.063377291 0.069135942 -0.072573483 0.073731057 0.12749596 -0.10706011 0.14520569 -0.079399452 0.15350293 0.017069345 -0.10525367 0.081676178 -0.052861605 0.061601825 -0.073797874 0.04362841 -0.080017574 -0.10071345 -0.0072522471 0.030816024 -0.010154374 -0.049820986 -0.015918968 0.089420214 -0.067033783 -0.092004664 0.011186232 -0.047187332 0.094776317 -0.11359067 0.029812731 0.023216056 0.054397117 -0.11475877 -0.062390264 -0.010712903 -0.027610755 -0.066495255 -0.023108616 0.087590568 -0.036488689 -0.035522822 -0.006605708 0.092877157 -0.11103193 -0.10826914 -0.13584416 -0.032972328 0.07523527 0.098103523 0.014072239 -0.083647989 -0.15115711 -0.0196447 0.055165365 0.031816557 -0.054341659 -0.04289769 -0.080650233 0.065036386 0.13280633 0.094185404 0.1144921 -0.063626923 0.031240137 0.10633665 0.039494403 0.021673135 -0.1205686 -0.086363725 0.10062542 -0.010646291 0.11101001 -0.024083652 0.02644309 0.05186601 -0.12526447 0.12290302 0.023583308 0.14196323 -0.027542263 0.005511866 0.067039177 -0.068201892 -0.05809531 0.034825679 0.012916088 -0.058567736 0.028864678 -0.022529995 -0.075345583 0.12735097 -0.081186704 0.052187137 -0.1287851 0.085279614 -0.12869844 -0.021299016 -0.061141782 0.01132217 -0.034075841 -0.012164311 -0.065475509 -0.024324523 -0.10444012 0.0011219849 0.11964615 -0.044780806 0.042896245 -0.048206121 0.13244303 -0.030842802 -0.03552049 -0.042028625 -0.057836823 0.063871138 0.11047215 0.032682728 -0.030512648 0.073000371 -0.032747716 -0.04676304 0.018269805 0.073472224 -0.0031582452 -0.022582078 0.02091606 0.025669819 -0.086293608 -0.043777 -0.071021244 0.065803446 0.059342325 0.078746282 0.046797968 0.046547573 -0.13837083 -0.047584411 0.11826829 0.065492921 0.053318527 -0.12047834 -0.0066637127 0.045331679 0.0010645528 0.056102093 0.12332956 0.097089835 0.036894947 -0.11330399 -0.10772291 0.073734909 -0.012150833 -0.078249574 0.0052838093 -0.068791613 -0.14564078 0.015040692 -0.0038742025 -0.099831238 0.027771207 0.041060444 0.057303529 -0.064148232 -0.040888511 0.032198936 0.083016217 -0.042494476 0.04277873 -0.041501235 0.12190103 0.10965618 0.13295469 0.11764687 -0.072411396 -0.022361988 -0.015012743 -0.090238482 -0.043754015 -0.04268394 0.1302132 0.061354391 0.071087271 0.02023446 0.04630132 0.04895746 0.057994958 -0.053005841 0.041990194 0.15283005 -0.07996168 -0.0014503608 -0.089886136 0.012183724 -0.057179209 0.050489858 0.051850632 0.066785097 0.045659322 -0.0031052944 -0.0093157915 0.040845342 0.076314345 -0.072632864 -0.066552252 0.052871391 -0.06268622 -0.017018618 0.088818349 0.024113132 -0.032209285 -0.10948104 0.092837662 0.0094192242 0.093358099 -0.13287349 -0.014160064 -0.07098636 0.021455029 -0.03913708 0.10541528 0.0059560402 -0.0063983821 0.019815659 0.0065949582 0.051746264 -0.066681094 0.098927826 -0.018509474 -0.042008318 0.042289812 0.12486991 0.040705271 0.071648583 0.11318835 -0.073155209 -0.029045172 0.063791387 -0.019004369 -0.023832556 -0.07972987 -0.094979458 0.025883345 -0.034707043 0.08721599 0.027605975 -0.044239502 0.080545396 -0.13399079 0.044421613 -0.01019688 -0.11018591 0.017168961 0.025137052 0.1004059 -0.063371852 -0.010209722 0.083434872 0.10026548 0.0024832424 0.098283924 0.023535497 0.015199107 0.079293102 0.11276763 0.041211065 -0.13518091 0.042617854 0.033694346 0.069950156 -0.051335521 -0.15626433 -0.051428728 -0.057888575 -0.068720117 -0.018112961 0.11979675 -0.035051689 0.10635139 0.082217172 -0.13423927 -0.0047499756 0.022539834 -0.037307348 0.0062489319 -0.029978808 0.059050497 -0.076737039 0.021475803 -0.026249254 -0.15628128 0.025030674 -0.083774433 -0.035599902 -0.049413335 0.11887545 0.16616619 0.050621144 0.073349379 0.044666182 0.041342169 -0.0068993932 -0.016903374 -0.11732521 0.087461881 -0.064560369 -0.044570498 -0.059075546 0.044065505 0.015887307 -0.035105843 0.081488118 0.028008085 -0.10821868 -0.11338369 0.069583237 0.043664888 -0.08556778 -0.019615702 0.080573998 -0.0025055651 -0.010290241 -0.072848275 0.035397455 0.047255348 -0.097931713 0.097246759 0.035910949 0.064146295 0.10136975 -0.095451348 0.085289948 -0.062260181 0.068179883 -0.058823559 -0.020082006 -0.10009638 0.045775585 -0.05290721 -0.024622187 0.063762687 -0.055140968 -0.012639633 -0.076236725 -0.039718505 -0.0036603557 0.069308192 -0.099092737 -0.075448118 0.049122397 -0.033592567 0.045105599 0.090651117 -0.06092314 0.025535068 -0.033303186 -0.078015886 -0.03405102 0.10443185 -0.086403951 0.077447079 -0.032217655 -0.0075958436 -0.078435071 0.051255696 0.11373743 0.020693496 0.06113214 0.036203835 -0.0073288609 0.086569682 0.067658186 0.0041565797 0.022659017 0.019936146 0.00060299214 -0.05963961 -0.098232388 0.11389928 0.050568681 0.019267509 -0.024108253 0.01435617 -0.023194671 -0.020321039 0.0007766551 0.030277124 0.039153695 -0.03432969 0.081543565 -0.07171119 -0.066293143 -0.10412115 -0.079233147 -0.031198565 0.048167776 -0.070858233 -0.056233242 -0.036329094 0.063778669 -0.10984949 0.083366178 0.06707979 0.030038983 -0.084714279 -0.026612813 -0.075324081 -0.024615882 0.084311709 -0.019514088 0.042849571 -0.024898671 -0.10049162 -0.081797853 -0.046442069 0.032935571 0.0731901 0.11209116 -0.077788815 0.050800338 0.084556639 0.0077906116 0.012484957 0.036697824 0.047915403 -0.040740427 -0.015957246 0.10062738 0.0033099419 -0.043738075 0.040745791 -0.042828582 0.079596512 0.093175761 -0.075907916 0.085101694 -0.0055405027 0.06217052 0.08433789 0.039595407 -0.034786683 -0.07032299 -0.027090151 0.069369607 -0.045656331 0.048471536 0.047284577 0.014329829 0.11737175 -0.075042859 -0.074224189 -0.0088690538 -0.054931309 0.096100099 -0.025881682 0.059384901 -0.087490492 0.014838088 0.049071893 -0.025729267 -0.011905761 0.0059538106 -0.06890139 -0.067302592 0.022926845 0.014328598 -0.052101865 -0.087101161 -0.068243057 0.0028535351 -0.050215285 -0.025945324 0.031811032 -0.10157573 -0.011523372 0.10125965 -0.083418779 -0.063611962 0.032643683 0.06550502 -0.015545967 0.054746773 -0.019557986 0.068316668 0.08599405 0.099531367 0.10081295 -0.04801568 -0.038074166 0.058667708 -0.10343041 -0.0031278518 -0.024845732 0.096007109 -0.013668518 -0.053851645 0.0081195263 0.067554399 0.06106003 -0.032136057 0.0049317149 -0.011383745 0.051626373 0.043445092 0.0022163384 0.028069448 0.071702778 0.082627065 0.089448869 -0.1079922 0.063178144 -0.023409553 0.043653402 0.077193946 -0.10799965 -0.090353228 0.078307681 0.070773512 -0.049968433 0.064033516 -0.10254932 0.024321454 0.045694198 -0.056495361 -0.10340525 0.046095815 0.10002799 -0.061155606 0.049036365 0.067950726 -0.025779143 0.053109515 -0.059689324 -0.020886717 0.086251609 -0.010552362 0.049397636 0.019884886 -0.072130486 0.10477243 0.0006689679 0.058614068 -0.0096976468 0.097602591 -0.010882234 -0.0050416091 0.043318927 0.0014805953 0.07407102 -0.085206583 0.036046349 -0.024228081 0.0016389942 0.048569825 -0.030588448 -0.10067836 0.080848351 -0.042237137 -0.034974866 0.056129787 0.059911959 0.024634115 0.052703913 -0.030862775 -0.083185352 0.012874681 0.02492574 -0.053905014 -0.074882962 -0.00048501312 0.073953778 0.082847476 -0.040341444 0.038997289 -0.066465676 0.10277995 -0.02342676 0.097519472 -0.065216877 -0.033074535 0.062969983 -0.076682419 -0.08853621 0.0012578212 0.021135261 0.052111667 -0.0034859565 -0.044447519 -0.037809905 -0.00048847275 -0.026149018 0.05229212 -0.063840263 0.077831037 0.073590428 -0.053131163 -0.090346009 -0.10800587 0.088152573 -0.058395583 0.078760572 -0.025766741 -0.071652152 -0.013630318 -0.057539683 -0.055000782 0.006961084 -0.077407412 0.054203488 -0.062313322 0.073634595 -0.012553564 0.054141562 -0.091707513 0.038631365 -0.035763044 -0.015560946 0.057784423 -0.080261126 0.096256405 0.051323447 0.096561909 -0.054186497 -0.099596448 0.055547986 -0.013077048 -0.015736867 -0.031718291 -0.063744478 0.057319921 0.07543502 -0.028010799 0.097770452 0.10793255 0.070981652 -0.1002159 -0.078066364 0.015349199 0.091693267 -0.0045710308 0.033830229 -0.060559507 -0.02572812 0.0918127 -0.10463504 -0.086005628 0.017058585 0.049956623 -0.065744907 0.082479671 -0.033341508 0.0063528256 -0.059065077 -0.047011152 0.079101913 -0.089959577 0.057126746 -0.020814098 0.040956877 -0.028229199 -0.046056584 -0.070193306 0.052662671 0.085364133 0.033725265 0.011419722 0.078895211 -0.069389015 -0.022015275 -0.014974021 -0.021331035 0.039601259 0.079498529 -0.029993281 0.045257974 -0.021268588 0.09136986 -0.080013707 -0.025666317 0.10189691 -0.041652981 0.013913568 -0.010565219 -0.072012223 -0.09070462 0.084320746 0.063123167 0.0092335399 0.034479789 0.047635693 0.080331862 0.06009236 0.035135165 0.04908726 0.049467023 -0.001175071 -0.068203144 0.089243449 -0.021466646 -0.041138779 0.029692397 0.0020609738 0.056291446 -0.010872187 0.086832456 0.086614549 -0.012030406 -0.04820668 -0.011611094 -0.094038747 -0.095486872 0.070666105 0.028948039 -0.056903277 0.020216988 -0.083679177 -0.056919664 -0.10205343 -0.045908753 0.0034549232 0.072964035 0.043945801 -0.061642271 -0.09844666 -0.09688668 0.018286284 0.011225319 -0.029984653 0.094236329 -0.057302114 -0.06682121 0.021247914 -0.033278674 0.007715865 -0.096144319 -0.055786215 -0.011096033 -0.073569067 0.05380198 0.015049522 -0.050478768 0.074969172 -0.019880312 0.071342073 0.10458469 0.11718052 -0.0072658709 -0.03486504 -0.12169996 -0.010034594 -0.038569041 -0.097284429 0.10097265 -0.027668962 -0.020343663 0.045197036 0.074096963 -0.061586011 -0.11197162 0.03569603 0.035333849 -0.084743366 -0.066377044 -0.065381564 0.043377478 -0.00326063 -0.11150479 0.061488658 -0.038064234 0.04355732 -0.032773443 0.034236435 0.098250799 0.063361682 0.081927568 0.044364177 0.072341733 -0.028830303 0.04732025 -0.0050538741 0.054993261 -0.083044402 -0.049149886 0.015080249 0.089026272 0.057252619 0.025838124 -0.0094380612 0.094691962 0.10065798 0.059139837 -0.024837444 0.018086761 -0.04656243 0.063279405 0.023707245 -0.085895009 0.097096957 0.019680833 0.068793282 0.049848422 -0.088938177 -0.072566576 -0.066912256 -0.080310374 -0.070309311 -0.020708298 0.025425045 0.022715835 0.025589973 0.073542185 0.070197336 0.043147009 0.089940459 -0.061127797 -0.084833153 0.027821884 0.018568698 -0.06774541 0.087607488 0.033912871 0.082520418 -0.042681247 -0.035956915 0.044598553 0.020936606 0.10197427 -0.10679048 -0.069155261 0.048674908 -0.011764633 0.056432378 -0.085230857 -0.036514167 -0.023277575 -0.010141506 0.027803354 -0.082283475 0.0092029441 0.094140358 -0.012574903 0.013169463 -0.087072179 0.091940068 -0.0058627501 0.0095536411 -0.044196211 -0.0010463685 -0.11327229 0.058093887 -0.092715211 -0.045191839 -0.034782402 0.011019984 0.078382097 -0.063446485 0.0014310235 0.069588467 0.063756481 -0.09384916 0.015626173 0.018731428 0.01466304 -0.057048131 0.042682629 0.06670671 -0.034460988 -0.10963143 0.024244819 0.050021522 -0.063092433 -0.053703036 0.017296672 -0.01758913 0.069204576 0.014138139 -0.019695953 -0.036873952 0.026948174 0.06805066 -0.078051411 -0.00080031581 0.042556155 -0.023358226 0.10410981 0.094922595 -0.10084642 -0.10693545 0.067669429 0.11779077 -0.065514572 -0.075124167 0.015419316 0.075754851 -0.031591754 0.035181765 0.024560297 -0.0071314359 -0.077409156 0.10644799 -0.072259843 -0.071612149 0.05502928 -0.072469786 0.059763994 0.039609518 0.047056023 -0.065002009 -0.029676877 0.042751778 0.061868124 0.085222222 0.062466104 0.060563315 0.029090131 -0.036543537 0.092852443 0.0079552159 -0.070735358 0.099548049 0.066370778 0.025414716 -0.033878475 0.068275556 0.011515532 -0.093774222 -0.0057220403 -0.014259761 0.076924883 -0.024827711 0.024974832 -0.038818691 -0.044840492 0.068870679 0.11115175 -0.0017004408 0.10238296 -0.056305584 -0.074356243 -0.017261941 0.045329165 -0.092445865 0.06793119 0.056472022 -0.074384756 0.016054338 -0.025613151 0.042845801 -0.047375087 0.033339228 -0.040408447 0.087854296 0.037461787 0.045110468 -0.010534195 -0.075909168 0.095746048 0.046493549 -0.060873155 -0.062887684 -0.033954039 -0.021380741 0.069822736 -0.064153105 -0.023617003 0.071030527 0.016609224 0.089115292 -0.044461463 -0.084460974 0.090619668 -0.048056271 -0.12253284 -0.040112384 0.086718686 0.088891044 0.014865991 0.072539978 0.051339 0.074439719 0.032315634 -0.047440961 -0.046214327 -0.031133717 -0.089638077 -0.017228447 0.045503128 -0.059902284 -0.068139285 -0.011634294 0.11791531 -0.02428166 -0.057649031 -0.020090414 -0.038982645 0.041882224 0.043404493 0.06679289 -0.031332072 0.10010226 0.054596093 -0.040680051 0.091897331 0.0015231296 -0.090508841 0.033099357 0.015529252 -0.042962972 -0.050361685 0.095869862 -0.073058955 0.097067304 -0.0054134987 -0.062148217 0.05054161 0.026504043 -0.081690148 -0.014585228 -0.026001574 0.055232342 -0.084937833 -0.063604489 -0.076191433 -0.035580333 0.099254727 0.016215282 -0.077031359 -0.086339161 -0.0037183831 -0.05296886 0.077403486 0.099525578 0.016253095 -0.092187382 -0.074071974 0.088366494 -0.0074143959 -0.064510658 0.03208508 0.076585069 0.059724264 0.029979916 -0.077592999 0.088737525 -0.064246953 0.047504291 0.045546986 0.074706733 -0.022717569 -0.028461037 -0.0023695338 0.039082017 0.019422827 0.091566704 -0.0079180449 0.039434541 -0.08010833 0.072763048 0.059398968 0.025495652 0.049357437 -0.078734741 0.050873671 -0.0090802684 -0.0001783062 -0.031498861 0.082356595 -0.033224575 0.090159029 0.011677891 -0.019289786 -0.0050913626 0.072047539 -0.050872568 -0.03842758 -0.078613684 -0.06305898 0.065390185 -0.022683304 -0.028163901 0.048881002 0.016516525 0.021222966 0.038156752 -0.08919616 0.013496511 -0.091767982 0.051900495 -0.0085975965 0.053428654 -0.0024173011 -0.081197076 -0.003992565 0.044480834 -0.0067741657 0.010083895 0.042201415 -0.0023290485 0.10241003 0.051356155 0.013683529 -0.076051913 -0.069187522 -0.0024954991 -0.098110698 -0.10376477 0.013575044 -0.024797669 -0.087032624 0.051413033 -0.033695851 0.048670623 -0.071771078 -0.020798774 -0.040654432 0.081327081 0.051731169 -0.0059681991 -0.019536363 -0.061475746 0.084609412 -0.057758544 0.025023771 0.082164019 -0.10658692 0.084734313 -0.050351482 0.049964942 0.04716403 0.071276598 -0.099613644 0.066649921 -0.052386656 -0.044997696 -0.047036786 -0.050225403 -0.0096734744 -0.054069027 0.10069967 0.0088723684 0.0028886683 0.058715042 -0.1168976 0.0086903665 -0.089135587 0.04082128 0.090307273 0.026240313 0.024241487 -0.02594796 0.055482589 0.06225872 -0.030451091 0.014650108 -0.068268679 -0.019789884 -0.0019113636 -0.0038609249 0.067552216 -0.068972938 0.096623942 -0.038060281 -0.056612428 -0.068815582 -0.094076768 -0.066638641 0.092816018 -0.014574571 0.006240482 -0.0038089857 -0.046390753 -0.024919162 -0.09634611 -0.034698352 -0.064634562 0.051836599 0.065868951 -0.09129478 -0.08544755 0.019110708 0.049648505 0.014893631 0.051011641 0.052629426 -0.060190141 0.084668405 0.089042261 0.032060966 -0.069702096 0.0026932077 -0.09904296 -0.013920934 -0.044869717 -0.10170075 0.069840409 -0.047845587 -0.087364994 0.0015438086 0.031065471 -0.066531286 -0.10133625 0.098316133 0.0026161878 -0.048649713 -0.081798218 -0.012510703 0.097863398 -0.019695124 -0.073256299 -0.09101662 0.065548979 -0.094732948 -0.050831456 -0.052711587 -0.066579051 -0.070268452 0.086835727 0.012792083 0.046397742 -0.095919833 0.015081283 -0.092573456 -0.086295471 -0.069675215 0.029746726 -0.070909455 -0.04165335 -0.10101028 -0.054809466 -0.035701912 -0.0021457653 0.046643589 0.053579491 -0.073701583 -0.069451571 -0.029061582 0.00060735276 0.058223534 0.019127196 -0.022803998 0.00027328718 -0.0074478979 -0.017892314 -0.057575423 -0.071333036 -0.07435628 0.085423782 -0.035389133 0.038388718 0.10560375 0.019616218 0.069773622 -0.064017862 0.058036275 0.098358326 -0.081204832 0.055202391 0.049390074 -0.033307534 -0.045764878 -0.080093905 -0.063821249 -0.063662171 0.093713485 -0.083234176 0.098442376 -0.079994783 0.09178932 -0.11939722 -0.028796874 0.080065027 -0.014148307 -0.018608946 0.064235985 0.01114749 0.066221118 -0.04962036 -0.01109222 -0.084687755 0.064912699 0.048819125 0.099874988 0.028241478 0.083538912 -0.025353899 0.0065190801 0.048974533 0.09230347 -0.03941416 0.092448689 -0.064397998 -0.045379203 -0.09371075 -0.021961531 -0.058322094 0.0046967105 0.084536731 -0.020798637 0.10922112 0.063660905 0.020188566 0.093508661 0.060531177 0.013643055 -0.047555711 -0.074162774 -0.014522037 0.038368292 -0.00063464337 0.08027944 0.0028621736 -0.0039765313 0.026384221 0.017322883 -0.10057706 0.056346193 -0.015045621 -0.072437249 0.0286314 -0.034166683 -0.037239593 -0.04479358 -0.058190249 -0.034728311 0.0039670859 0.064211607 -0.10948558 0.045705475 -0.02010235 -0.10671889 -0.073703803 0.052956123 -0.10687197 0.0095756529 0.044269994 0.082475342 -0.0073316437 -0.085074626 -0.083557777 -0.044303726 0.07053297 0.038819715 0.032696243 -0.0061530727 0.077481739 -0.090414144 0.02613735 -0.004175372 -0.092863746 -0.062695071 -0.019348884 -0.0092390729 0.047073688 0.010425342 -0.034253065 -0.014611558 -0.091477253 -0.068981215 0.064839378 0.046682246 0.0016272363 -0.04562071 -0.080104016 0.067195371 0.0069984067 -0.032110602 -0.088471562 -0.034484878 0.048112981 -0.086360045 -0.077961609 0.019761477 -0.040674109 0.031525929 0.087923966 -0.10338285 -0.071562938 0.054120295 0.088836022 0.059123587 -0.054824505 -0.086632617 0.014861888 0.0095311562 0.0080031464 -0.064528182 -0.026282756 0.067844637 -0.067764841 -0.023473328 -0.028552487 -0.033399776 0.038611934 0.01345442 0.046888221 -0.081504762 0.092471883 -0.013352025 0.09308546 0.034348518 0.055202417 0.033892769 -0.037286036 -0.019967336 0.045908447 -0.047300871 -0.070447616 0.016548386 -0.0030827075 -0.067049079 0.080392174 -0.084472008 -0.031050256 -0.041161012 -0.04422028 -0.093079604 -0.060156334 -0.10449115 -0.016478036 -0.088162929 0.077140808 -0.050293878 0.086729489 0.093630411 -0.015025817 0.038371466 -0.020060411 0.0037031362 0.023930822 0.10163966 -0.033997469 -0.020986859 0.05533801 0.059358887 -0.057470243 -0.03806797 0.055524163 0.041081492 -0.013862879 -0.078330137 0.10024771 -0.012128474 0.075704359 -0.021378735 0.098345816 -0.078735813 0.064826913 0.092825636 0.072025113 -0.077734031 -0.035928473 0.034232039 -0.061755955 0.029434824 0.047058918 0.064096369 -0.056203019 -0.080106176 0.095179208 0.058930125 -0.067018963 -0.05911972 -0.047177076 -0.10542369 -0.051865961 -0.034094855 -0.060696647 0.062796734 -0.03431005 0.074570552 -0.07379888 0.014512733 -0.048573609 0.054964922 0.015784383 -0.073413916 -0.05724914 -0.021733897 0.0092166997 -0.067773163 -0.071331568 0.00031128945 0.035036601 0.062322717 -0.060812745 0.084294289 -0.040871046 0.076278836 -0.11716731 -0.067537241 0.044923946 -0.049284548 0.059360575 -0.080194294 0.049524944 0.055956442 -0.046125397 0.055046171 -0.11393309 0.096823327 0.015392201 0.045540363 0.0076375823 -0.027925519 0.018674852 -0.10387401 -0.051959604 -0.10279941 0.055295687 0.069778904 0.045856945 0.043259356 -0.091476053 0.11664779 0.010412245 0.0081655392 0.05999878 -0.05832953 -0.063934796 -0.0084354291 0.088872805 0.011935068 0.094413772 -0.090721481 -0.086356901 -0.0010253416 -0.076390527 -0.00066064316 0.078686126 -0.00073498173 -0.062466685 -0.041515492 -0.034020439 -0.022587657 0.077437729 0.068889879 0.10938215 -0.027562926 0.053362817 0.093550287 -0.06733723 -0.10826819 0.051929042 -0.054003932 -0.065840982 -0.029888241 0.075300641 -0.020425895 0.071381629 -0.096344255 -0.01201852 -0.10820955 -0.047827516 -0.065891013 -0.12490351 -0.045153026 0.083307132 -0.068939015 -0.12788972 -0.0067556319 0.095938995 -0.062545702 0.07220073 0.00039212737 0.10381185 0.047519937 0.086639047 -0.10328129 -0.061416909 0.07100527 0.082311988 0.060495749 -0.021691311 0.047953185 0.027325263 -0.008058209 0.047130466 0.013345396 -0.018044105 -0.012821863 -0.026211027 -0.089236818 0.073672906 0.09538433 0.079053201 -0.066615149 -0.02835633 0.038215455 -0.073812932 0.023467029 0.065767474 0.080751874 0.099109955 -0.054066949 -0.041648354 -0.0026245655 -0.11097498 0.079014175 -0.037972335 -0.10466138 -0.034407854 0.056826748 0.035209734 -0.088508934 0.088570349 0.05374454 0.070659123 0.052579731 -0.068283297 -0.031599279 0.063105047 -0.064667605 0.08148285 -0.043812174 0.023279062 -0.085921586 0.037235226 0.088866174 -0.032086357 -0.00047255115 -0.036482211 -0.075571798 0.054666419 -0.066241674 -0.072291702 0.0014516795 -0.046254255 -0.08891385 0.013650997 0.040817503 0.10809664 0.080520913 0.096007764 -0.05858973 -0.0062749451 0.011180735 -0.079965904 -0.00020112992 0.029180272 0.089314066 0.10998922 0.020349767 -0.0098008811 -0.070310637 -0.046880148 -0.020208819 0.00753948 -0.031794708 0.0021029948 -0.074747831 -0.080143765 0.046335887 0.010563157 -0.032841988 0.0029229452 0.029558733 0.032390691 0.084748864 -0.070788018 -0.096696518 0.083750308 -0.081799455 0.094313495 -0.014417578 -0.06039615 -0.1149539 -0.034996111 0.02572377 -0.079075374 -0.11437773 0.08652097 -0.073364154 -0.035562888 0.061124954 0.010305312 0.038121466 -0.062662691 0.063691698 -0.073184609 -0.017574683 0.10868689 -0.048873477 0.067535043 0.011537078 -0.04406346 -0.0062542018 0.014979324 0.067852452 -0.02396192 0.091793507 -0.055675667 0.051904619 -0.093258001 0.018956797 0.0087465635 0.072057903 -0.01922958 -0.020847254 -0.086128391 0.052537158 -0.0033439011 0.016181752 -0.051897716 -0.028128911 -0.028649356 0.083910204 0.084813595 -0.034425825 -0.10524434 0.075126253 -0.059527017 0.038520887 -0.1165829 -0.073373556 -0.04144311 -0.079389118 -0.064644113 -0.012833516 -0.0044207801 0.027556231 0.12373812 -0.081629999 -0.064450674 0.023059072 0.082269602 -0.085237682 0.10139383 0.048895743 0.076567516 0.024163976 0.086684883 -0.067715339 -0.088022016 0.10214066 0.0070897355 0.10815524 0.026840448 -0.01545863 -0.042547744 0.11178562 -0.052253302 -0.096916318 0.047936272 -0.019764103 0.037192695 -0.061893582 0.087661617 -0.086432047 -0.058243375 0.048011955 -0.068627499 0.060878109 -0.084041677 0.083035953 -0.059272513 -2.1288901e-05 -0.11068451 0.091387533 -0.014173266 -0.10672974 -0.027566651 -0.029081317 -0.10838811 -0.087983273 -0.031345814 0.063815981 -0.0012406969 0.054286458 -0.12121436 0.021879664 0.070614189 -0.018913869 0.05514254 0.033105362 -0.05685623 -0.012783456 0.089579485 -0.047451887 -0.07015422 0.071766734 0.017938469 0.032928992 0.023274632 -0.088661 -0.061550599 0.053587653 0.077075362 0.10517067 0.038723953 -0.029797912 0.092918955 -0.021434557 -0.07912305 0.016102524 0.057652574 -0.080460981 0.046245474 -0.039651815 -0.01530694 -0.070209451 -0.040560041 -0.10884686 0.028649502 -0.0084235845 0.023434335 0.017013151 0.043453753 0.0069944928 0.023761416 0.094325848 -0.046802193 0.035680562 -0.077549018 -0.055700712 -0.091355719 0.03170247 0.045307141 0.095307171 -0.025357239 0.048746884 -0.067148291 0.030858759 0.083857842 -0.010427946 -0.086015657 0.041479975 -0.059382129 0.055334341 0.033095282 0.049187295 -0.059117995 -0.038313184 0.0062143486 0.053631883 -0.00072351791 -0.08498124 -0.054494508 0.069564342 0.028525317 -0.076037005 0.068232954 0.026085824 -0.039432853 -0.0080538942 -0.03228277 0.02585957 0.024377083 0.11397883 -0.073150612 -0.07705643 -0.096661225 -0.041982755 0.11192025 0.013683063 0.037259683 0.096342839 -0.060512096 -0.081931189 0.035314038 -0.061319042 0.060379565 0.018088756 -0.015612479 0.019546535 -0.065392889 0.048864916 0.010384657 -0.074085549 0.041623812 0.0031072218 0.0043431232 -0.080618247 -0.064264819 0.089772992 0.045420852 -0.060706716 0.067293167 -0.082992122 0.0208095 0.07842353 0.039005846 0.0015827904 0.053645574 -0.059623711 -0.077362731 0.065007687 0.034893747 -0.071276195 -0.088554628 0.040858634 -0.055383109 -0.045240499 -0.003883875 0.09737841 -0.088535964 0.087750547 0.069975488 0.015561427 -0.097730041 -0.07935147 0.042395331 -0.027897397 0.020738 -0.042614471 0.09815231 -0.12249878 0.080554418 -0.093622513 0.081486754 -0.063494436 -0.038101051 -0.11192027 -0.063336357 -0.02931504 0.10658324 -0.085290417 -0.10109472 -0.041451178 0.070564933 0.079980485 -0.0063437806 -0.017227925 -0.10931332 -0.081979752 0.0011718599 -0.07966426 -0.015199007 0.027343126 -0.060694467 -0.051371839 0.067979887 -0.10030997 0.085115001 -0.075117379 -0.025652142 -0.087192975 -0.102161 -0.096072093 0.094569273 0.086512074 0.070136465 0.058033194 -0.032718312 -0.060453009 0.11546229 0.014860789 -0.033205736 0.071748994 0.06123485 -0.070417129 0.085262358 -0.066911891 0.034312397 0.013105981 -0.049981374 -0.045597859 -0.062306955 0.098458037 0.032560773 -0.044720422 -0.11824309 -0.072695732 -0.046094719 0.093500532 0.063542433 0.037591301 -0.058403771 -0.046321359 0.047836535 -0.11834244 0.085110262 -0.050748948 0.063107312 0.094250605 0.063241079 0.057992615 0.021241907 0.033606734 0.10742158 0.042859107 -0.018297588 0.017744765 0.030921077 0.021570291 0.091983497 0.048959758 -0.072129823 -0.010048096 0.040679533 -0.070208833 0.031831615 0.11813036 -0.099242121 0.10130858 0.024874717 0.039277736 0.039057314 -0.096217051 -0.088605881 0.02274178 -0.027456893 0.05649497 -0.014066373 -0.0060704723 0.021259215 0.050810289 -0.074844271 0.031620171 -0.063000128 -0.0080972351 -0.042892851 -0.028817117 -0.048244175 0.029891323 0.03881127 0.046035245 -0.055033892 -0.077644788 0.013340513 0.039874658 -0.0085963495 -0.061451007 -0.073930047 0.069603726 -0.06833943 0.013388659 0.10444052 0.091280334 -0.075813428 -0.068686292 -0.028470971 0.021243701 -0.062931404 0.089744553 0.080182858 0.013606856 0.024157876 -0.015684199 0.010133313 0.034402318 0.093697689 -0.010643532 -0.010120972 -0.077516481 -0.080086194 0.021759653 0.021900736 0.041594587 0.031043982 -0.0067739729 0.069076441 -0.063948803 0.063505597 0.10131664 -0.027541246 -0.047808446 -0.097570769 -0.096057661 -0.069401182 0.0021308023 0.099316865 0.0063851043 0.076804399 -0.04053415 0.063040681 0.073671333 -0.049015343 0.078234397 0.0028749316 -0.034458701 0.064839065 0.070814945 0.039533421 0.0091957562 -0.098976776 0.052969471 0.071326971 0.027315948 -0.02028984 0.015808376 -0.080291107 -0.10501388 -0.11768951 -0.03841804 -0.021970605 0.032681875 -0.08147414 -0.065569118 0.09343379 0.092749789 0.11597159 0.0021524143 -0.022383453 0.055626754 -0.058843616 -0.029990176 -0.016368685 0.087369941 0.054287009 -0.039487038 0.019544147 -0.020004496 0.0053518568 -0.042767234 -0.056969576 0.050358329 0.13152717 -0.0079422165 0.069793627 0.082716942 0.023115516 -0.07090272 0.044744138 0.082496829 -0.022692112 -0.0051716818 -0.072731808 0.070369117 -0.01719784 0.11591664 0.098695822 0.0086698122 0.021894956 -0.057538945 0.019442219 -0.018277898 -0.10134336 -0.020054279 -0.073390916 0.086225316 -0.016946187 0.043974403 -0.067300797 0.076778613 -0.099887922 0.036198258 0.050626334 0.097508334 -0.071176894 0.032160986 0.11071152 -0.097548425 -0.0026274654 -0.082563333 0.059115063 -0.034208711 -0.0034772658 -0.093525305 -0.00070825266 0.033303704 0.0015670023 -0.063885219 -0.010425807 0.10428452 -0.080267325 -0.03670508 -0.077491269 0.025865275 0.0066440557 0.017051615 0.036378693 -0.061176404 0.097415127 0.044637389 -0.075700089 0.051686224 0.0014128933 0.033236358 -0.083127111 -0.036424141 0.087191015 -0.10145801 0.0026283381 0.082613587 -0.055639148 0.052266385 -0.010714499 -0.088403448 -0.068022378 0.058271855 0.057248343 -0.057753403 0.068147115 0.068005636 -0.048202675 -0.049128816 -0.077441663 0.067189671 0.07560306 -0.037422545 -0.07795319 0.073113985 0.071511723 -0.0029691833 0.067344658 -0.019381704 0.063880637 -0.059048321 -0.013685977 -0.066185541 0.039949715 -0.065317795 -0.063511357 0.022032596 -0.057166643 -0.064804718 -0.010767369 0.08544784 -0.00054795231 -0.019366577 0.056872301 -0.051809486 0.025893055 -0.090971969 0.097178631 -0.10791108 0.00091782259 0.10700006 0.056069311 0.014599632 0.094570354 -0.0028184571 -0.074831888 -0.077525802 -0.087775722 -0.036683645 0.057564765 -0.065185547 -0.069749728 0.040425699 -0.077392861 -0.0055480055 -0.065005429 0.022498826 0.10553791 0.037019234 0.060856346 -0.0043434775 0.025106743 0.01156618 0.045982704 0.043370757 0.10762344 0.048054691 0.072733328 -0.043979611 0.027756806 0.067862093 -0.099625841 0.028351676 -0.048775844 -0.038633525 0.094149493 0.02987377 -0.078272291 0.087325282 -0.073899731 0.11104938 -0.051007435 -0.076967567 -0.0098714484 -0.015585924 0.043491077 -0.0074938764 -0.02068428 0.11404183 0.031635631 0.072916456 -0.0094149886 -0.018951481 -0.029627893 -0.046091426 -0.04532117 -0.081580497 -0.011402674 -0.068544954 -0.038453609 -0.03485949 0.021207385 -0.03445816 0.05036388 -0.11364452 0.012277686 0.091935053 0.057688739 -0.024673332 -0.083169617 0.088845186 -0.066376626 -0.026798425 0.087160856 -0.097358741 -0.080212608 0.082571968 -0.018166946 0.037421722 -0.080644883 -0.0044062305 0.053269248 -0.11055944 0.090621322 -0.019969234 0.073641963 0.095521398 -0.063300155 -0.043979753 -0.061508797 -0.089121386 -0.037610643 -0.0084286556 -0.00017635722 -0.10857611 0.055261433 0.085170828 -0.053892665 0.00030452997 0.068133175 0.046762988 0.095318154 0.072968856 0.097396374 -0.051125262 0.033265214 0.074197546 -0.032628085 0.026518345 -0.11577919 -0.085520111 -0.058577534 -0.059411757 0.045940425 0.035758808 0.013662434 0.0047122613 -0.10203989 0.012600663 -0.085209459 -0.023882711 -0.082761906 -0.051397637 0.0013018553 0.10265724 0.095326334 0.050721128 -0.078691766 -0.078150786 -0.044384245 0.00025157104 -0.072296783 -0.093548842 -0.086657688 0.085945114 -0.084249511 0.071757503 0.055588432 0.090551943 0.052054141 0.080106318 0.070461623 -0.087374419 -0.058521807 -0.076328583 -0.055113636 0.016375456 -0.083469719 -0.027404942 -0.011621215 -0.02255672 0.010280279 -0.053957537 0.06673573 -0.040285364 0.078965828 0.0036365387 0.023274438 -0.076215662 -0.077893421 0.0021198494 0.10288476 0.0039405343 0.086724177 -0.075271212 -0.063516751 0.06984441 -0.042686515 0.088315248 0.019974584 -0.03396333 -0.11146777 -0.042257272 0.057935417 0.053537115 -0.027615437 0.072099261 0.090034947 0.082374163 -0.038807295 0.047187503 -0.0088530667 -0.039655264 0.06801483 0.094055153 -0.077615015 -0.066846125 0.088416666 0.029408071 0.04476732 -0.019642252 0.020205712 0.071687199 -0.062775582 -0.083922707 0.069110125 0.095609747 0.041822109 0.035802342 -0.049873579 0.046807893 0.013665672 0.095338345 0.10996241 -0.087539263 0.010244908 -0.027503116 0.042519454 0.046037577 -0.097035766 -0.08441028 -0.076493531 0.091425955 0.081316888 -0.053984407 0.079910114 -0.045988418 0.062588997 -0.025494924 0.061536852 -0.031600483 -0.072843462 -0.022770638 -0.097147621 0.030394547 -0.04598517 0.00082657969 0.075597569 0.066321552 0.074990235 0.0092877476 0.0055550947 -0.029757874 -0.033164814 -0.051798895 0.0039735641 0.044675544 -0.017692197 0.097601488 0.025111571 -0.015006303 -0.061510511 0.09928529 -0.026017843 0.01332704 0.075622037 -0.073014617 -0.0049603134 -0.085896187 0.05001089 -0.038233243 -0.082842045 -0.017400222 0.089523271 -0.092013896 0.068026684 -0.0072139264 -0.070125028 -0.073366411 -0.044352025 -0.021677975 0.011568035 0.038231734 -0.0079447422 -0.093103215 0.090200946 -0.067501292 0.017515313 0.022591993 0.09039437 0.073339455 0.080406927 -0.0622757 -0.062335171 0.0046452153 -0.011404476 0.036922298 0.0720549 -0.0042512971 -0.041398108 0.074545376 -0.025059378 -0.070464879 0.10247508 -0.063665867 -0.089018226 -0.069778107 -0.026002547 0.1042736 -0.039181851 -0.092859216 0.068239972 -0.068312988 -0.034860581 -0.0098988013 0.084275767 0.093402214 -0.011425091 -0.074761353 0.05075128 0.070526727 0.086740106 0.10200834 0.083031483 0.033040557 -0.043079536 -0.01423906 0.045562211 0.098946884 0.063016221 -0.057035703 -0.054513078 -0.08119902 -0.071112238 -0.079796612 -0.068096802 0.080075808 -0.066115178 -0.051346414 -0.10121419 0.0061672861 0.052502628 0.037670001 0.074704178 -0.00062444026 -0.014670783 -0.056384116 0.0090052141 0.083480604 0.030550128 -0.043338712 -0.052652325 -0.076279491 -0.077856414 -0.050198369 0.023201961 0.061450746 0.027070889 -0.058449663 0.024916876 0.030038208 -0.060499769 0.054371152 -0.088821948 -0.037715234 0.0036577955 0.076326616 0.041709837 0.066709004 -0.066581793 -0.0085878726 0.0060862335 0.087430455 0.03669944 -0.028830634 -0.0064369845 0.075863592 0.089230411 0.027314499 0.067331642 -0.08579839 0.098508298 0.028446861 -0.028129609 -0.027003774 -0.028409375 -0.063530527 0.013380599 -0.014110716 0.08440619 0.057381395 -0.048810892 -0.067596301 -0.036240831 -0.024659937 0.042775471 0.081188977 -0.018824518 0.07375326 0.037828322 -0.047956843 -0.10305883 0.070822589 -0.073025487 -0.094954029 0.017542746 0.063026831 0.021973601 0.042921972 0.052380729 -0.020195205 0.037549544 0.013126492 -0.07029473 0.015951836 0.014224836 -0.045526896 0.024026433 0.015421421 -0.073732242 0.085252926 -0.013032902 -0.073927134 -0.032732621 -0.04418939 -0.079531111 0.10745763 -0.061159607 0.097433478 0.033271119 0.027271483 0.092711762 0.091397882 -0.046276763 -0.04785338 -0.067798615 -0.042485133 -0.043509278 0.026106959 0.00050585164 -0.041901488 0.0027752428 0.034409158 -0.010442062 0.0029567005 0.083642155 0.10747322 0.080889381 -0.07869751 -0.096634716 -0.027620334 0.068730369 0.011283911 0.069363192 -0.024208188 0.063037232 0.10613351 0.010742167 0.060602169 0.08065711 -0.016663739 0.0085672578 0.069670387 0.052063815 0.060929198 0.005786927 -0.032249182 -0.023679109 -0.081203423 0.028675949 0.091934279 -0.10072132 -0.029313799 0.05767234 -0.076080166 0.013890901 -0.058681387 0.02116709 -0.016115837 0.043368489 0.0045097438 -0.020792181 -0.012509258 0.079340965 -0.083637461 0.047191247 -0.093095794 -0.06568487 0.04907532 0.030363537 -0.059143841 -0.031707611 -0.063743509 0.063735776 -0.00059143314 0.099401578 0.083404616 -0.059833929 -0.090155289 -0.10275431 0.0031284166 0.057552181 0.089033321 -0.053858843 0.04258015 0.091233552 -0.055849642 -0.072070554 0.019705478 -0.088436432 0.06298811 0.085349932 -0.044421144 -0.030338146 -0.047899909 -0.059638228 0.013417064 0.071842089 -0.0057580741 0.075079836 0.081335105 -0.039050166 -0.0207684 -0.041691516 -0.054050725 0.1031308 -0.05317938 0.093260609 0.093414746 0.0099441838 -0.093527615 0.062097821 0.033557244 0.092895597 0.10234714 0.022247197 0.082275778 0.020213097 -0.0084846346 0.044426087 0.021670274 -0.069116898 0.073601261 -0.053411614 0.087608732 0.10796037 -0.10044371 0.048879504 -0.062400501 0.048738766 -0.064601585 0.073893912 0.081650108 -0.074740402 -0.036749344 -0.086043015 -0.074075185 0.094294302 -0.0073121293 -0.045978632 0.098111317 -0.072023295 0.01249822 -0.07800328 -0.090562753 0.051012404 0.023178417 -0.039557137 0.030525664 -0.033170328 0.083769701 0.046509102 0.031275842 0.019133162 0.01075252 -0.07621365 0.07986635 -0.10246745 0.010220773 -0.10492318 -0.024850633 -0.033337992 -0.044470195 0.041540526 -0.010058828 0.037063304 0.021871123 0.075490743 0.07686463 0.097047351 0.0346784 0.024778867 -0.030170377 -0.0045298752 -0.10220947 -0.029791476 0.027452694 0.057298508 -0.010976744 0.026641129 -0.093047306 -0.10076477 0.032970246 0.10096706 -0.051358432 0.06519895 -0.09245088 -0.004978579 -0.04984577 0.049813442 -0.0076457905 -0.03686098 -0.055648439 -0.1031166 0.073833309 -0.0085292393 0.02956639 -0.031782184 0.046470474 0.03143483 0.010063495 0.060670968 -0.024129953 -0.026070789 -0.054021865 0.057622299 -0.08308284 -0.097831599 -0.0087993862 0.086902529 -0.0032157279 0.06077325 -0.083858825 -0.079240687 -0.0017380489 -0.027694607 -0.046810385 -0.050114363 0.056878548 -0.0066790595 -0.018167628 0.10419229 0.09658014 0.043754421 0.058572665 0.030309869 0.0056390455 0.012152165 -0.083975561 -0.00654716 -0.071374163 -0.10333875 0.1086082 -0.03057261 -0.056039851 0.050886415 0.055788223 0.036199626 0.0735889 -0.068097256 0.054245312 0.015118578 0.064750828 -0.067923196 -0.072323635 -0.070535608 0.095760375 0.090087451 -0.10444766 -0.00015922083 -0.022939522 -0.095129326 -0.063609079 0.10234876 0.096338749 0.015611359 0.085463822 -0.089657709 0.054791253 -0.0054653357 0.032123391 -0.031440601 -0.031372074 0.041176841 0.020924309 0.074944854 -0.036030728 0.01973664 -0.0077381134 0.02787343 0.090698212 -0.075227633 0.092671722 -0.013268967 0.046866212 0.099913768 -0.083581731 -0.044200309 -0.085489705 0.029398402 0.09716212 0.089669883 -0.071403265 -0.0069906511 -6.7126755e-05 0.063364036 -0.014780321 0.10673233 0.05232333 -0.05093392 0.05678048 -0.099543534 0.078087561 -0.083747901 -0.069340706 0.0059314771 0.085712679 0.05439147 -0.09678632 0.053102788 -0.023904685 0.035848148 0.099279791 0.0564707 -0.07446909 0.012419024 -0.069187142 -0.049021535 0.086957276 0.09245763 -0.043419063 -0.025034152 -0.015938824 -0.085578732 -0.04632533 0.010708538 0.089635022 -0.087202206 -0.054553084 -0.023616858 0.076067179 0.047258571 0.043820113 0.091269985 0.085105278 -0.063183248 -0.0055206106 0.096879348 -0.10678831 -0.082242534 -0.072231524 -0.036907729 0.083427049 -0.044951834 0.067363299 0.08470089 0.038120352 -0.084536396 0.0068408307 -0.065475412 0.053983152 0.021359365 0.10174156 0.017893221 -0.013908324 -0.11753099 0.048745882 -0.036101304 -0.090356544 -0.015088021 -0.0076351268 0.051109243 -0.10833246 0.0027028644 -0.06684424 -0.057158638 0.1145179 -0.043852501 -0.081651956 -0.0046869419 -0.012075711 0.08549419 0.092648856 0.029234493 -0.094097786 0.014848551 -0.098158658 0.028971812 0.065780416 -0.082564987 0.035336632 -0.081484869 -0.048330653 0.04762068 -0.030652873 -0.097532265 -0.068311259 -0.10554548 0.002154548 -0.013892997 0.075049579 -0.063307419 0.012955813 0.032212529 -0.043065604 0.028245866 0.070028313 -0.034525272 0.024453104 -0.075117514 0.067734629 0.11509006 0.056777563 0.092786171 -0.051343936 0.093712308 -0.042311437 -0.053519458 -0.055334851 -0.072214432 -0.015004898 -0.032891281 0.068286799 0.10672455 0.04931416 -0.012767171 -0.084128469 0.081107728 -0.079996981 -0.020820994 0.10250039 -0.035359848 0.050650343 0.021765377 0.07719335 0.074015617 -0.091360331 0.092988595 -0.064231724 -0.039301407 0.054793991 -0.016837984 0.058689114 -0.074979849 0.0093460549 -0.070411198 -0.052598476 -0.08544419 -0.026514253 -0.053887822 -0.063156947 -0.1147797 0.048490494 0.020979812 -0.05838415 -0.0096376659 0.042260859 -0.082888007 0.060478114 -0.096995071 -0.072127678 -0.097178712 -0.028720116 -0.052642301 -0.017820364 -0.02877765 -0.0090217832 -0.0070916498 -0.051076651 -0.06737709 -0.090999521 -0.061399881 -0.039355934 0.021831244 -0.097802065 -0.062165365 0.013404472 0.0072173239 -0.021477656 -0.050150003 0.02492797 0.077622823 0.068532437 0.07286109 0.099866651 -0.00032568272 -0.12495678 -0.075604253 0.030245338 -0.068493053 0.040830165 0.075169809 -0.0010048847 -0.061348695 -0.060138591 0.013217072 -0.034440052 -0.0067914589 0.06405317 -0.092297576 -0.089034237 0.10620669 0.10395168 -0.036081113 -0.023017026 -0.035985101 -0.11094616 -0.040311001 0.029673232 -0.01562638 -0.081267335 0.030023586 0.048906088 -0.026754765 -0.056626007 0.03383591 -0.078896604 -0.066965424 -0.0088184746 -0.091895342 0.045448992 0.011189033 -0.0088851843 -0.11286868 0.092322819 -0.079752937 0.029579297 0.084919795 -0.017280132 -0.08236935 -0.075405039 0.091244183 0.10424731 0.009235505 -0.014695873 -0.077561595 0.065109633 -0.10625543 0.035700902 0.063262321 -0.038596984 0.05094577 0.042632703 0.054674171 -0.10233915 -0.0084160492 0.082159996 -0.016824801 0.06424997 0.018829094 0.063715525 -0.037892617 0.069168709 0.005355116 0.10807259 -0.077861361 0.063880451 -0.094742261 0.052935626 -0.083812714 -0.059126709 -0.074240208 0.09573321 -0.048009504 0.032501344 0.09259741 -0.095242269 -0.023667149 -0.011047164 0.023654137 0.025151223 0.052328665 0.091741234 0.069750182 0.0070496979 0.093749709 0.044600915 -0.022691131 -0.099956349 0.036888883 0.026866442 -0.032069933 -0.05714488 -0.073170565 0.070791535 -0.11331325 -0.01907157 -0.041754235 0.01617039 0.067677654 0.027219918 0.035482626 -0.0068820375 -0.10338324 -0.047138967 0.11019958 -0.045187507 0.045233671 -0.026477899 0.11775675 -0.079279371 -0.051692806 0.077566504 0.035626926 -0.10614429 -0.10684612 -0.083780169 0.058204137 0.083272777 0.00054910913 0.0689409 0.017459111 0.11086628 0.022039481 -0.084977984 0.020672936 0.031658363 -0.044302486 0.05436771 -0.037962578 0.068821214 0.07014218 0.017259775 0.045664497 -0.011748961 0.019206194 0.076204211 0.098950453 0.046262659 -0.060929377 0.024209358 -0.10122867 0.039810978 -0.068919867 0.044969056 -0.028530961 -0.078711472 -0.071658269 0.046700805 -0.057669245 0.071754105 -0.07765431 0.061985314 -0.086525597 -0.10948197 0.10983795 -0.020490173 0.022411872 -0.072075561 -0.032055419 0.066534109 0.045081459 -0.0098990062 -0.065053143 0.03568536 0.043910205 0.028843457 0.002656152 0.10562415 0.052596055 0.012708561 0.01215251 -0.048448607 0.070193708 0.035201028 0.10698905 0.0067614573 0.11865169 0.011505501 -0.099753104 0.059086222 0.0035915109 0.02435381 -0.063449956 -0.067335613 -0.097191118 0.083354339 -0.003591262 -0.095113419 -0.026141174 -0.10071804 -0.055440474 -0.010678843 0.020913703 -0.09694083 -0.0021428205 -0.068731055 -0.01978769 0.021581041 0.005207805 -0.080672517 0.057277951 -0.088447623 -0.067848526 0.043769654 -0.013785407 0.053195011 -0.091209732 0.030185893 -0.0094422074 0.047897197 -0.056401659 0.035451286 -0.11938632 0.055772875 0.0552672 0.06307587 -0.012199053 -0.0050622751 -0.05646297 0.042931993 -0.016937057 0.093979724 0.035752706 0.039782919 0.099005945 0.10293752 -0.019137064 -0.066766761 0.03294998 -0.037566289 -0.082121678 0.051222805 -0.063736506 -0.10456175 -0.032061622 -0.095066734 -0.069117509 0.015810229 -0.085334614 0.099898763 -0.028433839 -0.045951914 -0.0076241884 -0.11228548 0.11109512 -0.075581878 -0.096585333 -0.1135903 0.045566779 0.094585955 -0.069944009 0.11371996 0.053196542 0.071345791 0.054573189 -0.018615425 0.037983339 0.10587196 -0.061435714 0.09660954 -0.021594962 -0.017965926 -0.023674006 -0.01240705 -0.10795193 0.0047748475 0.042630993 -0.005936306 -0.011815269 -0.020017916 -0.095633842 0.052302398 0.016624216 -0.01036032 -0.022164842 0.097778216 0.0063755144 -0.03073304 0.06327273 0.00928092 0.0044262218 0.024487861 -0.1105423 0.054155469 0.035350651 -0.013281382 0.056588855 0.014176493 -0.004805807 0.083490066 -0.05589145 -0.079700567 0.067333929 -0.042448346 0.064500704 -0.040993623 -0.019924227 -0.028066237 0.077217653 -0.022766093 0.080373242 -0.092652276 -0.035724495 0.064391941 -0.01994364 0.094799921 -0.08991506 -0.066747926 0.033157647 0.021468801 0.081096724 -0.0067674145 -0.11107431 -0.053172667 0.043617219 -0.09894371 0.03517494 -0.0052764304 0.028007729 -0.07878457 -0.057714291 0.013092201 -0.088849396 -0.04462095 0.017973222 -0.038566068 0.12387243 0.016085131 -0.045685403 0.023118608 0.11514715 -0.020202676 0.04945717 0.017782291 0.0034213858 0.023841931 -0.06265223 -0.0027798442 -0.0024777271 0.023182999 0.014942323 0.043698747 -0.07101275 0.032687388 -0.04097848 0.023995725 -0.07861238 -0.064673223 0.026902463 -0.03755438 -0.058073375 0.048062783 -0.028305467 0.08063814 0.0776833 0.045445058 -0.11250845 0.11004303 -0.00066006667 0.059380434 -0.063807704 -0.042918582 0.033135708 -0.095665917 0.098339975 0.090555675 -0.040359501 0.0099631855 -0.042440176 0.076420881 0.049233384 -0.020936366 -0.037852511 -0.04274888 -0.016463298 -0.031500366 0.072813779 -0.065197416 -0.038454607 0.020176876 -0.057038099 -0.082782432 -0.044914719 0.037837062 0.042910609 0.053821355 -0.14436501 -0.030957634 -0.04317778 -0.087798268 -0.029108113 0.07308162 0.023621026 0.0042980416 -0.085371926 0.011465473 0.017803559 0.0080455663 0.0643197 0.060312424 0.089344554 -0.10481722 -0.031332485 -0.033417609 -0.12171259 -0.07200215 0.034442611 0.055417471 0.010749138 0.045266695 0.054146823 0.037384495 0.07944683 -0.081807971 -0.11243517 0.033913739 0.013408204 -0.10352462 -0.089164466 -0.074304782 -0.0026697852 -0.084657967 -0.03302978 0.094699889 0.10596289 0.059917998 -0.019121787 0.042061206 0.014151989 0.095239133 -0.056965269 -0.014426476 0.0941201 -0.11322513 0.096850798 0.049213648 0.066023529 -0.03670029 0.03454319 -0.092887118 0.033402305 -0.077620998 -0.03186208 -0.10023156 0.094008245 -0.026878789 0.11208589 0.025457693 -0.080977961 -0.094155505 0.013971446 -0.08374539 0.067357495 0.11917305 -0.071602181 -0.012727895 -0.038704917 0.023333587 0.022341471 0.091850385 -0.066702016 -0.015645914 0.027643194 0.055341836 0.10961158 -0.024943445 -0.093735978 0.018036403 -0.056517135 0.0014244736 0.059652604 -0.087650605 -0.025996493 -0.055375241 0.074512206 -0.10410535 -0.077102654 -0.050473716 0.043447312 -0.074169174 0.048704132 0.091440372 0.095799781 -0.052065864 0.010949745 0.051979832 0.059656143 -0.021389041 -0.00085885619 -0.015324485 0.041265126 -0.064211115 -0.052506231 0.074029729 0.049778502 -0.092804439 -0.023543607 -0.087018013 -0.10913301 0.071426548 0.075657159 0.063843705 -0.010575538 -0.032810047 0.022503234 0.033530053 -0.079082966 0.055768691 0.060084973 0.0064466661 0.020175753 -0.042461686 -0.10798074 0.068868712 -0.036070429 -0.046661124 -0.077098027 0.080936924 -0.088720873 -0.084300116 0.033276618 -0.040019009 -0.058106977 -0.071079664 -0.0042193588 0.008819662 0.017452426 0.038178317 -0.019754425 0.08536505 0.012901011 -0.074064553 -0.012170566 -0.027374161 -0.062040757 0.0018736897 0.13468474 0.054105181 -0.0072317193 0.089879826 -0.07743293 0.10864172 0.033964124 -0.03306675 0.010879327 -0.07244119 -0.11316429 -0.095029891 0.028162727 -0.0056093913 -0.037152316 0.025703389 -0.019097026 -0.085137628 0.097824395 -0.038558558 0.048038982 0.020921204 0.053394191 0.078634888 -0.011279456 -0.0063634077 0.021121541 0.038617499 0.1111666 -0.00095405232 0.040204022 0.029884439 -0.064833321 0.092608295 0.070193745 -0.064384177 -0.037195429 0.019167811 0.075781092 -0.066707976 -0.11131167 0.034491144 0.034660876 0.0084691867 -0.070302643 0.082992323 -0.12065028 -0.018872606 -0.018322732 0.072902121 -0.079128034 0.026438972 0.086845435 0.017291458 -0.032769345 -0.086323567 -0.04166789 -0.032043323 -0.058359407 0.082562983 0.0026290603 0.035298102 -0.068060994 0.014335781 0.027066769 0.083624996 0.068648294 -0.040117931 -0.11951891 0.068969943 -0.010679352 0.10231695 0.076192304 -0.054841664 -0.094872706 -0.049710218 0.066990077 -0.12193889 0.01913332 0.067805588 -0.1056159 0.07073348 -0.090848312 0.1013836 -0.099296227 0.06426926 -0.034574151 -0.051754747 0.00065518549 0.083166733 0.119771 0.040184285 0.023906698 -0.02067001 -0.062085595 -0.014649509 -0.033533681 0.054210469 -0.10786938 -0.050754644 -0.034821041 0.052991718 -0.022787433 0.054631673 -0.033799835 -0.011948934 -0.095108353 -0.062152363 0.097668126 -0.082486525 0.086761236 -0.010413338 0.02361278 -0.011742381 -0.061575871 0.076775298 0.027865928 0.009383765 -0.083824798 -0.10451487 0.044921611 0.099713378 -0.013452358 -0.0078601027 0.070063025 0.0058685662 0.026692191 0.11514129 0.079412512 0.105239 0.011343728 0.084284872 0.092280015 0.1157131 -0.081375584 -0.056660797 0.042792995 -0.046138749 -0.040012561 -0.0051849908 -0.023864016 -0.0076904809 -0.015801366 0.071558811 0.10919197 -0.054100204 -0.095408492 0.037095878 0.066970482 0.017068513 -0.014781442 -0.11390093 0.011413593 -0.10772935 -0.015100395 -0.088686436 0.042566437 0.043552186 -0.084277019 0.11295656 0.02737912 0.017605672 -0.10444811 0.047837809 -0.075783387 0.04233763 0.056929972 0.076668039 0.092448577 -0.017238747 -0.081372343 0.037508182 -0.048863556 0.0085674403 0.0063979318 0.034295395 -0.015147736 0.010052516 -0.02018466 -0.059750702 -0.08015836 0.09849976 0.0074970722 0.049935572 0.020796293 0.029606998 0.0096947588 0.022367453 -0.099781655 -0.014098353 -0.044412259 0.032279033 -0.036587298 0.02539698 0.070714034 -0.022874346 0.0517428 0.003317304 0.023800489 -0.019608464 0.067396708 -0.10190504 -0.0050707618 0.089312188 0.082769461 0.031667959 -0.049413361 0.058452178 0.0027444735 -0.087292314 -0.062532298 0.021659879 -0.042327788 -0.011215695 -0.021833075 0.062272221 0.0842418 0.035791554 0.11390146 -0.052630313 -0.079250067 -0.057269733 -0.007234063 0.019497113 0.080339223 -0.076140977 -0.035449553 0.052133553 0.084152505 0.093269646 -0.059925362 0.01379394 0.078317799 -0.033138145 0.0096286237 -0.069481514 0.088142663 0.039549112 -0.10950474 -0.028869396 0.067824386 -0.069733053 -0.064411499 0.041314967 0.078561984 -0.0046709962 0.0056872373 -0.066729464 -0.093232565 0.00098758028 -0.039354894 -0.048198916 0.040963221 -0.084490336 0.078421623 0.085482202 0.055917416 0.047155347 0.086594082 -0.037810475 -0.099529564 -0.02520778 -0.071962297 -0.021554604 0.081407867 0.081502683 -0.048019379 -0.08073961 -0.055341709 0.018760398 -0.082467496 -0.019575769 0.061066177 -0.052284312 0.028869672 0.076108687 0.10786469 -0.090157755 -0.029638987 0.087146305 -0.073236436 0.010781485 -0.061351504 0.073063813 0.076270126 -0.11036421 -0.062239908 0.10933392 -0.0970558 0.061919756 0.063192002 0.096612215 -0.047530137 -0.080450803 -0.059829626 0.091751255 -0.011115011 -0.07672821 -0.010804119 0.080894314 -0.0020772445 -0.088735029 -0.017970761 0.0073700598 0.033230271 -0.031345326 -0.0090976814 0.087556131 -0.031117991 -0.031373058 0.033218805 -0.0039893594 -0.032688834 0.017469393 0.024030458 0.016117062 -0.089750521 0.090194613 0.08038681 0.088972375 0.019970756 0.060709324 0.089645557 0.10466605 0.022486763 -0.088046879 0.094504215 -0.064122774 -0.074511968 -0.099705935 0.054654315 -0.083936669 0.053947166 0.018724652 0.084759049 -0.01527692 -0.080672279 -0.096858732 0.045909885 0.01627326 0.01175273 0.015350238 -0.07076481 -0.072750531 0.11201195 -0.038355961 -0.088716365 -0.10737555 0.10726976 -0.053974189 -0.069096163 -0.092031188 0.005025492 -0.079798743 -0.08221136 -0.040892858 0.063510731 0.049604475 0.038899824 0.089778312 -0.081412993 -0.084331252 -0.034084734 0.092528462 0.10501187 -0.076667391 -0.05283105 -0.076538362 0.065830924 -0.021030152 0.027398823 -0.014412295 0.047080297 -0.0042260042 0.0320183 0.0087111956 0.033563789 -0.065646067 -0.024107667 -0.051034138 0.02257915 -0.02026297 -0.084267221 -0.02890113 -0.069917038 0.088028021 -0.081359655 -0.077925794 -0.038506497 -0.017325399 -0.022113388 0.045835126 -0.017558441 -0.0059588715 -0.0054733106 4.6403711e-05 -0.014716904 0.1155758 0.045500509 0.031603124 -0.049416114 0.085178681 0.025000522 0.014054568 -0.091919452 0.078667574 0.041367207 0.06833794 0.067072555 0.039561693 0.081146836 -0.0055970061 0.12147003 0.093857668 -0.050566006 -0.11084925 0.067885242 -0.069270805 0.013566919 0.064594835 -0.052892309 -0.091799662 -0.025286635 0.075845145 -0.041850448 -0.049148563 -0.092669584 0.010393877 0.061396483 -0.083313301 -0.071213 -0.028375125 -0.12201055 0.067382812 -0.06368804 0.014100485 -0.10567501 -0.075527236 0.1035032 -0.01922249 0.036880899 -0.048238024 0.093125716 0.0029339772 0.0020730989 0.0073682363 0.010693183 -0.076568954 0.087367885 0.063854828 0.063599721 -0.042160034 -0.089508124 -0.064997345 -0.026624769 0.034087777 -0.070632741 -0.005777366 0.027887318 0.048301727 0.016446546 -0.050444726 0.074862182 -0.064751059 -0.065549262 -0.041347083 -0.0030599367 -0.067896292 -0.00013970627 -0.069696732 -0.0075461394 0.012657607 -0.099040054 -0.10655844 0.010524618 -0.060825858 0.026282838 0.0053144018 0.042500883 0.046798296 0.061303698 0.023547605 0.028799374 -0.02570108 0.1296227 -0.058603961 -0.068270847 -0.032493807 0.053210042 0.096841879 -0.019118385 0.049488015 -0.056669999 0.00076407008 0.056116212 0.058459658 0.057863358 -0.028415618 0.092337705 0.03421928 0.028142631 -0.018787986 -0.00038481993 0.067614943 -0.02796063 0.017230703 0.074066795 -0.010434955 -0.038906761 -0.034183908 0.066635817 0.013708008 0.047327459 -0.062806986 0.069923483 -0.021499911 0.04673411 -0.048852116 -0.086889736 -0.055790741 -0.070270158 0.0034816572 0.054593947 -0.048227157 0.062142722 -0.044378791 0.035324257 0.00099477032 0.067016475 0.06609723 -0.085097238 0.004161099 0.053957015 -0.050077558 0.054989964 0.099360168 0.0057606818 0.093942806 0.067570463 0.077908486 -0.065790668 0.074594475 -0.0357848 0.099781327 -0.10994232 0.098509111 -0.043668762 -0.054035019 -0.065880097 -0.023977648 -0.027286882 0.049614999 -0.058601666 -0.085385643 -0.11212566 0.012585542 0.0085424967 -0.074405268 0.05915989 -0.058392975 0.063456394 0.01964293 -0.018217644 0.013294421 0.035935823 0.01174586 0.077373967 0.12429458 0.072598256 -0.11152754 -0.018556071 -0.013576784 0.0087369876 -0.0053099259 0.036441695 0.049231645 -0.066626757 0.024909005 -0.034908343 0.041768227 -0.08658994 -0.020045014 -0.029807713 0.0640468 -0.088223971 0.12421343 0.011997005 -0.044461217 -0.093720503 0.056399737 0.095660105 0.10329504 0.0077420101 -0.12636974 -0.047951303 -0.057364479 0.067461781 0.02230769 0.050455075 0.024253421 0.017569158 0.078251287 -0.080161408 0.049394369 -0.036572963 0.049247671 -0.0370657 -0.11125531 0.0088288998 -0.10594894 0.053987108 -0.071864516 -0.021032698 -0.039120127 -0.08871109 -0.051075872 0.0090948716 0.026754333 0.079400182 -0.070702769 -0.12662312 -0.029068874 0.077084899 -0.089890741 0.034929845 -0.083357684 -0.071460709 0.040563218 -0.077238075 -0.031527299 0.014728606 0.053074218 0.039389178 -0.075141087 -0.021284224 0.03571156 -0.076209307 -0.072059132 -0.050573178 0.054253139 0.072481342 0.072150804 0.12303893 -0.10058919 0.1301443 -0.027432537 -0.036802512 -0.067979902 -0.028066536 -0.033114649 0.04695579 -0.0051784641 -0.049249984 -0.011157848 0.0085770702 0.12206469 0.057613425 0.032144982 -0.021229114 -0.04227357 -0.10119925 -0.025589589 -0.098046318 0.060550444 0.032143034 -0.031375907 0.096618466 0.054481477 -0.064309038 -0.016493326 0.064962454 -0.084632874 0.075796969 -0.013960281 0.085235544 -0.083311982 0.11590251 -0.048087396 0.075328641 0.0530985 -0.017879128 -0.034191333 0.025551938 0.051410031 -0.039553847 -0.035196308 0.11036728 -0.0068741753 -0.11012947 0.0093705244 -0.060655117 0.12252325 0.077078864 0.019673308 -0.0027830845 0.018161567 0.072094738 -0.0086670248 -0.080654413 0.12337424 -0.086438186 -0.026048316 0.13774368 -0.078346357 0.09117572 -0.062518723 0.059358429 -0.077677324 -0.019887203 -0.025203174 -0.068206616 -0.016216774 0.073554233 -0.030917905 -0.12060189 0.062416196 -0.035783682 -0.079304367 -0.087525651 -0.094267242 -0.069638744 -0.11331392 0.076423116 -0.072353646 0.012748634 -0.0057731811 0.096694112 -0.0015583779 -0.089866377 -0.088993259 0.075466767 -0.032737769 0.064496092 -0.033078846 0.019626604 0.0023349402 -0.043243576 -0.0023247504 -0.020540647 -0.018484207 0.093084194 -0.053336907 -0.05582558 -0.098112851 0.096673377 -0.086388223 -0.05211664 -0.069818087 0.038590364 0.034170557 0.014692257 0.026314791 -0.033064432 -0.086861461 -0.038098846 0.099339291 -0.056081515 0.020100243 -0.057316132 0.1141449 -0.10286763 0.029494036 -0.11045622 -0.054825217 0.065378085 -0.077895217 0.12839116 -0.071664885 -0.061216444 0.0035915338 0.11416183 -0.035244893 0.12472486 -0.024911571 0.10683212 0.099413209 0.039385114 0.035031479 -0.051155314 0.092918061 0.061630804 -0.050290614 -0.062876955 0.087428071 0.058683567 0.10238015 -0.050247706 0.059244111 -0.089196056 0.089890048 0.041929938 -0.021148168 -0.018294074 -0.031246684 -0.078514725 0.086735003 0.030595534 0.058682151 0.039790586 0.010102722 0.036586933 0.089115806 -0.024145795 0.023623528 0.0078253131 0.044322815 0.04278446 -0.051942889 -0.0357701 -0.073344842 0.03144284 0.093897909 0.090392292 0.10341119 0.00011205107 0.028679559 0.088792339 0.024344629 -0.069359802 -0.079206333 -0.058962997 0.009579841 -0.055340052 -0.0081082433 0.053798016 0.091070801 -0.038362611 0.050279811 0.024047103 -0.053978771 0.095168687 0.082001135 -0.096279085 0.038547467 0.088065587 -0.0060305465 0.067473359 -0.045249894 0.057056759 0.051747695 0.096994691 -0.091049805 -0.045393493 0.027293723 0.085084438 0.070250317 -0.059363376 0.084831387 0.040770251 -0.084839664 0.086702906 -0.097900189 0.083032787 0.042834554 0.060091782 0.075166993 -0.080920011 -0.018249411 0.046534058 0.0239472 0.05115059 0.018969404 0.1072064 -0.074150115 0.0042573516 0.089818604 -0.026359715 -0.086862721 0.055576578 -0.070547543 -0.0096836267 -0.097934954 0.099400304 0.028164569 -0.080014333 -0.0039236005 0.070817254 -0.047860153 -0.069491327 -0.043588016 0.078839041 -0.063129835 -0.0055550546 0.017456366 0.029288821 0.051871389 -0.021741476 -0.098844416 0.0063778749 0.066641584 0.021757971 0.012377055 -0.078864343 -0.094343252 0.066957437 0.052409381 0.01734587 -0.095250949 -0.026383145 -0.052831408 0.038861919 0.014818735 -0.006226853 0.060457785 0.10432947 -0.084156863 -0.10092362 -0.0075562336 -0.033668693 0.084040351 -0.051718861 0.032937139 -0.070193551 -0.0060822568 0.04026017 -0.10699755 0.067518726 0.03345732 0.036485102 0.044099562 0.080379948 -0.09344095 0.043561988 -0.083319798 0.095269911 -0.032252222 -0.071643956 0.083237171 0.073862545 -0.026617147 -0.041402545 -0.056038942 -0.069113366 0.0093563916 -0.007828014 -0.061610356 0.083433084 0.016112495 0.047659613 0.0079425704 -0.055807356 -0.017377889 0.073671758 -0.097016945 0.017556088 0.0069960142 -0.080666333 -0.054153174 -0.0065233028 -0.057474423 -0.075430863 -0.020871583 0.085488647 0.0030507951 -0.04555646 0.068131708 0.025708728 -0.045244202 -0.0075841164 -0.076426774 0.069418103 0.026590908 -0.097252309 -0.10452785 -0.029477362 -0.026653206 0.10029167 0.066725567 0.035809081 -0.012996887 -0.023931906 -0.028362125 -0.019858811 -0.056928761 0.10135092 0.021656122 -0.0024234175 0.0011375499 -0.035405647 0.010013935 0.016098594 0.04002374 0.037000719 0.087851688 0.021270253 -0.087082349 -0.001954434 -0.033570606 0.092985265 0.078816257 -0.00076473056 0.089924619 -0.018894946 -0.0038524356 -0.094188571 0.10220973 -0.058884677 0.0029279713 -0.076678954 -0.046454143 0.092064358 0.041461132 -0.069738857 -0.033973817 -0.026385905 -0.063304178 -0.089646913 0.016431626 0.055901229 -0.023332354 -0.013632224 -0.071092814 -0.035527486 0.040074728 0.0013347622 -0.039451025 -0.089858688 0.032248333 -0.017044185 0.029022651 0.083961926 -0.023836022 0.065010145 -0.034250159 0.092660993 -0.029412363 -0.053000007 0.040515106 0.010854589 -0.036645733 -0.057303607 0.11430332 -0.013925584 0.083524078 -0.0095552178 0.041458499 -0.03356602 0.013235599 0.076796569 0.05329879 0.0720779 0.013151647 0.049323313 0.019556429 0.078814253 -0.047510594 0.063543387 -0.078271158 -0.064531662 -0.10071012 0.055727731 -0.0064852582 -0.052317549 -0.05724562 0.0024876117 0.071728677 -0.040254343 0.062585562 -0.058002707 0.049221583 -0.075498283 -0.03634822 0.084883235 -0.08633139 0.080221765 -0.075980827 0.021334991 -0.020876167 -0.009490638 -0.06728147 -0.072274998 0.073596627 0.082846589 -0.061706334 0.086907811 0.0630977 0.020464325 0.07921844 -0.10087746 0.055143375 -0.089021429 0.039220907 0.023273902 0.08526136 -0.068422005 -0.065711476 -0.03235491 -0.012072468 -0.05976788 -0.024048431 0.039155353 -0.037693813 -0.054543976 -0.067949794 -0.062207639 0.028642453 0.08678256 -0.015572525 -0.010963131 0.03937988 -0.054628097 0.084217168 0.077785909 0.060710993 -0.0042099985 0.048691615 0.077954605 -0.080745213 0.065310329 -0.053471867 0.072529249 -0.013242906 -0.069734372 0.0011062579 -0.065296978 -0.031460427 0.055155996 0.024802266 -0.053843118 -0.038125664 -0.03178231 -0.034431577 0.088191144 0.1001249 -0.047336396 -0.0056415712 -0.053125724 -0.011584648 0.019795347 0.041815277 0.021507058 0.045623176 -0.028021632 0.06826546 -0.084040508 -0.029060317 -0.023507958 -0.09295015 -0.03771916 -0.06380523 -0.012001767 0.0010956457 0.0010357026 -0.076278791 -0.036929235 -0.068005756 0.082690462 -0.016621454 0.088173203 0.061886754 -0.01318571 0.049988452 0.0070676468 0.089810535 0.096968368 0.040521357 -0.068511195 0.049640413 -0.062727377 0.10834949 -0.03659229 -0.095138378 -0.054700639 -0.028337879 0.046264153 0.0079252338 -0.10694019 -0.025126195 -0.047703054 -0.065872408 -0.067120008 -0.073450148 0.043852739 -0.061308119 0.06421221 -0.056445919 -0.028395865 0.059573296 0.0020543847 -0.097813189 -0.026630655 -0.031852528 0.08651042 -0.02377826 0.086181603 -0.064945549 -0.047725316 0.042558532 -0.092461921 -0.067236468 -0.050032783 0.032801103 0.064360909 0.067609333 0.029853081 -0.071488544 -0.046341401 -0.029325953 -0.002161345 0.013555929 0.02501238 -0.065486588 0.024415385 -0.037880395 -0.064031385 -0.037235558 -0.079415292 -0.072411135 0.012627681 0.090230376 0.045056731 -0.00066808605 0.045733318 -0.049097247 -0.010493878 0.091441654 -0.074861206 -0.066906147 0.076891676 -0.069360532 -0.062385596 0.028902585 0.060840409 -0.046982884 -0.0370708 0.065801926 -0.0097537637 0.019937905 -0.012407521 -0.088776737 0.0078370031 -0.0791118 -0.046104353 -0.10566023 -0.0010093084 0.088742755 -0.0073922649 -0.00085910107 0.01233826 0.019719277 0.085381649 0.014320553 -0.01217232 0.053342562 0.041364368 0.043561462 -0.01549583 -0.0023275446 -0.021624986 -0.065722547 0.031735059 -0.053092808 -0.096579589 -0.063791275 0.044374473 0.064945653 0.083941884 -0.040887125 0.017537922 0.1023264 -0.084355824 0.051064044 -0.02960168 0.071691729 -0.03833726 -0.046510652 0.098039046 -0.12183893 0.021041451 -0.049675435 0.05508969 -0.072038874 -0.099036388 -0.10128624 -0.10775619 0.067093395 0.054684661 -0.099927567 -0.040230077 0.056882098 -0.089338727 -0.078742415 -0.075343706 0.066860102 0.072435103 0.04256241 0.019199204 0.015878607 -0.057539836 -0.051762708 0.024890404 0.066362247 -0.091192767 0.081644818 -0.02889845 -0.082924664 -0.08111535 -0.026899962 -0.043942604 0.056885153 0.022979351 0.070175774 -0.026879033 0.018828992 0.012557727 -0.01837573 -0.066217825 0.10356738 -0.08398623 -0.034602448 0.057744242 -0.051642906 0.038463369 -0.080569915 0.059480269 -0.023239058 0.03354146 -0.06061374 0.037324175 0.022849068 0.082337894 -0.013129644 -0.028962746 -0.041983452 0.048116792 -0.039444607 0.001940557 0.032233484 -0.10214914 -0.020203559 0.0023127731 -0.0025388009 -0.075703405 -0.026304105 -0.0057110786 -0.051760223 -0.0048984974 -0.090235479 0.078578897 0.076492235 -0.02266139 0.039431315 0.016500223 -0.054584716 -0.067046888 0.10511691 0.094484217 0.035175294 -0.082107313 0.013793224 0.089854702 0.087452739 0.11269458 -0.0341058 -0.0035005533 -0.12275747 -0.10514247 -0.013537399 -0.015371899 0.080910176 0.018847493 0.055551365 0.099824302 0.041683473 0.019677222 -0.0062073702 -0.042390294 -0.035143614 -0.091538154 -0.029260917 -0.072851144 -0.0045046224 0.091156848 0.028118001 0.0065474818 0.047754522 0.0079186661 0.083160572 -0.0032730761 0.020939417 0.0015579837 0.032555465 0.078000098 0.007564594 -0.021836743 0.097812489 -0.0082018347 0.085117429 0.086207867 -0.063093305 -0.013656336 0.015825208 -0.099412851 -0.10673766 0.012139779 -0.026257945 -0.032375563 0.095950931 -0.089005165 0.062373415 -0.091608614 0.039035682 -0.040411811 -0.080819517 -0.086996041 0.040533081 -0.054803725 0.018335367 0.039912343 -0.084079385 0.0076878229 0.050180577 -0.066391751 0.0010044449 -0.084062703 -0.077411115 -0.087860882 -0.0017870676 0.044698358 0.042205568 -0.022834338 -0.059338361 -0.048018482 -0.081761196 -0.051364422 -0.088369742 0.0710724 0.075341426 -0.089643136 0.097003408 -0.051668175 0.010565198 0.024151502 0.092007108 0.095326185 -0.076861471 0.10891309 0.052702289 0.051791847 0.077013731 -0.051667873 -0.0059375032 0.027340442 0.033339031 0.08158996 0.053127192 -0.051587787 0.080681987 0.049815115 -0.089516051 -0.074381493 -0.012892873 0.10413992 -0.080099657 0.013732675 0.042202573 -0.03098825 0.022965278 -0.08366324 0.020940823 -0.075043842 0.0064236959 -0.053016558 0.11783735 -0.007790708 -0.082523204 -0.009507183 -0.087067313 0.023020342 0.015594101 -0.043387428 -0.090157479 0.058794614 0.045473989 -0.0087297475 -0.010814093 -0.066122331 -0.074558184 -0.014238258 0.038940925 -0.049896017 -0.024313135 -0.014489099 -0.085959449 -0.0055549978 -0.033790246 0.055522416 0.0063772774 -0.016231049 -0.065102495 0.016167564 -0.063285299 0.033540849 0.021647871 -0.080217876 0.056298189 -0.087843388 -0.036049902 -0.0012082255 -0.027409948 0.056623906 0.054486472 -0.1013586 0.010004898 -0.12086206 0.0046546399 -0.014306488 -0.075344265 -0.091146648 -0.054229755 0.087091833 -0.013036773 0.037764348 -0.10960465 -0.043929793 0.039265446 0.077806756 -0.11134665 0.036463771 0.024638196 -0.072404996 -0.096653916 0.022235878 -0.042008627 -0.016679404 0.056472696 0.0076293815 -0.019319661 0.03571884 -0.10479593 -0.12304688 0.017274177 -0.041438572 -0.087131143 0.048437469 0.059270222 -0.029441858 0.0093675824 -0.058068492 0.06550727 0.039198928 -0.080823556 -0.092475563 0.072354257 -0.064504728 0.080752894 -0.079378545 -0.0894465 -0.02145326 -0.088221088 -0.061943397 0.018702872 0.020873263 0.062642686 0.02513694 -0.053086337 -0.052779723 -0.12058819 0.11360979 0.073447518 -0.13345511 0.075912639 -0.10546754 0.014513182 -0.120863 0.035919409 -0.012614988 -0.12958916 0.10262965 -0.043130234 -0.012797085 0.056467917 0.0028784072 -0.027026307 -0.027334545 0.0031668376 -0.071671881 -0.0013336274 0.069501944 0.082828403 0.085049316 -0.023803364 -0.10190563 -0.030752884 -0.022224091 0.12971978 0.055470623 0.031915147 -0.018080475 0.055553719 0.10720147 -0.074516863 -0.026938491 -0.059304431 0.086464979 0.10504568 0.08745461 -0.043763455 0.025364427 -0.058559153 0.047388356 -0.014991528 0.12994589 -0.024083477 -0.1186108 -0.11457261 -0.10535186 0.064755216 0.10352165 0.085946321 0.067211673 0.042738091 -0.055643007 -0.054738548 0.06922926 0.00055776152 -0.099926136 -0.0012726819 0.015177335 0.064503498 -0.070960179 -0.1134863 0.081391223 0.060308598 0.043228254 0.013213666 -0.066089734 -0.056731977 -0.053320315 0.047274314 0.040781718 -0.097779825 0.12697446 -0.0071973172 0.046670821 -0.082126744 -0.016885825 -0.031297151 0.096884504 -0.03291744 0.023868976 -0.064772516 -0.0013783134 -0.051019631 0.078176416 0.043840326 0.07570032 -0.073056124 -0.053004883 -0.1349743 -0.014189552 0.088111825 0.015934641 0.051505446 0.078899935 -0.092726499 0.09262336 -0.028253715 -0.01720508 0.032986082 -0.046343859 0.088570029 -0.024220401 0.12895894 0.061950635 0.0015016148 -0.0077595185 0.080593772 0.080644503 -0.0058744303 -0.015172052 0.038530413 0.049068015 0.098476946 -0.083250433 0.029396903 -0.078806974 -0.083520427 0.07606218 -0.0069015445 0.10623783 -0.028807197 0.085580029 0.0098194769 0.019753903 0.031237565 -0.0730104 -0.045472633 0.011235374 -0.06458851 0.027283531 -0.047650199 -0.013052977 -0.062432561 -0.1066373 0.012739732 -0.095855735 -0.0091424175 0.011485598 0.028142309 -0.061089806 0.05700187 -0.017886085 -0.040576894 0.076919585 -0.032774784 0.033423066 -0.014209107 -0.054833435 0.011161407 0.021079876 -0.055294219 -0.044488147 -0.02438714 -0.055288948 0.012544211 0.012153816 0.032215137 0.062720373 0.078173265 0.045209151 -0.025524104 -0.10854645 -0.075385354 -0.01881179 -0.088671111 -0.054849766 -0.066986807 -0.092824519 0.018924678 0.089088403 -0.0054456289 -0.051149458 -0.052420657 0.046579327 -0.022860045 0.055330906 -0.031826325 0.063167043 0.074491479 -0.084198438 -0.088496834 -0.12145827 -0.11541744 -0.073605299 0.036926046 0.011616942 0.044192459 0.11329406 0.0016940789 -0.01883876 -0.057083901 0.097246081 0.058696415 0.011482367 -0.1238374 0.083679639 -0.08334253 -0.075513273 -0.043764569 -0.077617221 -0.047667574 0.041803524 -0.0043241805 0.042558763 0.029003175 -0.051590744 0.039996523 0.051428277 -0.0047956062 -0.028187897 0.077789672 0.11563382 -0.05720029 -0.094643749 0.010571808 -0.086563841 0.065578841 0.093155861 -0.021719042 -0.094327569 -0.016390495 0.053148031 0.05442502 -0.03775328 0.062768787 0.0044555208 -0.030702105 -0.032044705 -0.011555891 -0.13548939 0.01931745 -0.00020736469 -0.071482867 0.11875876 0.099558286 0.00095118687 0.018187117 0.087109037 0.06461478 0.064223498 -0.12790726 -0.082422629 -0.010841512 0.085069887 0.0023197311 -0.063776828 -0.062792338 -0.078824885 -0.01437847 -0.053640768 -0.0047837156 0.078519724 -0.056362707 -0.047337886 0.0063510849 -0.10566306 -0.095073082 0.019865872 0.023247331 -0.08304245 0.092628635 0.007492933 0.06961479 -0.032031551 -0.040021125 -0.09398663 0.053503618 0.082456537 -0.095962517 0.023063783 -0.060953699 0.0012970244 -0.040425949 -0.11978254 0.021881931 -0.0049850876 -0.05348945 0.0027792938 -0.020042568 -0.036952555 0.12550594 -0.077751853 -0.036085151 0.0214568 -0.011374494 -0.010970978 -0.094817512 0.095137641 0.0080859037 0.012243728 -0.01644806 -0.10675097 0.030238528 0.053615093 -0.053648651 0.10552219 0.066463254 -0.041988 0.052898701 -0.011722037 0.070425913 -0.054650571 0.071648367 -0.056209791 0.019796291 -0.04119039 -0.13394034 0.11066291 0.088335402 0.11470582 -0.02108896 -0.021283656 0.11929826 -0.063794859 0.054020222 -0.046679772 -0.021961642 0.10089429 -0.0065044696 -0.001053795 -0.0041974499 -0.0001603921 0.024587607 0.064727478 -0.018735988 0.10171968 -0.040247574 -0.083450429 -0.024260648 -0.045852419 -0.061689015 -0.0026213115 -0.043220188 -0.016656803 -0.0616179 -0.024129981 0.085599825 -0.00053500134 0.0063408618 0.030691255 -0.054020729 -0.044277638 -0.014597419 -0.078551188 -0.011335814 -0.05436407 0.057297945 -0.072175801 0.033863839 -0.07079085 -0.095358647 -0.1148067 -0.0032283869 -0.083096422 0.043975376 0.037116945 0.041051034 -0.027782084 0.04200165 -0.055269711 -0.064689621 -0.030275401 -0.042718697 0.015024387 -0.069018289 0.011465804 -0.0090496922 0.065010637 0.01266382 -0.0093721403 0.034403525 0.058915507 0.10599057 0.081956841 -0.068405993 0.023027774 -0.070113473 0.025877351 0.016683053 -0.05807345 -0.089520171 -0.041416839 0.015119256 -0.055640347 0.11281367 -0.099190608 -0.040703781 -0.012532158 0.020135531 0.064510711 -0.0077524483 0.003109256 -0.042486798 0.08227624 0.0087531703 0.10159203 0.11348974 -0.034787726 0.080448918 -0.024673127 0.097885154 0.018400455 -0.077412844 -0.072662428 -0.061839461 0.11223621 0.074597873 -0.055188999 -0.059338178 -0.091498457 -0.022259619 -0.03504429 -0.060577147 0.07949388 0.08240705 0.05585302 0.02566693 0.093145803 -0.052890122 0.068007335 -0.022406964 -0.020959528 0.077860817 0.010545679 0.098985165 0.026801771 0.020565797 -0.03904159 0.011656123 0.083481647 0.036088001 -0.087444007 -0.057366006 0.068533704 -0.10397608 0.053530682 0.01821938 -0.0058111921 0.076270744 0.055210575 -0.056041401 0.04133461 -0.023020238 -0.024743656 0.00043372571 0.076582052 0.042732898 -0.067011349 -0.039878584 -0.0079245772 0.017419856 0.054859027 0.044078637 0.095442206 0.047866732 -0.037554901 0.015256893 0.089252628 0.10179375 0.042341352 -0.063942701 0.1017623 -0.093172066 0.012224413 -0.083392352 0.061775435 0.10322946 0.047171503 0.064817429 0.035955537 -0.054607779 -0.089375101 -0.056442596 -0.0089715598 0.018713579 -0.027148744 -0.026911208 -0.071906328 0.055706628 0.032389645 0.04979286 -0.051983222 0.067013495 0.027458461 -0.10347935 0.046693068 0.10431887 0.028288331 0.08636374 0.034959253 -0.0090101976 0.030797733 -0.10312071 -0.055128329 -0.018496174 0.052071836 -0.1072993 0.095325105 -0.083964996 -0.060479503 0.0087638814 0.0054684696 0.087607965 -0.075551577 0.064557366 -0.079034492 0.037997995 0.06682802 0.008615979 -0.021572987 0.10191116 -0.044738464 -0.0057936916 0.011432417 0.023273902 0.05827 0.064161271 0.087340273 0.070574515 0.056398068 0.049450047 0.071198866 0.047261011 0.060221124 0.052109536 -0.054228794 0.087552994 0.10288057 0.0096776206 0.10787491 0.083968423 0.046100922 0.020686364 -0.081480063 -0.0051234737 0.06596227 -0.089467175 -0.085577615 -0.048519783 -0.10561901 0.052977353 -0.0065433402 0.087863013 -0.029320937 -0.037141334 0.052335091 -0.063050322 -0.10273436 0.038276911 -0.0012382937 -0.047264654 -0.00081357197 -0.091058612 -0.0043684128 0.037134774 0.03172176 -0.047178581 0.077495664 -0.052327361 -0.059078313 0.082436599 0.048527721 -0.00028076116 0.099889524 -0.041919522 -0.089913219 0.078269109 -0.05852579 0.0048263487 -0.088015184 0.026170097 -0.11273544 -0.048449423 0.09544339 -0.073007144 0.015373913 -0.023721872 0.084127493 0.071537718 -0.029565612 0.054904934 0.11012925 0.028611576 0.066514641 0.0015929086 -0.08309716 0.11106074 -0.035871975 0.090247475 0.087269947 0.066042356 -0.079859078 -0.025229679 -0.043868635 -0.043962754 0.057245705 -0.099284254 -0.10106865 -0.005657644 -0.061785463 0.014376749 0.077171281 -0.0093737561 0.12034275 0.077053204 -0.07924255 0.087893687 0.016081685 0.016298959 0.00077970652 0.020322382 0.034509115 -0.06595286 -0.077750862 -0.045658823 -0.062785991 -0.091019437 0.093715675 -0.03996259 -0.058239523 0.020193232 0.051160716 -0.073059984 -0.097128801 0.029217958 -0.0083779301 -0.061364986 -0.10054077 -0.061004337 -0.0057827695 0.0070363535 0.058799308 -0.043075286 -0.099726744 0.09631893 0.051688932 -0.014010961 -0.09917289 -0.074414454 0.064075224 0.089667954 0.022846239 -0.071904622 -0.045485329 -0.031523421 0.0022243494 -0.020867988 0.011598102 0.035092454 -0.072583057 0.078991659 -0.092612162 -0.00046098389 -0.023537429 -0.0049055954 0.025225399 -0.074953973 -0.050298963 0.0066692638 0.057843719 0.10855997 -0.051305808 0.053545482 0.056566067 -0.014507625 -0.045088846 0.041501623 0.070384264 0.046291091 -0.032123722 -0.020677228 -0.093441837 -0.069882475 -0.10701506 -0.0056473608 -0.085767053 0.050571803 -0.029778199 -0.032216929 0.062957913 0.0050447052 -0.041107643 -0.090722665 0.024607807 0.11318915 -0.017099481 -0.070108943 0.0034067535 0.016665585 0.11098348 -0.028495952 0.098583348 -0.051082723 -0.08783751 -0.033584412 0.026090018 -0.089327455 0.055308446 -0.060441904 0.033705022 -0.05512942 0.11122581 -0.059038341 0.12113699 -0.025574543 0.097037032 -0.019584905 0.066240102 0.011044954 0.044358101 -0.016399186 0.051135682 -0.02073995 0.064836547 -0.0042761127 -0.054363985 0.027632426 0.11646201 8.8657172e-05 -0.078529336 -0.033249151 0.040078256 0.0029043441 0.041346055 -0.077184789 -0.072600916 3.1660813e-05 -0.0029477109 -0.10601801 -0.0011928999 -0.057530474 0.059423454 -0.013700115 0.04635172 -0.043619897 0.09238264 -0.089506775 -0.010785609 0.10710087 -0.060769368 0.070407487 -0.0062479191 -0.097182646 -0.035566274 -0.10568091 -0.015127312 -0.086019404 -0.049604993 0.032147195 -0.035788823 0.069812961 0.076472238 -0.037648156 0.024754008 -0.0034346248 -0.083809271 -0.017513325 0.033265501 -0.043788195 -0.082622267 0.087220505 0.047463935 -0.0089404825 -0.015704308 -0.080115639 0.035085078 -0.070512183 -0.030856436 -0.061379775 -0.039365795 0.085383393 0.079097912 0.060496584 -0.0065586893 -0.11848366 -0.012746949 -0.050940417 0.0031983675 -0.013584374 -0.10188596 -0.011597093 0.02940663 -0.016259393 0.043832973 -0.062611036 -0.065331697 -0.046659306 0.035988867 -0.0099809235 -0.075990595 0.058413975 -0.062738597 0.092544034 0.044628065 -0.034072682 -0.038167834 -0.03764198 0.043354854 0.0063089835 0.006907444 -0.030193301 -0.063620783 0.10873572 -0.082811728 -0.0026922736 0.065346681 -0.076926038 0.069717817 -0.095159069 0.079762578 -0.085010394 0.023796573 -0.045782328 -0.038478494 0.014663795 -0.061546665 0.036543578 -0.10110313 -0.10734154 0.0098595973 -0.078298196 -0.048934907 -0.041133441 -0.041053656 0.083205074 0.034943298 0.085898101 -0.079409361 -0.014261767 -0.03700503 0.038079061 -0.068485513 0.10112876 -0.098265499 -0.037120737 -0.097390763 0.046685148 0.027799772 -0.047048695 0.020223567 0.047820613 -0.086706974 -0.035604764 0.050992347 0.083868355 0.033510473 0.098882541 0.067762472 0.012607212 0.029787235 0.02162466 -0.07040754 -0.023937063 -0.076810062 0.07493645 0.072041065 -0.086374097 -0.0054399488 0.078390315 -0.014080034 0.11017447 0.034266066 0.023688685 0.092797346 0.0094495593 0.079160213 -0.057216421 0.012803501 -0.0020843148 -0.089125194 0.050484274 0.09232638 0.069377966 0.029210947 0.030088035 0.086480953 -0.045318708 -0.043695632 0.066547424 -0.028428471 0.084985048 -0.076183274 -0.041644525 0.081900984 -0.0040699365 0.07777404 -0.076416053 -0.0081756618 -0.097376205 -0.053369783 -0.072342776 -0.016418634 -0.043391664 -0.051659811 -0.027990611 -0.074930795 -0.03831527 -0.0086847879 -0.081700467 -0.036095884 -0.063726634 -0.054079968 0.093987398 0.031492673 0.030002343 0.082823716 -0.046756174 -0.072562464 -0.073875859 -0.044222057 0.082587577 0.088021234 0.083979964 0.065632291 0.00070551899 0.10129766 0.059558995 0.092078358 0.084816068 0.041706502 0.11826535 0.037041131 0.073024601 0.10399749 0.082963385 0.033654019 -0.08450979 -0.040676802 0.092280887 -0.10306038 -0.027358167 0.018098628 0.056749295 0.035918403 -0.0933467 -0.0041677272 0.082541764 -0.032195475 -0.01230263 0.033987328 0.03793864 -0.03993893 0.082319535 -0.06893301 0.024055166 0.064347163 -0.012988002 0.010538704 -0.094130464 -0.056086034 -0.012727711 0.042336158 -0.087576516 0.031542245 -0.0515057 -0.096296899 -0.028613001 0.083790429 -0.059201919 -0.087291695 0.082907006 -0.041149106 0.0099929366 0.020570779 -0.033282243 0.055267654 0.0018588334 -0.044751883 0.045234624 0.090731956 0.034990415 0.013671637 0.04467985 0.05461362 -0.056385212 -0.075354934 0.047142796 -0.072448812 0.085476153 0.051294297 -0.026692519 -0.028604886 0.062735952 0.094236918 -0.077590242 0.027369888 -0.0099392598 0.045250017 0.024451571 -0.091552168 0.0070335125 0.10006873 0.10774555 -0.015428149 0.033231869 -0.068116866 -0.087425418 0.08676675 -0.019055383 0.069975518 0.037085619 -0.00013998465 -0.0036312807 -0.052182544 0.0061716195 -0.10970712 -0.0020130256 -0.065746799 0.071454801 -0.040174708 0.068719223 0.025854712 0.081332602 0.094139926 -0.025728242 -0.10361036 0.055208042 0.068800762 -0.069479652 -0.022963738 -0.024679782 0.083633564 0.0066699255 0.04514128 0.089550659 0.094304666 -0.030873239 -0.00048521149 0.034552161 -0.096185409 0.025965337 0.10761735 0.086301796 0.071074821 0.037374351 0.077240951 0.02275246 -0.079230517 0.063937262 0.088169932 -0.056709927 0.017511364 0.01066502 0.021995082 -0.033549257 0.0090912338 -0.051138908 0.06668058 -0.081524588 -0.039322015 0.033647526 -0.074442461 -0.1039092 -0.022339055 0.058091961 -0.099541076 0.027009442 0.11820007 0.068009406 0.093432173 0.0034511974 0.051024988 0.028466633 -0.039178383 0.024796296 -0.051451661 0.080160998 0.086708359 0.052671935 -0.04413642 0.079301037 -0.066509001 -0.043833569 -0.088925123 -0.006923696 -0.036539815 0.097853608 -0.09131968 -0.040829439 0.044808276 -0.077093981 -0.054040205 -0.00071554753 0.080447905 -0.071919017 0.014621094 -0.10766005 0.12425585 0.13316436 0.0068431171 0.067326978 0.12170507 -0.052795168 0.10614449 0.048656315 0.037868924 -0.10480974 0.013579243 0.053041883 0.0032160887 -0.0058835456 0.0058295764 0.015390489 0.049786404 -0.0086096451 0.066979513 -0.078156754 -0.062198129 -0.037054092 0.076368369 0.03895776 0.12663051 0.085035712 -0.0098702628 -0.030700084 0.047357522 0.011414908 -0.046509098 0.047529906 0.061054762 0.10386374 0.076786764 0.043236665 0.020933164 0.053079881 -0.049154785 0.10124984 -0.093631297 -0.098512806 -0.0076533756 -0.079436779 0.075070664 -0.0090943482 0.005772233 -0.041028749 0.020141538 0.044431441 0.0078195995 -0.042384524 0.063717932 0.050536741 -0.012452991 -0.033350602 -0.13849951 0.0064914869 0.043670576 0.048740517 0.090721622 -0.071274422 0.089315876 0.030500401 -0.00082935381 0.047533777 0.030878259 -0.030431233 -0.06506779 0.04575542 -0.10579477 0.0105437 -0.03610665 0.11822496 0.0021381828 0.092591271 0.076880023 0.045312844 0.095424302 0.067299776 0.093219198 0.045628417 0.029418387 -0.091193087 0.036558207 -0.10847649 -0.011146556 -0.0044846903 -0.0086042257 -0.065847352 0.053088684 -0.10288242 -0.0086706001 -0.013850424 -0.061192408 -0.016824961 -0.022270264 -0.066273369 0.024881933 -0.071067765 0.090673007 0.083812058 -0.061662868 0.057766259 -0.015954455 0.060195412 0.10413533 0.066113293 -0.052170023 -0.023695335 0.076202832 -0.11884177 -0.065462895 -0.067439817 -0.043206275 0.06753917 -0.027504802 0.035645612 -0.016231934 -0.068806566 0.087455094 -0.12100066 -0.038295995 -0.041000273 0.027449425 -0.063062891 0.091753222 -0.061696593 -0.032460772 0.10675218 -0.016860608 -0.047769934 -0.033837549 0.10571392 0.040691152 -0.036143932 -0.049443532 0.08174295 0.041939192 -0.07005883 -0.011948262 -0.069068454 0.077574223 0.058835234 -0.084519029 -0.035228699 -0.02521223 -0.012040372 0.02897477 0.10090862 0.0099024847 -0.095842913 -0.06627465 -0.015402319 -0.031311404 0.010276939 0.070348732 -0.1151901 -0.079345584 0.044551212 -0.059240907 -0.01294912 0.029825229 -0.12810579 0.0054479954 0.0054458263 -0.063589096 -0.028452164 -0.0726614 0.11632776 -0.026426112 0.10814118 -0.030737173 0.013809888 0.042030722 0.088802546 0.055032954 -0.067629434 -0.016451349 0.024590803 -0.013772342 0.10996592 -0.06636063 -0.083992705 0.025098078 0.068260364 -0.078689404 0.10161996 -0.020393282 0.028950308 0.089785174 -0.019327015 0.094621293 0.04403536 0.061672982 -0.04174963 -0.081471369 0.086972252 0.027524119 0.075193517 0.05309147 -0.069142096 -0.035124678 0.10218636 0.032091625 0.078595161 -0.02082265 -0.066371121 -0.085946821 -0.056953594 0.0041002724 -0.023303451 -0.02257327 -0.016267687 -0.075662516 0.074785739 0.042777013 0.044927899 0.077872053 -0.024621125 0.026391249 0.048214637 -0.041568004 0.075144961 0.038494032 0.0288896 0.11383352 -0.06716948 -0.11083761 -0.089075178 -0.0015990767 -0.0089009022 0.056651793 -0.098769233 -0.051804051 0.0073729055 0.0042597051 0.099064998 0.049383551 0.051867425 -0.057256371 0.054644875 -0.0131046 -0.012901854 0.0031515865 -0.11335311 -0.026957605 0.00068504945 0.023304308 0.11132444 0.11767752 -0.052450579 0.0045393556 0.041296441 -0.023406133 -0.0097614666 0.023741286 0.086623959 0.00039665418 0.04094765 0.024142431 -0.021585763 -0.085787259 -0.07393983 -0.034153946 -0.038036097 -0.13022316 -0.048257176 0.010046563 -0.0015191735 0.022505037 -0.039666671 -0.090213999 -0.11962676 -0.052760173 -0.055754315 0.06969554 -0.076640263 0.074148104 -0.11269734 0.057727955 0.045913279 -0.048239812 0.060237456 0.059740443 -0.0080887098 0.082192697 0.047716402 0.012026895 -0.11035876 0.1018863 0.0098005002 0.028084915 -0.065828212 -0.04351721 -0.083526768 0.025181901 0.075106651 -0.079691917 0.057460047 0.073217437 0.045853693 -0.026912658 0.038367603 -0.077857643 -0.043989144 -0.041579161 -0.057127636 -0.065731548 0.069977395 -0.071724012 -0.073440351 -0.052191701 0.025773143 -0.024942225 0.086830989 0.06166843 0.032075476 -0.10364909 0.027224032 -0.019098278 0.050771378 -0.015239297 -0.01303456 0.019509859 -0.0088007143 -0.0089679621 -0.010393519 0.092546172 0.053020295 -0.047297511 -0.061483834 0.0041014529 0.14070693 -0.017670128 0.040075477 0.043216866 0.054132406 0.0044139745 -0.058793716 -0.087114967 -0.055531744 0.043757141 0.11061379 -0.10508354 0.10565539 -0.014339 -0.050031282 0.078608587 0.087823994 -0.024856498 -0.078111343 -0.025342254 -0.006657795 -0.047212407 0.070689604 0.018325143 0.081987366 0.086923473 -0.0112329 -0.085309424 -0.026306476 -0.044238169 0.020660343 -0.028501282 0.10656631 0.074846298 -0.010970319 -0.020884536 0.0012042669 -0.057712331 0.073302709 0.014136748 0.070487536 0.066792436 -0.03051585 0.020286433 -0.0036651301 0.09517163 -0.094120607 0.070782259 0.087698422 0.096600406 0.039787792 0.0071631353 -0.10108407 -0.099963918 0.038314845 -0.038238414 0.049302265 -0.075594038 -0.089383751 0.048162919 0.01153074 0.10599027 -0.053703789 0.069319502 -0.025227318 0.02536287 0.022534421 -0.010584969 0.10798541 -0.12035476 -0.018138699 -0.045913607 -0.089008756 0.0047081173 0.058362976 -0.076176949 -0.089803077 -0.1252237 -0.0026965635 0.050184108 -0.017584059 0.060316123 0.014606053 0.08875519 -0.010106015 -0.0014296906 -0.080356181 0.077109136 0.044569429 -0.13307856 -0.083070338 0.029525097 -0.096867666 -0.063658588 0.073765881 -0.095369734 0.11949916 0.082583286 0.0444046 -0.050084218 -0.079589881 -0.076037087 0.075766101 0.11824593 0.053281717 -0.070751116 -0.11758108 -0.067135058 0.060260165 -0.020433683 0.071031272 -0.052356835 0.001098258 -0.056216564 0.083923288 0.021230608 -0.0445619 0.092859946 -0.088147625 -0.077860408 0.04893684 -0.051044364 0.028499812 0.0089087524 -0.029073428 0.049201969 0.083454952 0.10667943 -0.013333964 0.11065473 -0.025474964 -0.037579928 0.068651408 0.091248125 -0.003107683 0.048001233 0.055224631 0.00076733064 0.049060836 0.023321286 -0.06333714 0.035850476 -0.015836164 -0.059842955 -0.011445927 -0.095623858 -0.010131408 0.05968716 0.086498775 0.079881512 -0.010785176 0.027288025 0.1052263 0.091299497 0.019527178 0.05324845 0.0092675081 -0.099366046 0.090309493 0.03250324 -0.049526665 -0.012622946 -0.10831772 0.059832692 -0.09295059 0.11401936 -0.059976533 0.05703555 0.085010126 0.035579532 0.0077944179 0.032376625 0.067976974 -0.0074902992 0.14078405 -0.06215331 -0.083116606 0.082164899 -0.089085639 -0.017915089 0.068430677 -0.062094215 0.11035305 -0.104972 0.08570642 -0.00636162 -0.018952472 0.0054670046 -0.087828457 0.08259102 0.015637111 0.0036440897 -0.076612808 0.11506209 -0.04880099 -0.022601563 -0.049585249 0.080564983 -0.047435626 0.056191102 -0.11841626 0.023027055 0.048755821 -0.01206763 -0.053239614 0.012400893 0.040025752 0.060949191 -0.015818765 0.023573974 0.094177723 -0.0029156725 0.11455064 -0.077581644 0.012670685 -0.046771385 -0.095335744 0.079305224 -0.074577659 -0.056055181 0.028975395 -0.0047800057 -0.10126204 -0.010977593 -0.047667567 0.090718359 -0.059222538 0.014554031 0.097573936 0.08324524 0.041581865 -0.057813745 -0.039929088 -0.037123829 0.081386223 0.069391496 -0.102766 -0.0081756087 -0.090050578 -0.057238661 0.020834839 -0.003663643 -0.001076329 0.019223457 0.11578061 -0.12973818 0.12076874 -0.063394032 -0.031216606 -0.065656357 0.034505229 -0.021869756 0.024317395 -0.092649482 0.071431175 -0.051061563 0.038321439 0.053553279 -0.029784527 -0.013977791 0.015961116 0.033647958 -0.032647211 0.063398838 -0.0027755252 -0.094531558 0.05425293 0.022376629 0.026323199 -0.046827666 -0.029766859 -0.058254387 0.039115999 0.10550158 -0.075595692 -0.083555669 -0.024115691 -0.0015922169 -0.1020494 -0.011780683 -0.041175976 -0.074090131 0.066405036 0.059936024 -0.10231393 -0.12987904 0.11484937 -0.065127447 -0.043965612 0.08696416 0.039567005 -0.02936154 0.0019529625 -0.049267393 -0.072728932 0.060355026 -0.11862246 -0.061739068 -0.082732208 0.055441435 -0.0030704681 0.050945755 -0.095217086 0.022266664 -0.03238773 -0.019880045 0.037162032 -0.042438094 -0.0051628877 -0.024445292 0.043146256 0.029734101 -0.014543431 0.10285047 -0.040701229 -0.015409252 -0.0085215438 0.039989613 0.048890453 0.10524331 0.046172626 0.01446027 0.046850294 0.087461837 -0.1029323 -0.0079857027 -0.12530299 -0.044838872 0.053760014 0.082150929 -0.036046822 0.097213075 -0.052508093 -0.013775122 0.045121975 -0.0068404432 -0.0050372458 0.0036133949 -0.047423061 0.056763921 -0.11523292 -0.037675373 0.0035297477 -0.03006845 -0.074260168 -0.010484391 0.092778608 0.012617424 0.021574445 -0.028839711 -0.013544366 0.080301866 0.03726092 -0.050606813 0.034830302 -0.043861099 0.13734145 0.099664442 -0.1194965 0.049005054 -0.017520905 -0.071128212 0.012283175 0.070845596 0.10416929 -0.015000632 0.11264978 -0.036129739 -0.11082248 -0.036785491 0.1033757 -0.049750123 -0.073271446 -0.042137709 0.041052658 -0.049072877 0.0073663332 0.017188139 -0.040890258 -0.0012825155 -0.0025474273 0.094050072 0.040277164 -0.11447671 -0.089590356 0.064835399 0.05118813 0.08571849 -0.095151715 0.044007689 0.04827993 -0.072710998 -0.014279906 0.023040285 0.088875838 -0.021784015 -0.018246446 -0.10373577 0.056112096 0.037286684 0.036837988 0.049236953 -0.081202187 0.057354372 -0.017418724 0.035145052 0.015526165 -0.0060881469 -0.038810156 -0.059406999 -0.033240698 -0.042829219 0.0878888 -0.080523722 -0.052639179 -0.02193236 -0.012272406 0.04474251 0.05025002 0.07047645 0.012694627 -0.033760138 -0.086459063 0.07898666 -0.035091475 -0.020433431 -0.0012717216 0.061617952 0.045275029 -0.081771933 -0.0099761281 0.038312111 0.085711822 0.067807995 0.079737626 0.062647268 -0.020141827 0.018520217 -0.0050692814 -0.049431361 0.052338965 0.058999941 0.021319866 0.06097101 -0.011696083 0.065954089 0.09216471 -0.069241397 -0.015301743 0.07785362 -0.00071537698 0.10496467 0.082685769 0.06538137 0.071265541 -0.07672216 -0.09705279 0.055516079 0.015354034 -0.032991882 0.037516903 0.021389222 0.036392447 0.073283158 0.024441581 0.091124669 0.044180695 0.065669395 -0.07199458 0.032178834 -0.095332116 -0.033660434 0.05153216 0.016055686 -0.10357344 -0.075744428 -0.065447249 -0.01158628 -0.048113912 0.053999476 0.060596049 -0.050273437 -0.055218272 -0.027826777 -0.074577682 0.010694668 -0.014105738 0.093074441 0.085245892 -0.055399552 0.10311995 0.055962667 -0.0092066936 -0.069835365 0.094346523 -0.083148994 -0.0012884843 0.097638495 0.0061128256 -0.027066732 -0.065728344 -0.037163667 0.020379962 0.1024029 -0.095570974 -0.079618908 -0.0035047645 0.043108206 0.099006809 0.018823516 -0.074229047 -0.018913254 0.067377381 -0.04347308 -0.078307927 -0.077244557 -0.10081515 -0.038657654 -0.083376922 -0.051553197 -0.071161419 -0.037612885 0.043670878 -0.0084207933 -0.085543945 -0.058992416 -0.05832722 -0.034671325 0.084749505 0.10414619 -0.051080581 -0.0016736489 -0.0087763583 0.01765481 0.086957872 0.043961614 -0.016369907 -0.033341631 -0.087524608 0.10093846 -0.090183124 0.10676229 -0.0041462346 0.082030244 0.10404119 0.026056375 -0.080173761 0.095003299 -0.085388757 0.049485579 0.056650709 0.032864783 0.044689879 -0.11701095 -0.08521907 0.029057741 0.02921663 -0.09656734 -0.047692269 -0.0018414826 -0.064526938 0.050588906 -0.020957584 -0.02791794 -0.091963075 0.083504528 -0.084255919 0.096338853 0.0062165209 -0.10973665 -0.0078638773 -0.074087918 0.069025934 0.070452914 0.039859027 -0.098095529 -0.0094836401 0.062261283 0.10098404 0.042421564 -0.041701611 0.043843493 0.11492853 -0.055316392 -0.041125026 0.057273783 -0.014123093 -0.020465406 0.084230796 -0.031092497 0.049719036 -0.062274106 -0.046450239 -0.024604864 0.0160971 0.10904725 0.0093346937 -0.077348806 -0.015136088 0.0076340134 0.057334375 -0.011522506 0.021280924 -0.072676778 0.071519673 0.075189143 -0.07230062 0.1052662 -0.10659891 -0.053150553 0.082330696 -0.073380552 0.062036037 0.031542655 0.052221317 0.082181163 -0.026060494 -0.067043729 0.023866074 0.081430987 -0.10927289 0.050210137 -0.042166404 -0.065249912 -0.092648283 0.019619931 -0.10255004 0.054008644 -0.017244568 0.054559741 -0.040695548 -0.057917774 -0.00072843215 -0.024069933 0.077844329 -0.065203786 0.045270666 -0.027934076 0.0093199778 -0.0108053 -0.026181107 -0.034974925 -0.0034176379 -0.079859868 0.094730183 0.027015466 -0.089985207 -0.086552307 0.044377394 0.068505079 -0.0065937168 -0.012729469 0.037468977 -0.0078691673 -0.067993104 -0.11295236 0.10352716 -0.051067498 0.098673657 0.0019496122 -0.047064893 0.052615654 -0.10446065 -0.054658476 0.072446935 -0.066708043 -0.018044211 -0.022549758 -0.066470042 -0.0091371955 0.030558355 0.047591213 0.014661473 -0.00049400114 -0.063199505 -0.047625236 0.095977962 0.029159509 -0.027291358 -0.036399562 0.052740235 0.077561848 -0.028794309 -0.090499036 -0.10302 -0.020662505 -0.10133782 -0.0026130797 -0.075076893 0.008479083 -0.091624916 -0.019765997 0.094532147 0.064835094 -0.055186152 0.045603573 0.0066740359 0.076350458 -0.066857822 -0.057801463 0.094838925 0.086907223 -0.056354031 0.071898699 -0.041815992 -0.069597937 0.025695758 -0.07680504 -0.067907616 0.088913269 -0.029922739 0.021041367 0.093040496 0.094782218 0.099955887 -0.098456785 -0.034498293 -0.099346206 -0.039046757 0.0011908123 0.084534988 0.079076603 -0.011055463 0.058407009 -0.06409771 0.09827286 0.0094967997 -0.090995625 -0.008197763 -0.061529119 -0.089510351 0.10416269 -0.0092968177 -0.046466593 0.070743367 -0.043837905 -0.070973888 -0.090659663 -0.040179495 0.033305526 0.11268725 -0.031047156 0.086172141 -0.048611488 -0.050230913 0.073853582 -0.053821053 -0.10749103 0.042178344 -0.074238107 0.04751429 0.061892331 -0.030555626 0.044914182 0.016397025 -0.04323459 -0.014942271 0.048161507 0.00523751 0.025986396 0.052057128 0.010001666 -0.043907553 -0.050309967 -0.070605963 0.022596197 0.0080664679 -0.081332117 0.046158276 -0.020937547 -0.092859916 -0.032521397 0.058288727 0.0037501124 0.10663241 -0.12484251 -0.089203462 0.013181022 -0.08590477 -0.075868338 -0.0045743817 -0.059799131 -0.091449976 0.09265554 0.085140944 -0.058993056 0.071500495 0.069933735 0.035946749 0.026402976 -0.050789848 -0.011367511 -0.0064284019 0.073058337 0.062675692 0.00088568649 -0.079123482 -0.079804562 0.044545211 0.082187198 0.043105219 -0.067094766 0.0032136005 -0.0090707829 -0.050075091 -0.051730596 -0.05392722 0.051791914 0.0079563074 0.011791253 0.026530886 -0.069905624 -0.082284831 -0.023168074 -0.012859166 -0.03806787 -0.082996577 0.069036275 -0.04821017 -0.07503242 0.097983986 -0.11441068 -0.050626058 0.019018538 -0.0066746189 -0.018806472 0.059771035 -0.046870086 -0.020693859 0.017051779 -0.051685076 -0.052020039 0.029009644 0.11255883 -0.055201899 0.10818052 -0.032910384 0.013139039 0.089048736 0.095826462 -0.081180915 0.10188727 0.015350714 -0.035120174 0.00038950588 -0.0027022958 -0.016299328 0.077821821 0.098091289 0.025796395 -0.048618831 0.065657288 -0.06393493 0.082551852 -0.0029003171 0.00068004319 -0.094272994 0.0014733578 0.030468397 0.051463712 0.085852146 -0.0030994462 -0.011408214 -0.013972601 -0.026909484 0.088014953 -0.047622804 -0.12566881 -0.038304299 -0.057393983 0.063826717 0.012840383 0.097853325 0.06824933 0.09252926 -0.06399823 0.040679097 -0.096762806 -0.071646765 -0.097173095 -0.085153714 -0.033097014 -0.027612615 -0.010268432 0.064707883 -0.018606583 -0.044391543 0.080792442 -0.02386027 0.075483903 0.041924946 0.074115798 0.10637562 0.030874813 -0.024084259 -0.052981805 0.075480014 0.048107784 0.037806269 -0.016404435 -0.020943314 -0.094605602 0.044756148 -0.073560543 0.080583051 -0.045648098 -0.039503012 0.061206896 -0.083338074 0.074143268 0.071175203 -0.057725985 -0.031081766 -0.048890539 0.093834206 -0.016296461 -0.053563591 0.045813795 -0.0959865 0.032726105 -0.034852859 -0.0077600637 -0.084543377 0.0124087 -0.052978046 -0.02868114 -0.080092967 0.11453336 0.01018401 -0.075745441 0.07571771 -0.059459124 0.08550328 0.07265044 0.093392551 -0.066857897 0.029512336 -0.051720664 0.043580394 -0.0015410652 0.021061487 0.055735923 0.054163236 -0.041865196 -0.0015021528 0.020730618 -0.062389337 0.056723148 -0.071199827 -0.089569315 0.022759981 0.00653488 -0.1376847 0.071148559 0.11919316 -0.018359821 0.098186783 0.098884918 0.07372541 -0.0035555949 0.035922751 -0.0025247135 0.011673447 -0.03535134 0.0064147902 -0.055714391 0.063817218 0.021940403 0.0022105875 -0.095451981 0.11122455 0.06198981 0.008941046 0.061555136 0.026438018 0.080804303 0.018211264 0.040064126 0.10318796 -0.0060886797 0.016633712 0.014538466 -0.095341824 -0.0065377494 -0.010716791 -0.024416197 -0.048087999 0.0903221 0.038186103 -0.0076358351 0.056252953 0.058380734 0.027011553 0.075746395 0.086463332 0.0896644 0.074424885 -0.082225136 0.09067069 -0.089890704 0.070144631 0.026488256 0.0073406589 0.027308905 0.048871279 -0.0056454679 -0.019647384 0.03355642 -0.12288977 -0.020889414 0.032805998 0.095418416 -0.032629069 -0.099741139 -0.038119435 -0.10445566 0.10827839 0.085457988 0.075582266 0.048838414 0.082689449 -0.074647143 -0.041356497 0.057830103 0.022693884 0.12846242 -0.016006816 0.069579028 0.028250977 -0.068141699 0.096957311 0.023381552 0.1137521 0.11344331 -0.031161645 -0.067704126 